{"learner":{"attributes":{"best_iteration":"6","best_score":"0.6072745115679741","scikit_learn":"{\"_estimator_type\": \"regressor\"}"},"feature_names":[],"feature_types":[],"gradient_booster":{"model":{"cats":{"enc":[],"feature_segments":[],"sorted_idx":[]},"gbtree_model_param":{"num_parallel_tree":"1","num_trees":"32"},"iteration_indptr":[0,1,2,3,4,5,6,7,8,9,10,11,12,13,14,15,16,17,18,19,20,21,22,23,24,25,26,27,28,29,30,31,32],"tree_info":[0,0,0,0,0,0,0,0,0,0,0,0,0,0,0,0,0,0,0,0,0,0,0,0,0,0,0,0,0,0,0,0],"trees":[{"base_weights":[-4.057915E-3,1.6671574E-1,-5.9059594E-2,3.8131183E-1,1.0135623E-1,-8.026733E-2,3.6110103E-1,7.9683565E-2,2.1488859E-1,-9.779625E-2,1.9240646E-1,2.7592642E-2,-8.998842E-2,7.210451E-2,2.0493242E-1,1.5110913E-2,-1.1885232E-2,3.7475822E-3,-1.0945133E-2,8.078145E-3,4.2549502E-2,7.5528596E-4,-7.1470025E-3,2.1812614E-2,-2.7735454E-3],"categories":[],"categories_nodes":[],"categories_segments":[],"categories_sizes":[],"default_left":[0,0,0,0,0,0,0,0,0,0,0,0,0,0,0,0,0,0,0,0,0,0,0,0,0],"id":0,"left_children":[1,3,5,7,9,11,13,-1,15,17,19,-1,21,-1,23,-1,-1,-1,-1,-1,-1,-1,-1,-1,-1],"loss_changes":[8.482185E0,3.0470486E0,6.1149645E0,9.947542E0,3.1014063E0,4.049985E0,5.2754164E0,0E0,1.8899803E0,1.1461344E0,2.239142E0,0E0,3.5748286E0,0E0,1.8312929E0,0E0,0E0,0E0,0E0,0E0,0E0,0E0,0E0,0E0,0E0],"parents":[2147483647,0,0,1,1,2,2,3,3,4,4,5,5,6,6,8,8,9,9,10,10,12,12,14,14],"right_children":[2,4,6,8,10,12,14,-1,16,18,20,-1,22,-1,24,-1,-1,-1,-1,-1,-1,-1,-1,-1,-1],"split_conditions":[2E0,7.835E1,4.6E0,-6.644835E-1,8.45E1,-3.65E0,-5.1E0,7.9683565E-2,3.8E0,-1E-1,3.5344467E-1,2.7592642E-2,-4E-1,7.210451E-2,7E-1,1.5110913E-2,-1.1885232E-2,3.7475822E-3,-1.0945133E-2,8.078145E-3,4.2549502E-2,7.5528596E-4,-7.1470025E-3,2.1812614E-2,-2.7735454E-3],"split_indices":[2,0,1,3,5,6,7,0,7,7,3,0,7,0,6,0,0,0,0,0,0,0,0,0,0],"split_type":[0,0,0,0,0,0,0,0,0,0,0,0,0,0,0,0,0,0,0,0,0,0,0,0,0],"sum_hessian":[9.01E2,2.19E2,6.82E2,5E1,1.69E2,6.5E2,3.2E1,5E0,4.5E1,5.3E1,1.16E2,9E0,6.41E2,3E0,2.9E1,3.8E1,7E0,2.2E1,3.1E1,1.12E2,4E0,2.15E2,4.26E2,1.5E1,1.4E1],"tree_param":{"num_deleted":"0","num_feature":"8","num_nodes":"25","size_leaf_vector":"1"}},{"base_weights":[-1.1263255E-2,1.6818197E-1,-6.717798E-2,2.9673517E-1,9.769811E-2,-8.970602E-2,4.1679835E-1,1.9577709E-1,6.11168E-1,-1.2320518E-1,2.025299E-1,3.0377072E-1,-1.0948695E-1,2.4872763E-1,7.4454695E-2,6.717083E-3,4.1620567E-2,-5.9153535E-3,3.824751E-2,1.1580697E-2,-1.6008126E-2,5.381079E-3,2.1458896E-2,4.0352275E-3,5.4445323E-2,4.9093543E-3,-7.053139E-3,2.984581E-2,1.1063766E-3],"categories":[],"categories_nodes":[],"categories_segments":[],"categories_sizes":[],"default_left":[0,0,0,0,0,0,0,0,0,0,0,0,0,0,0,0,0,0,0,0,0,0,0,0,0,0,0,0,0],"id":1,"left_children":[1,3,5,7,9,11,13,15,17,19,21,23,25,27,-1,-1,-1,-1,-1,-1,-1,-1,-1,-1,-1,-1,-1,-1,-1],"loss_changes":[9.121835E0,1.9281697E0,7.5931945E0,2.2929325E0,3.2901864E0,5.193611E0,5.2164874E0,2.1957748E0,2.109744E0,3.2888288E0,2.0188468E0,5.5165114E0,4.158178E0,2.1959796E0,0E0,0E0,0E0,0E0,0E0,0E0,0E0,0E0,0E0,0E0,0E0,0E0,0E0,0E0,0E0],"parents":[2147483647,0,0,1,1,2,2,3,3,4,4,5,5,6,6,7,7,8,8,9,9,10,10,11,11,12,12,13,13],"right_children":[2,4,6,8,10,12,14,16,18,20,22,24,26,28,-1,-1,-1,-1,-1,-1,-1,-1,-1,-1,-1,-1,-1,-1,-1],"split_conditions":[2E0,-8E-1,4.6E0,-1.4E0,7E-1,-2.55E0,8.217133E-1,9.8215E-1,-8.6923283E-1,5.5E-1,1.95E0,-2.8E0,-2.9E0,-5.9782916E-1,7.4454695E-2,6.717083E-3,4.1620567E-2,-5.9153535E-3,3.824751E-2,1.1580697E-2,-1.6008126E-2,5.381079E-3,2.1458896E-2,4.0352275E-3,5.4445323E-2,4.9093543E-3,-7.053139E-3,2.984581E-2,1.1063766E-3],"split_indices":[2,7,1,7,7,6,4,4,3,6,6,6,7,3,0,0,0,0,0,0,0,0,0,0,0,0,0,0,0],"split_type":[0,0,0,0,0,0,0,0,0,0,0,0,0,0,0,0,0,0,0,0,0,0,0,0,0,0,0,0,0],"sum_hessian":[9.07E2,2.15E2,6.92E2,7.5E1,1.4E2,6.62E2,3E1,5.8E1,1.7E1,4.5E1,9.5E1,3.1E1,6.31E2,2.7E1,3E0,5.4E1,4E0,3E0,1.4E1,1.6E1,2.9E1,6.8E1,2.7E1,2.5E1,6E0,8.3E1,5.48E2,1E1,1.7E1],"tree_param":{"num_deleted":"0","num_feature":"8","num_nodes":"29","size_leaf_vector":"1"}},{"base_weights":[-1.4617201E-2,1.9424029E-1,-6.0258627E-2,9.7674266E-2,5.834874E-1,5.8852866E-2,-1.221317E-1,-1.9294854E-1,1.714756E-1,8.660387E-2,3.0663458E-1,3.7347615E-1,-3.4618347E-3,2.8937295E-2,-1.823825E-1,-1.3260423E-2,2.569767E-3,5.3183767E-3,3.8968284E-2,4.5188867E-2,4.649267E-3,2.297971E-2,-1.7785804E-2,-1.7897639E-3,2.7055314E-2,1.9832177E-2,-1.0853704E-3,-8.216502E-3,-1.6290156E-2],"categories":[],"categories_nodes":[],"categories_segments":[],"categories_sizes":[],"default_left":[0,0,0,0,0,0,0,0,0,0,0,0,0,0,0,0,0,0,0,0,0,0,0,0,0,0,0,0,0],"id":2,"left_children":[1,3,5,7,9,11,13,15,17,-1,19,21,23,25,27,-1,-1,-1,-1,-1,-1,-1,-1,-1,-1,-1,-1,-1,-1],"loss_changes":[8.610067E0,6.0322714E0,5.4682055E0,2.8428202E0,9.644577E0,4.9811296E0,4.4470663E0,4.9034977E-1,4.0728493E0,0E0,3.3605974E0,2.800942E0,3.769822E0,2.6157422E0,8.5005474E-1,0E0,0E0,0E0,0E0,0E0,0E0,0E0,0E0,0E0,0E0,0E0,0E0,0E0,0E0],"parents":[2147483647,0,0,1,1,2,2,3,3,4,4,5,5,6,6,7,7,8,8,10,10,11,11,12,12,13,13,14,14],"right_children":[2,4,6,8,10,12,14,16,18,-1,20,22,24,26,28,-1,-1,-1,-1,-1,-1,-1,-1,-1,-1,-1,-1,-1,-1],"split_conditions":[-2E0,1.7E0,-6E-1,7.21E1,1.85E0,4E-1,2E0,-4.6E0,9.701047E-1,8.660387E-2,-9.8091614E-1,8.638671E-1,4.6E0,-9.6206754E-1,8.5840154E-1,-1.3260423E-2,2.569767E-3,5.3183767E-3,3.8968284E-2,4.5188867E-2,4.649267E-3,2.297971E-2,-1.7785804E-2,-1.7897639E-3,2.7055314E-2,1.9832177E-2,-1.0853704E-3,-8.216502E-3,-1.6290156E-2],"split_indices":[7,6,6,5,6,1,2,7,4,0,4,3,1,3,3,0,0,0,0,0,0,0,0,0,0,0,0,0,0],"split_type":[0,0,0,0,0,0,0,0,0,0,0,0,0,0,0,0,0,0,0,0,0,0,0,0,0,0,0,0,0],"sum_hessian":[9.01E2,1.61E2,7.4E2,1.3E2,3.1E1,2.53E2,4.87E2,2.6E1,1.04E2,5E0,2.6E1,4.1E1,2.12E2,1.39E2,3.48E2,2E1,6E0,9.5E1,9E0,6E0,2E1,3.7E1,4E0,2.01E2,1.1E1,1.6E1,1.23E2,3.11E2,3.7E1],"tree_param":{"num_deleted":"0","num_feature":"8","num_nodes":"29","size_leaf_vector":"1"}},{"base_weights":[-3.0333193E-3,1.1584717E-1,-6.1893445E-2,2.669083E-1,4.5852974E-2,-8.600461E-2,3.096513E-1,2.0779614E-1,6.5650634E-2,7.266359E-2,-2.4565324E-1,-1.5575512E-1,-2.5754144E-2,1.7540514E-1,7.034461E-2,6.116874E-3,2.9132519E-2,4.6426916E-4,1.2750356E-2,-2.5987646E-2,1.296626E-2,7.028192E-3,-8.937283E-3,-5.508345E-3,5.9639704E-3,2.0303698E-2,1.0321472E-3],"categories":[],"categories_nodes":[],"categories_segments":[],"categories_sizes":[],"default_left":[0,0,0,0,0,0,0,0,0,0,0,0,0,0,0,0,0,0,0,0,0,0,0,0,0,0,0],"id":3,"left_children":[1,3,5,7,9,11,13,15,-1,17,19,21,23,25,-1,-1,-1,-1,-1,-1,-1,-1,-1,-1,-1,-1,-1],"loss_changes":[6.4866886E0,3.2337961E0,5.580823E0,5.7253957E0,1.6669122E0,2.4460464E0,5.3506374E0,2.9079323E0,0E0,2.2396135E0,2.6262448E0,1.8645082E0,3.8573427E0,1.2410759E0,0E0,0E0,0E0,0E0,0E0,0E0,0E0,0E0,0E0,0E0,0E0,0E0,0E0],"parents":[2147483647,0,0,1,1,2,2,3,3,4,4,5,5,6,6,7,7,9,9,10,10,11,11,12,12,13,13],"right_children":[2,4,6,8,10,12,14,16,-1,18,20,22,24,26,-1,-1,-1,-1,-1,-1,-1,-1,-1,-1,-1,-1,-1],"split_conditions":[6E-1,-1E0,4.6E0,9.1380763E-1,4.6E0,-2.1501373E-2,8.217133E-1,-1.4E0,6.5650634E-2,2.4E0,7.985E1,-3.6E0,8.43E1,-7.1579534E-1,7.034461E-2,6.116874E-3,2.9132519E-2,4.6426916E-4,1.2750356E-2,-2.5987646E-2,1.296626E-2,7.028192E-3,-8.937283E-3,-5.508345E-3,5.9639704E-3,2.0303698E-2,1.0321472E-3],"split_indices":[1,7,1,3,7,3,4,7,0,7,0,7,5,3,0,0,0,0,0,0,0,0,0,0,0,0,0],"split_type":[0,0,0,0,0,0,0,0,0,0,0,0,0,0,0,0,0,0,0,0,0,0,0,0,0,0,0],"sum_hessian":[9.25E2,3.06E2,6.19E2,9.6E1,2.1E2,5.82E2,3.7E1,9.2E1,4E0,1.93E2,1.7E1,2.69E2,3.13E2,3.4E1,3E0,7.6E1,1.6E1,1.44E2,4.9E1,1.1E1,6E0,1.9E1,2.5E2,1.98E2,1.15E2,1.3E1,2.1E1],"tree_param":{"num_deleted":"0","num_feature":"8","num_nodes":"27","size_leaf_vector":"1"}},{"base_weights":[1.2185744E-3,1.1657126E-1,-5.2726645E-2,5.4753697E-1,9.264015E-2,6.52563E-2,-9.0017565E-2,-2.3544379E-2,1.0501763E0,2.2081864E-1,1.3392295E-2,3.608688E-1,1.39380805E-2,-1.3649994E-1,1.10384505E-2,-9.1746645E-3,9.113892E-3,7.161539E-2,2.6721789E-2,8.358167E-3,6.30246E-2,-6.546546E-3,8.768393E-3,5.007528E-2,-2.431025E-4,-1.5278456E-2,2.792812E-3,-7.56015E-3,6.0109263E-3,9.948187E-3,-2.4201602E-3],"categories":[],"categories_nodes":[],"categories_segments":[],"categories_sizes":[],"default_left":[0,0,0,0,0,0,0,0,0,0,0,0,0,0,0,0,0,0,0,0,0,0,0,0,0,0,0,0,0,0,0],"id":4,"left_children":[1,3,5,7,9,11,13,15,17,19,21,23,25,27,29,-1,-1,-1,-1,-1,-1,-1,-1,-1,-1,-1,-1,-1,-1,-1,-1],"loss_changes":[5.643936E0,2.9298744E0,2.724884E0,4.3304443E0,2.7904575E0,2.255346E0,2.209249E0,2.9681507E-1,8.111687E-1,5.6466117E0,4.0203996E0,5.159484E0,1.7313915E0,1.2335811E0,1.6740483E0,0E0,0E0,0E0,0E0,0E0,0E0,0E0,0E0,0E0,0E0,0E0,0E0,0E0,0E0,0E0,0E0],"parents":[2147483647,0,0,1,1,2,2,3,3,4,4,5,5,6,6,7,7,8,8,9,9,10,10,11,11,12,12,13,13,14,14],"right_children":[2,4,6,8,10,12,14,16,18,20,22,24,26,28,30,-1,-1,-1,-1,-1,-1,-1,-1,-1,-1,-1,-1,-1,-1,-1,-1],"split_conditions":[-8E-1,6.95E1,2E0,6.88E1,7E-1,7.61E1,2.6E0,6.57E1,9.2923725E-1,9.1380763E-1,2.2E0,-1.6057454E-1,-3E-1,9.18E1,-7.607201E-1,-9.1746645E-3,9.113892E-3,7.161539E-2,2.6721789E-2,8.358167E-3,6.30246E-2,-6.546546E-3,8.768393E-3,5.007528E-2,-2.431025E-4,-1.5278456E-2,2.792812E-3,-7.56015E-3,6.0109263E-3,9.948187E-3,-2.4201602E-3],"split_indices":[7,0,2,5,1,0,1,5,4,3,1,3,7,5,3,0,0,0,0,0,0,0,0,0,0,0,0,0,0,0,0],"split_type":[0,0,0,0,0,0,0,0,0,0,0,0,0,0,0,0,0,0,0,0,0,0,0,0,0,0,0,0,0,0,0],"sum_hessian":[9.05E2,2.88E2,6.17E2,1.4E1,2.74E2,1.48E2,4.69E2,7E0,7E0,1.04E2,1.7E2,2.1E1,1.27E2,3.21E2,1.48E2,4E0,3E0,3E0,4E0,1E2,4E0,9E1,8E1,7E0,1.4E1,1.4E1,1.13E2,3.04E2,1.7E1,3.5E1,1.13E2],"tree_param":{"num_deleted":"0","num_feature":"8","num_nodes":"31","size_leaf_vector":"1"}},{"base_weights":[-3.2385355E-3,1.1007018E-1,-5.4027017E-2,4.7053583E-2,3.995181E-1,3.540479E-1,-7.263925E-2,1.9308211E-1,-2.6258484E-2,1.3582078E0,2.4151042E-1,1.3789488E-1,5.6181323E-2,4.9897466E-2,-1.10187635E-1,1.4883711E-2,-5.4983157E-3,-7.791109E-3,5.960148E-3,9.365756E-2,2.5185628E-2,3.1437855E-2,-8.0296205E-4,-3.0077542E-3,2.9958704E-2,-6.441074E-3,6.491101E-3,-6.9904933E-3,5.7395166E-3],"categories":[],"categories_nodes":[],"categories_segments":[],"categories_sizes":[],"default_left":[0,0,0,0,0,0,0,0,0,0,0,0,0,0,0,0,0,0,0,0,0,0,0,0,0,0,0,0,0],"id":5,"left_children":[1,3,5,7,9,11,13,15,17,19,21,23,-1,25,27,-1,-1,-1,-1,-1,-1,-1,-1,-1,-1,-1,-1,-1,-1],"loss_changes":[5.317606E0,5.1978483E0,4.871445E0,2.531604E0,7.397476E0,4.5027666E0,2.8167434E0,2.5367556E0,2.9963248E0,2.1365871E0,4.4985323E0,2.1372387E0,0E0,2.0736244E0,3.134963E0,0E0,0E0,0E0,0E0,0E0,0E0,0E0,0E0,0E0,0E0,0E0,0E0,0E0,0E0],"parents":[2147483647,0,0,1,1,2,2,3,3,4,4,5,5,6,6,7,7,8,8,9,9,10,10,11,11,13,13,14,14],"right_children":[2,4,6,8,10,12,14,16,18,20,22,24,-1,26,28,-1,-1,-1,-1,-1,-1,-1,-1,-1,-1,-1,-1,-1,-1],"split_conditions":[-8E-1,1.7E0,-2.6E0,7E-1,1.85E0,-2.8E0,2E0,8.5E-1,2.2E0,-6.6E0,-9.3920135E-1,8.83E1,5.6181323E-2,7E-1,3.8E0,1.4883711E-2,-5.4983157E-3,-7.791109E-3,5.960148E-3,9.365756E-2,2.5185628E-2,3.1437855E-2,-8.0296205E-4,-3.0077542E-3,2.9958704E-2,-6.441074E-3,6.491101E-3,-6.9904933E-3,5.7395166E-3],"split_indices":[7,6,6,1,6,6,2,6,1,7,4,0,0,7,1,0,0,0,0,0,0,0,0,0,0,0,0,0,0],"split_type":[0,0,0,0,0,0,0,0,0,0,0,0,0,0,0,0,0,0,0,0,0,0,0,0,0,0,0,0,0],"sum_hessian":[9.22E2,2.85E2,6.37E2,2.35E2,5E1,2.7E1,6.1E2,7.8E1,1.57E2,6E0,4.4E1,2.2E1,5E0,1.43E2,4.67E2,5.8E1,2E1,8.3E1,7.4E1,3E0,3E0,1.7E1,2.7E1,1.6E1,6E0,4.4E1,9.9E1,4.13E2,5.4E1],"tree_param":{"num_deleted":"0","num_feature":"8","num_nodes":"29","size_leaf_vector":"1"}},{"base_weights":[1.2482477E-2,1.3319619E-1,-4.1630555E-2,7.2815426E-2,4.2252362E-1,3.4006694E-1,-6.0426757E-2,2.3592639E-1,-7.156268E-3,7.380896E-2,2.6924053E-1,1.2107552E-1,9.271589E-1,5.1597103E-2,-9.6337855E-2,8.387774E-3,7.275747E-2,-6.732058E-3,6.7759836E-3,2.9336944E-2,2.380154E-3,2.6971294E-2,-9.319719E-3,1.8247692E-2,6.990628E-2,-2.1137415E-2,4.2675734E-3,2.2732318E-4,-7.507899E-3],"categories":[],"categories_nodes":[],"categories_segments":[],"categories_sizes":[],"default_left":[0,0,0,0,0,0,0,0,0,0,0,0,0,0,0,0,0,0,0,0,0,0,0,0,0,0,0,0,0],"id":6,"left_children":[1,3,5,7,9,11,13,15,17,-1,19,21,23,25,27,-1,-1,-1,-1,-1,-1,-1,-1,-1,-1,-1,-1,-1,-1],"loss_changes":[6.0151553E0,4.9481306E0,4.5835075E0,3.0931776E0,7.516425E0,3.7447867E0,2.4468713E0,6.2389026E0,2.9284906E0,0E0,3.0683284E0,3.0590389E0,1.6079869E0,2.4057438E0,2.4983015E0,0E0,0E0,0E0,0E0,0E0,0E0,0E0,0E0,0E0,0E0,0E0,0E0,0E0,0E0],"parents":[2147483647,0,0,1,1,2,2,3,3,4,4,5,5,6,6,7,7,8,8,10,10,11,11,12,12,13,13,14,14],"right_children":[2,4,6,8,10,12,14,16,18,-1,20,22,24,26,28,-1,-1,-1,-1,-1,-1,-1,-1,-1,-1,-1,-1,-1,-1],"split_conditions":[-8E-1,1.65E0,-2.55E0,7E-1,-6.6E0,-2.9E0,1E-1,9.1380763E-1,2.2E0,7.380896E-2,2.4E0,6.6126347E-1,7.6903087E-1,-4E-1,-6.5E-1,8.387774E-3,7.275747E-2,-6.732058E-3,6.7759836E-3,2.9336944E-2,2.380154E-3,2.6971294E-2,-9.319719E-3,1.8247692E-2,6.990628E-2,-2.1137415E-2,4.2675734E-3,2.2732318E-4,-7.507899E-3],"split_indices":[7,6,6,1,7,6,1,3,1,0,6,3,3,7,6,0,0,0,0,0,0,0,0,0,0,0,0,0,0],"split_type":[0,0,0,0,0,0,0,0,0,0,0,0,0,0,0,0,0,0,0,0,0,0,0,0,0,0,0,0,0],"sum_hessian":[9.19E2,2.84E2,6.35E2,2.36E2,4.8E1,2.9E1,6.06E2,7.7E1,1.59E2,5E0,4.3E1,2.2E1,7E0,1.47E2,4.59E2,7.4E1,3E0,8.4E1,7.5E1,1.7E1,2.6E1,9E0,1.3E1,4E0,3E0,9E0,1.38E2,1.6E2,2.99E2],"tree_param":{"num_deleted":"0","num_feature":"8","num_nodes":"29","size_leaf_vector":"1"}},{"base_weights":[1.9558978E-3,1.232208E-1,-3.6505196E-2,2.9849672E-1,7.5714044E-2,2.172874E-1,-5.5941638E-2,2.0244555E-1,6.402177E-2,-2.3505966E-1,1.3360633E-1,1.273466E-1,6.0988493E-2,7.4182376E-3,-1.17596E-1,-6.7317747E-3,1.740726E-2,1.1025677E-2,-1.7184243E-2,5.5486667E-3,3.2726523E-2,-1.3261683E-2,1.7932495E-2,-2.5572945E-4,3.3416644E-2,-4.088995E-3,-1.6315592E-2],"categories":[],"categories_nodes":[],"categories_segments":[],"categories_sizes":[],"default_left":[0,0,0,0,0,0,0,0,0,0,0,0,0,0,0,0,0,0,0,0,0,0,0,0,0,0,0],"id":7,"left_children":[1,3,5,7,9,11,13,15,-1,17,19,21,-1,23,25,-1,-1,-1,-1,-1,-1,-1,-1,-1,-1,-1,-1],"loss_changes":[4.3000245E0,1.8259475E0,3.4651337E0,4.1736503E0,3.1978912E0,4.35287E0,2.5439472E0,2.2078266E0,0E0,1.4614156E0,1.6840856E0,4.362966E0,0E0,2.6705856E0,2.4401917E0,0E0,0E0,0E0,0E0,0E0,0E0,0E0,0E0,0E0,0E0,0E0,0E0],"parents":[2147483647,0,0,1,1,2,2,3,3,4,4,5,5,6,6,7,7,9,9,10,10,11,11,13,13,14,14],"right_children":[2,4,6,8,10,12,14,16,-1,18,20,22,-1,24,26,-1,-1,-1,-1,-1,-1,-1,-1,-1,-1,-1,-1],"split_conditions":[2E0,7.81E1,-5.1E0,8.26E1,8.19E1,1.7E0,-1.5E-1,9.3993753E-1,6.402177E-2,7.54E1,3.6948368E-1,7.35E1,6.0988493E-2,6.7E0,9.025E1,-6.7317747E-3,1.740726E-2,1.1025677E-2,-1.7184243E-2,5.5486667E-3,3.2726523E-2,-1.3261683E-2,1.7932495E-2,-2.5572945E-4,3.3416644E-2,-4.088995E-3,-1.6315592E-2],"split_indices":[2,0,7,5,5,6,6,4,0,5,3,5,0,7,0,0,0,0,0,0,0,0,0,0,0,0,0],"split_type":[0,0,0,0,0,0,0,0,0,0,0,0,0,0,0,0,0,0,0,0,0,0,0,0,0,0,0],"sum_hessian":[9.2E2,2.21E2,6.99E2,4.6E1,1.75E2,4.9E1,6.5E2,4.3E1,3E0,2.7E1,1.48E2,4.6E1,3E0,3.21E2,3.29E2,1.3E1,3E1,5E0,2.2E1,1.43E2,5E0,1.7E1,2.9E1,3.16E2,5E0,2.82E2,4.7E1],"tree_param":{"num_deleted":"0","num_feature":"8","num_nodes":"27","size_leaf_vector":"1"}},{"base_weights":[2.0335906E-3,1.1841871E-1,-3.603453E-2,2.6877034E-1,7.417807E-2,2.811835E-1,-5.237097E-2,5.9586126E-2,1.6486543E-1,1.556941E-1,-7.450454E-2,2.3621203E-2,1.2712637E0,5.4555076E-1,-5.9638258E-2,-7.997474E-3,1.4688188E-2,1.6323112E-2,8.590251E-4,-1.9239882E-2,-1.4423257E-3,1.55919595E-2,-1.4343551E-2,2.636298E-2,8.4872596E-2,-2.7553476E-3,4.5848336E-2,-1.9083134E-3,-1.0844275E-2],"categories":[],"categories_nodes":[],"categories_segments":[],"categories_sizes":[],"default_left":[0,0,0,0,0,0,0,0,0,0,0,0,0,0,0,0,0,0,0,0,0,0,0,0,0,0,0,0,0],"id":8,"left_children":[1,3,5,7,9,11,13,-1,15,17,19,21,23,25,27,-1,-1,-1,-1,-1,-1,-1,-1,-1,-1,-1,-1,-1,-1],"loss_changes":[4.0626626E0,1.4833367E0,3.5956361E0,4.6943884E0,2.1447225E0,8.640222E0,2.8917217E0,0E0,2.0147882E0,2.690914E0,8.8144433E-1,2.5951617E0,1.3246031E0,1.8352821E0,2.1897662E0,0E0,0E0,0E0,0E0,0E0,0E0,0E0,0E0,0E0,0E0,0E0,0E0,0E0,0E0],"parents":[2147483647,0,0,1,1,2,2,3,3,4,4,5,5,6,6,8,8,9,9,10,10,11,11,12,12,13,13,14,14],"right_children":[2,4,6,8,10,12,14,-1,16,18,20,22,24,26,28,-1,-1,-1,-1,-1,-1,-1,-1,-1,-1,-1,-1,-1,-1],"split_conditions":[2E0,7.835E1,-2.6E0,-6.8979603E-1,3.5472557E-2,-2.8E0,-9.9916553E-1,5.9586126E-2,9.3993753E-1,9.055E1,7.965E1,7.536977E-1,9.3957E-1,-4.300593E-3,9.025E1,-7.997474E-3,1.4688188E-2,1.6323112E-2,8.590251E-4,-1.9239882E-2,-1.4423257E-3,1.55919595E-2,-1.4343551E-2,2.636298E-2,8.4872596E-2,-2.7553476E-3,4.5848336E-2,-1.9083134E-3,-1.0844275E-2],"split_indices":[2,0,6,3,4,6,4,0,4,0,0,3,3,3,0,0,0,0,0,0,0,0,0,0,0,0,0,0,0],"split_type":[0,0,0,0,0,0,0,0,0,0,0,0,0,0,0,0,0,0,0,0,0,0,0,0,0,0,0,0,0],"sum_hessian":[9.15E2,2.25E2,6.9E2,5E1,1.75E2,3.3E1,6.57E2,4E0,4.6E1,1.13E2,6.2E1,2.7E1,6E0,7E0,6.5E2,1.3E1,3.3E1,5E1,6.3E1,7E0,5.5E1,1.4E1,1.3E1,3E0,3E0,3E0,4E0,5.73E2,7.7E1],"tree_param":{"num_deleted":"0","num_feature":"8","num_nodes":"29","size_leaf_vector":"1"}},{"base_weights":[1.0402616E-2,1.089963E-1,-3.3713415E-2,4.934798E-2,9.5924646E-2,7.0319E-2,-8.4906265E-2,2.2856075E-1,1.8510975E-2,3.960979E-1,3.335816E-2,-1.8216462E-1,1.8294338E-3,9.042892E-3,5.5891294E-2,-4.3030456E-4,2.3475744E-2,3.2599177E-3,6.0624022E-2,4.0851566E-3,-7.0394925E-3,-1.0428284E-2,1.9771589E-2,6.5948116E-3,-5.5455184E-3],"categories":[],"categories_nodes":[],"categories_segments":[],"categories_sizes":[],"default_left":[0,0,0,0,0,0,0,0,0,0,0,0,0,0,0,0,0,0,0,0,0,0,0,0,0],"id":9,"left_children":[1,3,5,-1,7,9,11,13,15,17,19,21,23,-1,-1,-1,-1,-1,-1,-1,-1,-1,-1,-1,-1],"loss_changes":[3.9400284E0,3.1187284E0,3.3398683E0,0E0,2.8399627E0,2.4792862E0,3.5433571E0,4.1247277E0,2.1565037E0,5.5939007E0,1.5858898E0,3.101808E0,3.2846346E0,0E0,0E0,0E0,0E0,0E0,0E0,0E0,0E0,0E0,0E0,0E0,0E0],"parents":[2147483647,0,0,1,1,2,2,4,4,5,5,6,6,7,7,8,8,9,9,10,10,11,11,12,12],"right_children":[2,4,6,-1,8,10,12,14,16,18,20,22,24,-1,-1,-1,-1,-1,-1,-1,-1,-1,-1,-1,-1],"split_conditions":[-8E-1,6.32E1,-6.5E-1,4.934798E-2,7E-1,7.61E1,8.44E1,7.971016E-1,2.1E0,7.505E1,3.1E0,3.7E0,8.895E1,9.042892E-3,5.5891294E-2,-4.3030456E-4,2.3475744E-2,3.2599177E-3,6.0624022E-2,4.0851566E-3,-7.0394925E-3,-1.0428284E-2,1.9771589E-2,6.5948116E-3,-5.5455184E-3],"split_indices":[7,0,6,0,1,0,5,3,6,0,7,1,0,0,0,0,0,0,0,0,0,0,0,0,0],"split_type":[0,0,0,0,0,0,0,0,0,0,0,0,0,0,0,0,0,0,0,0,0,0,0,0,0],"sum_hessian":[9.04E2,2.79E2,6.25E2,3E0,2.76E2,2.06E2,4.19E2,1.01E2,1.75E2,2E1,1.86E2,1.97E2,2.22E2,9.7E1,4E0,1.66E2,9E0,1.5E1,5E0,1.46E2,4E1,1.89E2,8E0,1.03E2,1.19E2],"tree_param":{"num_deleted":"0","num_feature":"8","num_nodes":"25","size_leaf_vector":"1"}},{"base_weights":[8.680203E-3,-5.254215E-3,3.4944525E-1,1.1616423E-1,-4.682788E-2,2.2803736E-1,6.318496E-2,2.7959684E-1,6.78715E-2,2.1155187E-1,-6.0395405E-2,5.0770235E-1,8.436986E-2,6.654026E-2,6.8202256E-3,-7.951188E-3,8.254379E-3,1.369997E-3,4.458153E-2,2.4591679E-2,-3.417636E-3,1.5278342E-2,3.925239E-2,2.1213925E-2,-4.7601454E-4],"categories":[],"categories_nodes":[],"categories_segments":[],"categories_sizes":[],"default_left":[0,0,0,0,0,0,0,0,0,0,0,0,0,0,0,0,0,0,0,0,0,0,0,0,0],"id":10,"left_children":[1,3,5,7,9,11,-1,13,15,17,19,21,23,-1,-1,-1,-1,-1,-1,-1,-1,-1,-1,-1,-1],"loss_changes":[4.3513365E0,4.45256E0,3.7077441E0,1.75686E0,2.315939E0,1.2830647E0,0E0,7.4952455E0,3.8863802E0,4.108417E0,2.7800314E0,3.7679052E-1,7.380629E-1,0E0,0E0,0E0,0E0,0E0,0E0,0E0,0E0,0E0,0E0,0E0,0E0],"parents":[2147483647,0,0,1,1,2,2,3,3,4,4,5,5,7,7,8,8,9,9,10,10,11,11,12,12],"right_children":[2,4,6,8,10,12,-1,14,16,18,20,22,24,-1,-1,-1,-1,-1,-1,-1,-1,-1,-1,-1,-1],"split_conditions":[4.6E0,2E0,8.217133E-1,7.835E1,-2.55E0,2E-1,6.318496E-2,7.3866796E-1,8.45E1,-2.8E0,-9.983151E-1,9.04E1,-3.1E0,6.654026E-2,6.8202256E-3,-7.951188E-3,8.254379E-3,1.369997E-3,4.458153E-2,2.4591679E-2,-3.417636E-3,1.5278342E-2,3.925239E-2,2.1213925E-2,-4.7601454E-4],"split_indices":[1,2,4,0,6,6,0,4,5,6,4,0,7,0,0,0,0,0,0,0,0,0,0,0,0],"split_type":[0,0,0,0,0,0,0,0,0,0,0,0,0,0,0,0,0,0,0,0,0,0,0,0,0],"sum_hessian":[9.15E2,8.8E2,3.5E1,2.24E2,6.56E2,3.2E1,3E0,5E1,1.74E2,3.2E1,6.24E2,1E1,2.2E1,5E0,4.5E1,5.2E1,1.22E2,2.6E1,6E0,8E0,6.16E2,7E0,3E0,4E0,1.8E1],"tree_param":{"num_deleted":"0","num_feature":"8","num_nodes":"25","size_leaf_vector":"1"}},{"base_weights":[-4.1833315E-3,1.05394885E-1,-5.8605105E-2,2.4396923E-1,4.352437E-2,-7.488533E-2,2.1006507E-1,1.9503261E-1,5.3312358E-2,2.8757074E-1,-2.8609065E-2,2.431283E-1,-9.102701E-2,3.8456985E-1,2.388999E-2,-1.2966746E-2,1.3121746E-2,1.8739192E-2,-1.9269248E-2,-1.2641778E-4,-1.6467292E-2,2.7307433E-3,5.4968357E-2,-8.765019E-3,-2.5953085E-3,2.9784614E-2,9.803269E-3,7.5349123E-3,-7.672881E-3],"categories":[],"categories_nodes":[],"categories_segments":[],"categories_sizes":[],"default_left":[0,0,0,0,0,0,0,0,0,0,0,0,0,0,0,0,0,0,0,0,0,0,0,0,0,0,0,0,0],"id":11,"left_children":[1,3,5,7,9,11,13,15,-1,17,19,21,23,25,27,-1,-1,-1,-1,-1,-1,-1,-1,-1,-1,-1,-1,-1,-1],"loss_changes":[5.4269447E0,2.5786285E0,2.67513E0,3.5343204E0,3.705047E0,2.9686294E0,1.1279081E0,2.79372E0,0E0,2.9615824E0,1.2776461E0,4.459509E0,1.7942743E0,5.99561E-1,4.279303E-1,0E0,0E0,0E0,0E0,0E0,0E0,0E0,0E0,0E0,0E0,0E0,0E0,0E0,0E0],"parents":[2147483647,0,0,1,1,2,2,3,3,4,4,5,5,6,6,7,7,9,9,10,10,11,11,12,12,13,13,14,14],"right_children":[2,4,6,8,10,12,14,16,-1,18,20,22,24,26,28,-1,-1,-1,-1,-1,-1,-1,-1,-1,-1,-1,-1,-1,-1],"split_conditions":[6E-1,-1E0,4.6E0,9.1380763E-1,-6.5E-1,-2.65E0,-4.20831E-1,7.21E1,5.3312358E-2,9.206588E-1,5E0,-3E0,8.1E1,2E-1,8.69E1,-1.2966746E-2,1.3121746E-2,1.8739192E-2,-1.9269248E-2,-1.2641778E-4,-1.6467292E-2,2.7307433E-3,5.4968357E-2,-8.765019E-3,-2.5953085E-3,2.9784614E-2,9.803269E-3,7.5349123E-3,-7.672881E-3],"split_indices":[1,7,1,3,6,6,3,5,0,3,7,6,5,6,0,0,0,0,0,0,0,0,0,0,0,0,0,0,0],"split_type":[0,0,0,0,0,0,0,0,0,0,0,0,0,0,0,0,0,0,0,0,0,0,0,0,0,0,0,0,0],"sum_hessian":[9.08E2,3.01E2,6.07E2,9.2E1,2.09E2,5.73E2,3.4E1,8.8E1,4E0,4.7E1,1.62E2,2.7E1,5.46E2,1.7E1,1.7E1,1.1E1,7.7E1,4.2E1,5E0,1.5E2,1.2E1,2.3E1,4E0,1.72E2,3.74E2,7E0,1E1,1E1,7E0],"tree_param":{"num_deleted":"0","num_feature":"8","num_nodes":"29","size_leaf_vector":"1"}},{"base_weights":[-1.07013015E-2,-2.2016564E-2,2.9102042E-1,2.4593365E-1,-3.441614E-2,1.5870126E-1,6.0532965E-2,5.1993016E-2,9.9095446E-1,4.614043E-2,-7.917235E-2,-1.682004E-1,2.6550612E-1,1.3772236E-2,-1.0980762E-2,1.7312517E-2,7.74548E-2,6.564238E-4,1.483281E-2,-6.190317E-3,7.047952E-4,-1.6544104E-4,-1.661324E-2,2.7389184E-2,3.9219586E-3],"categories":[],"categories_nodes":[],"categories_segments":[],"categories_sizes":[],"default_left":[0,0,0,0,0,0,0,0,0,0,0,0,0,0,0,0,0,0,0,0,0,0,0,0,0],"id":12,"left_children":[1,3,5,7,9,11,-1,13,15,17,19,21,23,-1,-1,-1,-1,-1,-1,-1,-1,-1,-1,-1,-1],"loss_changes":[3.1166165E0,2.928914E0,3.8235004E0,5.58358E0,3.0358002E0,1.092099E0,0E0,2.0026145E0,2.3423142E0,2.4853797E0,2.2538922E0,2.1532328E-1,1.1715429E0,0E0,0E0,0E0,0E0,0E0,0E0,0E0,0E0,0E0,0E0,0E0,0E0],"parents":[2147483647,0,0,1,1,2,2,3,3,4,4,5,5,7,7,8,8,9,9,10,10,11,11,12,12],"right_children":[2,4,6,8,10,12,-1,14,16,18,20,22,24,-1,-1,-1,-1,-1,-1,-1,-1,-1,-1,-1,-1],"split_conditions":[4.6E0,-2.6E0,8.217133E-1,-2.8E0,7E-1,8.64E1,6.0532965E-2,7.536977E-1,9.3957E-1,9.657866E-1,2.6E0,-8.517119E-1,8.85E1,1.3772236E-2,-1.0980762E-2,1.7312517E-2,7.74548E-2,6.564238E-4,1.483281E-2,-6.190317E-3,7.047952E-4,-1.6544104E-4,-1.661324E-2,2.7389184E-2,3.9219586E-3],"split_indices":[1,6,4,6,1,5,0,3,3,4,1,3,5,0,0,0,0,0,0,0,0,0,0,0,0],"split_type":[0,0,0,0,0,0,0,0,0,0,0,0,0,0,0,0,0,0,0,0,0,0,0,0,0],"sum_hessian":[9.1E2,8.78E2,3.2E1,3.8E1,8.4E2,2.9E1,3E0,3.1E1,7E0,3E2,5.4E2,7E0,2.2E1,1.7E1,1.4E1,4E0,3E0,2.66E2,3.4E1,3.65E2,1.75E2,4E0,3E0,8E0,1.4E1],"tree_param":{"num_deleted":"0","num_feature":"8","num_nodes":"25","size_leaf_vector":"1"}},{"base_weights":[-5.176864E-3,2.6233757E-1,-2.3834642E-2,1.5184896E-1,7.995958E-1,5.635359E-2,-6.1626296E-2,-2.7467832E-1,3.3719862E-1,8.223105E-2,2.024962E-1,4.1046135E-2,6.3873357E-1,6.133518E-2,-1.1131182E-1,-2.140828E-2,-6.988469E-3,3.9167702E-2,1.0124686E-2,1.6540153E-2,1.1782654E-3,1.1213729E-3,2.1973938E-2,6.1388087E-2,-5.498901E-3,1.7597942E-3,2.6106155E-2,-1.5583513E-5,-7.2705606E-3],"categories":[],"categories_nodes":[],"categories_segments":[],"categories_sizes":[],"default_left":[0,0,0,0,0,0,0,0,0,0,0,0,0,0,0,0,0,0,0,0,0,0,0,0,0,0,0,0,0],"id":13,"left_children":[1,3,5,7,9,11,13,15,17,-1,19,21,23,25,27,-1,-1,-1,-1,-1,-1,-1,-1,-1,-1,-1,-1,-1,-1],"loss_changes":[4.5931883E0,3.440237E0,2.6096566E0,4.124512E0,4.712613E0,2.434255E0,3.5808294E0,2.7146447E-1,2.004951E0,0E0,1.5291092E-1,1.9930812E0,3.2221124E0,2.017173E0,1.5783153E0,0E0,0E0,0E0,0E0,0E0,0E0,0E0,0E0,0E0,0E0,0E0,0E0,0E0,0E0],"parents":[2147483647,0,0,1,1,2,2,3,3,4,4,5,5,6,6,7,7,8,8,10,10,11,11,12,12,13,13,14,14],"right_children":[2,4,6,8,10,12,14,16,18,-1,20,22,24,26,28,-1,-1,-1,-1,-1,-1,-1,-1,-1,-1,-1,-1,-1,-1],"split_conditions":[-5.1E0,1.7E0,-6E-1,7.19E1,1.85E0,6.7E0,-7E-1,3E-1,7.43E1,8.223105E-2,-8.9882547E-1,4.6E0,1E0,9.03E1,-8.3318293E-1,-2.140828E-2,-6.988469E-3,3.9167702E-2,1.0124686E-2,1.6540153E-2,1.1782654E-3,1.1213729E-3,2.1973938E-2,6.1388087E-2,-5.498901E-3,1.7597942E-3,2.6106155E-2,-1.5583513E-5,-7.2705606E-3],"split_indices":[7,6,6,5,6,7,7,6,5,0,4,1,1,5,3,0,0,0,0,0,0,0,0,0,0,0,0,0,0],"split_type":[0,0,0,0,0,0,0,0,0,0,0,0,0,0,0,0,0,0,0,0,0,0,0,0,0,0,0,0,0],"sum_hessian":[9.18E2,5.9E1,8.59E2,5E1,9E0,2.75E2,5.84E2,1.5E1,3.5E1,3E0,6E0,2.69E2,6E0,1.68E2,4.16E2,6E0,9E0,7E0,2.8E1,3E0,3E0,2.58E2,1.1E1,3E0,3E0,1.6E2,8E0,9.8E1,3.18E2],"tree_param":{"num_deleted":"0","num_feature":"8","num_nodes":"29","size_leaf_vector":"1"}},{"base_weights":[1.3082382E-2,8.679162E-2,-2.7110737E-2,1.9012834E-1,3.423481E-2,-4.5099366E-2,2.6785365E-1,-1.2596263E-1,2.505625E-1,1.1079454E-1,-5.7517465E-2,2.7730954E-1,-6.1438877E-2,1.468371E-1,5.693842E-2,2.9064815E-3,-2.1177735E-2,3.3682924E-2,6.4777895E-3,3.2322403E-2,3.5415348E-3,-1.4210959E-2,2.8352435E-3,2.290098E-3,4.661083E-2,-1.3001692E-3,-7.998316E-3,2.0884657E-2,1.7232869E-3],"categories":[],"categories_nodes":[],"categories_segments":[],"categories_sizes":[],"default_left":[0,0,0,0,0,0,0,0,0,0,0,0,0,0,0,0,0,0,0,0,0,0,0,0,0,0,0,0,0],"id":14,"left_children":[1,3,5,7,9,11,13,15,17,19,21,23,25,27,-1,-1,-1,-1,-1,-1,-1,-1,-1,-1,-1,-1,-1,-1,-1],"loss_changes":[2.69536E0,1.7368572E0,3.1373167E0,2.0946527E0,1.5096217E0,2.9460473E0,3.4162195E0,1.0107402E0,4.571692E0,2.4588034E0,2.5537677E0,4.050933E0,1.8462653E0,9.291343E-1,0E0,0E0,0E0,0E0,0E0,0E0,0E0,0E0,0E0,0E0,0E0,0E0,0E0,0E0,0E0],"parents":[2147483647,0,0,1,1,2,2,3,3,4,4,5,5,6,6,7,7,8,8,9,9,10,10,11,11,12,12,13,13],"right_children":[2,4,6,8,10,12,14,16,18,20,22,24,26,28,-1,-1,-1,-1,-1,-1,-1,-1,-1,-1,-1,-1,-1,-1,-1],"split_conditions":[7E-1,-1E0,4.6E0,7.21E1,6.5E-1,-2.6E0,8.217133E-1,7.07E1,7.73E1,-9.116111E-1,7E-1,-3E0,6.90574E-1,2E-1,5.693842E-2,2.9064815E-3,-2.1177735E-2,3.3682924E-2,6.4777895E-3,3.2322403E-2,3.5415348E-3,-1.4210959E-2,2.8352435E-3,2.290098E-3,4.661083E-2,-1.3001692E-3,-7.998316E-3,2.0884657E-2,1.7232869E-3],"split_indices":[1,7,1,5,6,6,4,5,5,4,7,6,4,6,0,0,0,0,0,0,0,0,0,0,0,0,0,0,0],"split_type":[0,0,0,0,0,0,0,0,0,0,0,0,0,0,0,0,0,0,0,0,0,0,0,0,0,0,0,0,0],"sum_hessian":[9.08E2,3.2E2,5.88E2,1.07E2,2.13E2,5.55E2,3.3E1,1.7E1,9E1,1.16E2,9.7E1,2.6E1,5.29E2,3E1,3E0,1.1E1,6E0,1.9E1,7.1E1,7E0,1.09E2,3.2E1,6.5E1,2E1,6E0,3.9E2,1.39E2,8E0,2.2E1],"tree_param":{"num_deleted":"0","num_feature":"8","num_nodes":"29","size_leaf_vector":"1"}},{"base_weights":[2.1853775E-3,2.1589272E-1,-1.2993124E-2,1.0675148E-1,7.6183784E-1,6.963184E-2,-4.6075776E-2,-2.9805645E-1,2.789184E-1,7.811459E-2,1.9560155E-1,1.9070786E-1,6.8096397E-3,-6.5683186E-2,1.0013372E-1,-1.8165288E-2,-6.437832E-3,9.572512E-3,4.7633406E-2,1.5774205E-2,1.3409302E-3,5.553367E-3,3.0856201E-2,-9.799181E-3,6.661851E-3,8.67994E-3,-4.0518674E-3,1.8388014E-2,-7.130574E-3],"categories":[],"categories_nodes":[],"categories_segments":[],"categories_sizes":[],"default_left":[0,0,0,0,0,0,0,0,0,0,0,0,0,0,0,0,0,0,0,0,0,0,0,0,0,0,0,0,0],"id":15,"left_children":[1,3,5,7,9,11,13,15,17,-1,19,21,23,25,27,-1,-1,-1,-1,-1,-1,-1,-1,-1,-1,-1,-1,-1,-1],"loss_changes":[2.9838178E0,3.5533655E0,2.3512444E0,3.7072492E0,4.2268744E0,1.8698419E0,1.766786E0,1.2996924E-1,1.9980822E0,0E0,1.3317806E-1,2.7840989E0,4.2052073E0,2.005362E0,4.794896E0,0E0,0E0,0E0,0E0,0E0,0E0,0E0,0E0,0E0,0E0,0E0,0E0,0E0,0E0],"parents":[2147483647,0,0,1,1,2,2,3,3,4,4,5,5,6,6,7,7,8,8,10,10,11,11,12,12,13,13,14,14],"right_children":[2,4,6,8,10,12,14,16,18,-1,20,22,24,26,28,-1,-1,-1,-1,-1,-1,-1,-1,-1,-1,-1,-1,-1,-1],"split_conditions":[-5E0,1.7E0,4E-1,7.21E1,1.85E0,1.5E-1,3.8E0,6.99E1,9.701047E-1,7.811459E-2,-8.9882547E-1,2E-1,8.45E1,-2.6E0,3E-1,-1.8165288E-2,-6.437832E-3,9.572512E-3,4.7633406E-2,1.5774205E-2,1.3409302E-3,5.553367E-3,3.0856201E-2,-9.799181E-3,6.661851E-3,8.67994E-3,-4.0518674E-3,1.8388014E-2,-7.130574E-3],"split_indices":[7,6,1,5,6,6,1,5,4,0,4,1,5,6,6,0,0,0,0,0,0,0,0,0,0,0,0,0,0],"split_type":[0,0,0,0,0,0,0,0,0,0,0,0,0,0,0,0,0,0,0,0,0,0,0,0,0,0,0,0,0],"sum_hessian":[9.18E2,6E1,8.58E2,5.1E1,9E0,2.45E2,6.13E2,1.5E1,3.6E1,3E0,6E0,8.3E1,1.62E2,5.41E2,7.2E1,1E1,5E0,3.3E1,3E0,3E0,3E0,7.1E1,1.2E1,6.2E1,1E2,3.2E1,5.09E2,3.4E1,3.8E1],"tree_param":{"num_deleted":"0","num_feature":"8","num_nodes":"29","size_leaf_vector":"1"}},{"base_weights":[-4.451824E-3,1.944635E-1,-1.9747652E-2,9.296319E-2,7.332689E-1,-6.90018E-2,3.439481E-2,-2.0338427E-1,2.308919E-1,7.51853E-2,9.413323E-3,-4.4236794E-2,-2.3626015E-1,5.680388E-1,1.0493648E-2,-1.6780399E-2,-5.465254E-3,2.633808E-2,7.354515E-3,-2.7828787E-3,2.8695509E-2,-5.8135006E-4,-1.3951381E-2,1.8684484E-2,4.31032E-2,6.839008E-3,-1.9340722E-3],"categories":[],"categories_nodes":[],"categories_segments":[],"categories_sizes":[],"default_left":[0,0,0,0,0,0,0,0,0,0,0,0,0,0,0,0,0,0,0,0,0,0,0,0,0,0,0],"id":16,"left_children":[1,3,5,7,9,11,13,15,17,-1,-1,19,21,23,25,-1,-1,-1,-1,-1,-1,-1,-1,-1,-1,-1,-1],"loss_changes":[2.7269444E0,3.4319239E0,2.221102E0,2.295075E0,3.915803E0,1.7955279E0,5.05766E0,1.8722731E-1,8.6470413E-1,0E0,0E0,2.7216957E0,5.347471E-1,6.492958E-1,2.3713584E0,0E0,0E0,0E0,0E0,0E0,0E0,0E0,0E0,0E0,0E0,0E0,0E0],"parents":[2147483647,0,0,1,1,2,2,3,3,4,4,5,5,6,6,7,7,8,8,11,11,12,12,13,13,14,14],"right_children":[2,4,6,8,10,12,14,16,18,-1,-1,20,22,24,26,-1,-1,-1,-1,-1,-1,-1,-1,-1,-1,-1,-1],"split_conditions":[-5.1E0,1.7E0,8.47E1,7.21E1,1.85E0,8.37E1,8.12E1,3E-1,7.43E1,7.51853E-2,9.413323E-3,8.72E1,8.105E1,7.97E1,2E0,-1.6780399E-2,-5.465254E-3,2.633808E-2,7.354515E-3,-2.7828787E-3,2.8695509E-2,-5.8135006E-4,-1.3951381E-2,1.8684484E-2,4.31032E-2,6.839008E-3,-1.9340722E-3],"split_indices":[7,6,5,5,6,5,0,6,5,0,0,0,0,0,2,0,0,0,0,0,0,0,0,0,0,0,0],"split_type":[0,0,0,0,0,0,0,0,0,0,0,0,0,0,0,0,0,0,0,0,0,0,0,0,0,0,0],"sum_hessian":[8.94E2,6.3E1,8.31E2,5.4E1,9E0,4.35E2,3.96E2,1.7E1,3.7E1,3E0,6E0,3.8E2,5.5E1,1.6E1,3.8E2,6E0,1.1E1,7E0,3E1,3.74E2,6E0,9E0,4.6E1,1.1E1,5E0,1.06E2,2.74E2],"tree_param":{"num_deleted":"0","num_feature":"8","num_nodes":"27","size_leaf_vector":"1"}},{"base_weights":[6.7498973E-3,1.15930915E-1,-2.7628826E-2,3.482968E-1,5.5814456E-2,3.411783E-2,-3.2816306E-2,6.0078677E-2,2.0809278E-1,-1.383849E-1,1.5075883E-1,-1.7065825E-2,-2.442469E-1,1.44254435E-2,-1.4114022E-2,1.5309247E-2,-8.885721E-3,1.5986556E-2,-7.837609E-5,2.253334E-3,-3.823046E-3,-1.5360552E-2,-5.127075E-4],"categories":[],"categories_nodes":[],"categories_segments":[],"categories_sizes":[],"default_left":[0,0,0,0,0,0,0,0,0,0,0,0,0,0,0,0,0,0,0,0,0,0,0],"id":17,"left_children":[1,3,5,7,9,-1,11,-1,13,15,17,19,21,-1,-1,-1,-1,-1,-1,-1,-1,-1,-1],"loss_changes":[3.370096E0,2.9838984E0,2.5379052E0,5.0138054E0,3.1922224E0,0E0,2.2569923E0,0E0,1.6193622E0,1.0510424E0,2.9862168E0,2.3394475E0,6.893084E-1,0E0,0E0,0E0,0E0,0E0,0E0,0E0,0E0,0E0,0E0],"parents":[2147483647,0,0,1,1,2,2,3,3,4,4,6,6,8,8,9,9,10,10,11,11,12,12],"right_children":[2,4,6,8,10,-1,12,-1,14,16,18,20,22,-1,-1,-1,-1,-1,-1,-1,-1,-1,-1],"split_conditions":[2E0,7.835E1,6.32E1,-6.644835E-1,8.45E1,3.411783E-2,9.1E1,6.0078677E-2,3.8E0,7.67E1,9.055E1,1.5526626E-1,9.29E1,1.44254435E-2,-1.4114022E-2,1.5309247E-2,-8.885721E-3,1.5986556E-2,-7.837609E-5,2.253334E-3,-3.823046E-3,-1.5360552E-2,-5.127075E-4],"split_indices":[2,0,0,3,5,0,0,0,7,5,0,4,5,0,0,0,0,0,0,0,0,0,0],"split_type":[0,0,0,0,0,0,0,0,0,0,0,0,0,0,0,0,0,0,0,0,0,0,0],"sum_hessian":[8.96E2,2.14E2,6.82E2,4.3E1,1.71E2,4E0,6.78E2,5E0,3.8E1,5.6E1,1.15E2,6.32E2,4.6E1,3.3E1,5E0,4E0,5.2E1,5.4E1,6.1E1,3.09E2,3.23E2,3.6E1,1E1],"tree_param":{"num_deleted":"0","num_feature":"8","num_nodes":"23","size_leaf_vector":"1"}},{"base_weights":[4.079803E-3,2.3239005E-1,-1.2025405E-2,1.7310365E-1,5.1697265E-2,-1.8563095E-2,2.5161147E-1,-9.114802E-2,2.6740417E-1,-7.015416E-4,-1.3309024E-1,4.7013104E-1,-1.6224921E-1,-2.5950862E-2,2.3757713E-3,-2.5825042E-3,2.0369135E-2,5.0033904E-3,-1.2562055E-3,-8.7058125E-3,2.1613445E-2,3.1583782E-2,-4.582472E-3,2.5320048E-3,-1.9389926E-2],"categories":[],"categories_nodes":[],"categories_segments":[],"categories_sizes":[],"default_left":[0,0,0,0,0,0,0,0,0,0,0,0,0,0,0,0,0,0,0,0,0,0,0,0,0],"id":18,"left_children":[1,3,5,7,-1,9,11,13,15,17,19,21,23,-1,-1,-1,-1,-1,-1,-1,-1,-1,-1,-1,-1],"loss_changes":[3.4040048E0,2.7198217E0,1.4955643E0,1.4696797E0,0E0,1.7284665E0,1.975448E0,9.739383E-1,1.9414532E0,1.8039999E0,2.7194297E0,1.3284297E0,4.0377444E-1,0E0,0E0,0E0,0E0,0E0,0E0,0E0,0E0,0E0,0E0,0E0,0E0],"parents":[2147483647,0,0,1,1,2,2,3,3,5,5,6,6,7,7,8,8,9,9,10,10,11,11,12,12],"right_children":[2,4,6,8,-1,10,12,14,16,18,20,22,24,-1,-1,-1,-1,-1,-1,-1,-1,-1,-1,-1,-1],"split_conditions":[-5E0,4E0,9.4E1,7.34E1,5.1697265E-2,9.055E1,3.6E0,-1.25E0,-8.4E0,2E0,5.8045495E-1,7.94773E-2,-2E-1,-2.5950862E-2,2.3757713E-3,-2.5825042E-3,2.0369135E-2,5.0033904E-3,-1.2562055E-3,-8.7058125E-3,2.1613445E-2,3.1583782E-2,-4.582472E-3,2.5320048E-3,-1.9389926E-2],"split_indices":[7,1,0,0,0,0,6,6,7,2,3,3,7,0,0,0,0,0,0,0,0,0,0,0,0],"split_type":[0,0,0,0,0,0,0,0,0,0,0,0,0,0,0,0,0,0,0,0,0,0,0,0,0],"sum_hessian":[9.24E2,6E1,8.64E2,5.7E1,3E0,8.44E2,2E1,1.5E1,4.2E1,7.31E2,1.13E2,1.3E1,7E0,3E0,1.2E1,1.3E1,2.9E1,1.42E2,5.89E2,1.06E2,7E0,1E1,3E0,4E0,3E0],"tree_param":{"num_deleted":"0","num_feature":"8","num_nodes":"25","size_leaf_vector":"1"}},{"base_weights":[3.8173222E-3,2.0571603E-1,-1.1569981E-2,1.170546E-1,6.7278236E-1,2.2355534E-1,-2.0856064E-2,-1.970437E-1,2.751847E-1,7.030566E-2,1.5762441E-1,3.337214E-2,4.490068E-2,5.6467623E-2,-4.6005912E-2,-1.5314953E-2,-4.4869944E-3,9.726247E-3,4.459982E-2,1.39489025E-2,-1.5676767E-4,-6.2802546E-3,2.4141269E-2,1.0763824E-2,-2.8417545E-4,-7.8044075E-4,-7.0497035E-3],"categories":[],"categories_nodes":[],"categories_segments":[],"categories_sizes":[],"default_left":[0,0,0,0,0,0,0,0,0,0,0,0,0,0,0,0,0,0,0,0,0,0,0,0,0,0,0],"id":19,"left_children":[1,3,5,7,9,11,13,15,17,-1,19,21,-1,23,25,-1,-1,-1,-1,-1,-1,-1,-1,-1,-1,-1,-1],"loss_changes":[2.807709E0,2.5715368E0,1.8387127E0,2.7859848E0,3.5561743E0,4.0746922E0,1.5758432E0,1.9525963E-1,1.6673038E0,0E0,1.3743617E-1,1.918419E0,0E0,1.9653834E0,1.7619791E0,0E0,0E0,0E0,0E0,0E0,0E0,0E0,0E0,0E0,0E0,0E0,0E0],"parents":[2147483647,0,0,1,1,2,2,3,3,4,4,5,5,6,6,7,7,8,8,10,10,11,11,13,13,14,14],"right_children":[2,4,6,8,10,12,14,16,18,-1,20,22,-1,24,26,-1,-1,-1,-1,-1,-1,-1,-1,-1,-1,-1,-1],"split_conditions":[-5E0,1.7E0,-2.7E0,7.21E1,1.85E0,4.3E0,2E0,3E-1,9.701047E-1,7.030566E-2,-8.9882547E-1,8.805E1,4.490068E-2,-1E0,7.1504414E-1,-1.5314953E-2,-4.4869944E-3,9.726247E-3,4.459982E-2,1.39489025E-2,-1.5676767E-4,-6.2802546E-3,2.4141269E-2,1.0763824E-2,-2.8417545E-4,-7.8044075E-4,-7.0497035E-3],"split_indices":[7,6,6,5,6,7,2,6,4,0,4,0,0,7,4,0,0,0,0,0,0,0,0,0,0,0,0],"split_type":[0,0,0,0,0,0,0,0,0,0,0,0,0,0,0,0,0,0,0,0,0,0,0,0,0,0,0],"sum_hessian":[9.02E2,6.3E1,8.39E2,5.4E1,9E0,3.1E1,8.08E2,1.8E1,3.6E1,3E0,6E0,2.5E1,6E0,1.98E2,6.1E2,8E0,1E1,3.3E1,3E0,3E0,3E0,1.9E1,6E0,5.5E1,1.43E2,4.63E2,1.47E2],"tree_param":{"num_deleted":"0","num_feature":"8","num_nodes":"27","size_leaf_vector":"1"}},{"base_weights":[1.9340261E-3,7.877943E-2,-3.144386E-2,1.9485995E-2,3.7357047E-1,6.698076E-2,-7.8895E-2,-3.5243702E-1,3.932345E-2,9.062442E-1,1.8563558E-1,5.552603E-1,3.992575E-2,-1.3519625E-1,6.9810012E-3,-2.100696E-2,-8.681306E-3,-1.1811337E-3,9.053326E-3,5.407041E-2,1.4278221E-2,1.9556372E-3,3.104291E-2,-1.2236908E-2,4.42926E-2,1.3060786E-2,2.0432068E-4,-7.3602865E-3,1.633762E-2,3.14012E-2,-2.1449437E-3],"categories":[],"categories_nodes":[],"categories_segments":[],"categories_sizes":[],"default_left":[0,0,0,0,0,0,0,0,0,0,0,0,0,0,0,0,0,0,0,0,0,0,0,0,0,0,0,0,0,0,0],"id":20,"left_children":[1,3,5,7,9,11,13,15,17,19,21,23,25,27,29,-1,-1,-1,-1,-1,-1,-1,-1,-1,-1,-1,-1,-1,-1,-1,-1],"loss_changes":[2.3801742E0,4.904369E0,3.0270076E0,1.7476904E0,4.5368443E0,2.7652264E0,2.1138067E0,7.232356E-2,2.0028448E0,9.9583626E-1,2.2714381E0,3.1260028E0,1.5930406E0,1.5127082E0,5.417035E0,0E0,0E0,0E0,0E0,0E0,0E0,0E0,0E0,0E0,0E0,0E0,0E0,0E0,0E0,0E0,0E0],"parents":[2147483647,0,0,1,1,2,2,3,3,4,4,5,5,6,6,7,7,8,8,9,9,10,10,11,11,12,12,13,13,14,14],"right_children":[2,4,6,8,10,12,14,16,18,20,22,24,26,28,30,-1,-1,-1,-1,-1,-1,-1,-1,-1,-1,-1,-1,-1,-1,-1,-1],"split_conditions":[-8E-1,1.7E0,-6.5E-1,-9.726578E-1,8.235E1,7.45E1,8.65E1,8.885E1,8.45E1,2.4E0,-1.5E0,7.455E1,-2.6E0,9.994082E-1,8.615E1,-2.100696E-2,-8.681306E-3,-1.1811337E-3,9.053326E-3,5.407041E-2,1.4278221E-2,1.9556372E-3,3.104291E-2,-1.2236908E-2,4.42926E-2,1.3060786E-2,2.0432068E-4,-7.3602865E-3,1.633762E-2,3.14012E-2,-2.1449437E-3],"split_indices":[7,6,6,4,0,5,5,0,5,6,7,0,6,4,0,0,0,0,0,0,0,0,0,0,0,0,0,0,0,0,0],"split_type":[0,0,0,0,0,0,0,0,0,0,0,0,0,0,0,0,0,0,0,0,0,0,0,0,0,0,0,0,0,0,0],"sum_hessian":[9.26E2,2.8E2,6.46E2,2.34E2,4.6E1,2.1E2,4.36E2,1.1E1,2.23E2,1.1E1,3.5E1,1E1,2E2,2.63E2,1.73E2,7E0,4E0,1.55E2,6.8E1,8E0,3E0,2.7E1,8E0,3E0,7E0,2.7E1,1.73E2,2.57E2,6E0,1.2E1,1.61E2],"tree_param":{"num_deleted":"0","num_feature":"8","num_nodes":"31","size_leaf_vector":"1"}},{"base_weights":[3.1982532E-3,3.1269144E-2,-2.08882E-4,7.39499E-2,-2.3403151E-2,2.2609803E-1,3.3066873E-2,2.2945371E-1,-3.5120033E-2,6.460833E-2,4.6900916E-3,-7.6466347E-3,6.052881E-3,-1.3938551E-3,4.863822E-2,-1.139409E-3,-9.026484E-3],"categories":[],"categories_nodes":[],"categories_segments":[],"categories_sizes":[],"default_left":[0,0,0,0,0,0,0,0,0,0,0,0,0,0,0,0,0],"id":21,"left_children":[1,-1,3,5,7,9,11,13,15,-1,-1,-1,-1,-1,-1,-1,-1],"loss_changes":[1.9461688E0,0E0,1.5738643E0,1.3485438E0,2.0730562E0,6.3664846E0,2.8498733E0,5.956697E0,1.1919304E0,0E0,0E0,0E0,0E0,0E0,0E0,0E0,0E0],"parents":[2147483647,0,0,2,2,3,3,4,4,5,5,6,6,7,7,8,8],"right_children":[2,-1,4,6,8,10,12,14,16,-1,-1,-1,-1,-1,-1,-1,-1],"split_conditions":[6.32E1,3.1269144E-2,2E0,7.835E1,-2.6E0,-6.644835E-1,8.45E1,-2.9E0,9.1E1,6.460833E-2,4.6900916E-3,-7.6466347E-3,6.052881E-3,-1.3938551E-3,4.863822E-2,-1.139409E-3,-9.026484E-3],"split_indices":[0,0,2,0,6,3,5,6,0,0,0,0,0,0,0,0,0],"split_type":[0,0,0,0,0,0,0,0,0,0,0,0,0,0,0,0,0],"sum_hessian":[9.17E2,4E0,9.13E2,2.17E2,6.96E2,4.5E1,1.72E2,3E1,6.66E2,4E0,4.1E1,5.5E1,1.17E2,2.3E1,7E0,6.15E2,5.1E1],"tree_param":{"num_deleted":"0","num_feature":"8","num_nodes":"17","size_leaf_vector":"1"}},{"base_weights":[4.2666358E-4,-1.0356576E-2,2.6340604E-1,8.742602E-2,-4.378092E-2,1.6523264E-1,5.037425E-2,2.5294998E-1,3.8407933E-2,-2.7827468E-2,-1.7670865E-1,2.184245E-1,-8.816333E-3,5.3423878E-2,7.0538945E-3,-7.3761917E-3,6.2791244E-3,-2.744395E-3,3.2376733E-3,-1.1320001E-2,7.203979E-3,1.3317053E-2,-3.2421567E-3],"categories":[],"categories_nodes":[],"categories_segments":[],"categories_sizes":[],"default_left":[0,0,0,0,0,0,0,0,0,0,0,0,0,0,0,0,0,0,0,0,0,0,0],"id":22,"left_children":[1,3,5,7,9,11,-1,13,15,17,19,21,-1,-1,-1,-1,-1,-1,-1,-1,-1,-1,-1],"loss_changes":[2.591786E0,2.8734117E0,2.463286E0,1.8077464E0,1.3841126E0,6.380639E-1,0E0,4.5022345E0,2.8388083E0,1.4716485E0,1.1484482E0,4.1089332E-1,0E0,0E0,0E0,0E0,0E0,0E0,0E0,0E0,0E0,0E0,0E0],"parents":[2147483647,0,0,1,1,2,2,3,3,4,4,5,5,7,7,8,8,9,9,10,10,11,11],"right_children":[2,4,6,8,10,12,-1,14,16,18,20,22,-1,-1,-1,-1,-1,-1,-1,-1,-1,-1,-1],"split_conditions":[4.6E0,2E0,8.217133E-1,7.835E1,9.025E1,4.8784715E-1,5.037425E-2,-6.644835E-1,8.45E1,2.6E0,9.36E1,9.04E1,-8.816333E-3,5.3423878E-2,7.0538945E-3,-7.3761917E-3,6.2791244E-3,-2.744395E-3,3.2376733E-3,-1.1320001E-2,7.203979E-3,1.3317053E-2,-3.2421567E-3],"split_indices":[1,2,4,0,0,3,0,3,5,1,5,5,0,0,0,0,0,0,0,0,0,0,0],"split_type":[0,0,0,0,0,0,0,0,0,0,0,0,0,0,0,0,0,0,0,0,0,0,0],"sum_hessian":[9.12E2,8.77E2,3.5E1,2.23E2,6.54E2,3.2E1,3E0,5E1,1.73E2,5.85E2,6.9E1,2.8E1,4E0,5E0,4.5E1,5.5E1,1.18E2,4.53E2,1.32E2,6E1,9E0,2.4E1,4E0],"tree_param":{"num_deleted":"0","num_feature":"8","num_nodes":"23","size_leaf_vector":"1"}},{"base_weights":[-5.7827746E-3,1.066997E-1,-2.7798682E-2,4.6720754E-2,3.8864928E-1,4.4912845E-2,-6.45306E-2,1.9641279E-1,-1.5751599E-1,1.9936149E-1,4.931909E-2,5.107086E-1,2.3902008E-2,-1.572696E-1,-2.756381E-2,-3.5171316E-3,2.119663E-2,4.943899E-3,-1.30663095E-2,1.5515596E-2,-6.486663E-3,-5.3870683E-3,4.3975007E-2,2.6080047E-4,1.4609362E-2,-8.72565E-3,1.34207E-2,1.2050627E-3,-6.9595114E-3],"categories":[],"categories_nodes":[],"categories_segments":[],"categories_sizes":[],"default_left":[0,0,0,0,0,0,0,0,0,0,0,0,0,0,0,0,0,0,0,0,0,0,0,0,0,0,0,0,0],"id":23,"left_children":[1,3,5,7,9,11,13,15,17,19,-1,21,23,25,27,-1,-1,-1,-1,-1,-1,-1,-1,-1,-1,-1,-1,-1,-1],"loss_changes":[2.254017E0,2.501587E0,2.0354028E0,3.8219423E0,2.7450833E0,2.493203E0,1.7303662E0,4.3996544E0,1.4365036E0,8.070352E-1,0E0,2.6036289E0,1.2317176E0,1.1038346E0,2.096843E0,0E0,0E0,0E0,0E0,0E0,0E0,0E0,0E0,0E0,0E0,0E0,0E0,0E0,0E0],"parents":[2147483647,0,0,1,1,2,2,3,3,4,4,5,5,6,6,7,7,8,8,9,9,11,11,12,12,13,13,14,14],"right_children":[2,4,6,8,10,12,14,16,18,20,-1,22,24,26,28,-1,-1,-1,-1,-1,-1,-1,-1,-1,-1,-1,-1,-1,-1],"split_conditions":[-2.1E0,8.6E1,-6E-1,7.93E1,-2.7E0,7.43E1,8.12E1,7.35E1,-6.474428E-1,9.18E1,4.931909E-2,7.455E1,-7E-1,9.994082E-1,9.02E1,-3.5171316E-3,2.119663E-2,4.943899E-3,-1.30663095E-2,1.5515596E-2,-6.486663E-3,-5.3870683E-3,4.3975007E-2,2.6080047E-4,1.4609362E-2,-8.72565E-3,1.34207E-2,1.2050627E-3,-6.9595114E-3],"split_indices":[7,5,6,5,7,5,5,5,4,0,0,0,6,4,0,0,0,0,0,0,0,0,0,0,0,0,0,0,0],"split_type":[0,0,0,0,0,0,0,0,0,0,0,0,0,0,0,0,0,0,0,0,0,0,0,0,0,0,0,0,0],"sum_hessian":[9.08E2,1.48E2,7.6E2,1.23E2,2.5E1,2.55E2,5.05E2,7.1E1,5.2E1,2E1,5E0,1E1,2.45E2,1.43E2,3.62E2,3.3E1,3.8E1,1.5E1,3.7E1,1.5E1,5E0,4E0,6E0,2.3E2,1.5E1,1.38E2,5E0,2.48E2,1.14E2],"tree_param":{"num_deleted":"0","num_feature":"8","num_nodes":"29","size_leaf_vector":"1"}},{"base_weights":[9.313198E-3,-2.2125356E-3,2.82564E-1,2.0406742E-1,-1.1530521E-2,1.9289476E-1,4.870559E-2,2.6852619E-2,9.850398E-1,6.2329993E-2,-3.7797257E-2,4.3827626E-1,7.239096E-2,1.1676034E-2,-1.2777175E-2,1.7541973E-2,6.864902E-2,1.1647652E-2,5.53896E-4,-3.2920105E-4,-6.1306492E-3,1.3607203E-2,3.304858E-2,7.772387E-3,-1.3715717E-2],"categories":[],"categories_nodes":[],"categories_segments":[],"categories_sizes":[],"default_left":[0,0,0,0,0,0,0,0,0,0,0,0,0,0,0,0,0,0,0,0,0,0,0,0,0],"id":24,"left_children":[1,3,5,7,9,11,-1,13,15,17,19,21,23,-1,-1,-1,-1,-1,-1,-1,-1,-1,-1,-1,-1],"loss_changes":[2.8791914E0,1.689969E0,2.1064906E0,5.2327447E0,1.6339587E0,9.7363234E-1,0E0,1.9272667E0,1.2405276E0,1.9300166E0,1.6432116E0,2.270863E-1,7.337509E-1,0E0,0E0,0E0,0E0,0E0,0E0,0E0,0E0,0E0,0E0,0E0,0E0],"parents":[2147483647,0,0,1,1,2,2,3,3,4,4,5,5,7,7,8,8,9,9,10,10,11,11,12,12],"right_children":[2,4,6,8,10,12,-1,14,16,18,20,22,24,-1,-1,-1,-1,-1,-1,-1,-1,-1,-1,-1,-1],"split_conditions":[4.6E0,-2.6E0,8.217133E-1,-2.8E0,2E0,2E-1,4.870559E-2,7.536977E-1,9.3957E-1,7.835E1,7.1504414E-1,9.005E1,9.04E1,1.1676034E-2,-1.2777175E-2,1.7541973E-2,6.864902E-2,1.1647652E-2,5.53896E-4,-3.2920105E-4,-6.1306492E-3,1.3607203E-2,3.304858E-2,7.772387E-3,-1.3715717E-2],"split_indices":[1,6,4,6,2,6,0,3,3,0,4,0,5,0,0,0,0,0,0,0,0,0,0,0,0],"split_type":[0,0,0,0,0,0,0,0,0,0,0,0,0,0,0,0,0,0,0,0,0,0,0,0,0],"sum_hessian":[9.13E2,8.77E2,3.6E1,3.7E1,8.4E2,3.3E1,3E0,3.1E1,6E0,2.2E2,6.2E2,1E1,2.3E1,1.8E1,1.3E1,3E0,3E0,5E1,1.7E2,4.54E2,1.66E2,7E0,3E0,1.9E1,4E0],"tree_param":{"num_deleted":"0","num_feature":"8","num_nodes":"25","size_leaf_vector":"1"}},{"base_weights":[9.964975E-3,8.4639415E-2,-2.2522915E-2,4.444579E-2,2.7547055E-1,-1.5114151E-2,-3.76981E-1,1.6193578E-2,2.9801163E-1,9.497834E-1,1.5652627E-1,-2.45695E-2,3.7104133E-1,-2.8287461E-2,-2.3022299E-1,8.402693E-3,-1.4591061E-3,6.80828E-2,3.5191074E-3,6.2339343E-2,2.0766703E-2,-2.6446357E-3,2.5006896E-2,3.2255816E-4,-5.4579526E-3,3.0033682E-2,4.7514434E-3,-1.5270501E-2,-7.0863888E-3],"categories":[],"categories_nodes":[],"categories_segments":[],"categories_sizes":[],"default_left":[0,0,0,0,0,0,0,0,0,0,0,0,0,0,0,0,0,0,0,0,0,0,0,0,0,0,0,0,0],"id":25,"left_children":[1,3,5,7,9,11,13,15,17,19,21,23,25,-1,27,-1,-1,-1,-1,-1,-1,-1,-1,-1,-1,-1,-1,-1,-1],"loss_changes":[2.2168581E0,2.1124005E0,1.6671258E0,1.6428472E0,3.701206E0,2.291138E0,2.2989368E-1,1.4381838E0,5.472851E0,5.9330034E-1,3.0487237E0,1.6039829E0,8.936393E-1,0E0,1.6598135E-2,0E0,0E0,0E0,0E0,0E0,0E0,0E0,0E0,0E0,0E0,0E0,0E0,0E0,0E0],"parents":[2147483647,0,0,1,1,2,2,3,3,4,4,5,5,6,6,7,7,8,8,9,9,10,10,11,11,12,12,14,14],"right_children":[2,4,6,8,10,12,14,16,18,20,22,24,26,-1,28,-1,-1,-1,-1,-1,-1,-1,-1,-1,-1,-1,-1,-1,-1],"split_conditions":[-8E-1,1.7E0,3.9E0,9.1380763E-1,1.85E0,9.4E1,-3.7347654E-1,2E-1,9.335419E-1,-6.6E0,-1.4357242E-1,8.5E-1,9.05E1,-2.8287461E-2,8.84E1,8.402693E-3,-1.4591061E-3,6.80828E-2,3.5191074E-3,6.2339343E-2,2.0766703E-2,-2.6446357E-3,2.5006896E-2,3.2255816E-4,-5.4579526E-3,3.0033682E-2,4.7514434E-3,-1.5270501E-2,-7.0863888E-3],"split_indices":[7,6,6,3,6,0,3,1,3,7,3,6,5,0,0,0,0,0,0,0,0,0,0,0,0,0,0,0,0],"split_type":[0,0,0,0,0,0,0,0,0,0,0,0,0,0,0,0,0,0,0,0,0,0,0,0,0,0,0,0,0],"sum_hessian":[9.12E2,2.76E2,6.36E2,2.29E2,4.7E1,6.24E2,1.2E1,2.07E2,2.2E1,6E0,4.1E1,6.1E2,1.4E1,4E0,8E0,4.7E1,1.6E2,3E0,1.9E1,3E0,3E0,2.6E1,1.5E1,4.47E2,1.63E2,7E0,7E0,3E0,5E0],"tree_param":{"num_deleted":"0","num_feature":"8","num_nodes":"29","size_leaf_vector":"1"}},{"base_weights":[4.722771E-3,-5.2980785E-3,2.5482276E-1,6.2457137E-2,-4.2094037E-2,1.6330218E-1,4.6164084E-2,-8.8196635E-2,1.0311842E-1,-5.881219E-3,-1.5043606E-1,3.0122042E-1,-3.5537016E-2,2.1557997E-5,-1.6228069E-2,-9.985007E-3,6.2671094E-3,1.2638683E-3,-7.3717386E-3,-4.8875953E-3,-1.8072233E-2,2.1207297E-2,5.8754594E-3,1.46780675E-2,-9.826625E-3],"categories":[],"categories_nodes":[],"categories_segments":[],"categories_sizes":[],"default_left":[0,0,0,0,0,0,0,0,0,0,0,0,0,0,0,0,0,0,0,0,0,0,0,0,0],"id":26,"left_children":[1,3,5,7,9,11,-1,13,15,17,19,21,23,-1,-1,-1,-1,-1,-1,-1,-1,-1,-1,-1,-1],"loss_changes":[2.2769926E0,2.1816144E0,1.990447E0,1.8958335E0,2.2236657E0,8.882582E-1,0E0,1.38274E0,1.6603653E0,1.8826458E0,1.5432551E0,3.7923205E-1,7.9946125E-1,0E0,0E0,0E0,0E0,0E0,0E0,0E0,0E0,0E0,0E0,0E0,0E0],"parents":[2147483647,0,0,1,1,2,2,3,3,4,4,5,5,7,7,8,8,9,9,10,10,11,11,12,12],"right_children":[2,4,6,8,10,12,-1,14,16,18,20,22,24,-1,-1,-1,-1,-1,-1,-1,-1,-1,-1,-1,-1],"split_conditions":[4.6E0,7E-1,8.217133E-1,-8.6923283E-1,6.748633E-1,-4.20831E-1,4.6164084E-2,1.85E0,-9.914097E-1,9.025E1,5.7518995E-1,8.5E-1,-9.870237E-1,2.1557997E-5,-1.6228069E-2,-9.985007E-3,6.2671094E-3,1.2638683E-3,-7.3717386E-3,-4.8875953E-3,-1.8072233E-2,2.1207297E-2,5.8754594E-3,1.46780675E-2,-9.826625E-3],"split_indices":[1,1,4,3,4,3,0,6,4,0,3,6,4,0,0,0,0,0,0,0,0,0,0,0,0],"split_type":[0,0,0,0,0,0,0,0,0,0,0,0,0,0,0,0,0,0,0,0,0,0,0,0,0],"sum_hessian":[9.07E2,8.73E2,3.4E1,3.07E2,5.66E2,3.1E1,3E0,6.5E1,2.42E2,4.25E2,1.41E2,1.8E1,1.3E1,4.8E1,1.7E1,1.6E1,2.26E2,3.49E2,7.6E1,1.14E2,2.7E1,1E1,8E0,4E0,9E0],"tree_param":{"num_deleted":"0","num_feature":"8","num_nodes":"25","size_leaf_vector":"1"}},{"base_weights":[1.2340359E-2,2.7100253E-3,2.4580069E-1,7.94166E-2,-1.4197016E-2,7.9572016E-1,1.0929279E-1,5.4704535E-1,4.7499124E-2,5.711188E-2,-5.08746E-2,5.2854754E-2,1.6770761E-2,3.114338E-1,-7.3494078E-3,-2.291969E-3,5.7454895E-2,-8.929614E-3,4.6168705E-3,1.622236E-2,1.3236635E-3,-3.0052213E-3,1.1778247E-2,8.53826E-3,2.2304153E-2,-5.4124394E-3,1.5849924E-2],"categories":[],"categories_nodes":[],"categories_segments":[],"categories_sizes":[],"default_left":[0,0,0,0,0,0,0,0,0,0,0,0,0,0,0,0,0,0,0,0,0,0,0,0,0,0,0],"id":27,"left_children":[1,3,5,7,9,11,13,15,17,19,21,-1,-1,23,25,-1,-1,-1,-1,-1,-1,-1,-1,-1,-1,-1,-1],"loss_changes":[2.0430396E0,1.1346017E0,2.615494E0,2.3322494E0,1.8781744E0,4.876194E-1,7.0963395E-1,3.6221514E0,1.5269859E0,1.9899614E0,1.2673131E0,0E0,0E0,1.3217473E-1,6.888447E-1,0E0,0E0,0E0,0E0,0E0,0E0,0E0,0E0,0E0,0E0,0E0,0E0],"parents":[2147483647,0,0,1,1,2,2,3,3,4,4,5,5,6,6,7,7,8,8,9,9,10,10,13,13,14,14],"right_children":[2,4,6,8,10,12,14,16,18,20,22,-1,-1,24,26,-1,-1,-1,-1,-1,-1,-1,-1,-1,-1,-1,-1],"split_conditions":[4.6E0,-2E0,-1.9E0,-9.800709E-1,-6.5E-1,5.4E0,2E-1,2.1E0,-1.1E0,7.61E1,9.4E1,5.2854754E-2,1.6770761E-2,1E-1,-4.7748944E-1,-2.291969E-3,5.7454895E-2,-8.929614E-3,4.6168705E-3,1.622236E-2,1.3236635E-3,-3.0052213E-3,1.1778247E-2,8.53826E-3,2.2304153E-2,-5.4124394E-3,1.5849924E-2],"split_indices":[1,7,7,4,6,1,6,6,6,0,0,0,0,7,4,0,0,0,0,0,0,0,0,0,0,0,0],"split_type":[0,0,0,0,0,0,0,0,0,0,0,0,0,0,0,0,0,0,0,0,0,0,0,0,0,0,0],"sum_hessian":[9.08E2,8.73E2,3.5E1,1.57E2,7.16E2,6E0,2.9E1,9E0,1.48E2,2.43E2,4.73E2,3E0,3E0,1E1,1.9E1,5E0,4E0,2.4E1,1.24E2,2.4E1,2.19E2,4.59E2,1.4E1,6E0,4E0,1.5E1,4E0],"tree_param":{"num_deleted":"0","num_feature":"8","num_nodes":"27","size_leaf_vector":"1"}},{"base_weights":[5.1922263E-3,-4.688412E-3,2.5064832E-1,1.4159736E-1,-1.43515E-2,4.330009E-2,1.6589639E-1,-4.489644E-2,2.9228893E-1,1.0426922E-2,-6.269365E-2,2.8126198E-1,-7.9916276E-2,1.0808094E-2,-5.245763E-3,-1.4666291E-2,2.1057246E-2,7.3185647E-3,-7.973248E-4,-5.5428003E-3,1.6893663E-3,2.4892503E-2,6.096832E-3,7.603207E-4,-9.85524E-3],"categories":[],"categories_nodes":[],"categories_segments":[],"categories_sizes":[],"default_left":[0,0,0,0,0,0,0,0,0,0,0,0,0,0,0,0,0,0,0,0,0,0,0,0,0],"id":28,"left_children":[1,3,5,7,9,-1,11,13,15,17,19,21,23,-1,-1,-1,-1,-1,-1,-1,-1,-1,-1,-1,-1],"loss_changes":[2.1936126E0,1.2318399E0,1.6816671E0,1.5306871E0,9.7929066E-1,0E0,9.2994374E-1,4.1438904E-1,2.3873312E0,1.9419911E0,1.2908958E0,6.984694E-1,1.2561741E-1,0E0,0E0,0E0,0E0,0E0,0E0,0E0,0E0,0E0,0E0,0E0,0E0],"parents":[2147483647,0,0,1,1,2,2,3,3,4,4,6,6,7,7,8,8,9,9,10,10,11,11,12,12],"right_children":[2,4,6,8,10,-1,12,14,16,18,20,22,24,-1,-1,-1,-1,-1,-1,-1,-1,-1,-1,-1,-1],"split_conditions":[4.6E0,-5.2E0,-5.1E0,-8.4E0,7E-1,4.330009E-2,4.514102E-2,2E-1,7.31E1,2E0,-9.2331335E-2,2E-1,5.5E-1,1.0808094E-2,-5.245763E-3,-1.4666291E-2,2.1057246E-2,7.3185647E-3,-7.973248E-4,-5.5428003E-3,1.6893663E-3,2.4892503E-2,6.096832E-3,7.603207E-4,-9.85524E-3],"split_indices":[1,7,7,7,6,0,3,1,0,2,3,6,6,0,0,0,0,0,0,0,0,0,0,0,0],"split_type":[0,0,0,0,0,0,0,0,0,0,0,0,0,0,0,0,0,0,0,0,0,0,0,0,0],"sum_hessian":[9.03E2,8.69E2,3.4E1,5.3E1,8.16E2,3E0,3.1E1,2.4E1,2.9E1,5.4E2,2.76E2,2.1E1,1E1,4E0,2E1,5E0,2.4E1,8.7E1,4.53E2,1.84E2,9.2E1,8E0,1.3E1,6E0,4E0],"tree_param":{"num_deleted":"0","num_feature":"8","num_nodes":"25","size_leaf_vector":"1"}},{"base_weights":[4.853409E-3,7.608794E-2,-2.6601158E-2,3.9574478E-2,2.4667E-1,-6.6539265E-2,3.8908336E-2,9.275664E-3,3.587632E-1,4.64916E-1,-1.550268E-1,3.2446682E-2,-1.13921456E-1,-1.831812E-1,9.3941435E-2,5.776962E-3,-2.3099727E-3,6.597468E-5,2.5592957E-2,1.4329428E-3,3.1718966E-2,-1.4751248E-2,1.33986715E-2,2.3397304E-2,-2.2112833E-4,-6.127844E-3,1.4035316E-2,4.3143095E-3,-1.3281259E-2,8.288958E-3,-2.3401782E-3],"categories":[],"categories_nodes":[],"categories_segments":[],"categories_sizes":[],"default_left":[0,0,0,0,0,0,0,0,0,0,0,0,0,0,0,0,0,0,0,0,0,0,0,0,0,0,0,0,0,0,0],"id":29,"left_children":[1,3,5,7,9,11,13,15,17,19,21,23,25,27,29,-1,-1,-1,-1,-1,-1,-1,-1,-1,-1,-1,-1,-1,-1,-1,-1],"loss_changes":[2.0410166E0,1.7280012E0,1.6561066E0,2.2306821E0,4.3678412E0,1.8469336E0,2.9505544E0,1.2550744E0,1.0937879E0,2.3475652E0,1.1450055E0,2.057306E0,9.4087124E-1,1.0892863E0,1.9591435E0,0E0,0E0,0E0,0E0,0E0,0E0,0E0,0E0,0E0,0E0,0E0,0E0,0E0,0E0,0E0,0E0],"parents":[2147483647,0,0,1,1,2,2,3,3,4,4,5,5,6,6,7,7,8,8,9,9,10,10,11,11,12,12,13,13,14,14],"right_children":[2,4,6,8,10,12,14,16,18,20,22,24,26,28,30,-1,-1,-1,-1,-1,-1,-1,-1,-1,-1,-1,-1,-1,-1,-1,-1],"split_conditions":[-8E-1,1.7E0,8.65E1,-1E0,8.67E1,-8.5E-1,1E-1,7E-1,-5.5E-1,-8.517119E-1,4.7E0,7.43E1,9.994082E-1,8.83E1,9.04E1,5.776962E-3,-2.3099727E-3,6.597468E-5,2.5592957E-2,1.4329428E-3,3.1718966E-2,-1.4751248E-2,1.33986715E-2,2.3397304E-2,-2.2112833E-4,-6.127844E-3,1.4035316E-2,4.3143095E-3,-1.3281259E-2,8.288958E-3,-2.3401782E-3],"split_indices":[7,6,5,7,5,6,7,1,6,3,6,5,4,5,5,0,0,0,0,0,0,0,0,0,0,0,0,0,0,0,0],"split_type":[0,0,0,0,0,0,0,0,0,0,0,0,0,0,0,0,0,0,0,0,0,0,0,0,0,0,0,0,0,0,0],"sum_hessian":[9.09E2,2.78E2,6.31E2,2.3E2,4.8E1,3.92E2,2.39E2,2.11E2,1.9E1,3.1E1,1.7E1,1.27E2,2.65E2,4.7E1,1.92E2,7.2E1,1.39E2,6E0,1.3E1,9E0,2.2E1,1.3E1,4E0,9E0,1.18E2,2.6E2,5E0,1.1E1,3.6E1,1.27E2,6.5E1],"tree_param":{"num_deleted":"0","num_feature":"8","num_nodes":"31","size_leaf_vector":"1"}},{"base_weights":[6.6333096E-3,-5.1357E-3,1.479348E-1,1.965504E-1,-1.4399365E-2,4.9534675E-1,-3.2614604E-2,2.6764188E-2,8.086799E-1,6.1738033E-2,-4.224899E-2,8.5735446E-1,2.6075822E-1,2.556851E-1,-1.1744385E-1,-4.7319354E-3,2.195896E-2,1.2149395E-2,6.568124E-2,8.724332E-3,-1.6269191E-4,-1.2077667E-3,-1.0083685E-2,5.1907342E-2,1.8591367E-2,2.0538326E-2,-2.885834E-3,4.0564043E-3,1.7192112E-2,-4.0636188E-4,-1.7225476E-2],"categories":[],"categories_nodes":[],"categories_segments":[],"categories_sizes":[],"default_left":[0,0,0,0,0,0,0,0,0,0,0,0,0,0,0,0,0,0,0,0,0,0,0,0,0,0,0,0,0,0,0],"id":30,"left_children":[1,3,5,7,9,11,13,15,17,19,21,23,25,27,29,-1,-1,-1,-1,-1,-1,-1,-1,-1,-1,-1,-1,-1,-1,-1,-1],"loss_changes":[1.5140703E0,1.5741144E0,4.406907E0,3.8238087E0,1.7095288E0,1.8145866E0,1.1794722E0,1.5436147E0,1.9659514E0,1.5833604E0,1.697028E0,4.0400505E-1,7.880901E-1,1.4137769E-1,9.1561586E-1,0E0,0E0,0E0,0E0,0E0,0E0,0E0,0E0,0E0,0E0,0E0,0E0,0E0,0E0,0E0,0E0],"parents":[2147483647,0,0,1,1,2,2,3,3,4,4,5,5,6,6,7,7,8,8,9,9,10,10,11,11,12,12,13,13,14,14],"right_children":[2,4,6,8,10,12,14,16,18,20,22,24,26,28,30,-1,-1,-1,-1,-1,-1,-1,-1,-1,-1,-1,-1,-1,-1,-1,-1],"split_conditions":[3.8E0,-2.6E0,1E-1,-2.8E0,2E0,4.3E0,-7.393923E-1,8.83E1,9.3957E-1,5.5E-1,9.025E1,8.735E1,4.514102E-2,-1.5E0,8.94E1,-4.7319354E-3,2.195896E-2,1.2149395E-2,6.568124E-2,8.724332E-3,-1.6269191E-4,-1.2077667E-3,-1.0083685E-2,5.1907342E-2,1.8591367E-2,2.0538326E-2,-2.885834E-3,4.0564043E-3,1.7192112E-2,-4.0636188E-4,-1.7225476E-2],"split_indices":[1,6,6,6,2,1,3,0,3,6,0,0,3,7,5,0,0,0,0,0,0,0,0,0,0,0,0,0,0,0,0],"split_type":[0,0,0,0,0,0,0,0,0,0,0,0,0,0,0,0,0,0,0,0,0,0,0,0,0,0,0,0,0,0,0],"sum_hessian":[9.09E2,8.4E2,6.9E1,3.6E1,8.04E2,2.3E1,4.6E1,2.9E1,7E0,2.15E2,5.89E2,8E0,1.5E1,1E1,3.6E1,2.3E1,6E0,4E0,3E0,7.8E1,1.37E2,5.3E2,5.9E1,5E0,3E0,1E1,5E0,4E0,6E0,2.5E1,1.1E1],"tree_param":{"num_deleted":"0","num_feature":"8","num_nodes":"31","size_leaf_vector":"1"}},{"base_weights":[6.439481E-3,2.188648E-1,-1.8841495E-3,5.1302526E-2,7.7797467E-1,8.856616E-3,-1.4131685E-1,2.5354508E-1,-1.4087735E-1,1.1663417E-2,6.32182E-2,1.3554544E-3,3.2936126E-1,-3.716646E-1,-8.649628E-2,-6.073241E-3,1.8343138E-2,8.744366E-3,-1.3579986E-2,2.8357599E-2,-7.201379E-5,2.4726377E-3,4.0106986E-2,-4.5521753E-3,-2.2754451E-2,6.0330774E-3,-1.029049E-2],"categories":[],"categories_nodes":[],"categories_segments":[],"categories_sizes":[],"default_left":[0,0,0,0,0,0,0,0,0,0,0,0,0,0,0,0,0,0,0,0,0,0,0,0,0,0,0],"id":31,"left_children":[1,3,5,7,9,11,13,15,17,-1,-1,19,21,23,25,-1,-1,-1,-1,-1,-1,-1,-1,-1,-1,-1,-1],"loss_changes":[1.6412554E0,3.2390883E0,1.3401185E0,1.1239933E0,1.8245788E0,1.9974082E0,7.76031E-1,6.394945E-1,6.6666186E-1,0E0,0E0,1.286832E0,2.4746916E0,2.3949492E-1,1.33482E0,0E0,0E0,0E0,0E0,0E0,0E0,0E0,0E0,0E0,0E0,0E0,0E0],"parents":[2147483647,0,0,1,1,2,2,3,3,4,4,5,5,6,6,7,7,8,8,11,11,12,12,13,13,14,14],"right_children":[2,4,6,8,10,12,14,16,18,-1,-1,20,22,24,26,-1,-1,-1,-1,-1,-1,-1,-1,-1,-1,-1,-1],"split_conditions":[-2.6E0,-2.8E0,9.4532007E-1,-3.65E0,9.3957E-1,9.1380763E-1,7E-1,-4.300593E-3,-4.517858E-1,1.1663417E-2,6.32182E-2,6.32E1,-1.15E0,7.86E1,7.975E1,-6.073241E-3,1.8343138E-2,8.744366E-3,-1.3579986E-2,2.8357599E-2,-7.201379E-5,2.4726377E-3,4.0106986E-2,-4.5521753E-3,-2.2754451E-2,6.0330774E-3,-1.029049E-2],"split_indices":[6,6,3,6,3,3,1,3,3,0,0,0,6,5,0,0,0,0,0,0,0,0,0,0,0,0,0],"split_type":[0,0,0,0,0,0,0,0,0,0,0,0,0,0,0,0,0,0,0,0,0,0,0,0,0,0,0],"sum_hessian":[9.27E2,3.4E1,8.93E2,2.7E1,7E0,8.3E2,6.3E1,1.3E1,1.4E1,4E0,3E0,8.12E2,1.8E1,1.1E1,5.2E1,3E0,1E1,4E0,1E1,3E0,8.09E2,1.2E1,6E0,3E0,8E0,1.9E1,3.3E1],"tree_param":{"num_deleted":"0","num_feature":"8","num_nodes":"27","size_leaf_vector":"1"}}]},"name":"gbtree"},"learner_model_param":{"base_score":"[8.260136E-1]","boost_from_average":"1","num_class":"0","num_feature":"8","num_target":"1"},"objective":{"name":"reg:squarederror","reg_loss_param":{"scale_pos_weight":"1"}}},"version":[3,2,0]}