{"learner":{"attributes":{"best_iteration":"20","best_score":"1.0999544507235555","scikit_learn":"{\"_estimator_type\": \"regressor\"}"},"feature_names":[],"feature_types":[],"gradient_booster":{"model":{"cats":{"enc":[],"feature_segments":[],"sorted_idx":[]},"gbtree_model_param":{"num_parallel_tree":"1","num_trees":"51"},"iteration_indptr":[0,1,2,3,4,5,6,7,8,9,10,11,12,13,14,15,16,17,18,19,20,21,22,23,24,25,26,27,28,29,30,31,32,33,34,35,36,37,38,39,40,41,42,43,44,45,46,47,48,49,50,51],"tree_info":[0,0,0,0,0,0,0,0,0,0,0,0,0,0,0,0,0,0,0,0,0,0,0,0,0,0,0,0,0,0,0,0,0,0,0,0,0,0,0,0,0,0,0,0,0,0,0,0,0,0,0],"trees":[{"base_weights":[6.6256854E-3,3.6357054E-1,-1.0829612E-1,3.1783795E-1,8.702112E-1,-4.1034228E-1,-6.463076E-2,2.4863574E-1,5.900131E-1,2.150538E0,2.873642E-1,-6.4871186E-1,-2.8762674E-1,7.7239205E-3,-2.7392894E-1,9.779236E-3,4.0068083E-2,4.7140088E-2,-3.248037E-3,6.986841E-2,2.3396333E-1,8.115667E-3,5.6339998E-2,-1.3465032E-2,-3.468415E-2,-1.5634349E-2,3.7614588E-2,-1.1110879E-2,5.5208514E-3,-1.7010164E-2,-5.883893E-4],"categories":[],"categories_nodes":[],"categories_segments":[],"categories_sizes":[],"default_left":[0,0,0,0,0,0,0,0,0,0,0,0,0,0,0,0,0,0,0,0,0,0,0,0,0,0,0,0,0,0,0],"id":0,"left_children":[1,3,5,7,9,11,13,15,17,19,21,23,25,27,29,-1,-1,-1,-1,-1,-1,-1,-1,-1,-1,-1,-1,-1,-1,-1,-1],"loss_changes":[1.8426355E2,2.507135E1,4.4789536E1,1.8782608E1,6.654312E1,1.2362373E1,4.4978912E1,2.3389374E1,4.696791E1,4.6789078E1,6.4303527E0,2.2872658E0,7.6625004E0,5.2162937E1,1.3252777E1,0E0,0E0,0E0,0E0,0E0,0E0,0E0,0E0,0E0,0E0,0E0,0E0,0E0,0E0,0E0,0E0],"parents":[2147483647,0,0,1,1,2,2,3,3,4,4,5,5,6,6,7,7,8,8,9,9,10,10,11,11,12,12,13,13,14,14],"right_children":[2,4,6,8,10,12,14,16,18,20,22,24,26,28,30,-1,-1,-1,-1,-1,-1,-1,-1,-1,-1,-1,-1,-1,-1,-1,-1],"split_conditions":[2E0,3.6948368E-1,4.745E1,1E0,6.07E1,1.20126165E-1,1E0,9.11E1,9.8E1,1E0,1E0,2.66E1,9.9920887E-1,-5.7166666E-1,8.86E1,9.779236E-3,4.0068083E-2,4.7140088E-2,-3.248037E-3,6.986841E-2,2.3396333E-1,8.115667E-3,5.6339998E-2,-1.3465032E-2,-3.468415E-2,-1.5634349E-2,3.7614588E-2,-1.1110879E-2,5.5208514E-3,-1.7010164E-2,-5.883893E-4],"split_indices":[2,3,0,9,0,3,8,0,0,9,5,0,3,3,0,0,0,0,0,0,0,0,0,0,0,0,0,0,0,0,0],"split_type":[0,0,0,0,0,0,0,0,0,0,0,0,0,0,0,0,0,0,0,0,0,0,0,0,0,0,0,0,0,0,0],"sum_hessian":[4.49E3,1.093E3,3.397E3,1.004E3,8.9E1,4.28E2,2.969E3,8.02E2,2.02E2,2.7E1,6.2E1,1.44E2,2.84E2,2.207E3,7.62E2,7.33E2,6.9E1,1.31E2,7.1E1,2.2E1,5E0,5.5E1,7E0,1.6E1,1.28E2,2.78E2,6E0,6.81E2,1.526E3,6.08E2,1.54E2],"tree_param":{"num_deleted":"0","num_feature":"10","num_nodes":"31","size_leaf_vector":"1"}},{"base_weights":[-1.1407133E-2,3.230287E-1,-1.1743496E-1,2.456746E-1,6.330955E-1,-4.3024495E-1,-8.138925E-2,2.0895314E-1,8.596794E-1,2.3735924E0,4.145129E-1,-6.2840277E-1,-3.1847075E-1,-1.701667E-2,-2.741514E-1,1.3542811E-2,-1.3134916E-3,2.902751E-2,8.855834E-2,2.8578464E-2,2.0639923E-1,3.5023734E-2,-3.9881105E-3,-1.8641701E-2,-3.349559E-2,4.2064976E-2,-1.6879424E-2,-1.24871E-2,3.6273056E-3,-1.6260797E-2,-3.271574E-3],"categories":[],"categories_nodes":[],"categories_segments":[],"categories_sizes":[],"default_left":[0,0,0,0,0,0,0,0,0,0,0,0,0,0,0,0,0,0,0,0,0,0,0,0,0,0,0,0,0,0,0],"id":1,"left_children":[1,3,5,7,9,11,13,15,17,19,21,23,25,27,29,-1,-1,-1,-1,-1,-1,-1,-1,-1,-1,-1,-1,-1,-1,-1,-1],"loss_changes":[1.6056313E2,2.598806E1,3.8730007E1,1.952657E1,8.157209E1,7.6627426E0,3.826346E1,1.2034527E1,1.1438461E1,7.35155E1,2.7476566E1,1.0975037E0,5.3614445E0,4.8229195E1,8.206833E0,0E0,0E0,0E0,0E0,0E0,0E0,0E0,0E0,0E0,0E0,0E0,0E0,0E0,0E0,0E0,0E0],"parents":[2147483647,0,0,1,1,2,2,3,3,4,4,5,5,6,6,7,7,8,8,9,9,10,10,11,11,12,12,13,13,14,14],"right_children":[2,4,6,8,10,12,14,16,18,20,22,24,26,28,30,-1,-1,-1,-1,-1,-1,-1,-1,-1,-1,-1,-1,-1,-1,-1,-1],"split_conditions":[2E0,1E0,4.42E1,9.16E1,6.07E1,1.20126165E-1,1E0,1E0,-7.304519E-2,2.4893981E-1,9.8E1,2.66E1,-1.1905873E-1,-6.3838446E-1,8.86E1,1.3542811E-2,-1.3134916E-3,2.902751E-2,8.855834E-2,2.8578464E-2,2.0639923E-1,3.5023734E-2,-3.9881105E-3,-1.8641701E-2,-3.349559E-2,4.2064976E-2,-1.6879424E-2,-1.24871E-2,3.6273056E-3,-1.6260797E-2,-3.271574E-3],"split_indices":[2,9,0,0,0,3,8,8,3,3,0,0,4,3,0,0,0,0,0,0,0,0,0,0,0,0,0,0,0,0,0],"split_type":[0,0,0,0,0,0,0,0,0,0,0,0,0,0,0,0,0,0,0,0,0,0,0,0,0,0,0,0,0,0,0],"sum_hessian":[4.526E3,1.089E3,3.437E3,8.73E2,2.16E2,3.54E2,3.083E3,8.25E2,4.8E1,2.3E1,1.93E2,1.26E2,2.28E2,2.312E3,7.71E2,6.53E2,1.72E2,3.8E1,1E1,1.2E1,1.1E1,1.22E2,7.1E1,1.9E1,1.07E2,3E0,2.25E2,6.42E2,1.67E3,6.19E2,1.52E2],"tree_param":{"num_deleted":"0","num_feature":"10","num_nodes":"31","size_leaf_vector":"1"}},{"base_weights":[2.9507603E-3,2.9708573E-1,-9.2770934E-2,2.4189647E-1,5.1237684E-1,-1.991825E-1,1.4500622E-1,1.9714327E-1,8.5545886E-1,7.832646E-1,-4.3453913E-2,-3.1108195E-1,-7.659108E-2,9.411431E-2,8.955865E-1,1.4179334E-2,1.393082E-3,2.7549183E-2,8.6607605E-2,4.328927E-2,-8.283622E-3,1.3880471E-2,-2.0915756E-2,-5.4442245E-3,-2.0726258E-2,-6.4894664E-3,1.8157013E-2,2.1896723E-3,2.2609418E-2,7.5160764E-2,1.4854564E-2],"categories":[],"categories_nodes":[],"categories_segments":[],"categories_sizes":[],"default_left":[0,0,0,0,0,0,0,0,0,0,0,0,0,0,0,0,0,0,0,0,0,0,0,0,0,0,0,0,0,0,0],"id":2,"left_children":[1,3,5,7,9,11,13,15,17,19,21,23,25,27,29,-1,-1,-1,-1,-1,-1,-1,-1,-1,-1,-1,-1,-1,-1,-1,-1],"loss_changes":[1.2751384E2,1.3088577E1,8.648663E1,2.4187374E1,3.4062336E1,3.236416E1,4.0291496E1,1.2108459E1,1.5061493E1,1.204612E1,9.142693E0,2.576516E1,2.6434364E1,1.7836626E1,2.391882E1,0E0,0E0,0E0,0E0,0E0,0E0,0E0,0E0,0E0,0E0,0E0,0E0,0E0,0E0,0E0,0E0],"parents":[2147483647,0,0,1,1,2,2,3,3,4,4,5,5,6,6,7,7,8,8,9,9,10,10,11,11,12,12,13,13,14,14],"right_children":[2,4,6,8,10,12,14,16,18,20,22,24,26,28,30,-1,-1,-1,-1,-1,-1,-1,-1,-1,-1,-1,-1,-1,-1,-1,-1],"split_conditions":[2E0,1E0,3.1E0,9.16E1,9.8E1,3.149416E-1,1E0,7.885E1,-1.24394506E-1,4.1692588E-1,-5.2675474E-1,-3.6448303E-1,1E0,1.22E1,8.44E1,1.4179334E-2,1.393082E-3,2.7549183E-2,8.6607605E-2,4.328927E-2,-8.283622E-3,1.3880471E-2,-2.0915756E-2,-5.4442245E-3,-2.0726258E-2,-6.4894664E-3,1.8157013E-2,2.1896723E-3,2.2609418E-2,7.5160764E-2,1.4854564E-2],"split_indices":[2,9,1,0,0,3,9,0,3,3,3,4,9,1,0,0,0,0,0,0,0,0,0,0,0,0,0,0,0,0,0],"split_type":[0,0,0,0,0,0,0,0,0,0,0,0,0,0,0,0,0,0,0,0,0,0,0,0,0,0,0,0,0,0,0],"sum_hessian":[4.527E3,1.111E3,3.416E3,8.86E2,2.25E2,2.36E3,1.056E3,8.27E2,5.9E1,1.51E2,7.4E1,1.233E3,1.127E3,9.9E2,6.6E1,5.47E2,2.8E2,4.5E1,1.4E1,1.39E2,1.2E1,4E1,3.4E1,4.18E2,8.15E2,1.006E3,1.21E2,8.69E2,1.21E2,3.2E1,3.4E1],"tree_param":{"num_deleted":"0","num_feature":"10","num_nodes":"31","size_leaf_vector":"1"}},{"base_weights":[5.272527E-3,3.0557954E-1,-9.377301E-2,4.4608933E-1,1.9411707E-1,-1.9774036E-1,1.4251572E-1,3.2025027E-1,1.1266909E0,1.0982347E-1,3.821253E-1,-4.93428E-1,-1.4819135E-1,1.0109238E-1,7.529196E-1,1.3460989E-2,4.9949914E-2,3.7829157E-2,1.2452201E-1,1.3659572E-3,2.3779748E-2,3.285047E-2,-3.13922E-3,-2.6233638E-2,6.640516E-2,-1.8471627E-2,-3.8899083E-3,3.3406809E-3,3.425666E-2,1.286432E-1,2.9700303E-2],"categories":[],"categories_nodes":[],"categories_segments":[],"categories_sizes":[],"default_left":[0,0,0,0,0,0,0,0,0,0,0,0,0,0,0,0,0,0,0,0,0,0,0,0,0,0,0,0,0,0,0],"id":3,"left_children":[1,3,5,7,9,11,13,15,17,19,21,23,25,27,29,-1,-1,-1,-1,-1,-1,-1,-1,-1,-1,-1,-1,-1,-1,-1,-1],"loss_changes":[1.3468005E2,1.750135E1,8.367647E1,4.2119728E1,9.910507E0,3.457656E1,2.6245533E1,1.4278515E1,3.6980293E1,1.3114321E1,2.3767185E1,1.9990448E1,3.1539497E1,1.949393E1,1.7559814E1,0E0,0E0,0E0,0E0,0E0,0E0,0E0,0E0,0E0,0E0,0E0,0E0,0E0,0E0,0E0,0E0],"parents":[2147483647,0,0,1,1,2,2,3,3,4,4,5,5,6,6,7,7,8,8,9,9,10,10,11,11,12,12,13,13,14,14],"right_children":[2,4,6,8,10,12,14,16,18,20,22,24,26,28,30,-1,-1,-1,-1,-1,-1,-1,-1,-1,-1,-1,-1,-1,-1,-1,-1],"split_conditions":[2E0,7.36E1,3.1E0,1E0,9.025E1,4.745E1,1E0,7.27E1,2.4893981E-1,1E0,9.8E1,9.9920887E-1,-7.142921E-1,1.38E1,6.245E1,1.3460989E-2,4.9949914E-2,3.7829157E-2,1.2452201E-1,1.3659572E-3,2.3779748E-2,3.285047E-2,-3.13922E-3,-2.6233638E-2,6.640516E-2,-1.8471627E-2,-3.8899083E-3,3.3406809E-3,3.425666E-2,1.286432E-1,2.9700303E-2],"split_indices":[2,0,1,9,0,0,9,0,3,7,0,3,3,1,0,0,0,0,0,0,0,0,0,0,0,0,0,0,0,0,0],"split_type":[0,0,0,0,0,0,0,0,0,0,0,0,0,0,0,0,0,0,0,0,0,0,0,0,0,0,0,0,0,0,0],"sum_hessian":[4.526E3,1.122E3,3.404E3,4.95E2,6.27E2,2.364E3,1.04E3,4.19E2,7.6E1,4.34E2,1.93E2,3.38E2,2.026E3,9.75E2,6.5E1,3.91E2,2.8E1,6.1E1,1.5E1,3.55E2,7.9E1,1.19E2,7.4E1,3.33E2,5E0,4.88E2,1.538E3,9.22E2,5.3E1,4E0,6.1E1],"tree_param":{"num_deleted":"0","num_feature":"10","num_nodes":"31","size_leaf_vector":"1"}},{"base_weights":[3.6393986E-3,2.8995797E-1,-9.022833E-2,-5.911995E-2,3.22935E-1,-1.8797134E-1,1.3404295E-1,-2.2952308E-1,1.4463396E0,7.73091E-1,2.6305553E-1,-7.6134436E-2,-2.816017E-1,1.0489411E-1,5.4572797E-1,-1.4656608E-2,5.897751E-2,9.0342976E-2,3.622239E-2,2.7393514E-2,1.3678269E-1,1.4456272E-2,-2.270515E-3,-2.3290333E-3,-2.0234367E-2,-2.0605061E-2,-5.6675193E-3,4.434105E-3,4.7644954E-2,6.43257E-3,6.525039E-2],"categories":[],"categories_nodes":[],"categories_segments":[],"categories_sizes":[],"default_left":[0,0,0,0,0,0,0,0,0,0,0,0,0,0,0,0,0,0,0,0,0,0,0,0,0,0,0,0,0,0,0],"id":4,"left_children":[1,3,5,7,9,11,13,15,17,19,21,23,25,27,29,-1,-1,-1,-1,-1,-1,-1,-1,-1,-1,-1,-1,-1,-1,-1,-1],"loss_changes":[1.2126414E2,1.2842964E1,7.451258E1,2.5215866E1,2.7236916E1,2.4764198E1,1.2326899E1,8.233191E0,1.2935886E0,5.1100395E1,7.2506332E0,1.0467924E1,2.8233536E1,1.3182184E1,2.1366201E1,0E0,0E0,0E0,0E0,0E0,0E0,0E0,0E0,0E0,0E0,0E0,0E0,0E0,0E0,0E0,0E0],"parents":[2147483647,0,0,1,1,2,2,3,3,4,4,5,5,6,6,7,7,8,8,9,9,10,10,11,11,12,12,13,13,14,14],"right_children":[2,4,6,8,10,12,14,16,18,20,22,24,26,28,30,-1,-1,-1,-1,-1,-1,-1,-1,-1,-1,-1,-1,-1,-1,-1,-1],"split_conditions":[2E0,4.56E1,3.1E0,4.1692588E-1,6.07E1,3.5472557E-2,1.36E1,9.997688E-1,3.99E1,3.474028E-1,9.8E1,9.305E1,3.634816E-1,9.305E1,1.7201575E-2,-1.4656608E-2,5.897751E-2,9.0342976E-2,3.622239E-2,2.7393514E-2,1.3678269E-1,1.4456272E-2,-2.270515E-3,-2.3290333E-3,-2.0234367E-2,-2.0605061E-2,-5.6675193E-3,4.434105E-3,4.7644954E-2,6.43257E-3,6.525039E-2],"split_indices":[2,0,1,3,0,4,1,4,0,3,0,0,3,0,3,0,0,0,0,0,0,0,0,0,0,0,0,0,0,0,0],"split_type":[0,0,0,0,0,0,0,0,0,0,0,0,0,0,0,0,0,0,0,0,0,0,0,0,0,0,0,0,0,0,0],"sum_hessian":[4.51E3,1.113E3,3.397E3,9.6E1,1.017E3,2.366E3,1.031E3,8.7E1,9E0,1.18E2,8.99E2,1.079E3,1.287E3,9.64E2,6.7E1,8.4E1,3E0,5E0,4E0,1.07E2,1.1E1,8.29E2,7E1,9.91E2,8.8E1,7.24E2,5.63E2,9.47E2,1.7E1,4.4E1,2.3E1],"tree_param":{"num_deleted":"0","num_feature":"10","num_nodes":"31","size_leaf_vector":"1"}},{"base_weights":[-1.2233555E-2,2.2590968E-1,-9.003087E-2,1.8518104E-1,5.230019E-1,-3.7851086E-1,-5.7080746E-2,2.9929125E-1,8.132684E-2,1.3000777E0,1.9030684E-1,-5.064639E-1,-2.4160995E-1,-1.7382627E-3,-2.2477855E-1,3.0517394E-2,9.019621E-3,1.0334268E-3,1.3348001E-2,2.831701E-2,1.4824684E-1,3.3460222E-3,7.6188445E-2,-1.6885405E-2,-2.91962E-2,6.9271848E-3,-1.5850723E-2,-1.0004844E-2,3.759841E-3,-1.3971648E-2,7.9168574E-5],"categories":[],"categories_nodes":[],"categories_segments":[],"categories_sizes":[],"default_left":[0,0,0,0,0,0,0,0,0,0,0,0,0,0,0,0,0,0,0,0,0,0,0,0,0,0,0,0,0,0,0],"id":5,"left_children":[1,3,5,7,9,11,13,15,17,19,21,23,25,27,29,-1,-1,-1,-1,-1,-1,-1,-1,-1,-1,-1,-1,-1,-1,-1,-1],"loss_changes":[8.3965744E1,1.3406937E1,3.2449024E1,1.1625019E1,3.4395504E1,6.008541E0,2.846386E1,1.7198536E1,5.8047423E0,4.7183624E1,1.5528482E1,2.155735E0,4.9456882E0,3.522156E1,9.415287E0,0E0,0E0,0E0,0E0,0E0,0E0,0E0,0E0,0E0,0E0,0E0,0E0,0E0,0E0,0E0,0E0],"parents":[2147483647,0,0,1,1,2,2,3,3,4,4,5,5,6,6,7,7,8,8,9,9,10,10,11,11,12,12,13,13,14,14],"right_children":[2,4,6,8,10,12,14,16,18,20,22,24,26,28,30,-1,-1,-1,-1,-1,-1,-1,-1,-1,-1,-1,-1,-1,-1,-1,-1],"split_conditions":[2E0,3.0471924E-1,4.36E1,-6.132298E-1,6.07E1,4.1692588E-1,1E0,7.05E1,8.7E1,4.92E1,9.04E1,2.96E1,5.4671127E-1,-6.3838446E-1,8.86E1,3.0517394E-2,9.019621E-3,1.0334268E-3,1.3348001E-2,2.831701E-2,1.4824684E-1,3.3460222E-3,7.6188445E-2,-1.6885405E-2,-2.91962E-2,6.9271848E-3,-1.5850723E-2,-1.0004844E-2,3.759841E-3,-1.3971648E-2,7.9168574E-5],"split_indices":[2,3,0,3,0,3,8,0,0,0,0,0,3,3,0,0,0,0,0,0,0,0,0,0,0,0,0,0,0,0,0],"split_type":[0,0,0,0,0,0,0,0,0,0,0,0,0,0,0,0,0,0,0,0,0,0,0,0,0,0,0,0,0,0,0],"sum_hessian":[4.53E3,1.115E3,3.415E3,9.82E2,1.33E2,3.49E2,3.066E3,4.67E2,5.15E2,3.9E1,9.4E1,1.79E2,1.7E2,2.306E3,7.6E2,1.28E2,3.39E2,3.89E2,1.26E2,2.8E1,1.1E1,8.7E1,7E0,5.8E1,1.21E2,2.8E1,1.42E2,6.44E2,1.662E3,6.12E2,1.48E2],"tree_param":{"num_deleted":"0","num_feature":"10","num_nodes":"31","size_leaf_vector":"1"}},{"base_weights":[-6.2496087E-4,2.6610002E-1,-8.768031E-2,2.0286919E-1,5.1867926E-1,-1.754198E-1,1.1469066E-1,2.6901117E-1,-7.319418E-2,3.2122457E-1,1.7248927E0,-4.0564755E-1,-1.3439594E-1,8.0294326E-2,6.331431E-1,1.2902426E-2,7.643671E-2,-1.9098025E-2,4.292641E-3,3.512686E-2,9.071524E-4,2.4518091E-2,1.8193516E-1,-2.1259496E-2,7.175179E-2,-1.6851313E-2,-3.4881395E-3,3.4458865E-3,6.424382E-2,1.3258235E-1,2.2719106E-2],"categories":[],"categories_nodes":[],"categories_segments":[],"categories_sizes":[],"default_left":[0,0,0,0,0,0,0,0,0,0,0,0,0,0,0,0,0,0,0,0,0,0,0,0,0,0,0,0,0,0,0],"id":6,"left_children":[1,3,5,7,9,11,13,15,17,19,21,23,25,27,29,-1,-1,-1,-1,-1,-1,-1,-1,-1,-1,-1,-1,-1,-1,-1,-1],"loss_changes":[1.0493056E2,1.7654305E1,6.0514565E1,1.62888E1,5.2320217E1,2.2395836E1,1.8334843E1,9.534851E0,8.528538E0,2.2176468E1,7.145812E1,1.3523872E1,2.6418598E1,1.3176966E1,2.1888243E1,0E0,0E0,0E0,0E0,0E0,0E0,0E0,0E0,0E0,0E0,0E0,0E0,0E0,0E0,0E0,0E0],"parents":[2147483647,0,0,1,1,2,2,3,3,4,4,5,5,6,6,7,7,8,8,9,9,10,10,11,11,12,12,13,13,14,14],"right_children":[2,4,6,8,10,12,14,16,18,20,22,24,26,28,30,-1,-1,-1,-1,-1,-1,-1,-1,-1,-1,-1,-1,-1,-1,-1,-1],"split_conditions":[2E0,1E0,3.1E0,9.142438E-1,2.5518242E-1,4.87E1,1E0,9.61E1,4.62E1,8.325E1,8.9976585E-1,9.9920887E-1,-7.262249E-1,9.34E1,6.245E1,1.2902426E-2,7.643671E-2,-1.9098025E-2,4.292641E-3,3.512686E-2,9.071524E-4,2.4518091E-2,1.8193516E-1,-2.1259496E-2,7.175179E-2,-1.6851313E-2,-3.4881395E-3,3.4458865E-3,6.424382E-2,1.3258235E-1,2.2719106E-2],"split_indices":[2,9,1,4,3,0,9,0,0,0,4,3,3,0,0,0,0,0,0,0,0,0,0,0,0,0,0,0,0,0,0],"split_type":[0,0,0,0,0,0,0,0,0,0,0,0,0,0,0,0,0,0,0,0,0,0,0,0,0,0,0,0,0,0,0],"sum_hessian":[4.517E3,1.111E3,3.406E3,8.9E2,2.21E2,2.376E3,1.03E3,7.18E2,1.72E2,1.91E2,3E1,3.58E2,2.018E3,9.67E2,6.3E1,7.13E2,5E0,5.8E1,1.14E2,8.4E1,1.07E2,1.9E1,1.1E1,3.55E2,3E0,4.87E2,1.531E3,9.59E2,8E0,4E0,5.9E1],"tree_param":{"num_deleted":"0","num_feature":"10","num_nodes":"31","size_leaf_vector":"1"}},{"base_weights":[1.1225399E-2,2.6294014E-1,-6.9519304E-2,2.2179654E-1,7.3059464E-1,-1.5689349E-1,1.4332871E-1,-8.382573E-2,2.4759845E-1,2.0420082E0,1.5696347E-1,-3.9210397E-1,-1.1342033E-1,2.595244E-1,3.7664846E-2,4.6947423E-2,-1.2167494E-2,1.9391287E-2,8.123263E-3,5.6611966E-2,1.7376958E-1,2.3902764E-3,4.5072433E-2,-2.0501517E-2,3.9831586E-2,-1.5917078E-2,-2.5664894E-3,1.0559055E-2,1.1463597E-1,-2.9754983E-3,1.8210715E-2],"categories":[],"categories_nodes":[],"categories_segments":[],"categories_sizes":[],"default_left":[0,0,0,0,0,0,0,0,0,0,0,0,0,0,0,0,0,0,0,0,0,0,0,0,0,0,0,0,0,0,0],"id":7,"left_children":[1,3,5,7,9,11,13,15,17,19,21,23,25,27,29,-1,-1,-1,-1,-1,-1,-1,-1,-1,-1,-1,-1,-1,-1,-1,-1],"loss_changes":[9.2556335E1,2.1118492E1,6.414641E1,8.048332E0,6.66313E1,2.4956497E1,1.231702E1,1.3281068E1,1.11467705E1,3.1274315E1,5.0766935E0,8.445641E0,2.6258034E1,4.6499096E1,1.674464E1,0E0,0E0,0E0,0E0,0E0,0E0,0E0,0E0,0E0,0E0,0E0,0E0,0E0,0E0,0E0,0E0],"parents":[2147483647,0,0,1,1,2,2,3,3,4,4,5,5,6,6,7,7,8,8,9,9,10,10,11,11,12,12,13,13,14,14],"right_children":[2,4,6,8,10,12,14,16,18,20,22,24,26,28,30,-1,-1,-1,-1,-1,-1,-1,-1,-1,-1,-1,-1,-1,-1,-1,-1],"split_conditions":[2E0,3.6948368E-1,3.2E0,4.62E1,6.07E1,4.87E1,1E0,2.66E1,7.36E1,4.975E1,1E0,9.9920887E-1,-7.4944234E-1,7.7E0,1.22E1,4.6947423E-2,-1.2167494E-2,1.9391287E-2,8.123263E-3,5.6611966E-2,1.7376958E-1,2.3902764E-3,4.5072433E-2,-2.0501517E-2,3.9831586E-2,-1.5917078E-2,-2.5664894E-3,1.0559055E-2,1.1463597E-1,-2.9754983E-3,1.8210715E-2],"split_indices":[2,3,1,0,0,0,7,0,0,0,5,3,3,1,1,0,0,0,0,0,0,0,0,0,0,0,0,0,0,0,0],"split_type":[0,0,0,0,0,0,0,0,0,0,0,0,0,0,0,0,0,0,0,0,0,0,0,0,0,0,0,0,0,0,0],"sum_hessian":[4.552E3,1.105E3,3.447E3,1.017E3,8.8E1,2.444E3,1.003E3,7.9E1,9.38E2,2.6E1,6.2E1,3.8E2,2.064E3,4.77E2,5.26E2,1E1,6.9E1,3.53E2,5.85E2,1.7E1,9E0,5.5E1,7E0,3.75E2,5E0,4.79E2,1.585E3,4.67E2,1E1,4.06E2,1.2E2],"tree_param":{"num_deleted":"0","num_feature":"10","num_nodes":"31","size_leaf_vector":"1"}},{"base_weights":[-1.2690487E-3,2.285931E-1,-7.6731846E-2,1.6317602E-1,4.8247525E-1,-1.5078638E-1,9.2346594E-2,1.513931E-1,8.223558E-2,1.9653287E0,3.479368E-1,-3.6855054E-1,-1.111771E-1,5.092359E-2,6.622167E-1,5.9457305E-3,2.9648071E-2,5.06604E-2,2.2143126E-1,3.629397E-2,4.0607755E-3,-1.9684931E-2,4.9230743E-2,-1.4705303E-2,-2.6176448E-3,1.9030077E-3,6.467921E-2,6.1386794E-2,3.9151325E-3],"categories":[],"categories_nodes":[],"categories_segments":[],"categories_sizes":[],"default_left":[0,0,0,0,0,0,0,0,0,0,0,0,0,0,0,0,0,0,0,0,0,0,0,0,0,0,0,0,0],"id":8,"left_children":[1,3,5,7,9,11,13,15,-1,17,19,21,23,25,27,-1,-1,-1,-1,-1,-1,-1,-1,-1,-1,-1,-1,-1,-1],"loss_changes":[7.930628E1,1.8688572E1,4.3111298E1,1.546213E1,4.540087E1,2.0608429E1,2.4728691E1,1.2750763E1,0E0,4.007463E1,2.1412584E1,1.2910507E1,2.179644E1,1.5599965E1,2.3349102E1,0E0,0E0,0E0,0E0,0E0,0E0,0E0,0E0,0E0,0E0,0E0,0E0,0E0,0E0],"parents":[2147483647,0,0,1,1,2,2,3,3,4,4,5,5,6,6,7,7,9,9,10,10,11,11,12,12,13,13,14,14],"right_children":[2,4,6,8,10,12,14,16,-1,18,20,22,24,26,28,-1,-1,-1,-1,-1,-1,-1,-1,-1,-1,-1,-1,-1,-1],"split_conditions":[2E0,1E0,3.1E0,9.61E1,5.78E1,4.87E1,1E0,4.01229E-1,8.223558E-2,3.634816E-1,8.325E1,9.9920887E-1,-7.036774E-1,9.34E1,8.44E1,5.9457305E-3,2.9648071E-2,5.06604E-2,2.2143126E-1,3.629397E-2,4.0607755E-3,-1.9684931E-2,4.9230743E-2,-1.4705303E-2,-2.6176448E-3,1.9030077E-3,6.467921E-2,6.1386794E-2,3.9151325E-3],"split_indices":[2,9,1,0,0,0,9,3,0,3,0,3,3,0,0,0,0,0,0,0,0,0,0,0,0,0,0,0,0],"split_type":[0,0,0,0,0,0,0,0,0,0,0,0,0,0,0,0,0,0,0,0,0,0,0,0,0,0,0,0,0],"sum_hessian":[4.57E3,1.129E3,3.441E3,8.99E2,2.3E2,2.393E3,1.048E3,8.93E2,6E0,1.8E1,2.12E2,3.67E2,2.026E3,9.78E2,7E1,8.33E2,6E1,1.4E1,4E0,8.7E1,1.25E2,3.61E2,6E0,4.92E2,1.534E3,9.69E2,9E0,3.5E1,3.5E1],"tree_param":{"num_deleted":"0","num_feature":"10","num_nodes":"29","size_leaf_vector":"1"}},{"base_weights":[-3.8293987E-3,2.2910605E-1,-7.9880476E-2,1.8930714E-1,6.540091E-1,-1.5280947E-1,8.706198E-2,1.4285079E-1,3.667495E-1,1.8249787E0,1.6222738E-1,-2.3590507E-1,-5.5952493E-2,4.9946655E-2,6.418814E-1,4.9987906E-3,2.9733613E-2,3.0541E-2,-4.198797E-3,5.5989075E-2,1.8903007E-1,4.612263E-3,6.2944E-2,-4.4907453E-3,-1.7396238E-2,-5.5759465E-3,1.9681685E-2,9.849955E-4,2.3631634E-2,5.3462576E-2,1.1038592E-2],"categories":[],"categories_nodes":[],"categories_segments":[],"categories_sizes":[],"default_left":[0,0,0,0,0,0,0,0,0,0,0,0,0,0,0,0,0,0,0,0,0,0,0,0,0,0,0,0,0,0,0],"id":9,"left_children":[1,3,5,7,9,11,13,15,17,19,21,23,25,27,29,-1,-1,-1,-1,-1,-1,-1,-1,-1,-1,-1,-1,-1,-1,-1,-1],"loss_changes":[8.017864E1,1.8714684E1,4.1554222E1,8.355801E0,5.4410774E1,1.9101715E1,2.134275E1,1.5631733E1,2.3263145E1,3.4381332E1,5.1026077E0,2.0883179E1,2.7474026E1,1.2443159E1,1.1461964E1,0E0,0E0,0E0,0E0,0E0,0E0,0E0,0E0,0E0,0E0,0E0,0E0,0E0,0E0,0E0,0E0],"parents":[2147483647,0,0,1,1,2,2,3,3,4,4,5,5,6,6,7,7,8,8,9,9,10,10,11,11,12,12,13,13,14,14],"right_children":[2,4,6,8,10,12,14,16,18,20,22,24,26,28,30,-1,-1,-1,-1,-1,-1,-1,-1,-1,-1,-1,-1,-1,-1,-1,-1],"split_conditions":[2E0,3.6948368E-1,3.1E0,1E0,6.07E1,3.634816E-1,1E0,9.11E1,9.8E1,1E0,9.04E1,1.0751513E-3,1E0,1.36E1,8.44E1,4.9987906E-3,2.9733613E-2,3.0541E-2,-4.198797E-3,5.5989075E-2,1.8903007E-1,4.612263E-3,6.2944E-2,-4.4907453E-3,-1.7396238E-2,-5.5759465E-3,1.9681685E-2,9.849955E-4,2.3631634E-2,5.3462576E-2,1.1038592E-2],"split_indices":[2,3,1,9,0,3,9,0,0,9,0,4,9,1,0,0,0,0,0,0,0,0,0,0,0,0,0,0,0,0,0],"split_type":[0,0,0,0,0,0,0,0,0,0,0,0,0,0,0,0,0,0,0,0,0,0,0,0,0,0,0,0,0,0,0],"sum_hessian":[4.524E3,1.113E3,3.411E3,1.019E3,9.4E1,2.374E3,1.037E3,8.09E2,2.1E2,2.7E1,6.7E1,1.277E3,1.097E3,9.73E2,6.4E1,7.4E2,6.9E1,1.36E2,7.4E1,2.1E1,6E0,6.4E1,3E0,5.55E2,7.22E2,9.77E2,1.2E2,9.09E2,6.4E1,3.1E1,3.3E1],"tree_param":{"num_deleted":"0","num_feature":"10","num_nodes":"31","size_leaf_vector":"1"}},{"base_weights":[-2.9624256E-3,2.0791288E-1,-7.5071745E-2,1.4498189E-1,4.6598485E-1,-1.4469118E-1,8.253953E-2,1.078481E-1,4.845298E-1,2.8166848E-1,1.4585116E0,-3.702235E-1,-1.0669141E-1,4.6113335E-2,5.897263E-1,8.148381E-3,-6.3025192E-3,9.684026E-3,6.223123E-2,2.9389558E-2,2.048253E-3,1.4928104E-1,2.6597468E-2,-1.9449767E-2,3.635299E-2,-1.432453E-2,-2.674327E-3,1.94219E-3,8.896369E-2,1.1346123E-1,2.1152943E-2],"categories":[],"categories_nodes":[],"categories_segments":[],"categories_sizes":[],"default_left":[0,0,0,0,0,0,0,0,0,0,0,0,0,0,0,0,0,0,0,0,0,0,0,0,0,0,0,0,0,0,0],"id":10,"left_children":[1,3,5,7,9,11,13,15,17,19,21,23,25,27,29,-1,-1,-1,-1,-1,-1,-1,-1,-1,-1,-1,-1,-1,-1,-1,-1],"loss_changes":[6.862542E1,1.8609272E1,3.6913498E1,1.16234E1,4.0750443E1,1.995472E1,1.9020412E1,1.0798565E1,1.9876587E1,1.4049711E1,4.7935455E1,7.2037582E0,1.9097929E1,1.2063986E1,1.8354301E1,0E0,0E0,0E0,0E0,0E0,0E0,0E0,0E0,0E0,0E0,0E0,0E0,0E0,0E0,0E0,0E0],"parents":[2147483647,0,0,1,1,2,2,3,3,4,4,5,5,6,6,7,7,8,8,9,9,10,10,11,11,12,12,13,13,14,14],"right_children":[2,4,6,8,10,12,14,16,18,20,22,24,26,28,30,-1,-1,-1,-1,-1,-1,-1,-1,-1,-1,-1,-1,-1,-1,-1,-1],"split_conditions":[1E-1,1E0,3.1E0,9.025E1,2.5518242E-1,4.745E1,1E0,1E0,-1.24394506E-1,8.255E1,6.07E1,9.9920887E-1,-7.4944234E-1,9.535E1,6.245E1,8.148381E-3,-6.3025192E-3,9.684026E-3,6.223123E-2,2.9389558E-2,2.048253E-3,1.4928104E-1,2.6597468E-2,-1.9449767E-2,3.635299E-2,-1.432453E-2,-2.674327E-3,1.94219E-3,8.896369E-2,1.1346123E-1,2.1152943E-2],"split_indices":[1,9,1,0,3,0,9,8,3,0,0,3,3,0,0,0,0,0,0,0,0,0,0,0,0,0,0,0,0,0,0],"split_type":[0,0,0,0,0,0,0,0,0,0,0,0,0,0,0,0,0,0,0,0,0,0,0,0,0,0,0,0,0,0,0],"sum_hessian":[4.511E3,1.149E3,3.362E3,9.25E2,2.24E2,2.332E3,1.03E3,8.35E2,9E1,1.9E2,3.4E1,3.35E2,1.997E3,9.62E2,6.8E1,6.76E2,1.59E2,6.6E1,2.4E1,8.3E1,1.07E2,1.2E1,2.2E1,3.3E2,5E0,4.55E2,1.542E3,9.59E2,3E0,5E0,6.3E1],"tree_param":{"num_deleted":"0","num_feature":"10","num_nodes":"31","size_leaf_vector":"1"}},{"base_weights":[-8.636252E-3,1.872027E-1,-7.3242754E-2,1.6440476E-1,4.9506044E-1,-1.4234582E-1,7.298917E-2,2.562847E-1,8.57079E-2,1.6683894E0,1.3481073E-1,-1.735884E-2,-1.9391716E-1,5.257505E-2,4.5044065E-1,1.0491054E-2,4.0534467E-2,4.7090434E-2,3.4308252E-3,3.935405E-2,1.4704314E-1,5.3445484E-2,1.5228967E-3,1.3589611E-3,-1.8760672E-2,-1.4495887E-2,-4.5250715E-3,2.12656E-3,4.936761E-2,4.5270645E-3,6.0259905E-2],"categories":[],"categories_nodes":[],"categories_segments":[],"categories_sizes":[],"default_left":[0,0,0,0,0,0,0,0,0,0,0,0,0,0,0,0,0,0,0,0,0,0,0,0,0,0,0,0,0,0,0],"id":11,"left_children":[1,3,5,7,9,11,13,15,17,19,21,23,25,27,29,-1,-1,-1,-1,-1,-1,-1,-1,-1,-1,-1,-1,-1,-1,-1,-1],"loss_changes":[5.7329407E1,7.8074303E0,3.4438377E1,7.555773E0,3.232232E1,1.49120865E1,8.40596E0,1.227182E1,8.217063E0,1.7871246E1,5.815993E0,1.0800325E1,1.6235779E1,9.712933E0,1.5102536E1,0E0,0E0,0E0,0E0,0E0,0E0,0E0,0E0,0E0,0E0,0E0,0E0,0E0,0E0,0E0,0E0],"parents":[2147483647,0,0,1,1,2,2,3,3,4,4,5,5,6,6,7,7,8,8,9,9,10,10,11,11,12,12,13,13,14,14],"right_children":[2,4,6,8,10,12,14,16,18,20,22,24,26,28,30,-1,-1,-1,-1,-1,-1,-1,-1,-1,-1,-1,-1,-1,-1,-1,-1],"split_conditions":[2E0,4.01229E-1,3E0,-6.132298E-1,5.78E1,-4.5848712E-1,1.38E1,6.998477E-1,2.66E1,4.92E1,-9.044055E-1,9.305E1,3.8541335E-1,9.44E1,1.7201575E-2,1.0491054E-2,4.0534467E-2,4.7090434E-2,3.4308252E-3,3.935405E-2,1.4704314E-1,5.3445484E-2,1.5228967E-3,1.3589611E-3,-1.8760672E-2,-1.4495887E-2,-4.5250715E-3,2.12656E-3,4.936761E-2,4.5270645E-3,6.0259905E-2],"split_indices":[2,3,1,3,0,4,1,4,0,0,4,0,3,0,3,0,0,0,0,0,0,0,0,0,0,0,0,0,0,0,0],"split_type":[0,0,0,0,0,0,0,0,0,0,0,0,0,0,0,0,0,0,0,0,0,0,0,0,0,0,0,0,0,0,0],"sum_hessian":[4.529E3,1.123E3,3.406E3,1.047E3,7.6E1,2.313E3,1.093E3,4.82E2,5.65E2,1.7E1,5.9E1,6.76E2,1.637E3,1.038E3,5.5E1,4.46E2,3.6E1,1E1,5.55E2,1.1E1,6E0,5E0,5.4E1,6.02E2,7.4E1,8.48E2,7.89E2,1.028E3,1E1,3.8E1,1.7E1],"tree_param":{"num_deleted":"0","num_feature":"10","num_nodes":"31","size_leaf_vector":"1"}},{"base_weights":[6.3454187E-3,2.0064583E-1,-5.7168964E-2,3.1635174E-1,1.0794411E-1,-1.3005155E-1,7.084896E-2,2.6143247E-1,7.600179E-1,1.1110722E-2,3.2212412E-1,-3.8259685E-2,-2.0647377E-1,4.7130562E-2,5.702114E-1,1.0600141E-2,4.3381803E-2,7.26884E-2,6.212271E-4,-3.1606187E-3,1.6274443E-2,9.970774E-3,5.190534E-2,9.987943E-4,-1.1623293E-2,-1.4587204E-2,-4.734064E-4,5.1134906E-4,1.0994475E-2,9.344231E-3,6.2542774E-2],"categories":[],"categories_nodes":[],"categories_segments":[],"categories_sizes":[],"default_left":[0,0,0,0,0,0,0,0,0,0,0,0,0,0,0,0,0,0,0,0,0,0,0,0,0,0,0,0,0,0,0],"id":12,"left_children":[1,3,5,7,9,11,13,15,17,19,21,23,25,27,29,-1,-1,-1,-1,-1,-1,-1,-1,-1,-1,-1,-1,-1,-1,-1,-1],"loss_changes":[5.5804546E1,1.1914772E1,3.18068E1,1.1862392E1,1.2855082E1,1.5228554E1,1.462425E1,1.3060331E1,2.7988659E1,1.0021032E1,1.674944E1,1.1178636E1,1.9903732E1,7.5335016E0,1.4377144E1,0E0,0E0,0E0,0E0,0E0,0E0,0E0,0E0,0E0,0E0,0E0,0E0,0E0,0E0,0E0,0E0],"parents":[2147483647,0,0,1,1,2,2,3,3,4,4,5,5,6,6,7,7,8,8,9,9,10,10,11,11,12,12,13,13,14,14],"right_children":[2,4,6,8,10,12,14,16,18,20,22,24,26,28,30,-1,-1,-1,-1,-1,-1,-1,-1,-1,-1,-1,-1,-1,-1,-1,-1],"split_conditions":[2E0,7.36E1,2.7E0,3.634816E-1,9.025E1,3.5472557E-2,1.38E1,7.27E1,6.07E1,1E0,1.3718541E-1,1E0,6.990793E-1,1E0,1.7201575E-2,1.0600141E-2,4.3381803E-2,7.26884E-2,6.212271E-4,-3.1606187E-3,1.6274443E-2,9.970774E-3,5.190534E-2,9.987943E-4,-1.1623293E-2,-1.4587204E-2,-4.734064E-4,5.1134906E-4,1.0994475E-2,9.344231E-3,6.2542774E-2],"split_indices":[2,0,1,3,0,4,1,0,0,7,3,8,3,5,3,0,0,0,0,0,0,0,0,0,0,0,0,0,0,0,0],"split_type":[0,0,0,0,0,0,0,0,0,0,0,0,0,0,0,0,0,0,0,0,0,0,0,0,0,0,0,0,0,0,0],"sum_hessian":[4.52E3,1.113E3,3.407E3,4.94E2,6.19E2,2.171E3,1.236E3,4.41E2,5.3E1,4.27E2,1.92E2,9.87E2,1.184E3,1.181E3,5.5E1,4.09E2,3.2E1,2.7E1,2.6E1,3.46E2,8.1E1,1.65E2,2.7E1,7.6E2,2.27E2,8.26E2,3.58E2,9.74E2,2.07E2,3.6E1,1.9E1],"tree_param":{"num_deleted":"0","num_feature":"10","num_nodes":"31","size_leaf_vector":"1"}},{"base_weights":[-1.0271104E-2,1.7738296E-1,-7.083168E-2,1.2574811E-1,3.815061E-1,-1.3501629E-1,7.5584315E-2,1.07684046E-1,7.428445E-1,1.9895964E0,2.7248338E-1,-3.0062908E-1,-1.01089895E-1,4.0429406E-2,5.6516665E-1,3.8816878E-3,2.5025675E-2,8.407658E-2,2.47549E-4,6.016789E-2,1.8271768E-1,3.0188313E-2,2.56108E-3,-1.6063683E-2,4.595297E-2,-1.2924696E-2,-2.6115477E-3,4.4464716E-4,1.8563608E-2,1.08623765E-1,2.040524E-2],"categories":[],"categories_nodes":[],"categories_segments":[],"categories_sizes":[],"default_left":[0,0,0,0,0,0,0,0,0,0,0,0,0,0,0,0,0,0,0,0,0,0,0,0,0,0,0,0,0,0,0],"id":13,"left_children":[1,3,5,7,9,11,13,15,17,19,21,23,25,27,29,-1,-1,-1,-1,-1,-1,-1,-1,-1,-1,-1,-1,-1,-1,-1,-1],"loss_changes":[5.1561657E1,1.1619656E1,3.2244156E1,9.785341E0,3.8553867E1,1.3370075E1,1.7980091E1,1.0124937E1,1.7307953E1,1.3927055E1,1.53621235E1,1.0493153E1,1.5221567E1,1.0190335E1,1.6784681E1,0E0,0E0,0E0,0E0,0E0,0E0,0E0,0E0,0E0,0E0,0E0,0E0,0E0,0E0,0E0,0E0],"parents":[2147483647,0,0,1,1,2,2,3,3,4,4,5,5,6,6,7,7,8,8,9,9,10,10,11,11,12,12,13,13,14,14],"right_children":[2,4,6,8,10,12,14,16,18,20,22,24,26,28,30,-1,-1,-1,-1,-1,-1,-1,-1,-1,-1,-1,-1,-1,-1,-1,-1],"split_conditions":[2E0,1E0,3.1E0,4.7843382E-1,5.695E1,5.03E1,1E0,9.16E1,6.435E1,3.634816E-1,8.325E1,9.9920887E-1,-7.4944234E-1,1.3E1,6.245E1,3.8816878E-3,2.5025675E-2,8.407658E-2,2.47549E-4,6.016789E-2,1.8271768E-1,3.0188313E-2,2.56108E-3,-1.6063683E-2,4.595297E-2,-1.2924696E-2,-2.6115477E-3,4.4464716E-4,1.8563608E-2,1.08623765E-1,2.040524E-2],"split_indices":[2,9,1,3,0,0,9,0,0,3,0,3,3,1,0,0,0,0,0,0,0,0,0,0,0,0,0,0,0,0,0],"split_type":[0,0,0,0,0,0,0,0,0,0,0,0,0,0,0,0,0,0,0,0,0,0,0,0,0,0,0,0,0,0,0],"sum_hessian":[4.535E3,1.106E3,3.429E3,8.84E2,2.22E2,2.384E3,1.045E3,8.6E2,2.4E1,1.3E1,2.09E2,4.04E2,1.98E3,9.76E2,6.9E1,8E2,6E1,1E1,1.4E1,1E1,3E0,8.3E1,1.26E2,3.98E2,6E0,4.68E2,1.512E3,8.92E2,8.4E1,5E0,6.4E1],"tree_param":{"num_deleted":"0","num_feature":"10","num_nodes":"31","size_leaf_vector":"1"}},{"base_weights":[4.1143545E-3,1.8080892E-1,-5.5863835E-2,1.313196E-1,3.758537E-1,-1.17948845E-1,7.986461E-2,9.8696806E-2,5.579125E-1,8.3996147E-1,1.0676576E-1,-2.816995E-1,-8.1344515E-2,4.414608E-2,5.498081E-1,7.547012E-3,-5.466602E-3,1.4645322E-2,7.1086966E-2,2.8009742E-2,9.250966E-2,1.4361394E-2,-4.385565E-3,-1.5023719E-2,4.398356E-2,-1.058217E-3,-1.0681211E-2,1.7031472E-3,5.691514E-2,5.2887943E-2,3.945363E-3],"categories":[],"categories_nodes":[],"categories_segments":[],"categories_sizes":[],"default_left":[0,0,0,0,0,0,0,0,0,0,0,0,0,0,0,0,0,0,0,0,0,0,0,0,0,0,0,0,0,0,0],"id":14,"left_children":[1,3,5,7,9,11,13,15,17,19,21,23,25,27,29,-1,-1,-1,-1,-1,-1,-1,-1,-1,-1,-1,-1,-1,-1,-1,-1],"loss_changes":[4.8050022E1,1.1041519E1,2.8533806E1,1.2720422E1,2.8883827E1,1.3901108E1,1.7818916E1,9.2978945E0,1.446332E1,2.2987007E1,5.2193627E0,9.509457E0,1.5120645E1,1.08724E1,1.7856115E1,0E0,0E0,0E0,0E0,0E0,0E0,0E0,0E0,0E0,0E0,0E0,0E0,0E0,0E0,0E0,0E0],"parents":[2147483647,0,0,1,1,2,2,3,3,4,4,5,5,6,6,7,7,8,8,9,9,10,10,11,11,12,12,13,13,14,14],"right_children":[2,4,6,8,10,12,14,16,18,20,22,24,26,28,30,-1,-1,-1,-1,-1,-1,-1,-1,-1,-1,-1,-1,-1,-1,-1,-1],"split_conditions":[1E-1,1E0,3.1E0,9.16E1,7.535E1,5.08E1,1E0,1E0,-1.24394506E-1,2.3851258E-1,9.8E1,9.9920887E-1,1E0,9.34E1,8.44E1,7.547012E-3,-5.466602E-3,1.4645322E-2,7.1086966E-2,2.8009742E-2,9.250966E-2,1.4361394E-2,-4.385565E-3,-1.5023719E-2,4.398356E-2,-1.058217E-3,-1.0681211E-2,1.7031472E-3,5.691514E-2,5.2887943E-2,3.945363E-3],"split_indices":[1,9,1,0,0,0,9,8,3,3,0,3,8,0,0,0,0,0,0,0,0,0,0,0,0,0,0,0,0,0,0],"split_type":[0,0,0,0,0,0,0,0,0,0,0,0,0,0,0,0,0,0,0,0,0,0,0,0,0,0,0,0,0,0,0],"sum_hessian":[4.532E3,1.148E3,3.384E3,9.17E2,2.31E2,2.322E3,1.062E3,8.53E2,6.4E1,8.4E1,1.47E2,4.23E2,1.899E3,9.88E2,7.4E1,6.82E2,1.71E2,5E1,1.4E1,6.7E1,1.7E1,7.6E1,7.1E1,4.17E2,6E0,1.306E3,5.93E2,9.8E2,8E0,3.5E1,3.9E1],"tree_param":{"num_deleted":"0","num_feature":"10","num_nodes":"31","size_leaf_vector":"1"}},{"base_weights":[-5.0874664E-3,1.6536216E-1,-6.295839E-2,-4.442537E-1,1.8657479E-1,-1.1869273E-1,6.3093916E-2,-6.2943393E-1,-6.8615146E-2,1.4906247E-1,4.6186057E-1,1.4686539E-2,-1.7297915E-1,3.3449467E-2,4.9310288E-1,-1.4205026E-2,-3.490638E-2,-2.0599186E-2,3.1592254E-2,1.149105E-2,3.4000177E-3,6.1901845E-2,1.167613E-2,-1.40631525E-2,2.4256492E-3,-1.0215021E-2,2.7904578E-3,-3.6693233E-4,1.3057041E-2,5.9962522E-2,8.0259604E-4],"categories":[],"categories_nodes":[],"categories_segments":[],"categories_sizes":[],"default_left":[0,0,0,0,0,0,0,0,0,0,0,0,0,0,0,0,0,0,0,0,0,0,0,0,0,0,0,0,0,0,0],"id":15,"left_children":[1,3,5,7,9,11,13,15,17,19,21,23,25,27,29,-1,-1,-1,-1,-1,-1,-1,-1,-1,-1,-1,-1,-1,-1,-1,-1],"loss_changes":[4.4793324E1,1.4967108E1,2.3823742E1,2.669684E0,1.1424667E1,1.7025383E1,1.324078E1,4.184389E-1,3.6275342E0,6.4064484E0,2.3282545E1,6.8310833E0,1.1985683E1,9.047553E0,2.2550932E1,0E0,0E0,0E0,0E0,0E0,0E0,0E0,0E0,0E0,0E0,0E0,0E0,0E0,0E0,0E0,0E0],"parents":[2147483647,0,0,1,1,2,2,3,3,4,4,5,5,6,6,7,7,8,8,9,9,10,10,11,11,12,12,13,13,14,14],"right_children":[2,4,6,8,10,12,14,16,18,20,22,24,26,28,30,-1,-1,-1,-1,-1,-1,-1,-1,-1,-1,-1,-1,-1,-1,-1,-1],"split_conditions":[1E-1,3.64E1,3.1E0,9.6689296E-1,3.0471924E-1,-4.5848712E-1,1E0,-5.2675474E-1,1.9864795E-1,-6.132298E-1,6.07E1,4E-1,1E0,1E0,8.07E1,-1.4205026E-2,-3.490638E-2,-2.0599186E-2,3.1592254E-2,1.149105E-2,3.4000177E-3,6.1901845E-2,1.167613E-2,-1.40631525E-2,2.4256492E-3,-1.0215021E-2,2.7904578E-3,-3.6693233E-4,1.3057041E-2,5.9962522E-2,8.0259604E-4],"split_indices":[1,0,1,4,3,4,9,3,3,3,0,1,9,5,0,0,0,0,0,0,0,0,0,0,0,0,0,0,0,0,0],"split_type":[0,0,0,0,0,0,0,0,0,0,0,0,0,0,0,0,0,0,0,0,0,0,0,0,0,0,0,0,0,0,0],"sum_hessian":[4.539E3,1.15E3,3.389E3,3.8E1,1.112E3,2.35E3,1.039E3,2.5E1,1.3E1,9.8E2,1.32E2,6.8E2,1.67E3,9.73E2,6.6E1,5E0,2E1,9E0,4E0,4.9E2,4.9E2,2.9E1,1.03E2,6.9E1,6.11E2,1.469E3,2.01E2,8.26E2,1.47E2,2.6E1,4E1],"tree_param":{"num_deleted":"0","num_feature":"10","num_nodes":"31","size_leaf_vector":"1"}},{"base_weights":[7.967941E-3,1.9068591E-1,-5.3700384E-2,1.4932443E-1,4.70128E-1,-1.1145337E-1,7.812558E-2,1.04434684E-1,1.3737155E-1,3.0156592E-1,1.1697266E0,-2.924289E-1,-7.917128E-2,4.2813502E-2,5.524949E-1,1.1624294E-2,1.6013501E-3,-2.8178459E-2,2.019287E-2,1.2718081E-2,1.5369508E-1,-1.57001E-2,1.7428568E-2,-1.2052874E-2,-1.5345584E-3,-1.8957094E-4,1.517529E-2,6.9371834E-3,5.2620918E-2],"categories":[],"categories_nodes":[],"categories_segments":[],"categories_sizes":[],"default_left":[0,0,0,0,0,0,0,0,0,0,0,0,0,0,0,0,0,0,0,0,0,0,0,0,0,0,0,0,0],"id":16,"left_children":[1,3,5,7,9,11,13,-1,15,17,19,21,23,25,27,-1,-1,-1,-1,-1,-1,-1,-1,-1,-1,-1,-1,-1,-1],"loss_changes":[5.072711E1,1.3059845E1,2.563522E1,2.2685493E1,1.6864414E1,1.3653595E1,1.7162834E1,0E0,9.872053E0,1.0758622E1,4.8022537E1,5.004692E0,1.5594946E1,1.1616115E1,1.4539906E1,0E0,0E0,0E0,0E0,0E0,0E0,0E0,0E0,0E0,0E0,0E0,0E0,0E0,0E0],"parents":[2147483647,0,0,1,1,2,2,3,3,4,4,5,5,6,6,8,8,9,9,10,10,11,11,12,12,13,13,14,14],"right_children":[2,4,6,8,10,12,14,-1,16,18,20,22,24,26,28,-1,-1,-1,-1,-1,-1,-1,-1,-1,-1,-1,-1,-1,-1],"split_conditions":[1E-1,3.0471924E-1,3.1E0,2.66E1,1E0,4.87E1,1E0,1.04434684E-1,-5.6990105E-1,3.415E1,8.9406115E-1,1E0,-7.4944234E-1,1.14E1,8.697723E-2,1.1624294E-2,1.6013501E-3,-2.8178459E-2,2.019287E-2,1.2718081E-2,1.5369508E-1,-1.57001E-2,1.7428568E-2,-1.2052874E-2,-1.5345584E-3,-1.8957094E-4,1.517529E-2,6.9371834E-3,5.2620918E-2],"split_indices":[1,3,1,0,9,0,9,0,3,0,4,9,3,1,4,0,0,0,0,0,0,0,0,0,0,0,0,0,0],"split_type":[0,0,0,0,0,0,0,0,0,0,0,0,0,0,0,0,0,0,0,0,0,0,0,0,0,0,0,0,0],"sum_hessian":[4.5E3,1.135E3,3.365E3,9.9E2,1.45E2,2.34E3,1.025E3,5E0,9.85E2,1.18E2,2.7E1,3.53E2,1.987E3,9.55E2,7E1,5.17E2,4.68E2,1.2E1,1.06E2,1.9E1,8E0,3.42E2,1.1E1,4.57E2,1.53E3,8.11E2,1.44E2,3.9E1,3.1E1],"tree_param":{"num_deleted":"0","num_feature":"10","num_nodes":"29","size_leaf_vector":"1"}},{"base_weights":[5.2028713E-3,-2.7173292E-2,2.2310829E-1,1.4796622E-2,-1.5821256E-1,5.469149E-1,-1.1506469E-1,9.268318E-3,1.0359169E0,3.2034037E-3,-2.2278365E-1,1.7051369E-1,5.062357E-1,-7.882667E-3,-4.5856172E-1,6.5891664E-3,-1.1871352E-3,1.2728775E-1,2.4583274E-2,-2.637903E-3,2.4737522E-2,-1.1775549E-2,3.2674875E-2,1.0125841E-1,2.2841992E-2,-5.1205745E-3,1.7011577E-2,-2.5564322E-2,8.573721E-3],"categories":[],"categories_nodes":[],"categories_segments":[],"categories_sizes":[],"default_left":[0,0,0,0,0,0,0,0,0,0,0,0,0,0,0,0,0,0,0,0,0,0,0,0,0,0,0,0,0],"id":17,"left_children":[1,3,5,7,9,11,13,15,17,19,21,-1,23,25,27,-1,-1,-1,-1,-1,-1,-1,-1,-1,-1,-1,-1,-1,-1],"loss_changes":[3.1795631E1,2.158319E1,6.3902977E1,1.677317E1,9.923222E0,3.2984337E1,1.0525964E1,1.1966304E1,1.1896046E1,7.5357018E0,7.7377434E0,0E0,2.1208405E1,7.2414384E0,2.346528E0,0E0,0E0,0E0,0E0,0E0,0E0,0E0,0E0,0E0,0E0,0E0,0E0,0E0,0E0],"parents":[2147483647,0,0,1,1,2,2,3,3,4,4,5,5,6,6,7,7,8,8,9,9,10,10,12,12,13,13,14,14],"right_children":[2,4,6,8,10,12,14,16,18,20,22,-1,24,26,28,-1,-1,-1,-1,-1,-1,-1,-1,-1,-1,-1,-1,-1,-1],"split_conditions":[1E0,7.240038E-1,8.41E1,9.61E1,2E0,3.415E1,-1.7011768E-1,1E-1,-8.605997E-1,4.1692588E-1,7.9E0,1.7051369E-1,-6.4415926E-1,2.9856881E-1,-6.660889E-1,6.5891664E-3,-1.1871352E-3,1.2728775E-1,2.4583274E-2,-2.637903E-3,2.4737522E-2,-1.1775549E-2,3.2674875E-2,1.0125841E-1,2.2841992E-2,-5.1205745E-3,1.7011577E-2,-2.5564322E-2,8.573721E-3],"split_indices":[9,4,0,0,2,0,4,1,3,3,1,0,4,3,3,0,0,0,0,0,0,0,0,0,0,0,0,0,0],"split_type":[0,0,0,0,0,0,0,0,0,0,0,0,0,0,0,0,0,0,0,0,0,0,0,0,0,0,0,0,0],"sum_hessian":[4.505E3,3.923E3,5.82E2,2.972E3,9.51E2,2.97E2,2.85E2,2.957E3,1.5E1,2.72E2,6.79E2,3E0,2.94E2,2.18E2,6.7E1,6.27E2,2.33E3,3E0,1.2E1,2.45E2,2.7E1,6.7E2,9E0,8E0,2.86E2,1.72E2,4.6E1,6.2E1,5E0],"tree_param":{"num_deleted":"0","num_feature":"10","num_nodes":"29","size_leaf_vector":"1"}},{"base_weights":[-3.9661545E-3,1.17074646E-1,-4.274711E-2,7.891032E-2,2.6305443E-1,-9.608877E-2,7.8855745E-2,-2.518858E-1,1.1234658E-1,1.4131653E-1,6.9604975E-1,-1.7563681E-1,-2.7724946E-2,5.239622E-2,4.3900654E-1,-1.8867841E-2,1.877684E-2,2.5153896E-2,3.6774252E-3,1.1699614E-3,7.184235E-2,1.083097E-3,8.532742E-2,-3.2687862E-3,-1.3070424E-2,1.1001966E-1,-1.7306174E-3,-6.480178E-4,1.0026148E-2,-9.80049E-3,4.3591585E-2],"categories":[],"categories_nodes":[],"categories_segments":[],"categories_sizes":[],"default_left":[0,0,0,0,0,0,0,0,0,0,0,0,0,0,0,0,0,0,0,0,0,0,0,0,0,0,0,0,0,0,0],"id":18,"left_children":[1,3,5,7,9,11,13,15,17,19,21,23,25,27,29,-1,-1,-1,-1,-1,-1,-1,-1,-1,-1,-1,-1,-1,-1,-1,-1],"loss_changes":[2.1414694E1,6.1465826E0,2.2418427E1,9.750555E0,1.1972671E1,1.3057707E1,1.0021006E1,6.518303E0,1.20755415E1,2.746416E1,3.403643E1,1.0480488E1,1.9918465E1,9.519077E0,1.9960167E1,0E0,0E0,0E0,0E0,0E0,0E0,0E0,0E0,0E0,0E0,0E0,0E0,0E0,0E0,0E0,0E0],"parents":[2147483647,0,0,1,1,2,2,3,3,4,4,5,5,6,6,7,7,8,8,9,9,10,10,11,11,12,12,13,13,14,14],"right_children":[2,4,6,8,10,12,14,16,18,20,22,24,26,28,30,-1,-1,-1,-1,-1,-1,-1,-1,-1,-1,-1,-1,-1,-1,-1,-1],"split_conditions":[2E0,1.20126165E-1,3.1E0,5.135E1,1E0,9.66127E-2,1E0,9.984376E-1,6.07E1,8.9E1,8.9976585E-1,1.0751513E-3,1.0303138E-1,7.536977E-1,3.7E0,-1.8867841E-2,1.877684E-2,2.5153896E-2,3.6774252E-3,1.1699614E-3,7.184235E-2,1.083097E-3,8.532742E-2,-3.2687862E-3,-1.3070424E-2,1.1001966E-1,-1.7306174E-3,-6.480178E-4,1.0026148E-2,-9.80049E-3,4.3591585E-2],"split_indices":[2,3,1,0,9,3,9,4,0,0,4,4,3,3,1,0,0,0,0,0,0,0,0,0,0,0,0,0,0,0,0],"split_type":[0,0,0,0,0,0,0,0,0,0,0,0,0,0,0,0,0,0,0,0,0,0,0,0,0,0,0,0,0,0,0],"sum_hessian":[4.56E3,1.106E3,3.454E3,8.78E2,2.28E2,2.401E3,1.053E3,8E1,7.98E2,1.79E2,4.9E1,1.109E3,1.292E3,9.82E2,7.1E1,6.7E1,1.3E1,7.1E1,7.27E2,1.65E2,1.4E1,3E1,1.9E1,4.86E2,6.23E2,3E0,1.289E3,6.82E2,3E2,2.9E1,4.2E1],"tree_param":{"num_deleted":"0","num_feature":"10","num_nodes":"31","size_leaf_vector":"1"}},{"base_weights":[5.5239783E-3,1.4224768E-1,-3.9027166E-2,9.740868E-2,3.2657298E-1,-9.305445E-2,7.5910635E-2,5.491468E-2,4.8752692E-1,1.5274465E0,2.4172741E-1,1.5339643E-2,-1.3606581E-1,4.9282573E-2,4.4292164E-1,8.298774E-3,-2.1619867E-3,3.2829368E-3,5.025329E-2,3.19029E-2,1.5003671E-1,-8.853031E-3,2.0378778E-2,3.1185185E-3,-1.742846E-2,-1.0688529E-2,-2.7112039E-3,2.1623722E-3,7.773986E-2,9.488001E-2,1.54027045E-2],"categories":[],"categories_nodes":[],"categories_segments":[],"categories_sizes":[],"default_left":[0,0,0,0,0,0,0,0,0,0,0,0,0,0,0,0,0,0,0,0,0,0,0,0,0,0,0,0,0,0,0],"id":19,"left_children":[1,3,5,7,9,11,13,15,17,19,21,23,25,27,29,-1,-1,-1,-1,-1,-1,-1,-1,-1,-1,-1,-1,-1,-1,-1,-1],"loss_changes":[2.7288023E1,9.067913E0,2.0989902E1,1.4677637E1,2.153686E1,1.0720428E1,1.0542559E1,8.738964E0,1.8928993E1,1.6429905E1,1.4102119E1,1.1214881E1,1.0456137E1,9.100509E0,1.3737226E1,0E0,0E0,0E0,0E0,0E0,0E0,0E0,0E0,0E0,0E0,0E0,0E0,0E0,0E0,0E0,0E0],"parents":[2147483647,0,0,1,1,2,2,3,3,4,4,5,5,6,6,7,7,8,8,9,9,10,10,11,11,12,12,13,13,14,14],"right_children":[2,4,6,8,10,12,14,16,18,20,22,24,26,28,30,-1,-1,-1,-1,-1,-1,-1,-1,-1,-1,-1,-1,-1,-1,-1,-1],"split_conditions":[2E0,1E0,3E0,9.025E1,5.6E1,-4.5848712E-1,1E0,-5.4129845E-1,-3.8937813E-1,5.275E1,-8.466016E-1,9.305E1,3.634816E-1,9.535E1,6.245E1,8.298774E-3,-2.1619867E-3,3.2829368E-3,5.025329E-2,3.19029E-2,1.5003671E-1,-8.853031E-3,2.0378778E-2,3.1185185E-3,-1.742846E-2,-1.0688529E-2,-2.7112039E-3,2.1623722E-3,7.773986E-2,9.488001E-2,1.54027045E-2],"split_indices":[2,9,1,0,0,4,9,3,3,0,4,0,3,0,0,0,0,0,0,0,0,0,0,0,0,0,0,0,0,0,0],"split_type":[0,0,0,0,0,0,0,0,0,0,0,0,0,0,0,0,0,0,0,0,0,0,0,0,0,0,0,0,0,0,0],"sum_hessian":[4.478E3,1.1E3,3.378E3,8.86E2,2.14E2,2.298E3,1.08E3,8E2,8.6E1,1.3E1,2.01E2,6.53E2,1.645E3,1.008E3,7.2E1,3.75E2,4.25E2,4.8E1,3.8E1,9E0,4E0,5.7E1,1.44E2,5.79E2,7.4E1,8.43E2,8.02E2,1.005E3,3E0,5E0,6.7E1],"tree_param":{"num_deleted":"0","num_feature":"10","num_nodes":"31","size_leaf_vector":"1"}},{"base_weights":[4.8709144E-3,1.263392E-1,-3.4800895E-2,8.4382534E-2,2.954927E-1,-8.090677E-2,7.1710154E-2,7.389724E-2,7.012307E-2,1.3791056E-1,1.2219026E0,-2.4003273E-1,-4.7781747E-2,3.7225015E-2,2.855953E-1,5.7215635E-3,-4.6544843E-3,2.1335153E-2,-4.265437E-3,1.4868724E-2,1.3690008E-1,-1.2944418E-2,5.3636443E-2,5.1751063E-4,-9.132874E-3,6.959369E-3,-5.1451284E-3,1.0702753E-2,6.634831E-2],"categories":[],"categories_nodes":[],"categories_segments":[],"categories_sizes":[],"default_left":[0,0,0,0,0,0,0,0,0,0,0,0,0,0,0,0,0,0,0,0,0,0,0,0,0,0,0,0,0],"id":20,"left_children":[1,3,5,7,9,11,13,15,-1,17,19,21,23,25,27,-1,-1,-1,-1,-1,-1,-1,-1,-1,-1,-1,-1,-1,-1],"loss_changes":[2.1804953E1,7.881254E0,1.6756489E1,1.2251829E1,3.2094315E1,1.2538905E1,7.5938787E0,6.0212154E0,0E0,1.2284572E1,4.403943E1,1.0426435E1,1.5463535E1,1.2716123E1,1.0369447E1,0E0,0E0,0E0,0E0,0E0,0E0,0E0,0E0,0E0,0E0,0E0,0E0,0E0,0E0],"parents":[2147483647,0,0,1,1,2,2,3,3,4,4,5,5,6,6,7,7,9,9,10,10,11,11,12,12,13,13,14,14],"right_children":[2,4,6,8,10,12,14,16,-1,18,20,22,24,26,28,-1,-1,-1,-1,-1,-1,-1,-1,-1,-1,-1,-1,-1,-1],"split_conditions":[2E0,1E0,3.1E0,9.61E1,2.4893981E-1,5.08E1,1.14E1,9.0713906E-1,7.012307E-2,8.325E1,8.9976585E-1,9.9920887E-1,1E0,1E0,4.0221357E-1,5.7215635E-3,-4.6544843E-3,2.1335153E-2,-4.265437E-3,1.4868724E-2,1.3690008E-1,-1.2944418E-2,5.3636443E-2,5.1751063E-4,-9.132874E-3,6.959369E-3,-5.1451284E-3,1.0702753E-2,6.634831E-2],"split_indices":[2,9,1,0,3,0,1,4,0,0,4,3,8,7,4,0,0,0,0,0,0,0,0,0,0,0,0,0,0],"split_type":[0,0,0,0,0,0,0,0,0,0,0,0,0,0,0,0,0,0,0,0,0,0,0,0,0,0,0,0,0],"sum_hessian":[4.523E3,1.113E3,3.41E3,8.93E2,2.2E2,2.38E3,1.03E3,8.87E2,6E0,1.89E2,3.1E1,4.09E2,1.971E3,8.88E2,1.42E2,7.14E2,1.73E2,8.2E1,1.07E2,2E1,1.1E1,4.04E2,5E0,1.378E3,5.93E2,5.14E2,3.74E2,1.34E2,8E0],"tree_param":{"num_deleted":"0","num_feature":"10","num_nodes":"29","size_leaf_vector":"1"}},{"base_weights":[-1.5927962E-3,1.3351864E-1,-4.5163885E-2,2.3173061E-1,5.511576E-2,-1.05558885E-2,-1.6425031E-1,1.5810825E-1,6.226486E-1,-2.9481111E-2,2.4218048E-1,-2.0657964E-2,5.733542E-1,7.035868E-2,-1.7225221E-1,5.785831E-3,3.4701888E-2,1.9225057E-2,7.202757E-2,-5.744118E-3,1.74864E-2,2.2708938E-2,-4.9571777E-3,-8.8428585E-3,9.5682277E-4,8.858238E-2,1.5299684E-2,-1.07948845E-2,3.3247352E-3],"categories":[],"categories_nodes":[],"categories_segments":[],"categories_sizes":[],"default_left":[0,0,0,0,0,0,0,0,0,0,0,0,0,0,0,0,0,0,0,0,0,0,0,0,0,0,0,0,0],"id":21,"left_children":[1,3,5,7,9,11,13,15,17,19,21,23,25,-1,27,-1,-1,-1,-1,-1,-1,-1,-1,-1,-1,-1,-1,-1,-1],"loss_changes":[2.6556187E1,8.457338E0,1.4056168E1,1.3946346E1,9.70792E0,1.5608019E1,9.899496E0,9.279885E0,1.4444284E1,1.3739003E1,1.3865809E1,1.616461E1,1.3874825E1,0E0,7.9858284E0,0E0,0E0,0E0,0E0,0E0,0E0,0E0,0E0,0E0,0E0,0E0,0E0,0E0,0E0],"parents":[2147483647,0,0,1,1,2,2,3,3,4,4,5,5,6,6,7,7,8,8,9,9,10,10,11,11,12,12,14,14],"right_children":[2,4,6,8,10,12,14,16,18,20,22,24,26,-1,28,-1,-1,-1,-1,-1,-1,-1,-1,-1,-1,-1,-1,-1,-1],"split_conditions":[2E0,7.36E1,1E0,1E0,9.025E1,9.9920887E-1,6.16E1,7.27E1,2.4893981E-1,1E0,9.8E1,5.135E1,4.87E1,7.035868E-2,8.92E1,5.785831E-3,3.4701888E-2,1.9225057E-2,7.202757E-2,-5.744118E-3,1.74864E-2,2.2708938E-2,-4.9571777E-3,-8.8428585E-3,9.5682277E-4,8.858238E-2,1.5299684E-2,-1.07948845E-2,3.3247352E-3],"split_indices":[2,0,8,9,0,3,0,0,3,7,0,0,0,0,0,0,0,0,0,0,0,0,0,0,0,0,0,0,0],"split_type":[0,0,0,0,0,0,0,0,0,0,0,0,0,0,0,0,0,0,0,0,0,0,0,0,0,0,0,0,0],"sum_hessian":[4.509E3,1.099E3,3.41E3,4.87E2,6.12E2,2.643E3,7.67E2,4.11E2,7.6E1,4.22E2,1.9E2,2.599E3,4.4E1,3E0,7.64E2,3.82E2,2.9E1,6E1,1.6E1,3.45E2,7.7E1,1.17E2,7.3E1,5.27E2,2.072E3,7E0,3.7E1,6.46E2,1.18E2],"tree_param":{"num_deleted":"0","num_feature":"10","num_nodes":"29","size_leaf_vector":"1"}},{"base_weights":[6.014747E-3,1.371229E-1,-3.8706683E-2,1.048773E-1,4.3150467E-1,-9.1459505E-2,5.1890332E-2,1.8705742E-1,1.7637571E-2,9.9084944E-1,1.8139754E-1,-1.3799867E-1,1.0827305E-2,1.9712515E-2,4.2579895E-1,-2.4097221E-2,1.0961625E-2,2.6242875E-3,-2.073803E-2,2.2902073E-2,1.23958945E-1,6.1178408E-3,5.2126855E-2,-1.9563779E-3,-1.0502438E-2,2.402229E-2,-1.04738574E-4,-8.618627E-4,1.3721483E-2,1.00153685E-1,1.029387E-2],"categories":[],"categories_nodes":[],"categories_segments":[],"categories_sizes":[],"default_left":[0,0,0,0,0,0,0,0,0,0,0,0,0,0,0,0,0,0,0,0,0,0,0,0,0,0,0,0,0,0,0],"id":22,"left_children":[1,3,5,7,9,11,13,15,17,19,21,23,25,27,29,-1,-1,-1,-1,-1,-1,-1,-1,-1,-1,-1,-1,-1,-1,-1,-1],"loss_changes":[2.669525E1,1.0947075E1,1.6230293E1,7.488694E0,1.5768421E1,1.0217192E1,1.5031058E1,1.1686211E1,7.67646E0,2.6619217E1,3.9398232E0,1.0499197E1,4.0790024E0,1.08470545E1,3.392841E1,0E0,0E0,0E0,0E0,0E0,0E0,0E0,0E0,0E0,0E0,0E0,0E0,0E0,0E0,0E0,0E0],"parents":[2147483647,0,0,1,1,2,2,3,3,4,4,5,5,6,6,7,7,8,8,9,9,10,10,11,11,12,12,13,13,14,14],"right_children":[2,4,6,8,10,12,14,16,18,20,22,24,26,28,30,-1,-1,-1,-1,-1,-1,-1,-1,-1,-1,-1,-1,-1,-1,-1,-1],"split_conditions":[1E-1,3.634816E-1,2.7E0,-5.4129845E-1,6.07E1,7.232617E-1,1E0,5.135E1,9.8E1,5.38E1,9.04E1,1.0751513E-3,-6.4415926E-1,1.14E1,6.245E1,-2.4097221E-2,1.0961625E-2,2.6242875E-3,-2.073803E-2,2.2902073E-2,1.23958945E-1,6.1178408E-3,5.2126855E-2,-1.9563779E-3,-1.0502438E-2,2.402229E-2,-1.04738574E-4,-8.618627E-4,1.3721483E-2,1.00153685E-1,1.029387E-2],"split_indices":[1,3,1,3,0,3,9,0,0,0,0,4,4,1,0,0,0,0,0,0,0,0,0,0,0,0,0,0,0,0,0],"split_type":[0,0,0,0,0,0,0,0,0,0,0,0,0,0,0,0,0,0,0,0,0,0,0,0,0,0,0,0,0,0,0],"sum_hessian":[4.551E3,1.157E3,3.394E3,1.044E3,1.13E2,2.145E3,1.249E3,5.37E2,5.07E2,3.4E1,7.9E1,1.474E3,6.71E2,1.151E3,9.8E1,2.4E1,5.13E2,4.7E2,3.7E1,2.6E1,8E0,7.5E1,4E0,6.22E2,8.52E2,1.7E1,6.54E2,1.006E3,1.45E2,1.1E1,8.7E1],"tree_param":{"num_deleted":"0","num_feature":"10","num_nodes":"31","size_leaf_vector":"1"}},{"base_weights":[-6.8406328E-3,1.17512435E-1,-4.7752902E-2,7.530241E-2,2.8849474E-1,-9.544209E-2,3.6274645E-2,1.2844822E-1,-1.3448243E-1,1.4333882E0,2.1590091E-1,-1.7882536E-1,-5.2549183E-2,1.3858921E-2,3.1364045E-1,4.968663E-3,2.2258136E-2,-1.9581059E-2,-3.7451957E-3,2.861685E-2,1.3483015E-1,1.3123393E-2,-2.25729E-2,-1.6250081E-2,-5.992408E-3,-4.0725074E-3,8.7350635E-3,-1.3900473E-3,1.043086E-2,1.295417E-1,7.649378E-3],"categories":[],"categories_nodes":[],"categories_segments":[],"categories_sizes":[],"default_left":[0,0,0,0,0,0,0,0,0,0,0,0,0,0,0,0,0,0,0,0,0,0,0,0,0,0,0,0,0,0,0],"id":23,"left_children":[1,3,5,7,9,11,13,15,17,19,21,23,25,27,29,-1,-1,-1,-1,-1,-1,-1,-1,-1,-1,-1,-1,-1,-1,-1,-1],"loss_changes":[2.2975971E1,8.0470705E0,1.3619947E1,1.0029241E1,1.8058323E1,7.744566E0,7.649218E0,6.5582285E0,2.758896E0,1.2596636E1,6.6135607E0,6.3061543E0,9.425825E0,9.255307E0,3.3260696E1,0E0,0E0,0E0,0E0,0E0,0E0,0E0,0E0,0E0,0E0,0E0,0E0,0E0,0E0,0E0,0E0],"parents":[2147483647,0,0,1,1,2,2,3,3,4,4,5,5,6,6,7,7,8,8,9,9,10,10,11,11,12,12,13,13,14,14],"right_children":[2,4,6,8,10,12,14,16,18,20,22,24,26,28,30,-1,-1,-1,-1,-1,-1,-1,-1,-1,-1,-1,-1,-1,-1,-1,-1],"split_conditions":[2E0,1E0,2.7E0,9.142438E-1,5.6E1,-3.7547037E-1,1E0,4.01229E-1,9.4139683E-1,5.275E1,4.266741E-1,6.83E1,1E0,1E0,5.64E1,4.968663E-3,2.2258136E-2,-1.9581059E-2,-3.7451957E-3,2.861685E-2,1.3483015E-1,1.3123393E-2,-2.25729E-2,-1.6250081E-2,-5.992408E-3,-4.0725074E-3,8.7350635E-3,-1.3900473E-3,1.043086E-2,1.295417E-1,7.649378E-3],"split_indices":[2,9,1,4,0,3,9,3,4,0,3,0,9,5,0,0,0,0,0,0,0,0,0,0,0,0,0,0,0,0,0],"split_type":[0,0,0,0,0,0,0,0,0,0,0,0,0,0,0,0,0,0,0,0,0,0,0,0,0,0,0,0,0,0,0],"sum_hessian":[4.514E3,1.117E3,3.397E3,8.97E2,2.2E2,2.167E3,1.23E3,7.16E2,1.81E2,1.2E1,2.08E2,7.35E2,1.432E3,1.139E3,9.1E1,6.57E2,5.9E1,3.3E1,1.48E2,8E0,4E0,1.95E2,1.3E1,2.1E2,5.25E2,1.271E3,1.61E2,9.39E2,2E2,5E0,8.6E1],"tree_param":{"num_deleted":"0","num_feature":"10","num_nodes":"31","size_leaf_vector":"1"}},{"base_weights":[4.045798E-3,3.370358E-2,-1.0214939E-1,-1.4768253E-1,5.8745738E-2,-1.1937178E-1,1.1033334E0,-1.6161919E-1,6.8674594E-2,5.1993202E-2,5.2747905E-1,-1.587876E-1,9.31718E-2,1.4305413E0,-3.6160783E-3,-9.111608E-3,2.8235737E-2,9.129086E-4,7.2355615E-3,1.0658876E-1,1.0903489E-2,5.2818894E-2,-8.301057E-3,-2.9132827E-3,3.1245828E-2,4.8108853E-2,1.0048171E-1],"categories":[],"categories_nodes":[],"categories_segments":[],"categories_sizes":[],"default_left":[0,0,0,0,0,0,0,0,0,0,0,0,0,0,0,0,0,0,0,0,0,0,0,0,0,0,0],"id":24,"left_children":[1,3,5,7,9,11,13,15,-1,17,19,21,23,25,-1,-1,-1,-1,-1,-1,-1,-1,-1,-1,-1,-1,-1],"loss_changes":[1.4239246E1,1.6061163E1,2.0623104E1,9.31682E0,9.803492E0,8.174554E0,5.489029E0,6.48094E0,0E0,9.5779505E0,2.1376026E1,7.4007206E0,1.23569E1,1.0498676E0,0E0,0E0,0E0,0E0,0E0,0E0,0E0,0E0,0E0,0E0,0E0,0E0,0E0],"parents":[2147483647,0,0,1,1,2,2,3,3,4,4,5,5,6,6,7,7,9,9,10,10,11,11,12,12,13,13],"right_children":[2,4,6,8,10,12,14,16,-1,18,20,22,24,26,-1,-1,-1,-1,-1,-1,-1,-1,-1,-1,-1,-1,-1],"split_conditions":[1E0,4.36E1,9.44E1,7.4E0,9.9920887E-1,9.005E1,6.875541E-2,1E0,6.8674594E-2,5.129784E-1,4.87E1,6.16E1,-3.869579E-2,9.61E1,-3.6160783E-3,-9.111608E-3,2.8235737E-2,9.129086E-4,7.2355615E-3,1.0658876E-1,1.0903489E-2,5.2818894E-2,-8.301057E-3,-2.9132827E-3,3.1245828E-2,4.8108853E-2,1.0048171E-1],"split_indices":[8,0,0,1,3,0,3,9,0,4,0,0,3,0,0,0,0,0,0,0,0,0,0,0,0,0,0],"split_type":[0,0,0,0,0,0,0,0,0,0,0,0,0,0,0,0,0,0,0,0,0,0,0,0,0,0,0],"sum_hessian":[4.519E3,3.533E3,9.86E2,4.28E2,3.105E3,9.73E2,1.3E1,4.25E2,3E0,3.062E3,4.3E1,8.21E2,1.52E2,1E1,3E0,4.14E2,1.1E1,2.246E3,8.16E2,6E0,3.7E1,4E0,8.17E2,1.19E2,3.3E1,7E0,3E0],"tree_param":{"num_deleted":"0","num_feature":"10","num_nodes":"27","size_leaf_vector":"1"}},{"base_weights":[1.9439756E-3,1.0131449E-1,-3.0451149E-2,1.7716002E-1,-6.116675E-4,-7.719334E-2,5.4521192E-2,1.3815674E-1,6.4238E-1,-4.679387E-2,8.6917865E-1,5.9835473E-3,-1.5954764E-1,4.3033294E-2,9.668548E-1,-9.236778E-3,9.8765055E-3,6.858062E-2,1.2362436E-2,-1.2889794E-2,6.0845516E-3,1.0975875E-2,6.2217038E-2,4.475719E-3,-5.6521324E-3,-1.2762487E-2,-3.4473662E-3,1.2780431E-3,2.7367378E-2,2.291721E-2,1.1253365E-1],"categories":[],"categories_nodes":[],"categories_segments":[],"categories_sizes":[],"default_left":[0,0,0,0,0,0,0,0,0,0,0,0,0,0,0,0,0,0,0,0,0,0,0,0,0,0,0,0,0,0,0],"id":25,"left_children":[1,3,5,7,9,11,13,15,17,19,21,23,25,27,29,-1,-1,-1,-1,-1,-1,-1,-1,-1,-1,-1,-1,-1,-1,-1,-1],"loss_changes":[1.45470705E1,8.588854E0,1.3540081E1,1.1469688E1,1.9120869E1,1.5064047E1,1.2640156E1,1.1328328E1,1.3779854E1,1.6100266E1,5.5763245E0,1.0896999E1,9.563459E0,1.0524677E1,8.760945E0,0E0,0E0,0E0,0E0,0E0,0E0,0E0,0E0,0E0,0E0,0E0,0E0,0E0,0E0,0E0,0E0],"parents":[2147483647,0,0,1,1,2,2,3,3,4,4,5,5,6,6,7,7,8,8,9,9,10,10,11,11,12,12,13,13,14,14],"right_children":[2,4,6,8,10,12,14,16,18,20,22,24,26,28,30,-1,-1,-1,-1,-1,-1,-1,-1,-1,-1,-1,-1,-1,-1,-1,-1],"split_conditions":[2E0,7.865E1,6.4333653E-1,4.01229E-1,1E0,1.0751513E-3,1.34E1,4.62E1,4.4794494E-1,8.73E1,-8.528367E-1,8.615E1,8.33777E-1,8.86E1,1.5951325E-1,-9.236778E-3,9.8765055E-3,6.858062E-2,1.2362436E-2,-1.2889794E-2,6.0845516E-3,1.0975875E-2,6.2217038E-2,4.475719E-3,-5.6521324E-3,-1.2762487E-2,-3.4473662E-3,1.2780431E-3,2.7367378E-2,2.291721E-2,1.1253365E-1],"split_indices":[2,0,3,3,7,4,1,0,3,0,3,0,4,0,4,0,0,0,0,0,0,0,0,0,0,0,0,0,0,0,0],"split_type":[0,0,0,0,0,0,0,0,0,0,0,0,0,0,0,0,0,0,0,0,0,0,0,0,0,0,0,0,0,0,0],"sum_hessian":[4.517E3,1.11E3,3.407E3,6.36E2,4.74E2,2.198E3,1.209E3,5.88E2,4.8E1,4.51E2,2.3E1,1.094E3,1.104E3,1.195E3,1.4E1,9.1E1,4.97E2,1.6E1,3.2E1,2E2,2.51E2,9E0,1.4E1,6.43E2,4.51E2,5.36E2,5.68E2,1.156E3,3.9E1,1.1E1,3E0],"tree_param":{"num_deleted":"0","num_feature":"10","num_nodes":"31","size_leaf_vector":"1"}},{"base_weights":[1.5502522E-3,-2.0838957E-2,1.5307868E-1,1.3348434E-2,-1.2723349E-1,8.175955E-1,3.621166E-2,7.322545E-3,5.062636E-1,-1.4569229E-1,1.1270227E-1,2.7497777E-1,1.7889379E0,2.6624337E-1,-9.1137804E-2,1.958415E-3,-4.498848E-3,1.3233456E-3,5.881073E-2,-1.4667507E-3,-9.87005E-3,2.3024436E-3,4.024441E-2,9.710347E-2,7.319867E-3,1.217216E-1,2.8201818E-2,5.3477626E-2,9.534291E-3,-6.956669E-3,1.45679405E-2],"categories":[],"categories_nodes":[],"categories_segments":[],"categories_sizes":[],"default_left":[0,0,0,0,0,0,0,0,0,0,0,0,0,0,0,0,0,0,0,0,0,0,0,0,0,0,0,0,0,0,0],"id":26,"left_children":[1,3,5,7,9,11,13,15,17,19,21,23,25,27,29,-1,-1,-1,-1,-1,-1,-1,-1,-1,-1,-1,-1,-1,-1,-1,-1],"loss_changes":[1.5337749E1,1.4329226E1,4.516857E1,8.853584E0,4.2593307E0,4.536296E1,1.4554294E1,9.135028E0,1.1540718E1,5.349058E0,3.1463575E0,1.1933943E1,2.3137558E1,1.0539257E1,5.9151444E0,0E0,0E0,0E0,0E0,0E0,0E0,0E0,0E0,0E0,0E0,0E0,0E0,0E0,0E0,0E0,0E0],"parents":[2147483647,0,0,1,1,2,2,3,3,4,4,5,5,6,6,7,7,8,8,9,9,10,10,11,11,12,12,13,13,14,14],"right_children":[2,4,6,8,10,12,14,16,18,20,22,24,26,28,30,-1,-1,-1,-1,-1,-1,-1,-1,-1,-1,-1,-1,-1,-1,-1,-1],"split_conditions":[1E0,7.1504414E-1,6.275E1,9.44E1,4.2E0,3.634816E-1,8.07E1,1E0,1E0,2E0,1E0,3.64E1,6.8197215E-1,-8.4372824E-1,3.3E0,1.958415E-3,-4.498848E-3,1.3233456E-3,5.881073E-2,-1.4667507E-3,-9.87005E-3,2.3024436E-3,4.024441E-2,9.710347E-2,7.319867E-3,1.217216E-1,2.8201818E-2,5.3477626E-2,9.534291E-3,-6.956669E-3,1.45679405E-2],"split_indices":[9,4,0,0,1,3,0,8,8,2,8,0,3,3,1,0,0,0,0,0,0,0,0,0,0,0,0,0,0,0,0],"split_type":[0,0,0,0,0,0,0,0,0,0,0,0,0,0,0,0,0,0,0,0,0,0,0,0,0,0,0,0,0,0,0],"sum_hessian":[4.519E3,3.938E3,5.81E2,2.981E3,9.57E2,8.6E1,4.95E2,2.946E3,3.5E1,8.89E2,6.8E1,5.6E1,3E1,1.76E2,3.19E2,2.22E3,7.26E2,2.1E1,1.4E1,2.74E2,6.15E2,6.3E1,5E0,3E0,5.3E1,1.9E1,1.1E1,1.4E1,1.62E2,2.84E2,3.5E1],"tree_param":{"num_deleted":"0","num_feature":"10","num_nodes":"31","size_leaf_vector":"1"}},{"base_weights":[1.496493E-4,9.516455E-2,-3.0614212E-2,1.6261505E-1,4.0762494E-3,-1.829942E-3,-1.301371E-1,1.13147035E-1,4.863435E-1,-3.6780734E-2,8.414591E-1,-5.9907906E-2,7.554091E-2,5.073769E-2,-1.374691E-1,1.02341585E-2,-4.2870315E-3,1.2999154E-2,6.2352564E-2,-1.0273565E-2,9.186873E-3,2.12148E-2,6.984421E-2,-4.7109937E-3,2.1607773E-2,5.3220172E-3,-1.2858397E-2,-8.812449E-3,7.892575E-4],"categories":[],"categories_nodes":[],"categories_segments":[],"categories_sizes":[],"default_left":[0,0,0,0,0,0,0,0,0,0,0,0,0,0,0,0,0,0,0,0,0,0,0,0,0,0,0,0,0],"id":27,"left_children":[1,3,5,7,9,11,13,15,17,19,21,23,25,-1,27,-1,-1,-1,-1,-1,-1,-1,-1,-1,-1,-1,-1,-1,-1],"loss_changes":[1.3229603E1,6.8006916E0,9.79415E0,1.0130003E1,1.6179457E1,1.192589E1,6.577958E0,1.0085138E1,1.4140097E1,1.6814653E1,4.5047693E0,2.5636347E1,1.1726601E1,0E0,4.537429E0,0E0,0E0,0E0,0E0,0E0,0E0,0E0,0E0,0E0,0E0,0E0,0E0,0E0,0E0],"parents":[2147483647,0,0,1,1,2,2,3,3,4,4,5,5,6,6,7,7,8,8,9,9,10,10,11,11,12,12,14,14],"right_children":[2,4,6,8,10,12,14,16,18,20,22,24,26,-1,28,-1,-1,-1,-1,-1,-1,-1,-1,-1,-1,-1,-1,-1,-1],"split_conditions":[2E0,7.885E1,1E0,1E0,1E0,7.3E1,6.16E1,9.0713906E-1,2.4893981E-1,9.025E1,7.411742E-2,1E0,9.34E1,5.073769E-2,8.86E1,1.02341585E-2,-4.2870315E-3,1.2999154E-2,6.2352564E-2,-1.0273565E-2,9.186873E-3,2.12148E-2,6.984421E-2,-4.7109937E-3,2.1607773E-2,5.3220172E-3,-1.2858397E-2,-8.812449E-3,7.892575E-4],"split_indices":[2,0,8,9,7,0,0,4,3,0,4,9,0,0,0,0,0,0,0,0,0,0,0,0,0,0,0,0,0],"split_type":[0,0,0,0,0,0,0,0,0,0,0,0,0,0,0,0,0,0,0,0,0,0,0,0,0,0,0,0,0],"sum_hessian":[4.524E3,1.106E3,3.418E3,6.35E2,4.71E2,2.652E3,7.66E2,5.52E2,8.3E1,4.5E2,2.1E1,1.515E3,1.137E3,4E0,7.62E2,3.78E2,1.74E2,6.5E1,1.8E1,2.55E2,1.95E2,1.3E1,8E0,1.417E3,9.8E1,1.041E3,9.6E1,6.08E2,1.54E2],"tree_param":{"num_deleted":"0","num_feature":"10","num_nodes":"29","size_leaf_vector":"1"}},{"base_weights":[-2.6877145E-3,9.025642E-2,-3.2789852E-2,1.6072243E-1,-4.6836236E-3,-7.593845E-2,3.7231885E-2,1.2244822E-1,5.8821654E-1,-4.2402335E-2,7.351348E-1,-1.4680111E-1,-2.0188075E-2,1.0928501E-2,3.5068086E-1,-1.1907372E-2,9.002193E-3,6.527517E-2,4.9557644E-3,-1.3195713E-2,3.6106277E-3,4.5042012E-2,-1.3858807E-2,-1.34814E-2,-4.586495E-3,-1.1052046E-2,3.562084E-4,-8.216422E-4,1.0475226E-2,7.3090605E-2,9.222028E-3],"categories":[],"categories_nodes":[],"categories_segments":[],"categories_sizes":[],"default_left":[0,0,0,0,0,0,0,0,0,0,0,0,0,0,0,0,0,0,0,0,0,0,0,0,0,0,0,0,0,0,0],"id":28,"left_children":[1,3,5,7,9,11,13,15,17,19,21,23,25,27,29,-1,-1,-1,-1,-1,-1,-1,-1,-1,-1,-1,-1,-1,-1,-1,-1],"loss_changes":[1.2671476E1,7.4133253E0,1.0338831E1,1.0334206E1,1.3230234E1,8.360498E0,1.075559E1,1.219259E1,1.811355E1,1.14693E1,4.107836E0,6.2795277E0,6.507664E0,6.5505776E0,1.8386578E1,0E0,0E0,0E0,0E0,0E0,0E0,0E0,0E0,0E0,0E0,0E0,0E0,0E0,0E0,0E0,0E0],"parents":[2147483647,0,0,1,1,2,2,3,3,4,4,5,5,6,6,7,7,8,8,9,9,10,10,11,11,12,12,13,13,14,14],"right_children":[2,4,6,8,10,12,14,16,18,20,22,24,26,28,30,-1,-1,-1,-1,-1,-1,-1,-1,-1,-1,-1,-1,-1,-1,-1,-1],"split_conditions":[2E0,7.885E1,2.6E0,4.01229E-1,1E0,1.0751308E-2,1E0,4.62E1,5.78E1,8.585E1,8.505E1,6.9E1,4.175E1,1.14E1,6.245E1,-1.1907372E-2,9.002193E-3,6.527517E-2,4.9557644E-3,-1.3195713E-2,3.6106277E-3,4.5042012E-2,-1.3858807E-2,-1.34814E-2,-4.586495E-3,-1.1052046E-2,3.562084E-4,-8.216422E-4,1.0475226E-2,7.3090605E-2,9.222028E-3],"split_indices":[2,0,1,3,7,3,9,0,0,0,0,0,0,1,0,0,0,0,0,0,0,0,0,0,0,0,0,0,0,0,0],"split_type":[0,0,0,0,0,0,0,0,0,0,0,0,0,0,0,0,0,0,0,0,0,0,0,0,0,0,0,0,0,0,0],"sum_hessian":[4.527E3,1.107E3,3.42E3,6.35E2,4.72E2,2.116E3,1.304E3,5.84E2,5.1E1,4.5E2,2.2E1,9.31E2,1.185E3,1.204E3,1E2,8E1,5.04E2,2E1,3.1E1,1.53E2,2.97E2,1.9E1,3E0,2.87E2,6.44E2,1.41E2,1.044E3,1.059E3,1.45E2,1.2E1,8.8E1],"tree_param":{"num_deleted":"0","num_feature":"10","num_nodes":"31","size_leaf_vector":"1"}},{"base_weights":[1.8285073E-3,-2.0462275E-2,1.5571368E-1,-2.4273682E-2,9.162791E-1,8.618201E-1,6.801149E-2,1.1481191E-3,-1.03170134E-1,1.16458654E-1,4.110594E-1,1.5038733E-1,7.0439464E-1,2.5177482E-1,-8.317986E-2,4.6195477E-2,-6.714262E-5,-4.0940526E-3,-1.5493922E-2,-1.6331663E-2,5.4501463E-2,-1.5957272E-2,5.58236E-2,1.02735475E-1,9.298326E-3,9.36976E-4,-2.0373596E-2],"categories":[],"categories_nodes":[],"categories_segments":[],"categories_sizes":[],"default_left":[0,0,0,0,0,0,0,0,0,0,0,0,0,0,0,0,0,0,0,0,0,0,0,0,0,0,0],"id":29,"left_children":[1,3,5,7,9,11,13,15,17,-1,19,-1,21,23,25,-1,-1,-1,-1,-1,-1,-1,-1,-1,-1,-1,-1],"loss_changes":[1.5480344E1,1.4096377E1,3.530175E1,7.876463E0,1.046372E1,1.9164234E1,1.4162709E1,6.8302994E0,4.1860275E0,0E0,6.8673644E0,0E0,2.5662973E1,2.6906952E1,9.262097E0,0E0,0E0,0E0,0E0,0E0,0E0,0E0,0E0,0E0,0E0,0E0,0E0],"parents":[2147483647,0,0,1,1,2,2,3,3,4,4,5,5,6,6,7,7,8,8,10,10,12,12,13,13,14,14],"right_children":[2,4,6,8,10,12,14,16,18,-1,20,-1,22,24,26,-1,-1,-1,-1,-1,-1,-1,-1,-1,-1,-1,-1],"split_conditions":[1E0,9.61E1,6.07E1,7.1504414E-1,-8.605997E-1,3.415E1,8.41E1,2.835E1,6.029879E-1,1.16458654E-1,-3.8937813E-1,1.5038733E-1,4.87E1,-6.4415926E-1,-1.7011768E-1,4.6195477E-2,-6.714262E-5,-4.0940526E-3,-1.5493922E-2,-1.6331663E-2,5.4501463E-2,-1.5957272E-2,5.58236E-2,1.02735475E-1,9.298326E-3,9.36976E-4,-2.0373596E-2],"split_indices":[9,0,0,4,3,0,0,0,3,0,3,0,0,4,4,0,0,0,0,0,0,0,0,0,0,0,0],"split_type":[0,0,0,0,0,0,0,0,0,0,0,0,0,0,0,0,0,0,0,0,0,0,0,0,0,0,0],"sum_hessian":[4.511E3,3.941E3,5.7E2,3.926E3,1.5E1,6.2E1,5.08E2,2.97E3,9.56E2,3E0,1.2E1,3E0,5.9E1,2.29E2,2.79E2,7E0,2.963E3,8.68E2,8.8E1,6E0,6E0,1.7E1,4.2E1,7E0,2.22E2,2.13E2,6.6E1],"tree_param":{"num_deleted":"0","num_feature":"10","num_nodes":"27","size_leaf_vector":"1"}},{"base_weights":[7.203329E-3,-1.3338783E-2,1.4587666E-1,-1.1847581E-1,1.4665977E-2,8.1369376E-1,6.340325E-2,-1.3557161E-1,8.8520694E-1,5.781798E-2,-7.872058E-2,1.3121538E0,3.4707688E-2,2.4881838E-1,-5.420572E-2,-1.7436063E-2,-5.381653E-3,1.10464096E-1,-4.793299E-3,1.4275126E-3,8.450528E-3,-4.4261934E-3,9.2825405E-2,8.8249855E-2,-4.962114E-5,8.745701E-2,-1.3248175E-2,9.0656124E-2,9.995579E-3,5.2058636E-3,-7.837732E-3],"categories":[],"categories_nodes":[],"categories_segments":[],"categories_sizes":[],"default_left":[0,0,0,0,0,0,0,0,0,0,0,0,0,0,0,0,0,0,0,0,0,0,0,0,0,0,0,0,0,0,0],"id":30,"left_children":[1,3,5,7,9,11,13,15,17,19,21,23,25,27,29,-1,-1,-1,-1,-1,-1,-1,-1,-1,-1,-1,-1,-1,-1,-1,-1],"loss_changes":[1.2872115E1,1.1590649E1,3.2058388E1,1.4327469E1,1.2533253E1,2.480524E1,1.1352857E1,4.8158655E0,1.8397991E1,6.917185E0,1.8813438E1,2.3193077E1,1.3821374E1,1.5091574E1,5.195557E0,0E0,0E0,0E0,0E0,0E0,0E0,0E0,0E0,0E0,0E0,0E0,0E0,0E0,0E0,0E0,0E0],"parents":[2147483647,0,0,1,1,2,2,3,3,4,4,5,5,6,6,7,7,8,8,9,9,10,10,11,11,12,12,13,13,14,14],"right_children":[2,4,6,8,10,12,14,16,18,20,22,24,26,28,30,-1,-1,-1,-1,-1,-1,-1,-1,-1,-1,-1,-1,-1,-1,-1,-1],"split_conditions":[1E0,5.78E1,6.07E1,9.9920887E-1,1E0,9.3392676E-1,8.07E1,-6.2504965E-1,9.9974513E-1,7.536977E-1,9.61E1,6.8197215E-1,3.64E1,-6.4415926E-1,2E0,-1.7436063E-2,-5.381653E-3,1.10464096E-1,-4.793299E-3,1.4275126E-3,8.450528E-3,-4.4261934E-3,9.2825405E-2,8.8249855E-2,-4.962114E-5,8.745701E-2,-1.3248175E-2,9.0656124E-2,9.995579E-3,5.2058636E-3,-7.837732E-3],"split_indices":[9,0,0,3,8,4,0,3,3,3,0,3,0,4,2,0,0,0,0,0,0,0,0,0,0,0,0,0,0,0,0],"split_type":[0,0,0,0,0,0,0,0,0,0,0,0,0,0,0,0,0,0,0,0,0,0,0,0,0,0,0,0,0,0,0],"sum_hessian":[4.517E3,3.935E3,5.82E2,8.27E2,3.108E3,6.3E1,5.19E2,8.14E2,1.3E1,2.126E3,9.82E2,3.8E1,2.5E1,2.01E2,3.18E2,9.3E1,7.21E2,5E0,8E0,1.684E3,4.42E2,9.78E2,4E0,2.8E1,1E1,3E0,2.2E1,5E0,1.96E2,1.25E2,1.93E2],"tree_param":{"num_deleted":"0","num_feature":"10","num_nodes":"31","size_leaf_vector":"1"}},{"base_weights":[2.9110801E-3,8.905069E-2,-2.5172748E-2,-3.9501992E-1,1.0143793E-1,-6.696937E-2,6.833937E-2,-5.1188666E-1,-9.142492E-2,6.47334E-2,2.4745399E-1,2.4012499E-2,-1.04684025E-1,1.56429E-1,-1.7088825E-2,-1.7975142E-2,-4.0376592E-2,7.708245E-3,-2.184767E-2,2.8024355E-3,5.637123E-2,6.6173725E-2,8.917428E-3,3.212678E-3,-1.4937523E-2,-6.4147026E-3,2.49454E-3,5.575882E-3,1.02419175E-1,-1.7674471E-3,5.9738994E-2],"categories":[],"categories_nodes":[],"categories_segments":[],"categories_sizes":[],"default_left":[0,0,0,0,0,0,0,0,0,0,0,0,0,0,0,0,0,0,0,0,0,0,0,0,0,0,0,0,0,0,0],"id":31,"left_children":[1,3,5,7,9,11,13,15,17,19,21,23,25,27,29,-1,-1,-1,-1,-1,-1,-1,-1,-1,-1,-1,-1,-1,-1,-1,-1],"loss_changes":[1.0960899E1,6.719946E0,1.335989E1,9.4664574E-1,5.809703E0,8.107362E0,7.94943E0,6.1072063E-1,8.3108735E-1,7.9661636E0,1.5974195E1,9.020105E0,6.1010914E0,4.39561E1,1.1925431E1,0E0,0E0,0E0,0E0,0E0,0E0,0E0,0E0,0E0,0E0,0E0,0E0,0E0,0E0,0E0,0E0],"parents":[2147483647,0,0,1,1,2,2,3,3,4,4,5,5,6,6,7,7,8,8,9,9,10,10,11,11,12,12,13,13,14,14],"right_children":[2,4,6,8,10,12,14,16,18,20,22,24,26,28,30,-1,-1,-1,-1,-1,-1,-1,-1,-1,-1,-1,-1,-1,-1,-1,-1],"split_conditions":[2E0,-9.983151E-1,3.1E0,9.11E1,1E0,-4.5848712E-1,1E0,8.795E1,9.535E1,9.61E1,5.6E1,9.305E1,1E0,7.7E0,9.005E1,-1.7975142E-2,-4.0376592E-2,7.708245E-3,-2.184767E-2,2.8024355E-3,5.637123E-2,6.6173725E-2,8.917428E-3,3.212678E-3,-1.4937523E-2,-6.4147026E-3,2.49454E-3,5.575882E-3,1.02419175E-1,-1.7674471E-3,5.9738994E-2],"split_indices":[2,4,1,0,9,4,7,0,0,0,0,0,7,1,0,0,0,0,0,0,0,0,0,0,0,0,0,0,0,0,0],"split_type":[0,0,0,0,0,0,0,0,0,0,0,0,0,0,0,0,0,0,0,0,0,0,0,0,0,0,0,0,0,0,0],"sum_hessian":[4.529E3,1.113E3,3.416E3,2.7E1,1.086E3,2.361E3,1.055E3,1.9E1,8E0,8.69E2,2.17E2,6.92E2,1.669E3,5.19E2,5.36E2,1.4E1,5E0,5E0,3E0,8.63E2,6E0,1.2E1,2.05E2,6.16E2,7.6E1,1.448E3,2.21E2,5.08E2,1.1E1,5.29E2,7E0],"tree_param":{"num_deleted":"0","num_feature":"10","num_nodes":"31","size_leaf_vector":"1"}},{"base_weights":[-6.246732E-3,8.6043335E-2,-3.760212E-2,-2.8399047E-1,9.9013746E-2,-4.4933576E-2,3.4760532E-1,-5.2972347E-1,6.5177165E-2,6.67197E-2,3.288557E-1,-1.1658683E-1,-1.3796988E-2,2.5668873E-2,9.9025583E-1,-8.94764E-3,-2.970757E-2,-1.1738622E-2,3.2710675E-2,4.032751E-3,-1.4872596E-2,4.0652737E-2,7.974246E-3,-1.3955218E-2,-2.3484412E-3,-2.1881936E-3,1.22112725E-2,-1.4687362E-2,1.7195912E-2,3.2735977E-2,9.665141E-2],"categories":[],"categories_nodes":[],"categories_segments":[],"categories_sizes":[],"default_left":[0,0,0,0,0,0,0,0,0,0,0,0,0,0,0,0,0,0,0,0,0,0,0,0,0,0,0,0,0,0,0],"id":32,"left_children":[1,3,5,7,9,11,13,15,17,19,21,23,25,27,29,-1,-1,-1,-1,-1,-1,-1,-1,-1,-1,-1,-1,-1,-1,-1,-1],"loss_changes":[1.3054233E1,5.518736E0,9.52447E0,3.3808045E0,8.187374E0,7.371971E0,1.3008816E1,4.134612E-1,3.1571717E0,4.9516683E0,1.1023578E1,1.1312349E1,1.7833246E1,4.4721465E0,5.37743E0,0E0,0E0,0E0,0E0,0E0,0E0,0E0,0E0,0E0,0E0,0E0,0E0,0E0,0E0,0E0,0E0],"parents":[2147483647,0,0,1,1,2,2,3,3,4,4,5,5,6,6,7,7,8,8,9,9,10,10,11,11,12,12,13,13,14,14],"right_children":[2,4,6,8,10,12,14,16,18,20,22,24,26,28,30,-1,-1,-1,-1,-1,-1,-1,-1,-1,-1,-1,-1,-1,-1,-1,-1],"split_conditions":[1E-1,3.64E1,1.36E1,9.6689296E-1,3.0471924E-1,-4.3830672E-1,1.7201575E-2,1.67E1,1.9864795E-1,2.2177216E-1,6.07E1,7.23E1,1E0,8.16E1,8.697723E-2,-8.94764E-3,-2.970757E-2,-1.1738622E-2,3.2710675E-2,4.032751E-3,-1.4872596E-2,4.0652737E-2,7.974246E-3,-1.3955218E-2,-2.3484412E-3,-2.1881936E-3,1.22112725E-2,-1.4687362E-2,1.7195912E-2,3.2735977E-2,9.665141E-2],"split_indices":[1,0,1,4,3,3,3,0,3,3,0,0,9,0,4,0,0,0,0,0,0,0,0,0,0,0,0,0,0,0,0],"split_type":[0,0,0,0,0,0,0,0,0,0,0,0,0,0,0,0,0,0,0,0,0,0,0,0,0,0,0,0,0,0,0],"sum_hessian":[4.509E3,1.143E3,3.366E3,3.8E1,1.105E3,3.304E3,6.2E1,2.2E1,1.6E1,9.7E2,1.35E2,1E3,2.304E3,4.2E1,2E1,4E0,1.8E1,1.1E1,5E0,9.35E2,3.5E1,3.4E1,1.01E2,2.99E2,7.01E2,2.065E3,2.39E2,2.1E1,2.1E1,1.6E1,4E0],"tree_param":{"num_deleted":"0","num_feature":"10","num_nodes":"31","size_leaf_vector":"1"}},{"base_weights":[-2.411162E-3,7.508407E-2,-2.8714076E-2,4.981696E-2,2.2074571E-1,-3.327183E-2,4.3649447E-1,9.543113E-2,-1.5843415E-1,4.3956468E-1,-9.8132305E-2,-5.9322074E-2,2.3513697E-2,1.2417632E0,3.238789E-2,-3.6694824E-3,7.252934E-3,1.2866072E-2,-1.0955239E-2,2.690178E-2,-1.341974E-2,-1.9783659E-2,8.142044E-3,-2.4258916E-3,-1.6082631E-2,5.25946E-3,-3.4270731E-3,3.2955624E-2,9.045609E-2,-1.5042356E-2,1.559323E-2],"categories":[],"categories_nodes":[],"categories_segments":[],"categories_sizes":[],"default_left":[0,0,0,0,0,0,0,0,0,0,0,0,0,0,0,0,0,0,0,0,0,0,0,0,0,0,0,0,0,0,0],"id":33,"left_children":[1,3,5,7,9,11,13,15,17,19,21,23,25,27,29,-1,-1,-1,-1,-1,-1,-1,-1,-1,-1,-1,-1,-1,-1,-1,-1],"loss_changes":[9.266458E0,4.228879E0,7.210842E0,9.352834E0,1.190515E1,4.974723E0,1.0698458E1,6.771822E0,4.5210547E0,7.185459E0,5.4999447E0,6.517419E0,7.9619417E0,2.4438744E0,2.235846E0,0E0,0E0,0E0,0E0,0E0,0E0,0E0,0E0,0E0,0E0,0E0,0E0,0E0,0E0,0E0,0E0],"parents":[2147483647,0,0,1,1,2,2,3,3,4,4,5,5,6,6,7,7,8,8,9,9,10,10,11,11,12,12,13,13,14,14],"right_children":[2,4,6,8,10,12,14,16,18,20,22,24,26,28,30,-1,-1,-1,-1,-1,-1,-1,-1,-1,-1,-1,-1,-1,-1,-1,-1],"split_conditions":[1E-1,9.11E1,1.52E1,1E0,9.8E1,3E0,1.57E1,-8.466016E-1,-8.832167E-1,-8.483488E-2,-8.556315E-1,9.305E1,1E0,1.55E1,1.67E1,-3.6694824E-3,7.252934E-3,1.2866072E-2,-1.0955239E-2,2.690178E-2,-1.341974E-2,-1.9783659E-2,8.142044E-3,-2.4258916E-3,-1.6082631E-2,5.25946E-3,-3.4270731E-3,3.2955624E-2,9.045609E-2,-1.5042356E-2,1.559323E-2],"split_indices":[1,0,1,8,0,1,1,4,4,4,4,0,7,1,1,0,0,0,0,0,0,0,0,0,0,0,0,0,0,0,0],"split_type":[0,0,0,0,0,0,0,0,0,0,0,0,0,0,0,0,0,0,0,0,0,0,0,0,0,0,0,0,0,0,0],"sum_hessian":[4.544E3,1.151E3,3.393E3,9.82E2,1.69E2,3.361E3,3.2E1,8.06E2,1.76E2,1E2,6.9E1,2.304E3,1.057E3,1E1,2.2E1,1.83E2,6.23E2,2.2E1,1.54E2,8.8E1,1.2E1,3.2E1,3.7E1,2.214E3,9E1,5.6E2,4.97E2,6E0,4E0,1E1,1.2E1],"tree_param":{"num_deleted":"0","num_feature":"10","num_nodes":"31","size_leaf_vector":"1"}},{"base_weights":[-3.9971545E-3,1.9657446E-2,-8.95024E-2,1.32253505E-2,4.8718292E-1,-1.0538057E-1,1.0124843E0,-1.1054936E-1,4.141262E-2,1.2822305E0,2.9611763E-1,-1.4049019E-1,1.06295206E-1,1.330954E0,-5.8214082E-3,-5.935501E-3,6.164967E-2,3.999509E-4,7.4829394E-3,1.6231456E-1,-1.2042416E-2,3.6251176E-2,5.4214187E-3,4.9310025E-2,-7.357416E-3,-3.3122436E-3,2.9849946E-2,4.612315E-2,9.0759866E-2],"categories":[],"categories_nodes":[],"categories_segments":[],"categories_sizes":[],"default_left":[0,0,0,0,0,0,0,0,0,0,0,0,0,0,0,0,0,0,0,0,0,0,0,0,0,0,0,0,0],"id":34,"left_children":[1,3,5,7,9,11,13,15,17,19,21,23,25,27,-1,-1,-1,-1,-1,-1,-1,-1,-1,-1,-1,-1,-1,-1,-1],"loss_changes":[9.13781E0,1.0635927E1,1.7236778E1,1.2187717E1,6.9117956E0,7.194108E0,5.188302E0,7.251162E0,1.0288868E1,2.7704636E1,3.1414278E0,6.3639927E0,1.1723464E1,5.0144386E-1,0E0,0E0,0E0,0E0,0E0,0E0,0E0,0E0,0E0,0E0,0E0,0E0,0E0,0E0,0E0],"parents":[2147483647,0,0,1,1,2,2,3,3,4,4,5,5,6,6,7,7,8,8,9,9,10,10,11,11,12,12,13,13],"right_children":[2,4,6,8,10,12,14,16,18,20,22,24,26,28,-1,-1,-1,-1,-1,-1,-1,-1,-1,-1,-1,-1,-1,-1,-1],"split_conditions":[1E0,9.9920887E-1,9.44E1,5.135E1,4.87E1,9.04E1,6.875541E-2,8E0,5.129784E-1,9.9974513E-1,1.2E0,6.16E1,-9.2331335E-2,9.61E1,-5.8214082E-3,-5.935501E-3,6.164967E-2,3.999509E-4,7.4829394E-3,1.6231456E-1,-1.2042416E-2,3.6251176E-2,5.4214187E-3,4.9310025E-2,-7.357416E-3,-3.3122436E-3,2.9849946E-2,4.612315E-2,9.0759866E-2],"split_indices":[8,3,0,0,0,0,3,1,4,3,1,0,3,0,0,0,0,0,0,0,0,0,0,0,0,0,0,0,0],"split_type":[0,0,0,0,0,0,0,0,0,0,0,0,0,0,0,0,0,0,0,0,0,0,0,0,0,0,0,0,0],"sum_hessian":[4.516E3,3.538E3,9.78E2,3.491E3,4.7E1,9.65E2,1.3E1,6.47E2,2.844E3,8E0,3.9E1,8.28E2,1.37E2,1E1,3E0,6.44E2,3E0,2.174E3,6.7E2,3E0,5E0,1.1E1,2.8E1,4E0,8.24E2,1.02E2,3.5E1,7E0,3E0],"tree_param":{"num_deleted":"0","num_feature":"10","num_nodes":"29","size_leaf_vector":"1"}},{"base_weights":[2.08341E-3,-2.1778499E-3,4.9568054E-1,7.887356E-2,-2.965063E-2,-6.958659E-1,7.780771E-1,-2.0601265E-1,9.9912144E-2,-3.0979408E-2,5.4896142E-2,-9.404831E-3,-4.814541E-2,1.5142651E0,3.2034704E-1,-1.6466968E-2,1.5190132E-3,3.775881E-2,4.3649874E-3,-3.021321E-3,1.0910855E-3,2.4678944E-2,9.8145545E-2,-1.3989395E-3,3.197752E-2],"categories":[],"categories_nodes":[],"categories_segments":[],"categories_sizes":[],"default_left":[0,0,0,0,0,0,0,0,0,0,0,0,0,0,0,0,0,0,0,0,0,0,0,0,0],"id":35,"left_children":[1,3,5,7,9,11,13,15,17,19,-1,-1,-1,21,23,-1,-1,-1,-1,-1,-1,-1,-1,-1,-1],"loss_changes":[9.583922E0,1.0062603E1,1.36644945E1,6.877266E0,5.090762E0,9.036474E-1,1.0298122E1,2.3131363E0,8.743985E0,5.2442217E0,0E0,0E0,0E0,4.526266E0,2.352816E0,0E0,0E0,0E0,0E0,0E0,0E0,0E0,0E0,0E0,0E0],"parents":[2147483647,0,0,1,1,2,2,3,3,4,4,5,5,6,6,7,7,8,8,9,9,13,13,14,14],"right_children":[2,4,6,8,10,12,14,16,18,20,-1,-1,-1,22,24,-1,-1,-1,-1,-1,-1,-1,-1,-1,-1],"split_conditions":[1.48E1,1E-1,-9.020987E-1,-9.890132E-1,1.033E2,-9.9262893E-1,1.57E1,9.055E1,-9.8334295E-1,6.4333653E-1,5.4896142E-2,-9.404831E-3,-4.814541E-2,-9.252111E-1,-7.304519E-2,-1.6466968E-2,1.5190132E-3,3.775881E-2,4.3649874E-3,-3.021321E-3,1.0910855E-3,2.4678944E-2,9.8145545E-2,-1.3989395E-3,3.197752E-2],"split_indices":[1,1,3,4,0,3,1,0,4,3,0,0,0,4,3,0,0,0,0,0,0,0,0,0,0],"split_type":[0,0,0,0,0,0,0,0,0,0,0,0,0,0,0,0,0,0,0,0,0,0,0,0,0],"sum_hessian":[4.555E3,4.517E3,3.8E1,1.143E3,3.374E3,7E0,3.1E1,7.8E1,1.065E3,3.371E3,3E0,3E0,4E0,1.1E1,2E1,5.1E1,2.7E1,1.9E1,1.046E3,2.164E3,1.207E3,4E0,7E0,1E1,1E1],"tree_param":{"num_deleted":"0","num_feature":"10","num_nodes":"25","size_leaf_vector":"1"}},{"base_weights":[5.7943915E-3,8.574116E-2,-2.0566234E-2,6.06677E-2,3.439676E-1,-5.427757E-2,3.4961976E-2,1.4873713E-1,-1.4747951E-2,9.829215E-1,6.521637E-2,-9.0673864E-2,3.018073E-2,6.4153604E-2,-8.6147964E-2,4.776227E-3,3.456292E-2,4.032348E-2,-1.4922252E-3,1.8515201E-2,1.0855631E-1,-1.2071896E-4,4.7244947E-2,-4.4432917E-4,-7.56768E-3,2.9303554E-2,6.5483514E-4,7.9528656E-4,1.067056E-2,5.659901E-2,-5.5278237E-3],"categories":[],"categories_nodes":[],"categories_segments":[],"categories_sizes":[],"default_left":[0,0,0,0,0,0,0,0,0,0,0,0,0,0,0,0,0,0,0,0,0,0,0,0,0,0,0,0,0,0,0],"id":36,"left_children":[1,3,5,7,9,11,13,15,17,19,21,23,25,27,29,-1,-1,-1,-1,-1,-1,-1,-1,-1,-1,-1,-1,-1,-1,-1,-1],"loss_changes":[9.527424E0,7.237193E0,6.3664603E0,6.796769E0,1.7568707E1,6.5072556E0,4.54851E0,1.3560122E1,6.867518E0,2.103347E1,4.166833E0,7.338682E0,6.051312E0,7.457217E0,7.55832E0,0E0,0E0,0E0,0E0,0E0,0E0,0E0,0E0,0E0,0E0,0E0,0E0,0E0,0E0,0E0,0E0],"parents":[2147483647,0,0,1,1,2,2,3,3,4,4,5,5,6,6,7,7,8,8,9,9,10,10,11,11,12,12,13,13,14,14],"right_children":[2,4,6,8,10,12,14,16,18,20,22,24,26,28,30,-1,-1,-1,-1,-1,-1,-1,-1,-1,-1,-1,-1,-1,-1,-1,-1],"split_conditions":[2E0,3.634816E-1,2.6E0,-6.132298E-1,6.07E1,7.232617E-1,1E0,6.780306E-1,2.66E1,4.92E1,9.04E1,1.0751513E-3,-6.4415926E-1,7.985E1,7.02E1,4.776227E-3,3.456292E-2,4.032348E-2,-1.4922252E-3,1.8515201E-2,1.0855631E-1,-1.2071896E-4,4.7244947E-2,-4.4432917E-4,-7.56768E-3,2.9303554E-2,6.5483514E-4,7.9528656E-4,1.067056E-2,5.659901E-2,-5.5278237E-3],"split_indices":[2,3,1,3,0,3,8,4,0,0,0,4,4,0,0,0,0,0,0,0,0,0,0,0,0,0,0,0,0,0,0],"split_type":[0,0,0,0,0,0,0,0,0,0,0,0,0,0,0,0,0,0,0,0,0,0,0,0,0,0,0,0,0,0,0],"sum_hessian":[4.519E3,1.12E3,3.399E3,1.022E3,9.8E1,2.115E3,1.284E3,4.71E2,5.51E2,2.9E1,6.9E1,1.478E3,6.37E2,1.035E3,2.49E2,4.3E2,4.1E1,9E0,5.42E2,2E1,9E0,6.5E1,4E0,6.3E2,8.48E2,1.8E1,6.19E2,7.83E2,2.52E2,4E0,2.45E2],"tree_param":{"num_deleted":"0","num_feature":"10","num_nodes":"31","size_leaf_vector":"1"}},{"base_weights":[5.978768E-3,7.290012E-2,-1.6244072E-2,1.3420561E-1,-1.203917E-2,-2.241984E-2,3.3071163E-1,1.012089E-1,4.757115E-1,-5.43072E-2,8.11792E-1,-8.90086E-2,-1.2127454E-3,-1.3139181E-1,6.0902697E-1,2.7439785E-3,1.9289007E-2,-2.4248626E-2,3.5799157E-2,-1.3619492E-2,5.59098E-3,2.2695545E-2,1.00469105E-1,-5.9767948E-3,2.9082308E-2,-1.3842625E-3,7.258996E-3,1.32211745E-2,-2.5812889E-2,-1.6564269E-3,4.592934E-2],"categories":[],"categories_nodes":[],"categories_segments":[],"categories_sizes":[],"default_left":[0,0,0,0,0,0,0,0,0,0,0,0,0,0,0,0,0,0,0,0,0,0,0,0,0,0,0,0,0,0,0],"id":37,"left_children":[1,3,5,7,9,11,13,15,17,19,21,23,25,27,29,-1,-1,-1,-1,-1,-1,-1,-1,-1,-1,-1,-1,-1,-1,-1,-1],"loss_changes":[6.6756587E0,5.8285227E0,7.2283735E0,7.2764215E0,1.6410295E1,4.6769457E0,7.66804E0,7.8101215E0,1.3504266E1,1.6261215E1,8.945602E0,1.6448147E1,9.742848E0,3.6402354E0,7.385494E0,0E0,0E0,0E0,0E0,0E0,0E0,0E0,0E0,0E0,0E0,0E0,0E0,0E0,0E0,0E0,0E0],"parents":[2147483647,0,0,1,1,2,2,3,3,4,4,5,5,6,6,7,7,8,8,9,9,10,10,11,11,12,12,13,13,14,14],"right_children":[2,4,6,8,10,12,14,16,18,20,22,24,26,28,30,-1,-1,-1,-1,-1,-1,-1,-1,-1,-1,-1,-1,-1,-1,-1,-1],"split_conditions":[1E-1,7.885E1,1.36E1,7.705E1,1E0,6.14E1,-5.7166666E-1,1E0,-8.75019E-1,8.71E1,6.748633E-1,1E0,1E0,1.51E1,-9.3920135E-1,2.7439785E-3,1.9289007E-2,-2.4248626E-2,3.5799157E-2,-1.3619492E-2,5.59098E-3,2.2695545E-2,1.00469105E-1,-5.9767948E-3,2.9082308E-2,-1.3842625E-3,7.258996E-3,1.32211745E-2,-2.5812889E-2,-1.6564269E-3,4.592934E-2],"split_indices":[1,0,1,0,7,0,3,9,4,0,4,9,5,1,4,0,0,0,0,0,0,0,0,0,0,0,0,0,0,0,0],"split_type":[0,0,0,0,0,0,0,0,0,0,0,0,0,0,0,0,0,0,0,0,0,0,0,0,0,0,0,0,0,0,0],"sum_hessian":[4.487E3,1.118E3,3.369E3,6.49E2,4.69E2,3.311E3,5.8E1,5.93E2,5.6E1,4.47E2,2.2E1,7.99E2,2.512E3,2.2E1,3.6E1,5.11E2,8.2E1,1.1E1,4.5E1,1.93E2,2.54E2,1.8E1,4E0,7.65E2,3.4E1,2.128E3,3.84E2,1.1E1,1.1E1,1.2E1,2.4E1],"tree_param":{"num_deleted":"0","num_feature":"10","num_nodes":"31","size_leaf_vector":"1"}},{"base_weights":[-2.851191E-3,7.304181E-2,-2.89315E-2,4.7816005E-2,2.9411066E-1,-6.781925E-2,4.0426727E-2,9.286188E-2,-7.921693E-2,7.0849127E-1,1.1795073E-1,-4.9764537E-3,-1.3077435E-1,4.797246E-3,3.853281E-1,3.2894246E-3,2.8499698E-2,2.4508698E-2,-5.3690895E-3,1.3801508E-2,8.810206E-2,1.1790985E-2,-1.8023172E-2,-1.5591894E-2,4.036836E-4,-5.5377167E-3,-1.6351232E-2,-3.7921514E-4,4.20126E-2,1.0948934E-2,1.6576983E-1],"categories":[],"categories_nodes":[],"categories_segments":[],"categories_sizes":[],"default_left":[0,0,0,0,0,0,0,0,0,0,0,0,0,0,0,0,0,0,0,0,0,0,0,0,0,0,0,0,0,0,0],"id":38,"left_children":[1,3,5,7,9,11,13,15,17,19,21,23,25,27,29,-1,-1,-1,-1,-1,-1,-1,-1,-1,-1,-1,-1,-1,-1,-1,-1],"loss_changes":[8.930795E0,6.421379E0,9.059891E0,5.941391E0,8.530109E0,8.513253E0,1.4830562E1,9.857368E0,4.41465E0,1.54603E1,4.82178E0,4.319455E0,4.1873856E0,1.1333296E1,5.435192E1,0E0,0E0,0E0,0E0,0E0,0E0,0E0,0E0,0E0,0E0,0E0,0E0,0E0,0E0,0E0,0E0],"parents":[2147483647,0,0,1,1,2,2,3,3,4,4,5,5,6,6,7,7,8,8,9,9,10,10,11,11,12,12,13,13,14,14],"right_children":[2,4,6,8,10,12,14,16,18,20,22,24,26,28,30,-1,-1,-1,-1,-1,-1,-1,-1,-1,-1,-1,-1,-1,-1,-1,-1],"split_conditions":[1E-1,3.634816E-1,6.4333653E-1,7.832659E-1,6.07E1,1.0751513E-3,1E0,6.998477E-1,2.66E1,5.38E1,1E0,3E-1,8.33E1,1.34E1,7.3866796E-1,3.2894246E-3,2.8499698E-2,2.4508698E-2,-5.3690895E-3,1.3801508E-2,8.810206E-2,1.1790985E-2,-1.8023172E-2,-1.5591894E-2,4.036836E-4,-5.5377167E-3,-1.6351232E-2,-3.7921514E-4,4.20126E-2,1.0948934E-2,1.6576983E-1],"split_indices":[1,3,3,4,0,4,9,4,0,0,9,1,0,1,4,0,0,0,0,0,0,0,0,0,0,0,0,0,0,0,0],"split_type":[0,0,0,0,0,0,0,0,0,0,0,0,0,0,0,0,0,0,0,0,0,0,0,0,0,0,0,0,0,0,0],"sum_hessian":[4.51E3,1.153E3,3.357E3,1.036E3,1.17E2,2.151E3,1.206E3,7.65E2,2.71E2,3.4E1,8.3E1,1.077E3,1.074E3,1.094E3,1.12E2,7.25E2,4E1,1.2E1,2.59E2,2.5E1,9E0,6.7E1,1.6E1,4.3E1,1.034E3,9.76E2,9.8E1,1.079E3,1.5E1,1.07E2,5E0],"tree_param":{"num_deleted":"0","num_feature":"10","num_nodes":"31","size_leaf_vector":"1"}},{"base_weights":[3.4942776E-3,2.8052717E-2,-8.603047E-2,-1.0053013E-1,5.7380654E-2,-9.35309E-2,8.687285E-2,-1.16210885E-1,6.8159066E-2,7.032726E-2,-1.2926157E-1,-1.0960119E-1,2.9969218E-1,-1.3715698E-2,-2.6632193E-3,2.3912652E-3,9.97186E-3,-1.8669818E-2,2.723858E-3,-1.8633095E-3,-9.759324E-3,6.1622865E-2,4.3142214E-3],"categories":[],"categories_nodes":[],"categories_segments":[],"categories_sizes":[],"default_left":[0,0,0,0,0,0,0,0,0,0,0,0,0,0,0,0,0,0,0,0,0,0,0],"id":39,"left_children":[1,3,5,7,9,11,-1,13,-1,15,17,19,21,-1,-1,-1,-1,-1,-1,-1,-1,-1,-1],"loss_changes":[9.845492E0,1.3257307E1,1.3347088E1,1.5146141E1,6.924781E0,6.105605E0,0E0,6.4243555E0,0E0,7.76775E0,8.363746E0,5.7130365E0,7.4579124E0,0E0,0E0,0E0,0E0,0E0,0E0,0E0,0E0,0E0,0E0],"parents":[2147483647,0,0,1,1,2,2,3,3,4,4,5,5,7,7,9,9,10,10,11,11,12,12],"right_children":[2,4,6,8,10,12,-1,14,-1,16,18,20,22,-1,-1,-1,-1,-1,-1,-1,-1,-1,-1],"split_conditions":[1E0,5.135E1,9.61E1,7.4E0,9.37E1,4.6E0,8.687285E-2,-1.09445766E-1,6.8159066E-2,1E0,-8.556315E-1,1.6E0,4.9E0,-1.3715698E-2,-2.6632193E-3,2.3912652E-3,9.97186E-3,-1.8669818E-2,2.723858E-3,-1.8633095E-3,-9.759324E-3,6.1622865E-2,4.3142214E-3],"split_indices":[8,0,0,1,0,1,0,3,0,9,4,1,1,0,0,0,0,0,0,0,0,0,0],"split_type":[0,0,0,0,0,0,0,0,0,0,0,0,0,0,0,0,0,0,0,0,0,0,0],"sum_hessian":[4.476E3,3.513E3,9.63E2,6.52E2,2.861E3,9.6E2,3E0,6.46E2,6E0,2.676E3,1.85E2,9.23E2,3.7E1,1.83E2,4.63E2,2.28E3,3.96E2,7.9E1,1.06E2,5.01E2,4.22E2,6E0,3.1E1],"tree_param":{"num_deleted":"0","num_feature":"10","num_nodes":"23","size_leaf_vector":"1"}},{"base_weights":[3.561852E-3,-1.1686133E-2,1.06851086E-1,1.5348705E-2,-9.288808E-2,-4.8503745E-2,2.809567E-1,5.5970047E-2,-1.9901792E-2,-1.0046074E-1,5.902112E-1,2.5947355E-2,-3.408112E-1,2.4730241E-1,8.770913E-2,2.1650454E-3,3.4508474E-2,6.541853E-4,-5.8185956E-3,-4.1436525E-3,-1.4001734E-2,3.9007247E-3,7.33526E-2,-1.1416142E-3,2.6404256E-2,-2.7942503E-2,-3.2954365E-3,9.586958E-3,5.0881125E-2],"categories":[],"categories_nodes":[],"categories_segments":[],"categories_sizes":[],"default_left":[0,0,0,0,0,0,0,0,0,0,0,0,0,0,0,0,0,0,0,0,0,0,0,0,0,0,0,0,0],"id":40,"left_children":[1,3,5,7,9,11,13,15,17,19,21,23,25,27,-1,-1,-1,-1,-1,-1,-1,-1,-1,-1,-1,-1,-1,-1,-1],"loss_changes":[7.1625586E0,8.701326E0,1.5836794E1,4.2596517E0,5.180442E0,6.755253E0,1.325037E1,1.1074156E1,5.070631E0,3.0719166E0,4.8258123E0,6.0865936E0,3.7393498E0,1.1404083E1,0E0,0E0,0E0,0E0,0E0,0E0,0E0,0E0,0E0,0E0,0E0,0E0,0E0,0E0,0E0],"parents":[2147483647,0,0,1,1,2,2,3,3,4,4,5,5,6,6,7,7,8,8,9,9,10,10,11,11,12,12,13,13],"right_children":[2,4,6,8,10,12,14,16,18,20,22,24,26,28,-1,-1,-1,-1,-1,-1,-1,-1,-1,-1,-1,-1,-1,-1,-1],"split_conditions":[1E0,7.1504414E-1,2.7281126E-1,1.5E0,7.9E0,-1.3612033E-1,9.373419E-1,6.874572E-1,1E0,6.029879E-1,1.9864795E-1,-2.707419E-1,1.1E0,3.7E0,8.770913E-2,2.1650454E-3,3.4508474E-2,6.541853E-4,-5.8185956E-3,-4.1436525E-3,-1.4001734E-2,3.9007247E-3,7.33526E-2,-1.1416142E-3,2.6404256E-2,-2.7942503E-2,-3.2954365E-3,9.586958E-3,5.0881125E-2],"split_indices":[9,4,4,1,1,4,3,4,8,3,3,4,1,1,0,0,0,0,0,0,0,0,0,0,0,0,0,0,0],"split_type":[0,0,0,0,0,0,0,0,0,0,0,0,0,0,0,0,0,0,0,0,0,0,0,0,0,0,0,0,0],"sum_hessian":[4.546E3,3.962E3,5.84E2,2.973E3,9.89E2,3.09E2,2.75E2,1.381E3,1.592E3,9.79E2,1E1,2.47E2,6.2E1,2.7E2,5E0,1.355E3,2.6E1,1.187E3,4.05E2,8.93E2,8.6E1,7E0,3E0,2.26E2,2.1E1,3.4E1,2.8E1,2.53E2,1.7E1],"tree_param":{"num_deleted":"0","num_feature":"10","num_nodes":"29","size_leaf_vector":"1"}},{"base_weights":[3.0024035E-3,2.2656376E-2,-6.5916345E-2,-7.7055044E-2,4.387836E-2,-1.1417683E-1,2.1720064E-1,-9.012712E-2,7.7441774E-2,6.93138E-3,1.23236984E-1,4.721855E-2,-1.2021949E-1,5.046193E-2,7.2990996E-1,-1.3114291E-2,-1.8999403E-3,4.7375608E-5,2.4828587E-2,4.8560547E-3,3.3499002E-2,-5.4264707E-3,-1.7511683E-2,-1.0126572E-3,7.8390755E-2,6.763768E-2,8.199865E-3],"categories":[],"categories_nodes":[],"categories_segments":[],"categories_sizes":[],"default_left":[0,0,0,0,0,0,0,0,0,0,0,0,0,0,0,0,0,0,0,0,0,0,0,0,0,0,0],"id":41,"left_children":[1,3,5,7,9,11,13,15,-1,17,19,-1,21,23,25,-1,-1,-1,-1,-1,-1,-1,-1,-1,-1,-1,-1],"loss_changes":[6.146983E0,7.47524E0,1.3783806E1,1.3316923E1,8.53731E0,5.6208725E0,1.2529974E1,5.518228E0,0E0,5.8242564E0,1.3142711E1,0E0,2.2663622E0,1.2049323E1,1.2467258E1,0E0,0E0,0E0,0E0,0E0,0E0,0E0,0E0,0E0,0E0,0E0,0E0],"parents":[2147483647,0,0,1,1,2,2,3,3,4,4,5,5,6,6,7,7,9,9,10,10,12,12,13,13,14,14],"right_children":[2,4,6,8,10,12,14,16,-1,18,20,-1,22,24,26,-1,-1,-1,-1,-1,-1,-1,-1,-1,-1,-1,-1],"split_conditions":[1E0,5.135E1,9.04E1,7.7E0,2.7281126E-1,6.16E1,-9.2331335E-2,-2.614144E-1,7.7441774E-2,9.9974513E-1,9.3121004E-1,4.721855E-2,9.9275863E-1,9.61E1,9.19E1,-1.3114291E-2,-1.8999403E-3,4.7375608E-5,2.4828587E-2,4.8560547E-3,3.3499002E-2,-5.4264707E-3,-1.7511683E-2,-1.0126572E-3,7.8390755E-2,6.763768E-2,8.199865E-3],"split_indices":[8,0,0,1,4,0,3,3,0,3,3,0,4,0,0,0,0,0,0,0,0,0,0,0,0,0,0],"split_type":[0,0,0,0,0,0,0,0,0,0,0,0,0,0,0,0,0,0,0,0,0,0,0,0,0,0,0],"sum_hessian":[4.536E3,3.53E3,1.006E3,6.19E2,2.911E3,8.6E2,1.46E2,6.15E2,4E0,1.987E3,9.24E2,4E0,8.56E2,1.11E2,3.5E1,1.42E2,4.73E2,1.964E3,2.3E1,8.83E2,4.1E1,8.16E2,4E1,1.07E2,4E0,1.6E1,1.9E1],"tree_param":{"num_deleted":"0","num_feature":"10","num_nodes":"27","size_leaf_vector":"1"}},{"base_weights":[-1.0907175E-2,-1.4892524E-2,2.9745826E-1,-2.8360888E-2,7.565627E-2,1.3346245E0,-3.1825863E-2,-3.1421766E-2,7.675218E-1,1.3884266E-1,5.683198E-2,1.2993295E-1,5.691448E-1,4.1516954E-1,-2.2639179E-1,-3.931304E-3,-9.3572206E-5,8.364934E-2,2.0087002E-2,1.2145361E-2,-7.382609E-3,-6.555099E-3,8.2614526E-2,3.3470333E-2,-1.9388748E-2,-2.2824153E-2,5.1022894E-3],"categories":[],"categories_nodes":[],"categories_segments":[],"categories_sizes":[],"default_left":[0,0,0,0,0,0,0,0,0,0,0,0,0,0,0,0,0,0,0,0,0,0,0,0,0,0,0],"id":42,"left_children":[1,3,5,7,9,11,13,15,17,-1,19,-1,21,23,25,-1,-1,-1,-1,-1,-1,-1,-1,-1,-1,-1,-1],"loss_changes":[5.5862927E0,5.4718013E0,1.9850777E1,9.53709E0,2.9384949E1,1.2067284E1,4.007644E0,5.4274187E0,4.295933E0,0E0,2.202844E1,0E0,7.801311E0,3.117515E0,2.4648418E0,0E0,0E0,0E0,0E0,0E0,0E0,0E0,0E0,0E0,0E0,0E0,0E0],"parents":[2147483647,0,0,1,1,2,2,3,3,4,4,5,5,6,6,7,7,8,8,10,10,12,12,13,13,14,14],"right_children":[2,4,6,8,10,12,14,16,18,-1,20,-1,22,24,26,-1,-1,-1,-1,-1,-1,-1,-1,-1,-1,-1,-1],"split_conditions":[9.9920887E-1,1E0,5.87E1,9.61E1,3.415E1,9.9974513E-1,1.8E0,6.95E1,-8.3318293E-1,1.3884266E-1,8.44E1,1.2993295E-1,5.325E1,7.93E1,3.2E0,-3.931304E-3,-9.3572206E-5,8.364934E-2,2.0087002E-2,1.2145361E-2,-7.382609E-3,-6.555099E-3,8.2614526E-2,3.3470333E-2,-1.9388748E-2,-2.2824153E-2,5.1022894E-3],"split_indices":[3,9,0,0,0,3,1,0,3,0,0,0,0,0,1,0,0,0,0,0,0,0,0,0,0,0,0],"split_type":[0,0,0,0,0,0,0,0,0,0,0,0,0,0,0,0,0,0,0,0,0,0,0,0,0,0,0],"sum_hessian":[4.541E3,4.484E3,5.7E1,3.904E3,5.8E2,1.3E1,4.4E1,3.89E3,1.4E1,3E0,5.77E2,4E0,9E0,1.3E1,3.1E1,1.497E3,2.393E3,3E0,1.1E1,3.02E2,2.75E2,6E0,3E0,1E1,3E0,1.8E1,1.3E1],"tree_param":{"num_deleted":"0","num_feature":"10","num_nodes":"27","size_leaf_vector":"1"}},{"base_weights":[-6.3108336E-3,-2.6505006E-2,6.4526066E-2,-1.4495145E-1,-7.6525235E-3,3.0023105E-2,2.7524614E-1,-2.1024728E-1,-4.0471178E-2,4.881279E-2,-3.6626924E-2,3.5703912E-1,2.494754E-3,1.70021E-1,1.3922479E0,-7.5260834E-3,-2.5114069E-2,1.7649043E-2,-6.5106014E-3,1.6679073E-2,8.405989E-4,-1.3151093E-3,-1.5112074E-2,5.6378165E-4,5.845098E-2,-4.2890207E-4,3.972381E-2,2.714379E-2,-7.3731095E-3,1.0714601E-2,1.2672444E-1],"categories":[],"categories_nodes":[],"categories_segments":[],"categories_sizes":[],"default_left":[0,0,0,0,0,0,0,0,0,0,0,0,0,0,0,0,0,0,0,0,0,0,0,0,0,0,0,0,0,0,0],"id":43,"left_children":[1,3,5,7,9,11,13,15,17,19,21,23,25,27,29,-1,-1,-1,-1,-1,-1,-1,-1,-1,-1,-1,-1,-1,-1,-1,-1],"loss_changes":[6.4675364E0,7.854619E0,7.284014E0,3.2865782E0,4.968831E0,7.768018E0,1.633596E1,5.104644E0,6.6486926E0,9.380605E0,5.496048E0,1.8797281E1,6.9960647E0,1.5468818E1,1.5602989E1,0E0,0E0,0E0,0E0,0E0,0E0,0E0,0E0,0E0,0E0,0E0,0E0,0E0,0E0,0E0,0E0],"parents":[2147483647,0,0,1,1,2,2,3,3,4,4,5,5,6,6,7,7,8,8,9,9,10,10,11,11,12,12,13,13,14,14],"right_children":[2,4,6,8,10,12,14,16,18,20,22,24,26,28,30,-1,-1,-1,-1,-1,-1,-1,-1,-1,-1,-1,-1,-1,-1,-1,-1],"split_conditions":[3.2E0,4.87E1,1E0,4.1692588E-1,1E-1,6.245E1,6E0,2.7177674E-1,5.663619E-1,6.07E1,9.37E1,4.5E0,9.37E1,5.265806E-2,4.36E1,-7.5260834E-3,-2.5114069E-2,1.7649043E-2,-6.5106014E-3,1.6679073E-2,8.405989E-4,-1.3151093E-3,-1.5112074E-2,5.6378165E-4,5.845098E-2,-4.2890207E-4,3.972381E-2,2.714379E-2,-7.3731095E-3,1.0714601E-2,1.2672444E-1],"split_indices":[1,0,5,3,1,0,1,3,3,0,0,1,0,4,0,0,0,0,0,0,0,0,0,0,0,0,0,0,0,0,0],"split_type":[0,0,0,0,0,0,0,0,0,0,0,0,0,0,0,0,0,0,0,0,0,0,0,0,0,0,0,0,0,0,0],"sum_hessian":[4.519E3,3.517E3,1.002E3,4.82E2,3.035E3,8.62E2,1.4E2,2.96E2,1.86E2,1.029E3,2.006E3,6.6E1,7.96E2,1.29E2,1.1E1,2.47E2,4.9E1,3.4E1,1.52E2,1.03E2,9.26E2,1.932E3,7.4E1,4.7E1,1.9E1,7.86E2,1E1,5.9E1,7E1,6E0,5E0],"tree_param":{"num_deleted":"0","num_feature":"10","num_nodes":"31","size_leaf_vector":"1"}},{"base_weights":[4.7474173E-3,-1.0960716E-2,1.1149484E-1,-2.3773622E-2,1.644449E-1,1.3412546E-1,9.344701E-2,-2.89903E-2,3.4676984E-1,1.3156527E-1,1.216587E0,3.0928257E-1,-7.537968E-2,-4.360345E-4,-4.996155E-3,9.099695E-2,5.4952092E-3,1.1505555E-2,-2.2979423E-3,1.1123466E-1,8.339238E-3,1.3271111E-2,9.063715E-2,-2.1986091E-4,-1.358842E-2],"categories":[],"categories_nodes":[],"categories_segments":[],"categories_sizes":[],"default_left":[0,0,0,0,0,0,0,0,0,0,0,0,0,0,0,0,0,0,0,0,0,0,0,0,0],"id":44,"left_children":[1,3,5,7,9,-1,11,13,15,17,19,21,23,-1,-1,-1,-1,-1,-1,-1,-1,-1,-1,-1,-1],"loss_changes":[7.568633E0,8.847648E0,2.661564E1,7.100319E0,9.11114E0,0E0,2.1012066E1,5.2010174E0,1.7596083E1,4.576578E0,8.09545E0,1.6202257E1,4.515415E0,0E0,0E0,0E0,0E0,0E0,0E0,0E0,0E0,0E0,0E0,0E0,0E0],"parents":[2147483647,0,0,1,1,2,2,3,3,4,4,6,6,7,7,8,8,9,9,10,10,11,11,12,12],"right_children":[2,4,6,8,10,-1,12,14,16,18,20,22,24,-1,-1,-1,-1,-1,-1,-1,-1,-1,-1,-1,-1],"split_conditions":[1E0,9.005E1,3.415E1,9.9920887E-1,6.9E0,1.3412546E-1,8.07E1,1E0,4.87E1,2.1E0,1.24E1,4.5E0,-1.3612033E-1,-4.360345E-4,-4.996155E-3,9.099695E-2,5.4952092E-3,1.1505555E-2,-2.2979423E-3,1.1123466E-1,8.339238E-3,1.3271111E-2,9.063715E-2,-2.1986091E-4,-1.358842E-2],"split_indices":[9,0,0,3,1,0,0,8,0,1,1,1,4,0,0,0,0,0,0,0,0,0,0,0,0],"split_type":[0,0,0,0,0,0,0,0,0,0,0,0,0,0,0,0,0,0,0,0,0,0,0,0,0],"sum_hessian":[4.512E3,3.934E3,5.78E2,3.667E3,2.67E2,3E0,5.75E2,3.617E3,5E1,2.6E2,7E0,2.52E2,3.23E2,2.814E3,8.03E2,6E0,4.4E1,1.67E2,9.3E1,3E0,4E0,2.46E2,6E0,2.38E2,8.5E1],"tree_param":{"num_deleted":"0","num_feature":"10","num_nodes":"25","size_leaf_vector":"1"}},{"base_weights":[5.7682903E-3,-9.999256E-2,1.6816126E-2,1.4557372E-1,-1.4965577E-1,3.695242E-2,-4.7971316E-2,-1.3176894E-1,9.26149E-1,-1.2588632E-1,-8.793866E-1,3.0176595E-2,5.302239E-1,-9.7233064E-2,2.3356432E-1,-1.3503377E-2,6.387854E-2,1.139999E-1,2.0656135E-2,1.5521564E-2,-6.993958E-3,-6.642415E-2,-2.7245754E-2,1.9825927E-3,-9.736107E-3,9.036988E-2,1.3357808E-2,4.514185E-2,-5.161355E-3,9.39323E-3,7.332217E-2],"categories":[],"categories_nodes":[],"categories_segments":[],"categories_sizes":[],"default_left":[0,0,0,0,0,0,0,0,0,0,0,0,0,0,0,0,0,0,0,0,0,0,0,0,0,0,0,0,0,0,0],"id":45,"left_children":[1,3,5,7,9,11,13,15,17,19,21,23,25,27,29,-1,-1,-1,-1,-1,-1,-1,-1,-1,-1,-1,-1,-1,-1,-1,-1],"loss_changes":[5.250262E0,5.204921E0,5.3088007E0,1.5709089E1,6.029536E0,1.0358567E1,1.3406237E1,1.0870155E1,1.2254726E1,2.1436534E0,9.283991E-1,6.534894E0,1.3628437E1,5.020636E0,7.8377857E0,0E0,0E0,0E0,0E0,0E0,0E0,0E0,0E0,0E0,0E0,0E0,0E0,0E0,0E0,0E0,0E0],"parents":[2147483647,0,0,1,1,2,2,3,3,4,4,5,5,6,6,7,7,8,8,9,9,10,10,11,11,12,12,13,13,14,14],"right_children":[2,4,6,8,10,12,14,16,18,20,22,24,26,28,30,-1,-1,-1,-1,-1,-1,-1,-1,-1,-1,-1,-1,-1,-1,-1,-1],"split_conditions":[4.36E1,2.66E1,1E0,9.623603E-1,1E0,9.9920887E-1,9.04E1,7.422809E-1,2E0,-5.8569574E-1,2E0,9.861463E-1,4.87E1,6.16E1,9.61E1,-1.3503377E-2,6.387854E-2,1.139999E-1,2.0656135E-2,1.5521564E-2,-6.993958E-3,-6.642415E-2,-2.7245754E-2,1.9825927E-3,-9.736107E-3,9.036988E-2,1.3357808E-2,4.514185E-2,-5.161355E-3,9.39323E-3,7.332217E-2],"split_indices":[0,0,8,4,9,3,0,3,2,3,2,3,0,0,0,0,0,0,0,0,0,0,0,0,0,0,0,0,0,0,0],"split_type":[0,0,0,0,0,0,0,0,0,0,0,0,0,0,0,0,0,0,0,0,0,0,0,0,0,0,0,0,0,0,0],"sum_hessian":[4.491E3,4.24E2,4.067E3,7.1E1,3.53E2,3.103E3,9.64E2,5.3E1,1.8E1,3.43E2,1E1,3.062E3,4.1E1,8.21E2,1.43E2,4.9E1,4E0,4E0,1.4E1,1E1,3.33E2,3E0,7E0,2.939E3,1.23E2,6E0,3.5E1,4E0,8.17E2,1.39E2,4E0],"tree_param":{"num_deleted":"0","num_feature":"10","num_nodes":"31","size_leaf_vector":"1"}},{"base_weights":[5.559641E-4,-5.3541274E-3,1.7391495E-1,-1.8077547E-2,7.881021E-2,1.14340864E-1,1.0945377E0,-2.89157E-2,1.3117377E-1,1.2884162E-1,6.12956E-2,1.964822E-2,5.7909435E-1,8.892542E-2,-1.0252637E-2,-1.0859658E-3,-1.0722578E-2,1.2421696E-2,-4.218961E-3,1.3499464E-2,-5.1180064E-3,-1.2684809E-2,7.0631914E-3,6.5864734E-2,9.882082E-3],"categories":[],"categories_nodes":[],"categories_segments":[],"categories_sizes":[],"default_left":[0,0,0,0,0,0,0,0,0,0,0,0,0,0,0,0,0,0,0,0,0,0,0,0,0],"id":46,"left_children":[1,3,5,7,9,11,13,15,17,-1,19,21,23,-1,-1,-1,-1,-1,-1,-1,-1,-1,-1,-1,-1],"loss_changes":[4.6616883E0,4.7132E0,8.101639E0,6.187911E0,2.5130636E1,6.2378626E0,8.364624E0,4.755284E0,6.5673876E0,0E0,1.966614E1,3.9917486E0,6.4977713E0,0E0,0E0,0E0,0E0,0E0,0E0,0E0,0E0,0E0,0E0,0E0,0E0],"parents":[2147483647,0,0,1,1,2,2,3,3,4,4,5,5,6,6,7,7,8,8,10,10,11,11,12,12],"right_children":[2,4,6,8,10,12,14,16,18,-1,20,22,24,-1,-1,-1,-1,-1,-1,-1,-1,-1,-1,-1,-1],"split_conditions":[1.14E1,1E0,4.2180607E-1,9.005E1,3.415E1,8.455E1,6.258885E-1,9.946781E-1,2.1E0,1.2884162E-1,8.07E1,-6.3838446E-1,8.665E1,8.892542E-2,-1.0252637E-2,-1.0859658E-3,-1.0722578E-2,1.2421696E-2,-4.218961E-3,1.3499464E-2,-5.1180064E-3,-1.2684809E-2,7.0631914E-3,6.5864734E-2,9.882082E-3],"split_indices":[1,9,4,0,0,0,4,4,1,0,0,3,0,0,0,0,0,0,0,0,0,0,0,0,0],"split_type":[0,0,0,0,0,0,0,0,0,0,0,0,0,0,0,0,0,0,0,0,0,0,0,0,0],"sum_hessian":[4.548E3,4.399E3,1.49E2,3.822E3,5.77E2,1.41E2,8E0,3.564E3,2.58E2,3E0,5.74E2,1.18E2,2.3E1,5E0,3E0,3.432E3,1.32E2,1.67E2,9.1E1,2.52E2,3.22E2,3.6E1,8.2E1,7E0,1.6E1],"tree_param":{"num_deleted":"0","num_feature":"10","num_nodes":"25","size_leaf_vector":"1"}},{"base_weights":[-2.3192856E-3,-6.9290735E-2,1.0181489E-2,-8.769012E-2,4.4056803E-1,5.433268E-1,7.373521E-3,-1.7737076E-1,1.5673887E-2,1.2401006E-1,4.9699828E-2,1.86593E-1,9.618069E-2,2.9106826E-2,-5.361329E-2,3.204459E-2,-9.291446E-3,4.9485613E-2,-1.1040693E-3,-1.3872402E-2,2.7653715E-2,4.947504E-2,-1.1520517E-2,1.2324711E-3,2.9572139E-2,-2.959093E-3,6.7318216E-2],"categories":[],"categories_nodes":[],"categories_segments":[],"categories_sizes":[],"default_left":[0,0,0,0,0,0,0,0,0,0,0,0,0,0,0,0,0,0,0,0,0,0,0,0,0,0,0],"id":47,"left_children":[1,3,5,7,9,11,13,15,17,-1,19,21,-1,23,25,-1,-1,-1,-1,-1,-1,-1,-1,-1,-1,-1,-1],"loss_changes":[3.7948732E0,6.72735E0,5.7147446E0,6.3896384E0,1.980743E1,9.488968E0,5.039577E0,2.6729383E0,1.1826655E1,0E0,3.7763627E0,5.919851E0,0E0,7.0113044E0,7.8677588E0,0E0,0E0,0E0,0E0,0E0,0E0,0E0,0E0,0E0,0E0,0E0,0E0],"parents":[2147483647,0,0,1,1,2,2,3,3,4,4,5,5,6,6,7,7,8,8,10,10,11,11,13,13,14,14],"right_children":[2,4,6,8,10,12,14,16,18,-1,20,22,-1,24,26,-1,-1,-1,-1,-1,-1,-1,-1,-1,-1,-1,-1],"split_conditions":[5.38E1,1E0,5.435E1,4.1692588E-1,3.415E1,1E0,1E0,-9.2883945E-1,2E0,1.2401006E-1,4.805E1,2E0,9.618069E-2,9.9974513E-1,9.61E1,3.204459E-2,-9.291446E-3,4.9485613E-2,-1.1040693E-3,-1.3872402E-2,2.7653715E-2,4.947504E-2,-1.1520517E-2,1.2324711E-3,2.9572139E-2,-2.959093E-3,6.7318216E-2],"split_indices":[0,9,0,3,0,9,8,3,2,0,0,2,0,3,0,0,0,0,0,0,0,0,0,0,0,0,0],"split_type":[0,0,0,0,0,0,0,0,0,0,0,0,0,0,0,0,0,0,0,0,0,0,0,0,0,0,0],"sum_hessian":[4.531E3,7.12E2,3.819E3,6.88E2,2.4E1,1.9E1,3.8E3,3.68E2,3.2E2,3E0,2.1E1,1.6E1,3E0,2.802E3,9.98E2,3E0,3.65E2,1.1E1,3.09E2,1.3E1,8E0,5E0,1.1E1,2.781E3,2.1E1,9.95E2,3E0],"tree_param":{"num_deleted":"0","num_feature":"10","num_nodes":"27","size_leaf_vector":"1"}},{"base_weights":[1.0042866E-2,-4.525366E-3,1.0741857E-1,-7.1928524E-3,6.519591E-1,1.1935969E-1,9.1727205E-2,-5.333248E-2,1.2462127E-2,9.599644E-2,2.116639E-1,2.5159362E-1,-7.7962466E-2,-8.540983E-3,-1.2754505E-3,2.2812064E-3,-2.402122E-3,-1.8348861E-2,3.8003366E-2,8.5923605E-2,1.02994265E-2,2.0806857E-4,-1.7588584E-2],"categories":[],"categories_nodes":[],"categories_segments":[],"categories_sizes":[],"default_left":[0,0,0,0,0,0,0,0,0,0,0,0,0,0,0,0,0,0,0,0,0,0,0],"id":48,"left_children":[1,3,5,7,9,-1,11,13,15,-1,17,19,21,-1,-1,-1,-1,-1,-1,-1,-1,-1,-1],"loss_changes":[6.4423113E0,6.9235363E0,2.0922737E1,3.5701187E0,8.526117E0,0E0,1.5970691E1,3.8398702E0,5.5420074E0,0E0,4.4042015E0,1.991584E1,6.432535E0,0E0,0E0,0E0,0E0,0E0,0E0,0E0,0E0,0E0,0E0],"parents":[2147483647,0,0,1,1,2,2,3,3,4,4,6,6,7,7,8,8,10,10,11,11,12,12],"right_children":[2,4,6,8,10,-1,12,14,16,-1,18,20,22,-1,-1,-1,-1,-1,-1,-1,-1,-1,-1],"split_conditions":[1E0,9.61E1,3.415E1,6.465E1,-8.605997E-1,1.1935969E-1,8.41E1,-5.2675474E-1,1E0,9.599644E-2,-3.8937813E-1,-6.4415926E-1,-1.7011768E-1,-8.540983E-3,-1.2754505E-3,2.2812064E-3,-2.402122E-3,-1.8348861E-2,3.8003366E-2,8.5923605E-2,1.02994265E-2,2.0806857E-4,-1.7588584E-2],"split_indices":[9,0,0,0,3,0,0,3,8,0,3,4,4,0,0,0,0,0,0,0,0,0,0],"split_type":[0,0,0,0,0,0,0,0,0,0,0,0,0,0,0,0,0,0,0,0,0,0,0],"sum_hessian":[4.54E3,3.95E3,5.9E2,3.935E3,1.5E1,3E0,5.87E2,1.175E3,2.76E3,3E0,1.2E1,3.02E2,2.85E2,2.24E2,9.51E2,1.783E3,9.77E2,6E0,6E0,8E0,2.94E2,2.2E2,6.5E1],"tree_param":{"num_deleted":"0","num_feature":"10","num_nodes":"23","size_leaf_vector":"1"}},{"base_weights":[1.0873824E-2,-8.577449E-2,2.2934096E-2,-2.3124363E-1,-3.203033E-2,4.2732302E-2,-3.7827704E-2,-1.9957884E-1,-5.1305324E-1,5.7453215E-2,-1.3954028E-1,5.6155648E-2,-1.4434709E-1,-4.3036018E-2,6.264374E-2,-4.2113108E-3,-1.4285701E-2,-3.722765E-2,-1.6371818E-2,-2.9373253E-3,3.6087494E-2,3.549478E-2,-8.780278E-3,1.6659983E-3,1.0175276E-2,-9.355337E-3,5.3982656E-2,5.8603294E-2,-2.3973347E-3],"categories":[],"categories_nodes":[],"categories_segments":[],"categories_sizes":[],"default_left":[0,0,0,0,0,0,0,0,0,0,0,0,0,0,0,0,0,0,0,0,0,0,0,0,0,0,0,0,0],"id":49,"left_children":[1,3,5,7,9,11,13,15,17,19,21,23,25,27,-1,-1,-1,-1,-1,-1,-1,-1,-1,-1,-1,-1,-1,-1,-1],"loss_changes":[5.2635083E0,3.9094691E0,4.8303566E0,1.1022696E0,3.5386932E0,7.6121154E0,6.688913E0,1.1980538E0,3.148198E-1,1.5557808E1,5.2407312E0,9.502243E0,1.08265915E1,5.927695E0,0E0,0E0,0E0,0E0,0E0,0E0,0E0,0E0,0E0,0E0,0E0,0E0,0E0,0E0,0E0],"parents":[2147483647,0,0,1,1,2,2,3,3,4,4,5,5,6,6,7,7,8,8,9,9,10,10,11,11,12,12,13,13],"right_children":[2,4,6,8,10,12,14,16,18,20,22,24,26,28,-1,-1,-1,-1,-1,-1,-1,-1,-1,-1,-1,-1,-1,-1,-1],"split_conditions":[4.62E1,-9.2331335E-2,1E0,4.42E1,5.663619E-1,9.34E1,9.61E1,-4.20831E-1,-6.4003813E-1,4.7275922E-1,2.425E1,1E0,1E0,6.16E1,6.264374E-2,-4.2113108E-3,-1.4285701E-2,-3.722765E-2,-1.6371818E-2,-2.9373253E-3,3.6087494E-2,3.549478E-2,-8.780278E-3,1.6659983E-3,1.0175276E-2,-9.355337E-3,5.3982656E-2,5.8603294E-2,-2.3973347E-3],"split_indices":[0,3,8,0,3,0,0,3,3,3,0,9,7,0,0,0,0,0,0,0,0,0,0,0,0,0,0,0,0],"split_type":[0,0,0,0,0,0,0,0,0,0,0,0,0,0,0,0,0,0,0,0,0,0,0,0,0,0,0,0,0],"sum_hessian":[4.513E3,5E2,4.013E3,1.34E2,3.66E2,3.027E3,9.86E2,1.22E2,1.2E1,2E2,1.66E2,2.825E3,2.02E2,9.83E2,3E0,5.3E1,6.9E1,4E0,8E0,1.71E2,2.9E1,6E0,1.6E2,2.447E3,3.78E2,1.96E2,6E0,3E0,9.8E2],"tree_param":{"num_deleted":"0","num_feature":"10","num_nodes":"29","size_leaf_vector":"1"}},{"base_weights":[2.9713104E-3,2.1472082E-2,-6.393783E-2,-9.6283585E-2,3.782645E-2,-7.638364E-2,8.0739135E-1,-1.283052E-1,3.9353666E-1,-3.4358453E-2,6.6510014E-2,4.1186318E-2,-8.093994E-2,5.3717703E-2,-6.4301924E-3,2.9526423E-3,-8.188786E-3,3.1890847E-2,-1.977618E-2,4.267928E-3,-5.319227E-3,3.943376E-3,-7.014823E-3,4.825736E-3,-4.9700025E-3],"categories":[],"categories_nodes":[],"categories_segments":[],"categories_sizes":[],"default_left":[0,0,0,0,0,0,0,0,0,0,0,0,0,0,0,0,0,0,0,0,0,0,0,0,0],"id":50,"left_children":[1,3,5,7,9,11,13,15,17,19,21,-1,23,-1,-1,-1,-1,-1,-1,-1,-1,-1,-1,-1,-1],"loss_changes":[5.6460633E0,6.8845944E0,1.077594E1,6.8890805E0,6.499578E0,4.065314E0,3.6364279E0,2.7344027E0,5.4565716E0,7.7091947E0,5.75097E0,0E0,3.1904244E0,0E0,0E0,0E0,0E0,0E0,0E0,0E0,0E0,0E0,0E0,0E0,0E0],"parents":[2147483647,0,0,1,1,2,2,3,3,4,4,5,5,6,6,7,7,8,8,9,9,10,10,12,12],"right_children":[2,4,6,8,10,12,14,16,18,20,22,-1,24,-1,-1,-1,-1,-1,-1,-1,-1,-1,-1,-1,-1],"split_conditions":[1E0,4.36E1,9.44E1,4.3E0,-7.142921E-1,6.16E1,6.875541E-2,2.66E1,4.05E1,1E-1,9.34E1,4.1186318E-2,-9.572324E-1,5.3717703E-2,-6.4301924E-3,2.9526423E-3,-8.188786E-3,3.1890847E-2,-1.977618E-2,4.267928E-3,-5.319227E-3,3.943376E-3,-7.014823E-3,4.825736E-3,-4.9700025E-3],"split_indices":[8,0,0,1,3,0,3,0,0,1,0,0,3,0,0,0,0,0,0,0,0,0,0,0,0],"split_type":[0,0,0,0,0,0,0,0,0,0,0,0,0,0,0,0,0,0,0,0,0,0,0,0,0],"sum_hessian":[4.559E3,3.572E3,9.87E2,4.35E2,3.137E3,9.74E2,1.3E1,4.09E2,2.6E1,8.92E2,2.245E3,4E0,9.7E2,1E1,3E0,6.5E1,3.44E2,2E1,6E0,3.35E2,5.57E2,2.119E3,1.26E2,9.1E1,8.79E2],"tree_param":{"num_deleted":"0","num_feature":"10","num_nodes":"25","size_leaf_vector":"1"}}]},"name":"gbtree"},"learner_model_param":{"base_score":"[1.2648576E0]","boost_from_average":"1","num_class":"0","num_feature":"10","num_target":"1"},"objective":{"name":"reg:squarederror","reg_loss_param":{"scale_pos_weight":"1"}}},"version":[3,2,0]}