{"learner":{"attributes":{"best_iteration":"47","best_score":"0.9670470498132309","scikit_learn":"{\"_estimator_type\": \"regressor\"}"},"feature_names":[],"feature_types":[],"gradient_booster":{"model":{"cats":{"enc":[],"feature_segments":[],"sorted_idx":[]},"gbtree_model_param":{"num_parallel_tree":"1","num_trees":"73"},"iteration_indptr":[0,1,2,3,4,5,6,7,8,9,10,11,12,13,14,15,16,17,18,19,20,21,22,23,24,25,26,27,28,29,30,31,32,33,34,35,36,37,38,39,40,41,42,43,44,45,46,47,48,49,50,51,52,53,54,55,56,57,58,59,60,61,62,63,64,65,66,67,68,69,70,71,72,73],"tree_info":[0,0,0,0,0,0,0,0,0,0,0,0,0,0,0,0,0,0,0,0,0,0,0,0,0,0,0,0,0,0,0,0,0,0,0,0,0,0,0,0,0,0,0,0,0,0,0,0,0,0,0,0,0,0,0,0,0,0,0,0,0,0,0,0,0,0,0,0,0,0,0,0,0],"trees":[{"base_weights":[-1.160732E-2,-3.6984408E-1,1.2082018E0,-8.91578E-1,1.42826885E-2,2.5222974E0,2.750917E-1,-4.8105535E-1,-1.3157703E0,-1.7049609E-1,4.785156E-1,2.7481587E0,5.5352074E-1,9.3911666E-1,-1.1999922E0,-2.7589379E-2,2.892604E-2,-4.176518E-2,-7.618136E-2,-2.8583253E-2,-9.7436755E-4,1.06644474E-1,1.9196345E-2,7.413267E-2,1.5576695E-1,-7.7699707E-3,4.397718E-2,5.640879E-2,-4.9898297E-2,-6.725444E-2,1.848003E-2],"categories":[],"categories_nodes":[],"categories_segments":[],"categories_sizes":[],"default_left":[0,0,0,0,0,0,0,0,0,0,0,0,0,0,0,0,0,0,0,0,0,0,0,0,0,0,0,0,0,0,0],"id":0,"left_children":[1,3,5,7,9,11,13,15,17,19,21,23,25,27,29,-1,-1,-1,-1,-1,-1,-1,-1,-1,-1,-1,-1,-1,-1,-1,-1],"loss_changes":[3.946032E2,1.399003E2,2.506763E2,5.091263E1,3.4651077E1,3.627588E1,1.1964553E2,1.1711037E1,1.3208221E1,1.7496487E1,1.7176912E1,3.069574E1,2.4479218E0,3.188861E1,9.151363E0,0E0,0E0,0E0,0E0,0E0,0E0,0E0,0E0,0E0,0E0,0E0,0E0,0E0,0E0,0E0,0E0],"parents":[2147483647,0,0,1,1,2,2,3,3,4,4,5,5,6,6,7,7,8,8,9,9,10,10,11,11,12,12,13,13,14,14],"right_children":[2,4,6,8,10,12,14,16,18,20,22,24,26,28,30,-1,-1,-1,-1,-1,-1,-1,-1,-1,-1,-1,-1,-1,-1,-1,-1],"split_conditions":[8.89E1,-3.5E-1,1E-1,4.9346814E-1,8.52E1,9.23E1,9.09E1,3.3122122E-1,7.91E1,-2E0,8.27E1,9.025E1,9.26E1,4.324994E-1,5.5E-1,-2.7589379E-2,2.892604E-2,-4.176518E-2,-7.618136E-2,-2.8583253E-2,-9.7436755E-4,1.06644474E-1,1.9196345E-2,7.413267E-2,1.5576695E-1,-7.7699707E-3,4.397718E-2,5.640879E-2,-4.9898297E-2,-6.725444E-2,1.848003E-2],"split_indices":[0,6,1,3,0,5,5,3,0,7,5,0,5,3,6,0,0,0,0,0,0,0,0,0,0,0,0,0,0,0,0],"split_type":[0,0,0,0,0,0,0,0,0,0,0,0,0,0,0,0,0,0,0,0,0,0,0,0,0,0,0,0,0,0,0],"sum_hessian":[9.01E2,6.97E2,2.04E2,2.95E2,4.02E2,8.4E1,1.2E2,1.51E2,1.44E2,2.88E2,1.14E2,7.5E1,9E0,8.3E1,3.7E1,1.42E2,9E0,4.5E1,9.9E1,7.8E1,2.1E2,5E0,1.09E2,1.8E1,5.7E1,3E0,6E0,7.6E1,7E0,3.4E1,3E0],"tree_param":{"num_deleted":"0","num_feature":"8","num_nodes":"31","size_leaf_vector":"1"}},{"base_weights":[3.8879484E-2,-4.1113016E-1,9.568293E-1,-1.6880062E-3,-1.0467007E0,1.7160523E0,5.122432E-1,2.3903649E-1,-2.5703284E-1,-1.2615104E0,-4.8796594E-1,2.6146595E0,9.781844E-1,1.8779424E-1,1.148068E0,5.1058955E-2,1.6496218E-3,-1.65852E-2,2.4141785E-2,-4.79501E-2,-7.42761E-2,-3.7800934E-2,1.7482449E-3,1.3700514E-1,4.813708E-2,-2.1650517E-2,5.976345E-2,-2.6923144E-2,1.7679317E-2,7.841257E-2,3.6559638E-2],"categories":[],"categories_nodes":[],"categories_segments":[],"categories_sizes":[],"default_left":[0,0,0,0,0,0,0,0,0,0,0,0,0,0,0,0,0,0,0,0,0,0,0,0,0,0,0,0,0,0,0],"id":1,"left_children":[1,3,5,7,9,11,13,15,17,19,21,23,25,27,29,-1,-1,-1,-1,-1,-1,-1,-1,-1,-1,-1,-1,-1,-1,-1,-1],"loss_changes":[3.754757E2,1.5873816E2,1.0004544E2,2.2927446E1,2.806958E1,7.0378265E1,3.8980003E1,3.0908234E1,1.0159828E1,1.0231018E1,9.558199E0,7.515869E0,1.9511177E1,1.5482168E1,1.0063797E1,0E0,0E0,0E0,0E0,0E0,0E0,0E0,0E0,0E0,0E0,0E0,0E0,0E0,0E0,0E0,0E0],"parents":[2147483647,0,0,1,1,2,2,3,3,4,4,5,5,6,6,7,7,8,8,9,9,10,10,11,11,12,12,13,13,14,14],"right_children":[2,4,6,8,10,12,14,16,18,20,22,24,26,28,30,-1,-1,-1,-1,-1,-1,-1,-1,-1,-1,-1,-1,-1,-1,-1,-1],"split_conditions":[8E-1,4.9346814E-1,-7.9775035E-1,5.5299747E-1,-4E-1,1E-1,8.67E1,2E0,3.2105765E-1,8.23E1,2.3E0,9.23E1,2.1E0,-3.4E0,1E-1,5.1058955E-2,1.6496218E-3,-1.65852E-2,2.4141785E-2,-4.79501E-2,-7.42761E-2,-3.7800934E-2,1.7482449E-3,1.3700514E-1,4.813708E-2,-2.1650517E-2,5.976345E-2,-2.6923144E-2,1.7679317E-2,7.841257E-2,3.6559638E-2],"split_indices":[6,3,4,4,6,1,5,2,3,5,1,5,1,7,1,0,0,0,0,0,0,0,0,0,0,0,0,0,0,0,0],"split_type":[0,0,0,0,0,0,0,0,0,0,0,0,0,0,0,0,0,0,0,0,0,0,0,0,0,0,0,0,0,0,0],"sum_hessian":[9.07E2,6.09E2,2.98E2,3.71E2,2.38E2,1.09E2,1.89E2,1.91E2,1.8E2,1.71E2,6.7E1,4.8E1,6.1E1,1.26E2,6.3E1,3.9E1,1.52E2,1.64E2,1.6E1,7.5E1,9.6E1,4.4E1,2.3E1,4.4E1,4E0,8E0,5.3E1,2.3E1,1.03E2,3E1,3.3E1],"tree_param":{"num_deleted":"0","num_feature":"8","num_nodes":"31","size_leaf_vector":"1"}},{"base_weights":[-1.9488364E-2,-5.73839E-1,6.6220576E-1,-1.9597274E-1,-1.08688E0,1.6765974E0,3.8751858E-1,-4.7933385E-1,4.0206242E-2,-1.2397273E0,-4.6087816E-1,2.7513185E0,8.8509625E-1,8.002612E-2,9.820221E-1,-1.8999292E-2,-9.796559E-2,2.9027188E-2,-7.7052363E-3,-7.1104124E-2,-4.2318318E-2,1.910743E-2,-3.47636E-2,1.00365095E-1,1.8885544E-1,-1.48708215E-2,5.5600762E-2,-2.9969519E-2,1.3076817E-2,7.896059E-2,2.6872396E-2],"categories":[],"categories_nodes":[],"categories_segments":[],"categories_sizes":[],"default_left":[0,0,0,0,0,0,0,0,0,0,0,0,0,0,0,0,0,0,0,0,0,0,0,0,0,0,0,0,0,0,0],"id":2,"left_children":[1,3,5,7,9,11,13,15,17,19,21,23,25,27,29,-1,-1,-1,-1,-1,-1,-1,-1,-1,-1,-1,-1,-1,-1,-1,-1],"loss_changes":[3.412436E2,9.632971E1,1.12199615E2,1.9293365E1,1.9617722E1,7.072011E1,5.8419132E1,1.8516804E1,1.6678438E1,1.0918976E1,8.7625065E0,1.9893585E1,1.4015797E1,2.6300823E1,2.8090218E1,0E0,0E0,0E0,0E0,0E0,0E0,0E0,0E0,0E0,0E0,0E0,0E0,0E0,0E0,0E0,0E0],"parents":[2147483647,0,0,1,1,2,2,3,3,4,4,5,5,6,6,7,7,8,8,9,9,10,10,11,11,12,12,13,13,14,14],"right_children":[2,4,6,8,10,12,14,16,18,20,22,24,26,28,30,-1,-1,-1,-1,-1,-1,-1,-1,-1,-1,-1,-1,-1,-1,-1,-1],"split_conditions":[2.5E-1,4.9346814E-1,-9.2023855E-1,-8E-1,-4E-1,1E-1,8.65E1,9.29E1,-7.544038E-1,2.2E0,-2E-1,1.20126165E-1,2E0,-3.9E0,1E-1,-1.8999292E-2,-9.796559E-2,2.9027188E-2,-7.7052363E-3,-7.1104124E-2,-4.2318318E-2,1.910743E-2,-3.47636E-2,1.00365095E-1,1.8885544E-1,-1.48708215E-2,5.5600762E-2,-2.9969519E-2,1.3076817E-2,7.896059E-2,2.6872396E-2],"split_indices":[6,3,4,6,6,1,5,5,4,1,6,3,1,7,1,0,0,0,0,0,0,0,0,0,0,0,0,0,0,0,0],"split_type":[0,0,0,0,0,0,0,0,0,0,0,0,0,0,0,0,0,0,0,0,0,0,0,0,0,0,0,0,0,0,0],"sum_hessian":[9.01E2,4.97E2,4.04E2,2.87E2,2.1E2,8.5E1,3.19E2,1.3E2,1.57E2,1.68E2,4.2E1,3.5E1,5E1,2.11E2,1.08E2,1.23E2,7E0,4.1E1,1.16E2,1.13E2,5.5E1,9E0,3.3E1,2.2E1,1.3E1,8E0,4.2E1,4.4E1,1.67E2,4.5E1,6.3E1],"tree_param":{"num_deleted":"0","num_feature":"8","num_nodes":"31","size_leaf_vector":"1"}},{"base_weights":[-1.0814562E-2,-3.3556855E-1,1.0266838E0,-8.8245064E-2,-8.708555E-1,2.2958703E0,1.371978E-1,-2.588554E-1,3.286216E-1,-1.3803375E0,-5.872698E-1,2.4868412E0,6.809135E-1,7.743364E-1,-1.0569569E0,-9.413116E-3,-6.41762E-2,6.377514E-2,1.1124456E-2,9.236095E-4,-7.375506E-2,-2.9821678E-3,-4.2797893E-2,8.084048E-2,1.3636933E-1,-1.31948395E-2,5.341023E-2,5.077957E-2,-5.8038052E-2,-2.3087127E-2,-6.5146685E-2],"categories":[],"categories_nodes":[],"categories_segments":[],"categories_sizes":[],"default_left":[0,0,0,0,0,0,0,0,0,0,0,0,0,0,0,0,0,0,0,0,0,0,0,0,0,0,0,0,0,0,0],"id":3,"left_children":[1,3,5,7,9,11,13,15,17,19,21,23,25,27,29,-1,-1,-1,-1,-1,-1,-1,-1,-1,-1,-1,-1,-1,-1,-1,-1],"loss_changes":[3.1234326E2,9.3389824E1,2.4917715E2,3.4507996E1,3.1408798E1,2.6371948E1,1.0048875E2,2.4641434E1,1.3885985E1,1.0499207E1,2.0505154E1,1.2542175E1,4.3069777E0,4.132813E1,6.13319E0,0E0,0E0,0E0,0E0,0E0,0E0,0E0,0E0,0E0,0E0,0E0,0E0,0E0,0E0,0E0,0E0],"parents":[2147483647,0,0,1,1,2,2,3,3,4,4,5,5,6,6,7,7,8,8,9,9,10,10,11,11,12,12,13,13,14,14],"right_children":[2,4,6,8,10,12,14,16,18,20,22,24,26,28,30,-1,-1,-1,-1,-1,-1,-1,-1,-1,-1,-1,-1,-1,-1,-1,-1],"split_conditions":[8.89E1,5.610336E-1,1E-1,8.555E1,1.3E0,9.23E1,9.09E1,8.66E1,8.37E1,7.04E1,7.92E1,9.025E1,9.26E1,4.5753136E-1,-5.4310524E-1,-9.413116E-3,-6.41762E-2,6.377514E-2,1.1124456E-2,9.236095E-4,-7.375506E-2,-2.9821678E-3,-4.2797893E-2,8.084048E-2,1.3636933E-1,-1.31948395E-2,5.341023E-2,5.077957E-2,-5.8038052E-2,-2.3087127E-2,-6.5146685E-2],"split_indices":[0,3,1,0,1,5,5,5,5,5,0,0,5,3,3,0,0,0,0,0,0,0,0,0,0,0,0,0,0,0,0],"split_type":[0,0,0,0,0,0,0,0,0,0,0,0,0,0,0,0,0,0,0,0,0,0,0,0,0,0,0,0,0,0,0],"sum_hessian":[9.25E2,7.05E2,2.2E2,4.83E2,2.22E2,9E1,1.3E2,3.43E2,1.4E2,7.8E1,1.44E2,8E1,1E1,8.5E1,4.5E1,3.22E2,2.1E1,1.3E1,1.27E2,5E0,7.3E1,4.9E1,9.5E1,1.9E1,6.1E1,3E0,7E0,7.6E1,9E0,1.4E1,3.1E1],"tree_param":{"num_deleted":"0","num_feature":"8","num_nodes":"31","size_leaf_vector":"1"}},{"base_weights":[4.9394127E-2,-2.647061E-1,1.0241605E0,-2.0986976E-2,-8.246906E-1,2.1170495E0,2.571601E-1,-2.0122872E-1,4.304284E-1,-1.0644282E0,-2.0121029E-1,1.8057024E0,1.6397089E-1,7.8975666E-1,-9.3121666E-1,-6.403473E-3,-6.314338E-2,5.655823E-2,1.5746456E-2,6.680529E-3,-5.800991E-2,2.0955428E-2,-2.5316974E-2,4.3848272E-2,1.1308253E-1,5.4259837E-2,-3.3147182E-2,-1.2361293E-2,-5.8688622E-2],"categories":[],"categories_nodes":[],"categories_segments":[],"categories_sizes":[],"default_left":[0,0,0,0,0,0,0,0,0,0,0,0,0,0,0,0,0,0,0,0,0,0,0,0,0,0,0,0,0],"id":4,"left_children":[1,3,5,7,9,11,13,15,17,19,21,23,-1,25,27,-1,-1,-1,-1,-1,-1,-1,-1,-1,-1,-1,-1,-1,-1],"loss_changes":[2.7766507E2,9.360724E1,1.8470801E2,3.905992E1,3.0875946E1,2.7011261E1,8.364866E1,2.6478636E1,1.0731796E1,1.7365448E1,1.1379578E1,2.935234E1,0E0,3.9775345E1,6.5119553E0,0E0,0E0,0E0,0E0,0E0,0E0,0E0,0E0,0E0,0E0,0E0,0E0,0E0,0E0],"parents":[2147483647,0,0,1,1,2,2,3,3,4,4,5,5,6,6,7,7,8,8,9,9,10,10,11,11,13,13,14,14],"right_children":[2,4,6,8,10,12,14,16,18,20,22,24,-1,26,28,-1,-1,-1,-1,-1,-1,-1,-1,-1,-1,-1,-1,-1,-1],"split_conditions":[8.89E1,5.610336E-1,1E-1,8.545E1,2.3E0,5.1584367E-2,9.09E1,8.66E1,8.39E1,7.3E1,7.92E1,9.11E1,1.6397089E-1,2.0496611E-1,9.17E1,-6.403473E-3,-6.314338E-2,5.655823E-2,1.5746456E-2,6.680529E-3,-5.800991E-2,2.0955428E-2,-2.5316974E-2,4.3848272E-2,1.1308253E-1,5.4259837E-2,-3.3147182E-2,-1.2361293E-2,-5.8688622E-2],"split_indices":[0,3,1,0,1,3,5,5,5,5,0,0,0,3,5,0,0,0,0,0,0,0,0,0,0,0,0,0,0],"split_type":[0,0,0,0,0,0,0,0,0,0,0,0,0,0,0,0,0,0,0,0,0,0,0,0,0,0,0,0,0],"sum_hessian":[9.05E2,6.85E2,2.2E2,4.78E2,2.07E2,9E1,1.3E2,3.42E2,1.36E2,1.49E2,5.8E1,7.3E1,1.7E1,9E1,4E1,3.21E2,2.1E1,1.8E1,1.18E2,1.1E1,1.38E2,1.9E1,3.9E1,2.5E1,4.8E1,7.5E1,1.5E1,1.1E1,2.9E1],"tree_param":{"num_deleted":"0","num_feature":"8","num_nodes":"29","size_leaf_vector":"1"}},{"base_weights":[7.558776E-3,-5.445712E-1,6.1225545E-1,1.8007697E-1,-6.71955E-1,2.5645185E-1,1.8074709E0,-1.265178E-1,1.9196582E0,-1.022625E0,-4.72822E-1,-2.1776263E-2,6.3268965E-1,2.285588E0,1.0212028E0,-2.0946365E-2,9.441901E-3,1.478141E-1,4.5248795E-2,-1.2564932E-2,-6.042418E-2,-2.960707E-2,-3.3017732E-3,-3.334149E-2,6.578002E-3,5.0222185E-2,9.848087E-3,1.2324186E-1,3.837764E-2,5.7792705E-2,1.1064793E-2],"categories":[],"categories_nodes":[],"categories_segments":[],"categories_sizes":[],"default_left":[0,0,0,0,0,0,0,0,0,0,0,0,0,0,0,0,0,0,0,0,0,0,0,0,0,0,0,0,0,0,0],"id":5,"left_children":[1,3,5,7,9,11,13,15,17,19,21,23,25,27,29,-1,-1,-1,-1,-1,-1,-1,-1,-1,-1,-1,-1,-1,-1,-1,-1],"loss_changes":[3.084965E2,4.4705994E1,1.8707701E2,3.917717E1,2.8216599E1,3.5709637E1,3.5634674E1,5.88853E0,8.894913E0,2.0913239E1,1.2774803E1,1.957302E1,2.3289776E1,1.4978729E1,4.052559E0,0E0,0E0,0E0,0E0,0E0,0E0,0E0,0E0,0E0,0E0,0E0,0E0,0E0,0E0,0E0,0E0],"parents":[2147483647,0,0,1,1,2,2,3,3,4,4,5,5,6,6,7,7,8,8,9,9,10,10,11,11,12,12,13,13,14,14],"right_children":[2,4,6,8,10,12,14,16,18,20,22,24,26,28,30,-1,-1,-1,-1,-1,-1,-1,-1,-1,-1,-1,-1,-1,-1,-1,-1],"split_conditions":[2E-1,1E-1,9.035E1,8.885E1,-1.25E0,8.52E1,1E-1,-8.5E-1,8E-1,-1.3E0,8.64E1,-3.9E0,8.68E1,9.23E1,9.06E1,-2.0946365E-2,9.441901E-3,1.478141E-1,4.5248795E-2,-1.2564932E-2,-6.042418E-2,-2.960707E-2,-3.3017732E-3,-3.334149E-2,6.578002E-3,5.0222185E-2,9.848087E-3,1.2324186E-1,3.837764E-2,5.7792705E-2,1.1064793E-2],"split_indices":[6,1,0,0,6,0,1,6,7,7,0,7,5,5,5,0,0,0,0,0,0,0,0,0,0,0,0,0,0,0,0],"split_type":[0,0,0,0,0,0,0,0,0,0,0,0,0,0,0,0,0,0,0,0,0,0,0,0,0,0,0,0,0,0,0],"sum_hessian":[9.22E2,4.82E2,4.4E2,7.2E1,4.1E2,3.4E2,1E2,6.2E1,1E1,1.47E2,2.63E2,1.96E2,1.44E2,6.1E1,3.9E1,3.2E1,3E1,4E0,6E0,2.9E1,1.18E2,2.03E2,6E1,3.7E1,1.59E2,7.7E1,6.7E1,5.4E1,7E0,3.3E1,6E0],"tree_param":{"num_deleted":"0","num_feature":"8","num_nodes":"31","size_leaf_vector":"1"}},{"base_weights":[3.3079663E-3,-3.645742E-1,7.354783E-1,-6.530775E-2,-8.4900445E-1,1.1399759E0,2.6688403E-1,1.6514096E-1,-3.4495002E-1,-5.317315E-1,-1.1840336E0,1.8182476E0,5.403478E-1,-7.120988E-1,4.3981686E-1,1.4818318E-2,-2.9895356E-2,-2.1907432E-2,2.383787E-2,-3.6460776E-2,1.1487135E-3,-7.0701145E-2,-4.0253576E-2,1.1243279E-1,7.1281515E-2,-2.1098956E-2,3.5525437E-2,-7.058695E-2,3.443695E-2,1.2233017E-2,3.7509177E-2],"categories":[],"categories_nodes":[],"categories_segments":[],"categories_sizes":[],"default_left":[0,0,0,0,0,0,0,0,0,0,0,0,0,0,0,0,0,0,0,0,0,0,0,0,0,0,0,0,0,0,0],"id":6,"left_children":[1,3,5,7,9,11,13,15,17,19,21,23,25,27,29,-1,-1,-1,-1,-1,-1,-1,-1,-1,-1,-1,-1,-1,-1,-1,-1],"loss_changes":[2.4807236E2,8.8813446E1,5.80757E1,2.4545383E1,2.4243591E1,6.612479E1,2.4692146E1,2.1104643E1,1.3380991E1,1.3381306E1,8.710388E0,9.806122E0,1.487361E1,2.2534132E1,7.2665787E0,0E0,0E0,0E0,0E0,0E0,0E0,0E0,0E0,0E0,0E0,0E0,0E0,0E0,0E0,0E0,0E0],"parents":[2147483647,0,0,1,1,2,2,3,3,4,4,5,5,6,6,7,7,8,8,9,9,10,10,11,11,12,12,13,13,14,14],"right_children":[2,4,6,8,10,12,14,16,18,20,22,24,26,28,30,-1,-1,-1,-1,-1,-1,-1,-1,-1,-1,-1,-1,-1,-1,-1,-1],"split_conditions":[8E-1,4.9346814E-1,-3.8044736E-1,6.523456E-1,8.26E1,2E0,-3.4E0,9.07E1,3.2105765E-1,2.3E0,2.2E0,-9.268344E-1,2.1E0,3.953118E-1,1.7E0,1.4818318E-2,-2.9895356E-2,-2.1907432E-2,2.383787E-2,-3.6460776E-2,1.1487135E-3,-7.0701145E-2,-4.0253576E-2,1.1243279E-1,7.1281515E-2,-2.1098956E-2,3.5525437E-2,-7.058695E-2,3.443695E-2,1.2233017E-2,3.7509177E-2],"split_indices":[6,3,4,4,5,2,7,5,3,1,1,4,1,3,6,0,0,0,0,0,0,0,0,0,0,0,0,0,0,0,0],"split_type":[0,0,0,0,0,0,0,0,0,0,0,0,0,0,0,0,0,0,0,0,0,0,0,0,0,0,0,0,0,0,0],"sum_hessian":[9.19E2,6.12E2,3.07E2,3.79E2,2.33E2,1.64E2,1.43E2,2.08E2,1.71E2,1.21E2,1.12E2,7.6E1,8.8E1,2.1E1,1.22E2,1.78E2,3E1,1.54E2,1.7E1,8.9E1,3.2E1,6.8E1,4.4E1,3.4E1,4.2E1,1.3E1,7.5E1,1.4E1,7E0,7.6E1,4.6E1],"tree_param":{"num_deleted":"0","num_feature":"8","num_nodes":"31","size_leaf_vector":"1"}},{"base_weights":[1.9581985E-2,-4.5848694E-1,5.810413E-1,-1.616386E-1,-9.598485E-1,1.447264E-1,1.4374032E0,-2.0923407E-1,1.6850425E0,-8.6754024E-1,-2.114425E0,-4.8339993E-1,2.7563864E-1,1.9268922E0,8.8451815E-1,-6.5003405E-3,-4.2077936E-2,2.3567403E-2,1.39045E-1,-5.6151588E-2,-3.1519488E-2,-1.2003014E-1,-4.3518685E-2,-8.453255E-2,-1.5389422E-2,3.3841264E-2,1.0083851E-2,7.807263E-2,1.4986853E-1,9.233586E-2,3.7304852E-2],"categories":[],"categories_nodes":[],"categories_segments":[],"categories_sizes":[],"default_left":[0,0,0,0,0,0,0,0,0,0,0,0,0,0,0,0,0,0,0,0,0,0,0,0,0,0,0,0,0,0,0],"id":7,"left_children":[1,3,5,7,9,11,13,15,17,19,21,23,25,27,29,-1,-1,-1,-1,-1,-1,-1,-1,-1,-1,-1,-1,-1,-1,-1,-1],"loss_changes":[2.4747777E2,7.396138E1,1.5821683E2,2.795118E1,1.7882385E1,2.3321941E1,3.699588E1,1.5270479E1,9.329517E0,9.774109E0,2.5388374E0,9.86799E0,6.806843E0,2.4659424E1,7.812191E0,0E0,0E0,0E0,0E0,0E0,0E0,0E0,0E0,0E0,0E0,0E0,0E0,0E0,0E0,0E0,0E0],"parents":[2147483647,0,0,1,1,2,2,3,3,4,4,5,5,6,6,7,7,8,8,9,9,10,10,11,11,12,12,13,13,14,14],"right_children":[2,4,6,8,10,12,14,16,18,20,22,24,26,28,30,-1,-1,-1,-1,-1,-1,-1,-1,-1,-1,-1,-1,-1,-1,-1,-1],"split_conditions":[2.5E-1,6.300721E-1,8.89E1,9.32E1,8.83E1,-3.7E0,2E0,9.03E1,-1.2E0,-1.15E0,2.9E0,6.83E1,-8.9882547E-1,5.1584367E-2,-1.9E0,-6.5003405E-3,-4.2077936E-2,2.3567403E-2,1.39045E-1,-5.6151588E-2,-3.1519488E-2,-1.2003014E-1,-4.3518685E-2,-8.453255E-2,-1.5389422E-2,3.3841264E-2,1.0083851E-2,7.807263E-2,1.4986853E-1,9.233586E-2,3.7304852E-2],"split_indices":[6,3,0,0,0,7,2,5,6,6,7,0,4,3,7,0,0,0,0,0,0,0,0,0,0,0,0,0,0,0,0],"split_type":[0,0,0,0,0,0,0,0,0,0,0,0,0,0,0,0,0,0,0,0,0,0,0,0,0,0,0,0,0,0,0],"sum_hessian":[9.2E2,4.97E2,4.23E2,3.13E2,1.84E2,2.81E2,1.42E2,3.06E2,7E0,1.72E2,1.2E1,4.8E1,2.33E2,7.4E1,6.8E1,2.73E2,3.3E1,4E0,3E0,8.1E1,9.1E1,9E0,3E0,5E0,4.3E1,3.5E1,1.98E2,5.7E1,1.7E1,7E0,6.1E1],"tree_param":{"num_deleted":"0","num_feature":"8","num_nodes":"31","size_leaf_vector":"1"}},{"base_weights":[1.0298593E-3,-4.4795367E-1,5.661273E-1,-1.3413388E-1,-8.591465E-1,1.4817055E-1,1.3857052E0,-1.8310525E-1,1.6211169E0,-1.2121055E0,-6.5814704E-1,-3.177735E-2,4.8543233E-1,1.8039764E0,8.1885767E-1,-2.2292588E-2,1.4624309E-3,2.2624707E-2,1.3383082E-1,-4.1345242E-2,-7.498609E-2,-4.5323823E-2,-2.3646694E-2,-2.4395142E-2,7.3322463E-3,1.3556989E-2,4.5609187E-2,7.4371494E-2,1.426162E-1,8.417175E-2,3.5482593E-2],"categories":[],"categories_nodes":[],"categories_segments":[],"categories_sizes":[],"default_left":[0,0,0,0,0,0,0,0,0,0,0,0,0,0,0,0,0,0,0,0,0,0,0,0,0,0,0,0,0,0,0],"id":8,"left_children":[1,3,5,7,9,11,13,15,17,19,21,23,25,27,29,-1,-1,-1,-1,-1,-1,-1,-1,-1,-1,-1,-1,-1,-1,-1,-1],"loss_changes":[2.3266058E2,6.582443E1,1.3886922E2,2.5310339E1,1.4880981E1,1.6401602E1,3.1004944E1,1.5858887E1,8.656689E0,7.5122833E0,6.1484222E0,1.4476329E1,8.348938E0,2.1641739E1,4.470356E0,0E0,0E0,0E0,0E0,0E0,0E0,0E0,0E0,0E0,0E0,0E0,0E0,0E0,0E0,0E0,0E0],"parents":[2147483647,0,0,1,1,2,2,3,3,4,4,5,5,6,6,7,7,8,8,9,9,10,10,11,11,12,12,13,13,14,14],"right_children":[2,4,6,8,10,12,14,16,18,20,22,24,26,28,30,-1,-1,-1,-1,-1,-1,-1,-1,-1,-1,-1,-1,-1,-1,-1,-1],"split_conditions":[3E-1,4.9346814E-1,8.89E1,9.32E1,-1.4E0,8.52E1,1E-1,-8E-1,-1.2E0,8.165E1,1.5E0,-2E0,-2.3746832E-1,5.1584367E-2,-2.1E0,-2.2292588E-2,1.4624309E-3,2.2624707E-2,1.3383082E-1,-4.1345242E-2,-7.498609E-2,-4.5323823E-2,-2.3646694E-2,-2.4395142E-2,7.3322463E-3,1.3556989E-2,4.5609187E-2,7.4371494E-2,1.426162E-1,8.417175E-2,3.5482593E-2],"split_indices":[6,3,0,0,6,0,1,6,6,0,1,7,4,3,7,0,0,0,0,0,0,0,0,0,0,0,0,0,0,0,0],"split_type":[0,0,0,0,0,0,0,0,0,0,0,0,0,0,0,0,0,0,0,0,0,0,0,0,0,0,0,0,0,0,0],"sum_hessian":[9.15E2,5.1E2,4.05E2,2.9E2,2.2E2,2.69E2,1.36E2,2.83E2,7E0,7.8E1,1.42E2,1.76E2,9.3E1,7.7E1,5.9E1,1.26E2,1.57E2,4E0,3E0,3.5E1,4.3E1,5.9E1,8.3E1,4.9E1,1.27E2,6.3E1,3E1,6.1E1,1.6E1,5E0,5.4E1],"tree_param":{"num_deleted":"0","num_feature":"8","num_nodes":"31","size_leaf_vector":"1"}},{"base_weights":[3.0392554E-2,-2.9943016E-1,6.770044E-1,-4.314641E-2,-7.581562E-1,3.986803E-1,1.7883278E0,-1.5361013E-1,7.973367E-1,-4.9993432E-1,-1.0289513E0,1.8783884E-2,7.320338E-1,1.615497E0,1.7004669E-1,-2.506648E-2,7.823046E-4,1.0013802E-1,-2.213769E-2,-2.986365E-2,3.4020822E-2,-6.643041E-2,-3.1112015E-2,-5.004343E-2,7.3029916E-3,3.2292545E-2,1.0832187E-1,1.379898E-1,7.1338E-2],"categories":[],"categories_nodes":[],"categories_segments":[],"categories_sizes":[],"default_left":[0,0,0,0,0,0,0,0,0,0,0,0,0,0,0,0,0,0,0,0,0,0,0,0,0,0,0,0,0],"id":9,"left_children":[1,3,5,7,9,11,13,15,17,19,21,23,25,27,-1,-1,-1,-1,-1,-1,-1,-1,-1,-1,-1,-1,-1,-1,-1],"loss_changes":[1.9320961E2,7.05057E1,9.39353E1,3.5959835E1,1.4519516E1,3.1139637E1,1.1507004E1,2.0135803E1,6.815428E1,1.3274494E1,1.184816E1,1.5200346E1,1.4795166E1,8.372803E0,0E0,0E0,0E0,0E0,0E0,0E0,0E0,0E0,0E0,0E0,0E0,0E0,0E0,0E0,0E0],"parents":[2147483647,0,0,1,1,2,2,3,3,4,4,5,5,6,6,7,7,8,8,9,9,10,10,11,11,12,12,13,13],"right_children":[2,4,6,8,10,12,14,16,18,20,22,24,26,28,-1,-1,-1,-1,-1,-1,-1,-1,-1,-1,-1,-1,-1,-1,-1],"split_conditions":[8E-1,5.610336E-1,9.11E1,9.045E1,8.26E1,8.565E1,9.6E1,-8E-1,9.07E1,8.29E1,2E0,-9.713953E-1,3.95E0,-2.3E0,1.7004669E-1,-2.506648E-2,7.823046E-4,1.0013802E-1,-2.213769E-2,-2.986365E-2,3.4020822E-2,-6.643041E-2,-3.1112015E-2,-5.004343E-2,7.3029916E-3,3.2292545E-2,1.0832187E-1,1.379898E-1,7.1338E-2],"split_indices":[6,3,0,0,5,0,0,6,5,0,1,3,6,7,0,0,0,0,0,0,0,0,0,0,0,0,0,0,0],"split_type":[0,0,0,0,0,0,0,0,0,0,0,0,0,0,0,0,0,0,0,0,0,0,0,0,0,0,0,0,0],"sum_hessian":[9.04E2,5.99E2,3.05E2,3.85E2,2.14E2,2.45E2,6E1,3.41E2,4.4E1,1.11E2,1.03E2,1.15E2,1.3E2,5.6E1,4E0,1.11E2,2.3E2,2.2E1,2.2E1,1.03E2,8E0,5.8E1,4.5E1,1.2E1,1.03E2,1.24E2,6E0,6E0,5E1],"tree_param":{"num_deleted":"0","num_feature":"8","num_nodes":"29","size_leaf_vector":"1"}},{"base_weights":[-1.0191225E-3,-4.272064E-1,4.945265E-1,1.8245517E-1,-5.3190494E-1,1.1287683E-1,1.243692E0,-1.5681799E-1,1.7603942E0,-8.972823E-1,-3.728038E-1,-3.8644052E-1,2.2744615E-1,1.1010205E0,1.3547195E-1,-3.0623646E-3,-7.516944E-2,1.1961801E-1,4.3847162E-2,-2.812049E-3,-5.223613E-2,-3.317666E-2,-1.1460906E-2,-1.1675881E-2,-1.1006834E-1,7.726119E-3,3.968371E-2,9.6252576E-2,4.6388995E-2],"categories":[],"categories_nodes":[],"categories_segments":[],"categories_sizes":[],"default_left":[0,0,0,0,0,0,0,0,0,0,0,0,0,0,0,0,0,0,0,0,0,0,0,0,0,0,0,0,0],"id":10,"left_children":[1,3,5,7,9,11,13,15,17,19,21,23,25,27,-1,-1,-1,-1,-1,-1,-1,-1,-1,-1,-1,-1,-1,-1,-1],"loss_changes":[1.936661E2,3.1565575E1,1.2108918E2,3.9356785E1,2.413903E1,1.6220114E1,2.6921097E1,7.758175E0,5.160076E0,1.5689667E1,1.2162563E1,1.41957655E1,9.374402E0,1.7057724E1,0E0,0E0,0E0,0E0,0E0,0E0,0E0,0E0,0E0,0E0,0E0,0E0,0E0,0E0,0E0],"parents":[2147483647,0,0,1,1,2,2,3,3,4,4,5,5,6,6,7,7,8,8,9,9,10,10,11,11,12,12,13,13],"right_children":[2,4,6,8,10,12,14,16,18,20,22,24,26,28,-1,-1,-1,-1,-1,-1,-1,-1,-1,-1,-1,-1,-1,-1,-1],"split_conditions":[2.5E-1,1E-1,8.89E1,8.885E1,-1.4E0,-3.7E0,9.44E1,8.93E1,8E-1,-1.6E0,1.3E0,4.2E0,3.8E0,8.65E1,1.3547195E-1,-3.0623646E-3,-7.516944E-2,1.1961801E-1,4.3847162E-2,-2.812049E-3,-5.223613E-2,-3.317666E-2,-1.1460906E-2,-1.1675881E-2,-1.1006834E-1,7.726119E-3,3.968371E-2,9.6252576E-2,4.6388995E-2],"split_indices":[6,1,0,0,6,7,0,5,7,7,1,1,1,5,0,0,0,0,0,0,0,0,0,0,0,0,0,0,0],"split_type":[0,0,0,0,0,0,0,0,0,0,0,0,0,0,0,0,0,0,0,0,0,0,0,0,0,0,0,0,0],"sum_hessian":[9.15E2,4.92E2,4.23E2,7.2E1,4.2E2,2.81E2,1.42E2,6E1,1.2E1,1.26E2,2.94E2,5.2E1,2.29E2,1.31E2,1.1E1,5.7E1,3E0,6E0,6E0,1.9E1,1.07E2,9.6E1,1.98E2,4.9E1,3E0,2.04E2,2.5E1,2.1E1,1.1E2],"tree_param":{"num_deleted":"0","num_feature":"8","num_nodes":"29","size_leaf_vector":"1"}},{"base_weights":[-5.7233013E-3,-3.0925086E-1,6.114685E-1,-7.131774E-2,-6.782964E-1,3.440852E-1,1.6534444E0,-1.9180875E-1,8.085126E-1,-8.4410715E-1,-2.3088165E-1,1.2777671E-3,6.390491E-1,1.3691009E0,2.700422E0,-2.362673E-2,-2.3017037E-3,9.2496276E-2,-1.8216236E-2,-2.1058846E-2,-5.1046014E-2,3.271317E-2,-1.6515028E-2,-2.0748982E-2,2.5364557E-2,2.900106E-2,1.16933286E-1,5.8223307E-2,1.2298956E-1,1.5698473E-1,7.287507E-2],"categories":[],"categories_nodes":[],"categories_segments":[],"categories_sizes":[],"default_left":[0,0,0,0,0,0,0,0,0,0,0,0,0,0,0,0,0,0,0,0,0,0,0,0,0,0,0,0,0,0,0],"id":11,"left_children":[1,3,5,7,9,11,13,15,17,19,21,23,25,27,29,-1,-1,-1,-1,-1,-1,-1,-1,-1,-1,-1,-1,-1,-1,-1,-1],"loss_changes":[1.7047638E2,5.35146E1,8.301317E1,3.959141E1,1.7535614E1,2.4266977E1,1.4462631E1,1.3400899E1,5.563733E1,1.2581657E1,6.0241137E0,2.3801277E1,1.15854225E1,8.295319E0,1.9756622E0,0E0,0E0,0E0,0E0,0E0,0E0,0E0,0E0,0E0,0E0,0E0,0E0,0E0,0E0,0E0,0E0],"parents":[2147483647,0,0,1,1,2,2,3,3,4,4,5,5,6,6,7,7,8,8,9,9,10,10,11,11,12,12,13,13,14,14],"right_children":[2,4,6,8,10,12,14,16,18,20,22,24,26,28,30,-1,-1,-1,-1,-1,-1,-1,-1,-1,-1,-1,-1,-1,-1,-1,-1],"split_conditions":[8E-1,4.9346814E-1,9.11E1,9.045E1,-4E-1,8.555E1,-1.09445766E-1,-8E-1,9.07E1,7.945E1,7.3E1,1.7201575E-2,6.2E0,9.47E1,1.8809941E-1,-2.362673E-2,-2.3017037E-3,9.2496276E-2,-1.8216236E-2,-2.1058846E-2,-5.1046014E-2,3.271317E-2,-1.6515028E-2,-2.0748982E-2,2.5364557E-2,2.900106E-2,1.16933286E-1,5.8223307E-2,1.2298956E-1,1.5698473E-1,7.287507E-2],"split_indices":[6,3,0,0,6,0,3,6,5,0,5,3,6,0,3,0,0,0,0,0,0,0,0,0,0,0,0,0,0,0,0],"split_type":[0,0,0,0,0,0,0,0,0,0,0,0,0,0,0,0,0,0,0,0,0,0,0,0,0,0,0,0,0,0,0],"sum_hessian":[9.08E2,6.09E2,2.99E2,3.71E2,2.38E2,2.39E2,6E1,3.27E2,4.4E1,1.73E2,6.5E1,1.11E2,1.28E2,4.9E1,1.1E1,1.11E2,2.16E2,2.3E1,2.1E1,5.2E1,1.21E2,6E0,5.9E1,6.1E1,5E1,1.25E2,3E0,4.3E1,6E0,7E0,4E0],"tree_param":{"num_deleted":"0","num_feature":"8","num_nodes":"31","size_leaf_vector":"1"}},{"base_weights":[-2.1309039E-2,-4.0593228E-1,4.0987635E-1,-7.137137E-1,-1.4907597E-1,1.1494131E0,8.202107E-2,-5.5547416E-1,-1.0882709E0,-6.615605E-2,-1.0245038E-1,6.6664046E-1,1.5939838E0,2.7470827E-1,-7.9729515E-1,-3.9222382E-2,-1.2769985E-2,4.0450413E-3,-5.943622E-2,-1.9415409E-3,-4.9542006E-2,2.4952654E-2,7.219869E-2,6.1011087E-2,1.21500075E-1,5.0196643E-3,4.6155334E-2,-1.04719095E-1,-3.258203E-2],"categories":[],"categories_nodes":[],"categories_segments":[],"categories_sizes":[],"default_left":[0,0,0,0,0,0,0,0,0,0,0,0,0,0,0,0,0,0,0,0,0,0,0,0,0,0,0,0,0],"id":12,"left_children":[1,3,5,7,9,11,13,15,17,-1,19,21,23,25,27,-1,-1,-1,-1,-1,-1,-1,-1,-1,-1,-1,-1,-1,-1],"loss_changes":[1.512502E2,3.7998398E1,1.0416394E2,1.237558E1,1.4315952E1,2.7268097E1,5.087949E1,1.0518272E1,7.6128006E0,0E0,1.4373859E1,7.747015E0,1.8282944E1,2.7711615E1,8.837254E0,0E0,0E0,0E0,0E0,0E0,0E0,0E0,0E0,0E0,0E0,0E0,0E0,0E0,0E0],"parents":[2147483647,0,0,1,1,2,2,3,3,4,4,5,5,6,6,7,7,8,8,10,10,11,11,12,12,13,13,14,14],"right_children":[2,4,6,8,10,12,14,16,18,-1,20,22,24,26,28,-1,-1,-1,-1,-1,-1,-1,-1,-1,-1,-1,-1,-1,-1],"split_conditions":[8.43E1,-4.5E-1,2E0,8.18E1,-9.713953E-1,9.035E1,9.09E1,1.3E0,1E-1,-6.615605E-2,3.1E0,1.20126165E-1,-1.09445766E-1,9.025E1,-3.25E0,-3.9222382E-2,-1.2769985E-2,4.0450413E-3,-5.943622E-2,-1.9415409E-3,-4.9542006E-2,2.4952654E-2,7.219869E-2,6.1011087E-2,1.21500075E-1,5.0196643E-3,4.6155334E-2,-1.04719095E-1,-3.258203E-2],"split_indices":[0,6,2,0,3,0,5,1,1,0,1,3,3,0,6,0,0,0,0,0,0,0,0,0,0,0,0,0,0],"split_type":[0,0,0,0,0,0,0,0,0,0,0,0,0,0,0,0,0,0,0,0,0,0,0,0,0,0,0,0,0],"sum_hessian":[9.1E2,4.81E2,4.29E2,2.18E2,2.63E2,1.31E2,2.98E2,1.55E2,6.3E1,9E0,2.54E2,6.4E1,6.7E1,2.45E2,5.3E1,8.7E1,6.8E1,5E0,5.8E1,2.38E2,1.6E1,5.4E1,1E1,4.8E1,1.9E1,1.94E2,5.1E1,4E0,4.9E1],"tree_param":{"num_deleted":"0","num_feature":"8","num_nodes":"29","size_leaf_vector":"1"}},{"base_weights":[-8.583413E-3,-2.9622433E-1,4.9138942E-1,-5.6588877E-2,-6.7557347E-1,1.0776675E0,2.9479358E-1,1.1392546E-1,-2.3652352E-1,-8.0858463E-1,-2.9409948E-1,1.63428E0,6.047113E-1,-5.563646E-1,3.989424E-1,1.229333E-2,-2.7472764E-2,-4.138648E-2,-7.080956E-3,-6.400349E-2,-3.54256E-2,2.7336573E-2,-2.3660015E-2,7.728729E-3,9.0190835E-2,-5.6816764E-2,3.7462242E-2,-5.387929E-2,3.3186153E-2,2.3543123E-2,-8.619938E-3],"categories":[],"categories_nodes":[],"categories_segments":[],"categories_sizes":[],"default_left":[0,0,0,0,0,0,0,0,0,0,0,0,0,0,0,0,0,0,0,0,0,0,0,0,0,0,0,0,0,0,0],"id":13,"left_children":[1,3,5,7,9,11,13,15,17,19,21,23,25,27,29,-1,-1,-1,-1,-1,-1,-1,-1,-1,-1,-1,-1,-1,-1,-1,-1],"loss_changes":[1.3230939E2,5.3050587E1,3.8409607E1,1.1041582E1,1.12295E1,2.1125015E1,2.2649681E1,1.6327627E1,9.701687E0,6.9725723E0,9.294325E0,9.254021E0,1.2678453E1,1.8521414E1,9.367718E0,0E0,0E0,0E0,0E0,0E0,0E0,0E0,0E0,0E0,0E0,0E0,0E0,0E0,0E0,0E0,0E0],"parents":[2147483647,0,0,1,1,2,2,3,3,4,4,5,5,6,6,7,7,8,8,9,9,10,10,11,11,12,12,13,13,14,14],"right_children":[2,4,6,8,10,12,14,16,18,20,22,24,26,28,30,-1,-1,-1,-1,-1,-1,-1,-1,-1,-1,-1,-1,-1,-1,-1,-1],"split_conditions":[6.5E-1,4.9346814E-1,-9.252111E-1,5.5299747E-1,-4E-1,1E-1,-4.7E0,9.07E1,-1.55E0,7E-1,-2E-1,-9.983151E-1,1.9E0,3.953118E-1,5.610336E-1,1.229333E-2,-2.7472764E-2,-4.138648E-2,-7.080956E-3,-6.400349E-2,-3.54256E-2,2.7336573E-2,-2.3660015E-2,7.728729E-3,9.0190835E-2,-5.6816764E-2,3.7462242E-2,-5.387929E-2,3.3186153E-2,2.3543123E-2,-8.619938E-3],"split_indices":[6,3,4,4,6,1,7,5,6,1,6,4,1,3,3,0,0,0,0,0,0,0,0,0,0,0,0,0,0,0,0],"split_type":[0,0,0,0,0,0,0,0,0,0,0,0,0,0,0,0,0,0,0,0,0,0,0,0,0,0,0,0,0,0,0],"sum_hessian":[9.18E2,5.83E2,3.35E2,3.58E2,2.25E2,8.3E1,2.52E2,1.84E2,1.74E2,1.66E2,5.9E1,3.7E1,4.6E1,2.7E1,2.25E2,1.54E2,3E1,2.3E1,1.51E2,2.7E1,1.39E2,1E1,4.9E1,4E0,3.3E1,3E0,4.3E1,1.9E1,8E0,2E2,2.5E1],"tree_param":{"num_deleted":"0","num_feature":"8","num_nodes":"31","size_leaf_vector":"1"}},{"base_weights":[-7.0511997E-3,-3.3945575E-1,3.8944834E-1,1.9588673E-1,-4.26626E-1,1.3496424E-1,1.2112494E0,-8.210311E-2,1.6943871E0,-7.5424594E-1,-2.8960904E-1,-4.2989263E-1,2.1315873E-1,1.5197357E0,6.841726E-1,7.407985E-4,-7.213371E-2,1.266891E-1,4.26382E-2,-1.636564E-4,-4.9053412E-2,-2.935418E-2,-6.8605505E-3,1.5554982E-2,-4.2864617E-2,-4.701784E-2,1.2092507E-2,8.386908E-2,1.3282971E-2,2.6541514E-2,5.5964716E-2],"categories":[],"categories_nodes":[],"categories_segments":[],"categories_sizes":[],"default_left":[0,0,0,0,0,0,0,0,0,0,0,0,0,0,0,0,0,0,0,0,0,0,0,0,0,0,0,0,0,0,0],"id":14,"left_children":[1,3,5,7,9,11,13,15,17,19,21,23,25,27,29,-1,-1,-1,-1,-1,-1,-1,-1,-1,-1,-1,-1,-1,-1,-1,-1],"loss_changes":[1.1993682E2,2.3183208E1,8.662767E1,2.9298864E1,1.8904488E1,1.41372795E1,1.4894653E1,7.9332924E0,5.610283E0,2.1288956E1,1.3610474E1,1.2617998E1,9.494305E0,1.161409E1,1.9413013E0,0E0,0E0,0E0,0E0,0E0,0E0,0E0,0E0,0E0,0E0,0E0,0E0,0E0,0E0,0E0,0E0],"parents":[2147483647,0,0,1,1,2,2,3,3,4,4,5,5,6,6,7,7,8,8,9,9,10,10,11,11,12,12,13,13,14,14],"right_children":[2,4,6,8,10,12,14,16,18,20,22,24,26,28,30,-1,-1,-1,-1,-1,-1,-1,-1,-1,-1,-1,-1,-1,-1,-1,-1],"split_conditions":[3E-1,2E0,9.035E1,8.885E1,-1.4E0,-4.7E0,1E-1,8.93E1,-2E-1,-8E-1,1.3E0,-8.6E0,-9.996093E-1,9.23E1,-5.476112E-1,7.407985E-4,-7.213371E-2,1.266891E-1,4.26382E-2,-1.636564E-4,-4.9053412E-2,-2.935418E-2,-6.8605505E-3,1.5554982E-2,-4.2864617E-2,-4.701784E-2,1.2092507E-2,8.386908E-2,1.3282971E-2,2.6541514E-2,5.5964716E-2],"split_indices":[6,2,0,0,6,7,1,5,7,7,1,7,4,5,4,0,0,0,0,0,0,0,0,0,0,0,0,0,0,0,0],"split_type":[0,0,0,0,0,0,0,0,0,0,0,0,0,0,0,0,0,0,0,0,0,0,0,0,0,0,0,0,0,0,0],"sum_hessian":[9.08E2,4.94E2,4.14E2,6.9E1,4.25E2,3.17E2,9.7E1,5.9E1,1E1,1.24E2,3.01E2,3.8E1,2.79E2,6E1,3.7E1,5.6E1,3E0,4E0,6E0,2.9E1,9.5E1,1.01E2,2E2,1.4E1,2.4E1,6E0,2.73E2,5.3E1,7E0,2.9E1,8E0],"tree_param":{"num_deleted":"0","num_feature":"8","num_nodes":"31","size_leaf_vector":"1"}},{"base_weights":[-1.2931481E-2,-2.1793897E-1,6.394239E-1,-5.2250344E-1,1.5828082E-2,1.3419387E0,1.6091447E-1,2.2539912E-1,-5.648362E-1,-4.9328676E-1,9.741843E-2,1.4909469E0,1.4979501E-1,5.5916697E-1,-7.3665005E-1,4.72144E-2,-1.2628323E-2,2.2529423E-2,-2.996034E-2,5.847779E-2,-3.0585572E-2,2.213981E-3,3.7180003E-2,6.773013E-2,1.3499151E-1,-3.0698562E-2,2.5647689E-2,7.2457485E-2,2.1647997E-2,-1.1436043E-1,-2.7702391E-2],"categories":[],"categories_nodes":[],"categories_segments":[],"categories_sizes":[],"default_left":[0,0,0,0,0,0,0,0,0,0,0,0,0,0,0,0,0,0,0,0,0,0,0,0,0,0,0,0,0,0,0],"id":15,"left_children":[1,3,5,7,9,11,13,15,17,19,21,23,25,27,29,-1,-1,-1,-1,-1,-1,-1,-1,-1,-1,-1,-1,-1,-1,-1,-1],"loss_changes":[1.23044334E2,4.9846256E1,7.373925E1,9.752197E0,1.653898E1,1.5586548E1,4.759628E1,6.0797663E0,1.0321419E1,1.154612E1,1.1744774E1,9.363937E0,3.3659914E0,9.706211E0,1.0341328E1,0E0,0E0,0E0,0E0,0E0,0E0,0E0,0E0,0E0,0E0,0E0,0E0,0E0,0E0,0E0,0E0],"parents":[2147483647,0,0,1,1,2,2,3,3,4,4,5,5,6,6,7,7,8,8,9,9,10,10,11,11,12,12,13,13,14,14],"right_children":[2,4,6,8,10,12,14,16,18,20,22,24,26,28,30,-1,-1,-1,-1,-1,-1,-1,-1,-1,-1,-1,-1,-1,-1,-1,-1],"split_conditions":[8.89E1,-3.5E-1,1E-1,-8.665625E-1,-3.7E0,9.23E1,9.09E1,1.4E0,7.14E1,-1.5E-1,3.9E0,9.47E1,9.26E1,-1.9E0,-3.25E0,4.72144E-2,-1.2628323E-2,2.2529423E-2,-2.996034E-2,5.847779E-2,-3.0585572E-2,2.213981E-3,3.7180003E-2,6.773013E-2,1.3499151E-1,-3.0698562E-2,2.5647689E-2,7.2457485E-2,2.1647997E-2,-1.1436043E-1,-2.7702391E-2],"split_indices":[0,6,1,4,7,5,5,1,5,6,1,0,5,7,6,0,0,0,0,0,0,0,0,0,0,0,0,0,0,0,0],"split_type":[0,0,0,0,0,0,0,0,0,0,0,0,0,0,0,0,0,0,0,0,0,0,0,0,0,0,0,0,0,0,0],"sum_hessian":[9.18E2,6.99E2,2.19E2,3.03E2,3.96E2,8.8E1,1.31E2,1.6E1,2.87E2,5.4E1,3.42E2,7.8E1,1E1,9.1E1,4E1,6E0,1E1,9E0,2.78E2,3E0,5.1E1,3.17E2,2.5E1,7.2E1,6E0,3E0,7E0,1E1,8.1E1,3E0,3.7E1],"tree_param":{"num_deleted":"0","num_feature":"8","num_nodes":"31","size_leaf_vector":"1"}},{"base_weights":[1.2007074E-2,-2.7129224E-1,4.6230364E-1,-4.9230847E-1,-6.851945E-2,1.0788691E0,1.5865229E-1,-1.2422484E0,-4.5150557E-1,6.716368E-1,-1.262611E-1,5.888551E-1,1.6517925E0,3.338542E-1,-7.7846736E-1,-1.7694375E-2,-7.36684E-2,-1.0806824E-2,-3.182879E-2,8.0112554E-2,1.7920934E-2,-1.8108046E-2,2.0132556E-3,1.3111024E-2,9.124857E-2,1.3130713E-1,7.3380664E-2,2.3300877E-2,-1.944459E-2,-1.8487507E-2,-5.5369478E-2],"categories":[],"categories_nodes":[],"categories_segments":[],"categories_sizes":[],"default_left":[0,0,0,0,0,0,0,0,0,0,0,0,0,0,0,0,0,0,0,0,0,0,0,0,0,0,0,0,0,0,0],"id":16,"left_children":[1,3,5,7,9,11,13,15,17,19,21,23,25,27,29,-1,-1,-1,-1,-1,-1,-1,-1,-1,-1,-1,-1,-1,-1,-1,-1],"loss_changes":[1.14299416E2,2.4615112E1,6.46073E1,7.4868393E0,1.23933E1,3.1031738E1,3.8515034E1,2.1477242E0,1.0795933E1,5.546914E0,1.054256E1,2.4958235E1,5.4775085E0,1.8998772E1,4.56468E0,0E0,0E0,0E0,0E0,0E0,0E0,0E0,0E0,0E0,0E0,0E0,0E0,0E0,0E0,0E0,0E0],"parents":[2147483647,0,0,1,1,2,2,3,3,4,4,5,5,6,6,7,7,8,8,9,9,10,10,11,11,12,12,13,13,14,14],"right_children":[2,4,6,8,10,12,14,16,18,20,22,24,26,28,30,-1,-1,-1,-1,-1,-1,-1,-1,-1,-1,-1,-1,-1,-1,-1,-1],"split_conditions":[8.6E1,-3.5E-1,2E0,-9.6265197E-1,-2E-1,9.11E1,5.3222716E-1,-1.65E0,4.8784715E-1,4E-1,-8E-1,1.20126165E-1,-2E0,9.07E1,8.98E1,-1.7694375E-2,-7.36684E-2,-1.0806824E-2,-3.182879E-2,8.0112554E-2,1.7920934E-2,-1.8108046E-2,2.0132556E-3,1.3111024E-2,9.124857E-2,1.3130713E-1,7.3380664E-2,2.3300877E-2,-1.944459E-2,-1.8487507E-2,-5.5369478E-2],"split_indices":[0,6,2,3,6,0,3,6,3,1,7,3,7,5,5,0,0,0,0,0,0,0,0,0,0,0,0,0,0,0,0],"split_type":[0,0,0,0,0,0,0,0,0,0,0,0,0,0,0,0,0,0,0,0,0,0,0,0,0,0,0,0,0,0,0],"sum_hessian":[8.94E2,5.49E2,3.45E2,2.62E2,2.87E2,1.13E2,2.32E2,1.2E1,2.5E2,2E1,2.67E2,6.2E1,5.1E1,1.96E2,3.6E1,3E0,9E0,1.11E2,1.39E2,4E0,1.6E1,1.1E2,1.57E2,5E1,1.2E1,6E0,4.5E1,1.66E2,3E1,1.7E1,1.9E1],"tree_param":{"num_deleted":"0","num_feature":"8","num_nodes":"31","size_leaf_vector":"1"}},{"base_weights":[1.2670502E-2,-1.7022297E-1,6.155458E-1,-2.0258078E-2,-4.8559842E-1,1.2301326E0,1.8433602E-1,-1.690746E-1,2.2095448E-1,-1.1327972E-1,-6.986802E-1,9.717359E-1,2.1523125E0,5.3137946E-1,-4.5872885E-1,-1.98386E-2,2.6036354E-3,4.205234E-2,4.7731507E-3,-4.497443E-2,6.9054253E-3,-4.0233202E-2,3.51229E-3,3.7910577E-2,1.15549326E-1,1.3799165E-1,8.092832E-2,3.502662E-2,-1.6408816E-2,-5.090899E-2,-5.1339525E-3],"categories":[],"categories_nodes":[],"categories_segments":[],"categories_sizes":[],"default_left":[0,0,0,0,0,0,0,0,0,0,0,0,0,0,0,0,0,0,0,0,0,0,0,0,0,0,0,0,0,0,0],"id":17,"left_children":[1,3,5,7,9,11,13,15,17,19,21,23,25,27,29,-1,-1,-1,-1,-1,-1,-1,-1,-1,-1,-1,-1,-1,-1,-1,-1],"loss_changes":[9.9009766E1,3.2576584E1,5.5161537E1,1.683688E1,1.7533081E1,1.8401306E1,2.7917017E1,1.4623513E1,1.3848828E1,1.6331009E1,1.1547134E1,1.797921E1,1.3697357E0,1.2007008E1,8.659921E0,0E0,0E0,0E0,0E0,0E0,0E0,0E0,0E0,0E0,0E0,0E0,0E0,0E0,0E0,0E0,0E0],"parents":[2147483647,0,0,1,1,2,2,3,3,4,4,5,5,6,6,7,7,8,8,9,9,10,10,11,11,12,12,13,13,14,14],"right_children":[2,4,6,8,10,12,14,16,18,20,22,24,26,28,30,-1,-1,-1,-1,-1,-1,-1,-1,-1,-1,-1,-1,-1,-1,-1,-1],"split_conditions":[8.89E1,5.610336E-1,1E-1,8.43E1,7.945E1,5.1584367E-2,9.03E1,-3.574644E-1,8.39E1,7E-1,9.9410987E-1,9.47E1,1.8809941E-1,2.0496611E-1,1.9E0,-1.98386E-2,2.6036354E-3,4.205234E-2,4.7731507E-3,-4.497443E-2,6.9054253E-3,-4.0233202E-2,3.51229E-3,3.7910577E-2,1.15549326E-1,1.3799165E-1,8.092832E-2,3.502662E-2,-1.6408816E-2,-5.090899E-2,-5.1339525E-3],"split_indices":[0,3,1,0,0,3,5,3,5,1,3,0,3,3,1,0,0,0,0,0,0,0,0,0,0,0,0,0,0,0,0],"split_type":[0,0,0,0,0,0,0,0,0,0,0,0,0,0,0,0,0,0,0,0,0,0,0,0,0,0,0,0,0,0,0],"sum_hessian":[8.96E2,6.88E2,2.08E2,4.67E2,2.21E2,8.5E1,1.23E2,2.89E2,1.78E2,8.1E1,1.4E2,6.8E1,1.7E1,8E1,4.3E1,1.42E2,1.47E2,2.9E1,1.49E2,1.9E1,6.2E1,1.23E2,1.7E1,6E1,8E0,6E0,1.1E1,6.7E1,1.3E1,1.6E1,2.7E1],"tree_param":{"num_deleted":"0","num_feature":"8","num_nodes":"31","size_leaf_vector":"1"}},{"base_weights":[-7.171176E-3,-2.4020444E-1,3.9262834E-1,-4.5438018E-1,-4.6110094E-2,5.4163784E-1,-7.42209E-1,-4.84998E-2,-5.204088E-1,6.1423707E-1,-1.0155648E-1,4.5274222E-1,1.5524809E0,-1.10054724E-1,-9.492586E-1,-5.2931156E-2,8.044661E-3,-5.8459867E-2,-1.978916E-2,7.723228E-2,1.7546153E-2,-2.59262E-2,-5.3167547E-4,5.467097E-2,1.796845E-2,5.907898E-2,1.1422222E-1,-3.2121502E-2,8.494488E-3,-6.180517E-2,-1.2597933E-2],"categories":[],"categories_nodes":[],"categories_segments":[],"categories_sizes":[],"default_left":[0,0,0,0,0,0,0,0,0,0,0,0,0,0,0,0,0,0,0,0,0,0,0,0,0,0,0,0,0,0,0],"id":18,"left_children":[1,3,5,7,9,11,13,15,17,19,21,23,25,27,29,-1,-1,-1,-1,-1,-1,-1,-1,-1,-1,-1,-1,-1,-1,-1,-1],"loss_changes":[8.62734E1,2.4297672E1,5.8065624E1,7.4250717E0,1.1339451E1,2.64347E1,5.1310196E0,8.630835E0,1.8861763E1,5.337698E0,1.0799385E1,1.6297428E1,3.8164177E0,1.7485329E0,5.6890564E0,0E0,0E0,0E0,0E0,0E0,0E0,0E0,0E0,0E0,0E0,0E0,0E0,0E0,0E0,0E0,0E0],"parents":[2147483647,0,0,1,1,2,2,3,3,4,4,5,5,6,6,7,7,8,8,9,9,10,10,11,11,12,12,13,13,14,14],"right_children":[2,4,6,8,10,12,14,16,18,20,22,24,26,28,30,-1,-1,-1,-1,-1,-1,-1,-1,-1,-1,-1,-1,-1,-1,-1,-1],"split_conditions":[8.63E1,-3.5E-1,5.3222716E-1,2E-1,-2E-1,9.37E1,-8E-1,7.365E1,6E-1,4E-1,1.0751513E-3,-1.9E0,2.4E0,2E0,9.125E1,-5.2931156E-2,8.044661E-3,-5.8459867E-2,-1.978916E-2,7.723228E-2,1.7546153E-2,-2.59262E-2,-5.3167547E-4,5.467097E-2,1.796845E-2,5.907898E-2,1.1422222E-1,-3.2121502E-2,8.494488E-3,-6.180517E-2,-1.2597933E-2],"split_indices":[0,6,3,1,6,0,7,0,1,1,4,7,7,1,0,0,0,0,0,0,0,0,0,0,0,0,0,0,0,0,0],"split_type":[0,0,0,0,0,0,0,0,0,0,0,0,0,0,0,0,0,0,0,0,0,0,0,0,0,0,0,0,0,0,0],"sum_hessian":[9.24E2,5.84E2,3.4E2,2.77E2,3.07E2,3.01E2,3.9E1,3.9E1,2.38E2,2.3E1,2.84E2,2.78E2,2.3E1,1E1,2.9E1,6E0,3.3E1,3.7E1,2.01E2,4E0,1.9E1,5E1,2.34E2,3.4E1,2.44E2,1.7E1,6E0,3E0,7E0,2E1,9E0],"tree_param":{"num_deleted":"0","num_feature":"8","num_nodes":"31","size_leaf_vector":"1"}},{"base_weights":[2.8446186E-3,-1.02767184E-1,8.615785E-1,-4.0987697E-1,9.861021E-2,1.3974137E0,1.8752272E-1,-2.0999412E-1,-6.12226E-1,-6.78539E-2,3.222224E-1,1.17031E0,2.1994364E0,7.593821E-1,-2.2184215E-1,-8.222882E-3,-8.0347426E-2,-2.8206969E-2,-9.854246E-2,3.1562474E-2,-6.202948E-3,2.9546509E-2,2.3916322E-3,1.01643585E-1,4.927417E-2,4.3308284E-2,1.4187838E-1,8.85318E-3,4.7735285E-2,-3.6652293E-2,1.5991431E-3],"categories":[],"categories_nodes":[],"categories_segments":[],"categories_sizes":[],"default_left":[0,0,0,0,0,0,0,0,0,0,0,0,0,0,0,0,0,0,0,0,0,0,0,0,0,0,0,0,0,0,0],"id":19,"left_children":[1,3,5,7,9,11,13,15,17,19,21,23,25,27,29,-1,-1,-1,-1,-1,-1,-1,-1,-1,-1,-1,-1,-1,-1,-1,-1],"loss_changes":[8.198381E1,4.982562E1,3.549505E1,1.27737465E1,1.8149664E1,7.4438095E0,1.0702926E1,1.0040934E1,9.21056E0,1.1080392E1,1.5307713E1,5.170738E0,6.9010124E0,1.9920263E0,3.5268645E0,0E0,0E0,0E0,0E0,0E0,0E0,0E0,0E0,0E0,0E0,0E0,0E0,0E0,0E0,0E0,0E0],"parents":[2147483647,0,0,1,1,2,2,3,3,4,4,5,5,6,6,7,7,8,8,9,9,10,10,11,11,12,12,13,13,14,14],"right_children":[2,4,6,8,10,12,14,16,18,20,22,24,26,28,30,-1,-1,-1,-1,-1,-1,-1,-1,-1,-1,-1,-1,-1,-1,-1,-1],"split_conditions":[9.125E1,-3.5E-1,9.03E1,4.9346814E-1,8.52E1,9.4E1,2E0,9.2E1,9.04E1,-2E-1,8.74E1,-2.3E0,8.89E1,9.16E1,-8.3966464E-1,-8.222882E-3,-8.0347426E-2,-2.8206969E-2,-9.854246E-2,3.1562474E-2,-6.202948E-3,2.9546509E-2,2.3916322E-3,1.01643585E-1,4.927417E-2,4.3308284E-2,1.4187838E-1,8.85318E-3,4.7735285E-2,-3.6652293E-2,1.5991431E-3],"split_indices":[0,6,5,3,0,0,2,5,0,6,5,7,5,5,4,0,0,0,0,0,0,0,0,0,0,0,0,0,0,0,0],"split_type":[0,0,0,0,0,0,0,0,0,0,0,0,0,0,0,0,0,0,0,0,0,0,0,0,0,0,0,0,0,0,0],"sum_hessian":[9.02E2,8.04E2,9.8E1,3.18E2,4.86E2,5.4E1,4.4E1,1.61E2,1.57E2,2.79E2,2.07E2,4.4E1,1E1,1.8E1,2.6E1,1.57E2,4E0,1.53E2,4E0,2E1,2.59E2,1.04E2,1.03E2,6E0,3.8E1,4E0,6E0,5E0,1.3E1,8E0,1.8E1],"tree_param":{"num_deleted":"0","num_feature":"8","num_nodes":"31","size_leaf_vector":"1"}},{"base_weights":[-3.471932E-3,-3.1896484E-1,2.8972724E-1,-1.261716E-1,-5.479971E-1,1.2854147E-1,8.7278974E-1,2.628552E-1,-2.6595256E-1,3.3965252E-2,-6.1853087E-1,4.9259653E-3,3.4846812E-1,7.160697E-1,1.6899955E0,3.9331177E-3,7.826982E-2,-3.6852356E-2,-6.945339E-3,-3.2048304E-2,1.0489556E-2,-5.68932E-2,-2.7186215E-2,-1.2016362E-2,8.617036E-3,7.066624E-2,1.5691115E-2,9.329753E-2,2.7344776E-2,9.966243E-2,1.40962275E-2],"categories":[],"categories_nodes":[],"categories_segments":[],"categories_sizes":[],"default_left":[0,0,0,0,0,0,0,0,0,0,0,0,0,0,0,0,0,0,0,0,0,0,0,0,0,0,0,0,0,0,0],"id":20,"left_children":[1,3,5,7,9,11,13,15,17,19,21,23,25,27,29,-1,-1,-1,-1,-1,-1,-1,-1,-1,-1,-1,-1,-1,-1,-1,-1],"loss_changes":[8.584201E1,1.9668533E1,4.509285E1,1.333827E1,8.394798E0,1.027472E1,1.210939E1,1.54715805E1,1.0670722E1,2.8638875E0,6.451927E0,1.0018756E1,4.5738926E0,1.6292706E1,6.2700806E0,0E0,0E0,0E0,0E0,0E0,0E0,0E0,0E0,0E0,0E0,0E0,0E0,0E0,0E0,0E0,0E0],"parents":[2147483647,0,0,1,1,2,2,3,3,4,4,5,5,6,6,7,7,8,8,9,9,10,10,11,11,12,12,13,13,14,14],"right_children":[2,4,6,8,10,12,14,16,18,20,22,24,26,28,30,-1,-1,-1,-1,-1,-1,-1,-1,-1,-1,-1,-1,-1,-1,-1,-1],"split_conditions":[5E-2,4.8784715E-1,9.035E1,-9E-1,7.7E1,8E-1,2.5E0,9.005E1,-1.5E0,-5.2E0,-2.7E0,8.22E1,-9.975591E-1,-2E0,9.21E1,3.9331177E-3,7.826982E-2,-3.6852356E-2,-6.945339E-3,-3.2048304E-2,1.0489556E-2,-5.68932E-2,-2.7186215E-2,-1.2016362E-2,8.617036E-3,7.066624E-2,1.5691115E-2,9.329753E-2,2.7344776E-2,9.966243E-2,1.40962275E-2],"split_indices":[6,3,0,7,5,7,7,0,6,7,6,0,3,7,5,0,0,0,0,0,0,0,0,0,0,0,0,0,0,0,0],"split_type":[0,0,0,0,0,0,0,0,0,0,0,0,0,0,0,0,0,0,0,0,0,0,0,0,0,0,0,0,0,0,0],"sum_hessian":[9.26E2,4.46E2,4.8E2,2.43E2,2.03E2,3.77E2,1.03E2,6.4E1,1.79E2,2.2E1,1.81E2,2.42E2,1.35E2,8.8E1,1.5E1,5.7E1,7E0,3.7E1,1.42E2,4E0,1.8E1,2.1E1,1.6E2,9.8E1,1.44E2,3E0,1.32E2,1E1,7.8E1,1.2E1,3E0],"tree_param":{"num_deleted":"0","num_feature":"8","num_nodes":"31","size_leaf_vector":"1"}},{"base_weights":[3.8268296E-3,-9.249074E-2,8.1069314E-1,-3.6321065E-1,8.835985E-2,1.2712085E0,1.9209883E-1,-3.2450393E-1,-1.5655044E0,-7.696313E-2,2.601492E-1,1.074433E0,2.3175576E0,7.826182E-1,-2.2411071E-1,-8.858022E-3,-2.8931847E-2,-9.753634E-2,-2.4999468E-2,-1.3025462E-2,7.926847E-3,1.6866332E-2,-1.8345265E-2,9.642612E-2,4.667737E-2,1.4601631E-1,4.9235363E-2,-7.086006E-3,4.8846696E-2,-2.053636E-3,-4.1369595E-2],"categories":[],"categories_nodes":[],"categories_segments":[],"categories_sizes":[],"default_left":[0,0,0,0,0,0,0,0,0,0,0,0,0,0,0,0,0,0,0,0,0,0,0,0,0,0,0,0,0,0,0],"id":21,"left_children":[1,3,5,7,9,11,13,15,17,19,21,23,25,27,29,-1,-1,-1,-1,-1,-1,-1,-1,-1,-1,-1,-1,-1,-1,-1,-1],"loss_changes":[7.1417725E1,4.0228134E1,2.7673279E1,1.4802612E1,1.4021582E1,9.0401E0,1.0743923E1,1.1879841E1,3.129259E0,1.0934028E1,1.1835222E1,4.0957527E0,3.5515404E0,3.3714933E0,2.8370247E0,0E0,0E0,0E0,0E0,0E0,0E0,0E0,0E0,0E0,0E0,0E0,0E0,0E0,0E0,0E0,0E0],"parents":[2147483647,0,0,1,1,2,2,3,3,4,4,5,5,6,6,7,7,8,8,9,9,10,10,11,11,12,12,13,13,14,14],"right_children":[2,4,6,8,10,12,14,16,18,20,22,24,26,28,30,-1,-1,-1,-1,-1,-1,-1,-1,-1,-1,-1,-1,-1,-1,-1,-1],"split_conditions":[9.125E1,-3.5E-1,9.05E1,9.2E1,8.43E1,9.42E1,2E0,7.536977E-1,-2.2E0,8.33777E-1,8.98E1,-2.3E0,3E0,9.16E1,6.6126347E-1,-8.858022E-3,-2.8931847E-2,-9.753634E-2,-2.4999468E-2,-1.3025462E-2,7.926847E-3,1.6866332E-2,-1.8345265E-2,9.642612E-2,4.667737E-2,1.4601631E-1,4.9235363E-2,-7.086006E-3,4.8846696E-2,-2.053636E-3,-4.1369595E-2],"split_indices":[0,6,5,5,0,0,2,3,6,4,5,7,6,5,3,0,0,0,0,0,0,0,0,0,0,0,0,0,0,0,0],"split_type":[0,0,0,0,0,0,0,0,0,0,0,0,0,0,0,0,0,0,0,0,0,0,0,0,0,0,0,0,0,0,0],"sum_hessian":[9.17E2,8.2E2,9.7E1,3.28E2,4.92E2,5.5E1,4.2E1,3.19E2,9E0,2.51E2,2.41E2,4.8E1,7E0,1.7E1,2.5E1,2.03E2,1.16E2,6E0,3E0,1.41E2,1.1E2,2.15E2,2.6E1,5E0,4.3E1,4E0,3E0,3E0,1.4E1,2E1,5E0],"tree_param":{"num_deleted":"0","num_feature":"8","num_nodes":"31","size_leaf_vector":"1"}},{"base_weights":[1.4841654E-2,-1.00855365E-1,6.8234634E-1,-2.2673455E-1,1.1813078E-1,1.0739377E0,-2.6853345E-2,-4.8145812E-2,-4.610116E-1,3.8576624E-1,-1.4660788E-1,9.2965025E-1,1.8982629E0,6.8494105E-1,-4.2639852E-1,-9.926016E-3,1.2263636E-2,-1.979297E-2,-5.3659745E-2,7.856732E-3,4.1511476E-2,-2.178109E-3,-5.1494833E-2,7.045087E-2,3.725708E-2,4.345965E-2,1.3912337E-1,5.2591342E-2,-1.1206749E-2,-3.4564715E-2,-1.8220021E-3],"categories":[],"categories_nodes":[],"categories_segments":[],"categories_sizes":[],"default_left":[0,0,0,0,0,0,0,0,0,0,0,0,0,0,0,0,0,0,0,0,0,0,0,0,0,0,0,0,0,0,0],"id":22,"left_children":[1,3,5,7,9,11,13,15,17,19,21,23,25,27,29,-1,-1,-1,-1,-1,-1,-1,-1,-1,-1,-1,-1,-1,-1,-1,-1],"loss_changes":[7.057826E1,2.1500538E1,3.752055E1,2.0688234E1,2.024979E1,8.583031E0,1.4227365E1,1.2491284E1,8.110569E0,1.4299351E1,1.3061887E1,5.6720963E0,8.500401E0,6.239238E0,3.2803564E0,0E0,0E0,0E0,0E0,0E0,0E0,0E0,0E0,0E0,0E0,0E0,0E0,0E0,0E0,0E0,0E0],"parents":[2147483647,0,0,1,1,2,2,3,3,4,4,5,5,6,6,7,7,8,8,9,9,10,10,11,11,12,12,13,13,14,14],"right_children":[2,4,6,8,10,12,14,16,18,20,22,24,26,28,30,-1,-1,-1,-1,-1,-1,-1,-1,-1,-1,-1,-1,-1,-1,-1,-1],"split_conditions":[9.045E1,8.43E1,9.06E1,8.07E1,8.68E1,9.4E1,1E-1,1.7E0,3.1E0,8.71E1,6.350683E-1,8.82E1,7E-1,9.29E1,2.8E0,-9.926016E-3,1.2263636E-2,-1.979297E-2,-5.3659745E-2,7.856732E-3,4.1511476E-2,-2.178109E-3,-5.1494833E-2,7.045087E-2,3.725708E-2,4.345965E-2,1.3912337E-1,5.2591342E-2,-1.1206749E-2,-3.4564715E-2,-1.8220021E-3],"split_indices":[0,0,5,5,5,0,1,1,1,0,3,5,7,5,1,0,0,0,0,0,0,0,0,0,0,0,0,0,0,0,0],"split_type":[0,0,0,0,0,0,0,0,0,0,0,0,0,0,0,0,0,0,0,0,0,0,0,0,0,0,0,0,0,0,0],"sum_hessian":[9.12E2,7.78E2,1.34E2,4.94E2,2.84E2,8.6E1,4.8E1,2.81E2,2.13E2,1.41E2,1.43E2,7.5E1,1.1E1,1.7E1,3.1E1,1.86E2,9.5E1,1.94E2,1.9E1,9.4E1,4.7E1,1.29E2,1.4E1,1.9E1,5.6E1,6E0,5E0,1.2E1,5E0,1.8E1,1.3E1],"tree_param":{"num_deleted":"0","num_feature":"8","num_nodes":"31","size_leaf_vector":"1"}},{"base_weights":[-9.965592E-3,-1.6480583E-1,4.8159134E-1,-3.765269E-1,1.075926E-3,7.721285E-1,-2.295783E-1,5.617614E-1,-4.0378386E-1,-8.862517E-2,3.134708E-1,1.1883891E0,4.4169852E-1,-5.9655005E-1,4.9812E-1,4.548587E-2,-5.030647E-3,-1.2986588E-2,-2.7304051E-2,2.5200576E-2,-6.614429E-3,-4.1699205E-3,2.3299145E-2,5.07088E-2,1.1088832E-1,2.598649E-2,-6.634453E-2,-5.6616206E-2,-1.1855816E-2,1.1804151E-2,6.709146E-2],"categories":[],"categories_nodes":[],"categories_segments":[],"categories_sizes":[],"default_left":[0,0,0,0,0,0,0,0,0,0,0,0,0,0,0,0,0,0,0,0,0,0,0,0,0,0,0,0,0,0,0],"id":23,"left_children":[1,3,5,7,9,11,13,15,17,19,21,23,25,27,29,-1,-1,-1,-1,-1,-1,-1,-1,-1,-1,-1,-1,-1,-1,-1,-1],"loss_changes":[6.926589E1,2.4303904E1,4.52207E1,8.001602E0,1.0928404E1,2.0794556E1,1.7388016E1,2.1658237E0,5.9256363E0,7.9072657E0,5.304741E0,9.9453125E0,1.2834089E1,8.012244E0,4.5470424E0,0E0,0E0,0E0,0E0,0E0,0E0,0E0,0E0,0E0,0E0,0E0,0E0,0E0,0E0,0E0,0E0],"parents":[2147483647,0,0,1,1,2,2,3,3,4,4,5,5,6,6,7,7,8,8,9,9,10,10,11,11,12,12,13,13,14,14],"right_children":[2,4,6,8,10,12,14,16,18,20,22,24,26,28,30,-1,-1,-1,-1,-1,-1,-1,-1,-1,-1,-1,-1,-1,-1,-1,-1],"split_conditions":[8.89E1,-3.5E-1,9.07E1,7.14E1,1.8E0,2E0,9.5E-1,-1.15E0,4.9346814E-1,-2E-1,1E-1,2.2E0,6.300721E-1,9.125E1,9.47E1,4.548587E-2,-5.030647E-3,-1.2986588E-2,-2.7304051E-2,2.5200576E-2,-6.614429E-3,-4.1699205E-3,2.3299145E-2,5.07088E-2,1.1088832E-1,2.598649E-2,-6.634453E-2,-5.6616206E-2,-1.1855816E-2,1.1804151E-2,6.709146E-2],"split_indices":[0,6,5,5,7,2,6,6,3,6,6,7,3,0,0,0,0,0,0,0,0,0,0,0,0,0,0,0,0,0,0],"split_type":[0,0,0,0,0,0,0,0,0,0,0,0,0,0,0,0,0,0,0,0,0,0,0,0,0,0,0,0,0,0,0],"sum_hessian":[9.08E2,6.91E2,2.17E2,3.03E2,3.88E2,1.54E2,6.3E1,8E0,2.95E2,3.02E2,8.6E1,6.7E1,8.7E1,4.2E1,2.1E1,5E0,3E0,1.48E2,1.47E2,2E1,2.82E2,2.4E1,6.2E1,5.9E1,8E0,8.4E1,3E0,1.6E1,2.6E1,1.7E1,4E0],"tree_param":{"num_deleted":"0","num_feature":"8","num_nodes":"31","size_leaf_vector":"1"}},{"base_weights":[-3.9556324E-3,-2.3267815E-1,2.6680887E-1,-5.3913623E-2,-4.6799442E-1,5.6097824E-2,6.290318E-1,-1.1033702E-1,5.595862E-1,-2.087548E-1,-5.723635E-1,-9.366961E-2,2.3097923E-1,4.7190547E-1,1.3192463E0,-3.1023652E-3,-5.115344E-2,8.141394E-2,-9.5090605E-3,-4.1870475E-2,4.087088E-3,-3.140095E-2,3.5515453E-3,-1.0797862E-2,1.3290484E-2,-6.142005E-2,1.388502E-2,1.809837E-2,9.365486E-2,8.957188E-2,2.7018568E-2],"categories":[],"categories_nodes":[],"categories_segments":[],"categories_sizes":[],"default_left":[0,0,0,0,0,0,0,0,0,0,0,0,0,0,0,0,0,0,0,0,0,0,0,0,0,0,0,0,0,0,0],"id":24,"left_children":[1,3,5,7,9,11,13,15,17,19,21,23,25,27,29,-1,-1,-1,-1,-1,-1,-1,-1,-1,-1,-1,-1,-1,-1,-1,-1],"loss_changes":[5.6666042E1,2.0839603E1,3.1944622E1,9.857999E0,5.6706276E0,6.988585E0,1.6078865E1,1.1396166E1,1.9540167E1,1.1573639E1,5.487488E0,6.3876247E0,8.727756E0,1.888563E1,9.329739E0,0E0,0E0,0E0,0E0,0E0,0E0,0E0,0E0,0E0,0E0,0E0,0E0,0E0,0E0,0E0,0E0],"parents":[2147483647,0,0,1,1,2,2,3,3,4,4,5,5,6,6,7,7,8,8,9,9,10,10,11,11,12,12,13,13,14,14],"right_children":[2,4,6,8,10,12,14,16,18,20,22,24,26,28,30,-1,-1,-1,-1,-1,-1,-1,-1,-1,-1,-1,-1,-1,-1,-1,-1],"split_conditions":[2.5E-1,4.9346814E-1,8.87E1,9.125E1,7.91E1,1.6E0,-2.1501373E-2,9.07E1,9.03E1,7E-1,9.9410987E-1,8.545E1,-9.997203E-1,9.47E1,8.8E1,-3.1023652E-3,-5.115344E-2,8.141394E-2,-9.5090605E-3,-4.1870475E-2,4.087088E-3,-3.140095E-2,3.5515453E-3,-1.0797862E-2,1.3290484E-2,-6.142005E-2,1.388502E-2,1.809837E-2,9.365486E-2,8.957188E-2,2.7018568E-2],"split_indices":[6,3,0,0,0,1,3,5,5,1,3,0,4,0,5,0,0,0,0,0,0,0,0,0,0,0,0,0,0,0,0],"split_type":[0,0,0,0,0,0,0,0,0,0,0,0,0,0,0,0,0,0,0,0,0,0,0,0,0,0,0,0,0,0,0],"sum_hessian":[9.13E2,4.95E2,4.18E2,2.82E2,2.13E2,2.65E2,1.53E2,2.59E2,2.3E1,6.2E1,1.51E2,1.43E2,1.22E2,1.26E2,2.7E1,2.47E2,1.2E1,9E0,1.4E1,1.9E1,4.3E1,1.39E2,1.2E1,1.07E2,3.6E1,3E0,1.19E2,1.18E2,8E0,1.6E1,1.1E1],"tree_param":{"num_deleted":"0","num_feature":"8","num_nodes":"31","size_leaf_vector":"1"}},{"base_weights":[1.0635934E-2,-7.270708E-2,7.044856E-1,-3.055717E-1,8.443466E-2,9.5719117E-1,-3.2892573E-1,-2.585116E-1,-8.4406024E-1,-5.1447175E-2,2.586546E-1,1.0640182E0,-1.2390134E-1,-4.3730095E-2,-3.2592963E-2,-1.49529595E-2,1.2493836E-2,-5.277272E-2,1.2744292E-2,-5.163894E-4,-4.7589324E-2,2.5180189E-2,3.1290536E-3,4.4020105E-2,9.54366E-2,1.3302033E-2,-2.0553734E-2,1.3174221E-2,-3.0911459E-2],"categories":[],"categories_nodes":[],"categories_segments":[],"categories_sizes":[],"default_left":[0,0,0,0,0,0,0,0,0,0,0,0,0,0,0,0,0,0,0,0,0,0,0,0,0,0,0,0,0],"id":25,"left_children":[1,3,5,7,9,11,13,15,17,19,21,23,25,-1,27,-1,-1,-1,-1,-1,-1,-1,-1,-1,-1,-1,-1,-1,-1],"loss_changes":[5.2847744E1,2.9885487E1,2.5907425E1,8.119097E0,1.1565889E1,9.255539E0,3.2055287E0,6.34136E0,6.309101E0,1.0171056E1,1.0246486E1,9.486969E0,1.0052102E0,0E0,2.5904047E0,0E0,0E0,0E0,0E0,0E0,0E0,0E0,0E0,0E0,0E0,0E0,0E0,0E0,0E0],"parents":[2147483647,0,0,1,1,2,2,3,3,4,4,5,5,6,6,7,7,8,8,9,9,10,10,11,11,12,12,14,14],"right_children":[2,4,6,8,10,12,14,16,18,20,22,24,26,-1,28,-1,-1,-1,-1,-1,-1,-1,-1,-1,-1,-1,-1,-1,-1],"split_conditions":[9.125E1,-3.5E-1,9.29E1,9.01E1,8.52E1,2.5518242E-1,6E-1,8.84E1,3.8E0,8.66E1,8.68E1,9.44E1,1.8E0,-4.3730095E-2,6.6126347E-1,-1.49529595E-2,1.2493836E-2,-5.277272E-2,1.2744292E-2,-5.163894E-4,-4.7589324E-2,2.5180189E-2,3.1290536E-3,4.4020105E-2,9.54366E-2,1.3302033E-2,-2.0553734E-2,1.3174221E-2,-3.0911459E-2],"split_indices":[0,6,5,5,0,3,7,5,1,5,5,0,1,0,3,0,0,0,0,0,0,0,0,0,0,0,0,0,0],"split_type":[0,0,0,0,0,0,0,0,0,0,0,0,0,0,0,0,0,0,0,0,0,0,0,0,0,0,0,0,0],"sum_hessian":[9.12E2,8.15E2,9.7E1,3.28E2,4.87E2,7.8E1,1.9E1,3.03E2,2.5E1,2.74E2,2.13E2,7.1E1,7E0,6E0,1.3E1,2.81E2,2.2E1,2.1E1,4E0,2.63E2,1.1E1,9.4E1,1.19E2,6E1,1.1E1,3E0,4E0,9E0,4E0],"tree_param":{"num_deleted":"0","num_feature":"8","num_nodes":"29","size_leaf_vector":"1"}},{"base_weights":[1.36070335E-2,-7.1186215E-2,6.9944835E-1,-3.0622178E-1,7.69774E-2,1.1039019E0,1.5960065E-1,-2.5322464E-1,-1.1129556E0,-9.478253E-2,1.9393189E-1,9.0213716E-1,1.7174027E0,4.8030892E-1,-2.4926475E-1,-5.646994E-3,-2.3908526E-2,-6.9732495E-2,-2.154076E-2,6.2530073E-3,-1.7689617E-2,6.1311782E-3,3.374255E-2,5.5945206E-2,2.7330955E-2,1.1901665E-1,4.045645E-2,3.4141585E-3,5.457596E-2,-2.7777571E-2,5.628854E-3],"categories":[],"categories_nodes":[],"categories_segments":[],"categories_sizes":[],"default_left":[0,0,0,0,0,0,0,0,0,0,0,0,0,0,0,0,0,0,0,0,0,0,0,0,0,0,0,0,0,0,0],"id":26,"left_children":[1,3,5,7,9,11,13,15,17,19,21,23,25,27,29,-1,-1,-1,-1,-1,-1,-1,-1,-1,-1,-1,-1,-1,-1,-1,-1],"loss_changes":[5.2854275E1,2.8195961E1,2.1658146E1,1.3100361E1,1.0002165E1,5.5062866E0,5.889292E0,9.255157E0,3.050108E0,1.154641E1,1.0068133E1,2.856289E0,5.9015923E0,6.221327E0,2.2790892E0,0E0,0E0,0E0,0E0,0E0,0E0,0E0,0E0,0E0,0E0,0E0,0E0,0E0,0E0,0E0,0E0],"parents":[2147483647,0,0,1,1,2,2,3,3,4,4,5,5,6,6,7,7,8,8,9,9,10,10,11,11,12,12,13,13,14,14],"right_children":[2,4,6,8,10,12,14,16,18,20,22,24,26,28,30,-1,-1,-1,-1,-1,-1,-1,-1,-1,-1,-1,-1,-1,-1,-1,-1],"split_conditions":[9.125E1,-4E-1,9.05E1,9.07E1,8.205E1,9.4E1,9.29E1,7.187919E-1,-7.3430425E-1,7.8E1,3.9E0,1.4E0,3.25E0,9.18E1,1.4E0,-5.646994E-3,-2.3908526E-2,-6.9732495E-2,-2.154076E-2,6.2530073E-3,-1.7689617E-2,6.1311782E-3,3.374255E-2,5.5945206E-2,2.7330955E-2,1.1901665E-1,4.045645E-2,3.4141585E-3,5.457596E-2,-2.7777571E-2,5.628854E-3],"split_indices":[0,6,5,5,0,0,5,3,4,0,1,1,6,5,1,0,0,0,0,0,0,0,0,0,0,0,0,0,0,0,0],"split_type":[0,0,0,0,0,0,0,0,0,0,0,0,0,0,0,0,0,0,0,0,0,0,0,0,0,0,0,0,0,0,0],"sum_hessian":[9.07E2,8.08E2,9.9E1,3.12E2,4.96E2,5.6E1,4.3E1,2.94E2,1.8E1,2.01E2,2.95E2,4.4E1,1.2E1,2.4E1,1.9E1,1.82E2,1.12E2,1.2E1,6E0,1.09E2,9.2E1,2.58E2,3.7E1,2.6E1,1.8E1,6E0,6E0,1.5E1,9E0,1E1,9E0],"tree_param":{"num_deleted":"0","num_feature":"8","num_nodes":"31","size_leaf_vector":"1"}},{"base_weights":[-5.036195E-3,-7.7999204E-2,6.209627E-1,-2.3048131E-1,1.2626195E-1,9.501169E-1,2.1784948E-1,-1.0896381E-1,-3.852551E-1,4.966211E-2,6.0557216E-1,1.7253195E0,7.911894E-1,-2.8762192E-1,5.788536E-1,-8.124526E-3,2.154216E-2,-1.111323E-2,-2.9971633E-2,-5.9048072E-3,1.0910123E-2,8.571283E-3,4.3017294E-2,4.1819435E-2,1.0457001E-1,3.1881656E-2,9.460562E-2,-3.228649E-2,9.101178E-3,3.90168E-2,-3.975186E-3],"categories":[],"categories_nodes":[],"categories_segments":[],"categories_sizes":[],"default_left":[0,0,0,0,0,0,0,0,0,0,0,0,0,0,0,0,0,0,0,0,0,0,0,0,0,0,0,0,0,0,0],"id":27,"left_children":[1,3,5,7,9,11,13,15,17,19,21,23,25,27,29,-1,-1,-1,-1,-1,-1,-1,-1,-1,-1,-1,-1,-1,-1,-1,-1],"loss_changes":[4.156679E1,2.5413233E1,1.2398228E1,8.741228E0,1.2783493E1,5.041401E0,8.195491E0,7.6691523E0,7.0230923E0,8.564528E0,5.161751E0,8.5414124E-1,6.400934E0,3.3130293E0,3.510871E0,0E0,0E0,0E0,0E0,0E0,0E0,0E0,0E0,0E0,0E0,0E0,0E0,0E0,0E0,0E0,0E0],"parents":[2147483647,0,0,1,1,2,2,3,3,4,4,5,5,6,6,7,7,8,8,9,9,10,10,11,11,12,12,13,13,14,14],"right_children":[2,4,6,8,10,12,14,16,18,20,22,24,26,28,30,-1,-1,-1,-1,-1,-1,-1,-1,-1,-1,-1,-1,-1,-1,-1,-1],"split_conditions":[9.125E1,2.5E-1,1E-1,4.9346814E-1,2.3E0,-2E0,2.5E0,3.2105765E-1,8.185E1,8.52E1,-2.5933826E-1,-3.4E0,9.6E1,-6.9831014E-1,-1.09445766E-1,-8.124526E-3,2.154216E-2,-1.111323E-2,-2.9971633E-2,-5.9048072E-3,1.0910123E-2,8.571283E-3,4.3017294E-2,4.1819435E-2,1.0457001E-1,3.1881656E-2,9.460562E-2,-3.228649E-2,9.101178E-3,3.90168E-2,-3.975186E-3],"split_indices":[0,6,1,3,7,7,1,3,0,0,3,7,0,4,3,0,0,0,0,0,0,0,0,0,0,0,0,0,0,0,0],"split_type":[0,0,0,0,0,0,0,0,0,0,0,0,0,0,0,0,0,0,0,0,0,0,0,0,0,0,0,0,0,0,0],"sum_hessian":[9.08E2,8.14E2,9.4E1,4.66E2,3.48E2,5.1E1,4.3E1,2.62E2,2.04E2,3.01E2,4.7E1,7E0,4.4E1,1.8E1,2.5E1,2.39E2,2.3E1,1.17E2,8.7E1,1.51E2,1.5E2,1.8E1,2.9E1,3E0,4E0,4E1,4E0,1E1,8E0,1.9E1,6E0],"tree_param":{"num_deleted":"0","num_feature":"8","num_nodes":"31","size_leaf_vector":"1"}},{"base_weights":[-2.2922002E-3,-1.1333111E-1,3.7449658E-1,-3.8440827E-1,-1.3573614E-2,8.535171E-1,4.4315923E-2,-4.7018614E-2,-4.7527698E-1,-1.4670423E-1,1.2763143E-1,6.0452473E-1,1.4876045E0,-8.4309036E-1,1.753732E-1,-3.9554637E-2,1.09262215E-2,-2.6103718E-2,1.1136692E-2,-1.7641876E-2,6.593534E-3,-7.7466057E-3,1.3751337E-2,6.781798E-2,2.0788452E-2,2.9791797E-2,8.2199275E-2,-8.747343E-2,-6.2158327E-3,1.2241499E-2,-6.5220125E-2],"categories":[],"categories_nodes":[],"categories_segments":[],"categories_sizes":[],"default_left":[0,0,0,0,0,0,0,0,0,0,0,0,0,0,0,0,0,0,0,0,0,0,0,0,0,0,0,0,0,0,0],"id":28,"left_children":[1,3,5,7,9,11,13,15,17,19,21,23,25,27,29,-1,-1,-1,-1,-1,-1,-1,-1,-1,-1,-1,-1,-1,-1,-1,-1],"loss_changes":[3.786419E1,1.8897125E1,3.2543816E1,5.741392E0,9.643664E0,1.2362869E1,1.4452884E1,8.273805E0,4.9507103E0,1.5206347E1,1.0413097E1,8.23468E0,2.227932E0,1.0206205E1,1.1419646E1,0E0,0E0,0E0,0E0,0E0,0E0,0E0,0E0,0E0,0E0,0E0,0E0,0E0,0E0,0E0,0E0],"parents":[2147483647,0,0,1,1,2,2,3,3,4,4,5,5,6,6,7,7,8,8,9,9,10,10,11,11,12,12,13,13,14,14],"right_children":[2,4,6,8,10,12,14,16,18,20,22,24,26,28,30,-1,-1,-1,-1,-1,-1,-1,-1,-1,-1,-1,-1,-1,-1,-1,-1],"split_conditions":[8.89E1,-9.5E-1,1E-1,-1.3E0,1.6E0,-1.09445766E-1,-1.7E0,-5E0,9.750985E-1,8.235E1,-2.3746832E-1,1.5E-1,-9.980563E-1,9.125E1,6.300721E-1,-3.9554637E-2,1.09262215E-2,-2.6103718E-2,1.1136692E-2,-1.7641876E-2,6.593534E-3,-7.7466057E-3,1.3751337E-2,6.781798E-2,2.0788452E-2,2.9791797E-2,8.2199275E-2,-8.747343E-2,-6.2158327E-3,1.2241499E-2,-6.5220125E-2],"split_indices":[0,6,1,7,1,3,6,7,4,0,4,6,4,0,3,0,0,0,0,0,0,0,0,0,0,0,0,0,0,0,0],"split_type":[0,0,0,0,0,0,0,0,0,0,0,0,0,0,0,0,0,0,0,0,0,0,0,0,0,0,0,0,0,0,0],"sum_hessian":[9.03E2,6.98E2,2.05E2,1.87E2,5.11E2,8.3E1,1.22E2,4E1,1.47E2,2.63E2,2.48E2,6.1E1,2.2E1,1.5E1,1.07E2,1E1,3E1,1.38E2,9E0,1.51E2,1.12E2,8.5E1,1.63E2,1.1E1,5E1,4E0,1.8E1,6E0,9E0,1.03E2,4E0],"tree_param":{"num_deleted":"0","num_feature":"8","num_nodes":"31","size_leaf_vector":"1"}},{"base_weights":[-3.0401873E-3,3.0282146E-1,-1.0394776E-1,6.285262E-1,7.861655E-2,-3.3777717E-1,4.8996136E-2,4.2659286E-1,1.2516508E0,-5.871052E-1,2.5048316E-1,4.445078E-1,-3.9519075E-1,1.7268215E-1,-1.3571532E-1,-2.02607E-2,2.5480455E-2,1.1595213E-1,4.4280853E-2,1.2320673E-2,-4.3833937E-2,1.5765378E-2,-5.7398062E-2,3.3581734E-2,-2.04002E-3,1.1598606E-2,-2.2067534E-2,-4.311191E-2,9.6549075E-3,-1.8600693E-2,7.6058E-3],"categories":[],"categories_nodes":[],"categories_segments":[],"categories_sizes":[],"default_left":[0,0,0,0,0,0,0,0,0,0,0,0,0,0,0,0,0,0,0,0,0,0,0,0,0,0,0,0,0,0,0],"id":29,"left_children":[1,3,5,7,9,11,13,15,17,19,21,23,25,27,29,-1,-1,-1,-1,-1,-1,-1,-1,-1,-1,-1,-1,-1,-1,-1,-1],"loss_changes":[2.8117493E1,1.645415E1,2.4514057E1,1.1042381E1,1.5593129E1,1.23473E1,9.504619E0,5.109297E0,6.541649E0,6.974243E0,1.0152521E1,2.1217072E0,7.4266777E0,5.427602E0,1.14149475E1,0E0,0E0,0E0,0E0,0E0,0E0,0E0,0E0,0E0,0E0,0E0,0E0,0E0,0E0,0E0,0E0],"parents":[2147483647,0,0,1,1,2,2,3,3,4,4,5,5,6,6,7,7,8,8,9,9,10,10,11,11,12,12,13,13,14,14],"right_children":[2,4,6,8,10,12,14,16,18,20,22,24,26,28,30,-1,-1,-1,-1,-1,-1,-1,-1,-1,-1,-1,-1,-1,-1,-1,-1],"split_conditions":[2E0,-3.5243872E-1,1.6E0,1.20126165E-1,-2.3E0,7.04E1,3.6948368E-1,8.68E1,1.8809941E-1,-9.527693E-1,9.04E1,9.2107797E-1,-8.832167E-1,-9.997203E-1,1.2E0,-2.02607E-2,2.5480455E-2,1.1595213E-1,4.4280853E-2,1.2320673E-2,-4.3833937E-2,1.5765378E-2,-5.7398062E-2,3.3581734E-2,-2.04002E-3,1.1598606E-2,-2.2067534E-2,-4.311191E-2,9.6549075E-3,-1.8600693E-2,7.6058E-3],"split_indices":[2,4,1,3,7,5,3,5,3,3,5,4,4,4,7,0,0,0,0,0,0,0,0,0,0,0,0,0,0,0,0],"split_type":[0,0,0,0,0,0,0,0,0,0,0,0,0,0,0,0,0,0,0,0,0,0,0,0,0,0,0,0,0,0,0],"sum_hessian":[9.09E2,2.25E2,6.84E2,9.1E1,1.34E2,2.7E2,4.14E2,7E1,2.1E1,2.7E1,1.07E2,1.8E1,2.52E2,2.48E2,1.66E2,6E0,6.4E1,4E0,1.7E1,7E0,2E1,1.03E2,4E0,1.2E1,6E0,1.7E1,2.35E2,4E0,2.44E2,9.1E1,7.5E1],"tree_param":{"num_deleted":"0","num_feature":"8","num_nodes":"31","size_leaf_vector":"1"}},{"base_weights":[1.1249358E-2,-1.2624447E-1,2.9545796E-1,-1.1433059E-2,-3.303596E-1,7.6953247E-3,4.7213995E-1,-5.4601498E-2,5.3377664E-1,-8.313177E-1,-2.3162386E-1,-3.246506E-1,4.2460597E-1,4.2309192E-1,9.283582E-2,-5.641414E-4,-2.6969729E-2,7.383102E-2,-2.0086898E-3,-7.716501E-2,-2.4906032E-2,9.378228E-3,-1.8939385E-2,-7.140595E-3,-8.924677E-2,4.1614104E-2,9.814451E-3,3.5795826E-2,1.1862708E-2],"categories":[],"categories_nodes":[],"categories_segments":[],"categories_sizes":[],"default_left":[0,0,0,0,0,0,0,0,0,0,0,0,0,0,0,0,0,0,0,0,0,0,0,0,0,0,0,0,0],"id":30,"left_children":[1,3,5,7,9,11,13,15,17,19,21,23,25,27,-1,-1,-1,-1,-1,-1,-1,-1,-1,-1,-1,-1,-1,-1,-1],"loss_changes":[3.5597305E1,1.4385159E1,1.5096584E1,9.302271E0,1.0738657E1,1.5933524E1,1.1710014E1,7.68013E0,1.5752546E1,7.7715473E0,1.1545271E1,1.6739412E1,4.583679E0,9.570946E0,0E0,0E0,0E0,0E0,0E0,0E0,0E0,0E0,0E0,0E0,0E0,0E0,0E0,0E0,0E0],"parents":[2147483647,0,0,1,1,2,2,3,3,4,4,5,5,6,6,7,7,8,8,9,9,10,10,11,11,12,12,13,13],"right_children":[2,4,6,8,10,12,14,16,18,20,22,24,26,28,-1,-1,-1,-1,-1,-1,-1,-1,-1,-1,-1,-1,-1,-1,-1],"split_conditions":[8E-1,5.7518995E-1,8.565E1,9.17E1,7E-1,1.7201575E-2,9.6E1,8.98E1,9.03E1,-5E-1,7.91E1,8.63E1,7.325E1,8.76E1,9.283582E-2,-5.641414E-4,-2.6969729E-2,7.383102E-2,-2.0086898E-3,-7.716501E-2,-2.4906032E-2,9.378228E-3,-1.8939385E-2,-7.140595E-3,-8.924677E-2,4.1614104E-2,9.814451E-3,3.5795826E-2,1.1862708E-2],"split_indices":[6,3,0,0,1,3,0,5,5,7,0,5,0,5,0,0,0,0,0,0,0,0,0,0,0,0,0,0,0],"split_type":[0,0,0,0,0,0,0,0,0,0,0,0,0,0,0,0,0,0,0,0,0,0,0,0,0,0,0,0,0],"sum_hessian":[9.09E2,6.13E2,2.96E2,3.93E2,2.2E2,1.13E2,1.83E2,3.65E2,2.8E1,3.5E1,1.85E2,6.3E1,5E1,1.78E2,5E0,3.36E2,2.9E1,1E1,1.8E1,1E1,2.5E1,4.8E1,1.37E2,5.7E1,6E0,1.7E1,3.3E1,6.8E1,1.1E2],"tree_param":{"num_deleted":"0","num_feature":"8","num_nodes":"29","size_leaf_vector":"1"}},{"base_weights":[1.5785197E-2,-5.2737854E-2,5.651469E-1,-2.4244438E-1,7.58924E-2,8.764109E-1,7.307912E-2,-2.1176347E-1,-1.1240963E0,5.224458E-1,4.167615E-2,6.991216E-1,1.5045142E0,3.2725686E-1,-3.8931274E-1,3.7821308E-3,-1.3605036E-2,-7.904997E-2,-1.2980635E-2,-2.2436472E-2,3.3111695E-2,1.4664519E-3,7.194139E-2,6.0854144E-2,2.7155234E-2,1.06878E-1,3.2826893E-2,-3.6581926E-4,4.4838153E-2,-4.536626E-2,-1.9787003E-3],"categories":[],"categories_nodes":[],"categories_segments":[],"categories_sizes":[],"default_left":[0,0,0,0,0,0,0,0,0,0,0,0,0,0,0,0,0,0,0,0,0,0,0,0,0,0,0,0,0,0,0],"id":31,"left_children":[1,3,5,7,9,11,13,15,17,19,21,23,25,27,29,-1,-1,-1,-1,-1,-1,-1,-1,-1,-1,-1,-1,-1,-1,-1,-1],"loss_changes":[3.4963387E1,2.0174452E1,1.5711739E1,8.7966175E0,7.5109644E0,5.9635887E0,4.946124E0,5.639162E0,3.934391E0,5.0487175E0,7.875912E0,3.4603462E0,5.5751114E0,5.1511817E0,2.681629E0,0E0,0E0,0E0,0E0,0E0,0E0,0E0,0E0,0E0,0E0,0E0,0E0,0E0,0E0,0E0,0E0],"parents":[2147483647,0,0,1,1,2,2,3,3,4,4,5,5,6,6,7,7,8,8,9,9,10,10,11,11,12,12,13,13,14,14],"right_children":[2,4,6,8,10,12,14,16,18,20,22,24,26,28,30,-1,-1,-1,-1,-1,-1,-1,-1,-1,-1,-1,-1,-1,-1,-1,-1],"split_conditions":[9.125E1,-3.5E-1,9.05E1,9.2E1,-9.8787266E-1,9.4E1,9.29E1,-7.036774E-1,-2.2E0,8.52E1,6.2E0,3.5E-1,3.25E0,9.2E1,-1.45E0,3.7821308E-3,-1.3605036E-2,-7.904997E-2,-1.2980635E-2,-2.2436472E-2,3.3111695E-2,1.4664519E-3,7.194139E-2,6.0854144E-2,2.7155234E-2,1.06878E-1,3.2826893E-2,-3.6581926E-4,4.4838153E-2,-4.536626E-2,-1.9787003E-3],"split_indices":[0,6,5,5,3,0,5,3,6,0,6,6,6,5,6,0,0,0,0,0,0,0,0,0,0,0,0,0,0,0,0],"split_type":[0,0,0,0,0,0,0,0,0,0,0,0,0,0,0,0,0,0,0,0,0,0,0,0,0,0,0,0,0,0,0],"sum_hessian":[9.27E2,8.25E2,1.02E2,3.33E2,4.92E2,6.2E1,4E1,3.23E2,1E1,3.4E1,4.58E2,5E1,1.2E1,2.6E1,1.4E1,5.6E1,2.67E2,6E0,4E0,4E0,3E1,4.55E2,3E0,1E1,4E1,6E0,6E0,1.7E1,9E0,5E0,9E0],"tree_param":{"num_deleted":"0","num_feature":"8","num_nodes":"31","size_leaf_vector":"1"}},{"base_weights":[3.2768592E-3,-1.3724616E-1,2.2151016E-1,-2.410704E-1,7.396954E-2,5.7977235E-1,3.615363E-2,-3.891199E-1,-5.8098596E-2,1.1519094E-1,-9.847988E-1,4.351735E-1,1.2545013E0,4.7713256E-1,-8.430669E-2,-2.5179809E-2,-5.4374207E-3,-1.961052E-4,-5.073904E-2,3.3944985E-4,2.6405338E-2,-9.8709434E-2,1.2539539E-2,1.5517249E-2,6.727628E-2,1.0790028E-1,4.5748536E-2,5.7729583E-2,1.5223624E-2,1.4130468E-2,-1.5062714E-2],"categories":[],"categories_nodes":[],"categories_segments":[],"categories_sizes":[],"default_left":[0,0,0,0,0,0,0,0,0,0,0,0,0,0,0,0,0,0,0,0,0,0,0,0,0,0,0,0,0,0,0],"id":32,"left_children":[1,3,5,7,9,11,13,15,17,19,21,23,25,27,29,-1,-1,-1,-1,-1,-1,-1,-1,-1,-1,-1,-1,-1,-1,-1,-1],"loss_changes":[2.8029192E1,1.2210527E1,2.3752474E1,1.0081545E1,8.143919E0,1.135701E1,1.2629775E1,6.556988E0,8.703407E0,7.963851E0,9.052467E0,1.1173491E1,4.467602E0,5.6139355E0,1.4970625E1,0E0,0E0,0E0,0E0,0E0,0E0,0E0,0E0,0E0,0E0,0E0,0E0,0E0,0E0,0E0,0E0],"parents":[2147483647,0,0,1,1,2,2,3,3,4,4,5,5,6,6,7,7,8,8,9,9,10,10,11,11,12,12,13,13,14,14],"right_children":[2,4,6,8,10,12,14,16,18,20,22,24,26,28,30,-1,-1,-1,-1,-1,-1,-1,-1,-1,-1,-1,-1,-1,-1,-1,-1],"split_conditions":[8.59E1,8.33777E-1,2E-1,1.6E0,3.7E0,1.20126165E-1,-8.605997E-1,8.305E1,8.79E1,3.3122122E-1,7.815E1,9.44E1,1.8809941E-1,8.53E1,-9.252111E-1,-2.5179809E-2,-5.4374207E-3,-1.961052E-4,-5.073904E-2,3.3944985E-4,2.6405338E-2,-9.8709434E-2,1.2539539E-2,1.5517249E-2,6.727628E-2,1.0790028E-1,4.5748536E-2,5.7729583E-2,1.5223624E-2,1.4130468E-2,-1.5062714E-2],"split_indices":[0,4,1,1,1,3,3,0,5,3,0,0,3,5,4,0,0,0,0,0,0,0,0,0,0,0,0,0,0,0,0],"split_type":[0,0,0,0,0,0,0,0,0,0,0,0,0,0,0,0,0,0,0,0,0,0,0,0,0,0,0,0,0,0,0],"sum_hessian":[9.12E2,5.55E2,3.57E2,3.72E2,1.83E2,1.21E2,2.36E2,2.05E2,1.67E2,1.77E2,6E0,1.01E2,2E1,5E1,1.86E2,1.45E2,6E1,1.59E2,8E0,1.41E2,3.6E1,3E0,3E0,9E1,1.1E1,4E0,1.6E1,9E0,4.1E1,6.9E1,1.17E2],"tree_param":{"num_deleted":"0","num_feature":"8","num_nodes":"31","size_leaf_vector":"1"}},{"base_weights":[1.8828964E-2,-4.2215098E-2,5.238076E-1,-2.1675453E-1,7.859595E-2,9.063359E-1,-7.80954E-3,4.356481E-2,-2.3267983E-1,3.229561E-1,2.0601792E-2,9.852692E-1,-5.581238E-3,2.6599848E-1,-3.222983E-1,-4.007573E-2,-9.755452E-3,-2.50357E-2,1.880244E-2,-2.3679739E-2,4.6608583E-3,4.040916E-2,7.939723E-2,-9.672063E-3,3.9239552E-2,-9.162943E-3,-4.1632067E-2],"categories":[],"categories_nodes":[],"categories_segments":[],"categories_sizes":[],"default_left":[0,0,0,0,0,0,0,0,0,0,0,0,0,0,0,0,0,0,0,0,0,0,0,0,0,0,0],"id":33,"left_children":[1,3,5,7,9,11,13,-1,15,17,19,21,-1,23,25,-1,-1,-1,-1,-1,-1,-1,-1,-1,-1,-1,-1],"loss_changes":[2.8012072E1,1.7118017E1,1.9936216E1,5.955475E0,6.7956476E0,4.689995E0,3.7023315E0,0E0,6.8534946E0,4.2115335E0,1.4003905E1,4.373089E0,0E0,5.63395E0,1.2665672E0,0E0,0E0,0E0,0E0,0E0,0E0,0E0,0E0,0E0,0E0,0E0,0E0],"parents":[2147483647,0,0,1,1,2,2,3,3,4,4,5,5,6,6,8,8,9,9,10,10,11,11,13,13,14,14],"right_children":[2,4,6,8,10,12,14,-1,16,18,20,22,-1,24,26,-1,-1,-1,-1,-1,-1,-1,-1,-1,-1,-1,-1],"split_conditions":[9.11E1,-3.5E-1,9.05E1,-9.947883E-1,-8.811917E-1,1.8809941E-1,9.29E1,4.356481E-2,-9.6265197E-1,-9.996093E-1,-5.1850516E-1,9.4E1,-5.581238E-3,9.2E1,6.6126347E-1,-4.007573E-2,-9.755452E-3,-2.50357E-2,1.880244E-2,-2.3679739E-2,4.6608583E-3,4.040916E-2,7.939723E-2,-9.672063E-3,3.9239552E-2,-9.162943E-3,-4.1632067E-2],"split_indices":[0,6,5,3,4,3,5,0,3,4,4,0,0,5,3,0,0,0,0,0,0,0,0,0,0,0,0],"split_type":[0,0,0,0,0,0,0,0,0,0,0,0,0,0,0,0,0,0,0,0,0,0,0,0,0,0,0],"sum_hessian":[9.07E2,8.1E2,9.7E1,3.31E2,4.79E2,5.6E1,4.1E1,4E0,3.27E2,9.1E1,3.88E2,5.2E1,4E0,2.2E1,1.9E1,1.9E1,3.08E2,5E0,8.6E1,4.9E1,3.39E2,4.2E1,1E1,1.2E1,1E1,1.6E1,3E0],"tree_param":{"num_deleted":"0","num_feature":"8","num_nodes":"27","size_leaf_vector":"1"}},{"base_weights":[-1.2789068E-2,-7.698799E-2,4.9526304E-1,-3.1402373E-1,1.6324326E-2,4.1995782E-1,8.150769E-2,-2.771667E-1,-1.4380586E0,-8.150218E-2,1.6341537E-1,1.2267655E0,3.0249676E-1,5.426508E-2,-1.5039317E-2,-1.0786649E-1,-1.7963639E-2,1.6164704E-4,-2.2588959E-2,-5.5190038E-2,9.241828E-3,8.1438325E-2,7.7860133E-4,5.1127835E-3,2.598898E-2],"categories":[],"categories_nodes":[],"categories_segments":[],"categories_sizes":[],"default_left":[0,0,0,0,0,0,0,0,0,0,0,0,0,0,0,0,0,0,0,0,0,0,0,0,0],"id":34,"left_children":[1,3,5,7,9,11,-1,13,15,17,19,21,23,-1,-1,-1,-1,-1,-1,-1,-1,-1,-1,-1,-1],"loss_changes":[2.9653818E1,1.785464E1,8.032654E0,9.047144E0,8.359173E0,8.821449E0,0E0,7.4706345E0,4.6565065E0,1.0951497E1,6.5017233E0,5.8174477E0,3.6886191E0,0E0,0E0,0E0,0E0,0E0,0E0,0E0,0E0,0E0,0E0,0E0,0E0],"parents":[2147483647,0,0,1,1,2,2,3,3,4,4,5,5,7,7,8,8,9,9,10,10,11,11,12,12],"right_children":[2,4,6,8,10,12,-1,14,16,18,20,22,24,-1,-1,-1,-1,-1,-1,-1,-1,-1,-1,-1,-1],"split_conditions":[9.125E1,-8E-1,9.6E1,6.6E0,2E0,-1.9E0,8.150769E-2,-4.55E0,2.5518242E-1,5.521013E-1,-9.997203E-1,-7.430009E-1,7E-1,5.426508E-2,-1.5039317E-2,-1.0786649E-1,-1.7963639E-2,1.6164704E-4,-2.2588959E-2,-5.5190038E-2,9.241828E-3,8.1438325E-2,7.7860133E-4,5.1127835E-3,2.598898E-2],"split_indices":[0,6,0,7,1,7,0,6,3,3,4,4,7,0,0,0,0,0,0,0,0,0,0,0,0],"split_type":[0,0,0,0,0,0,0,0,0,0,0,0,0,0,0,0,0,0,0,0,0,0,0,0,0],"sum_hessian":[9.07E2,8.06E2,1.01E2,2.27E2,5.79E2,9.6E1,5E0,2.21E2,6E0,3.48E2,2.31E2,1.1E1,8.5E1,3E0,2.18E2,3E0,3E0,2.84E2,6.4E1,3E0,2.28E2,8E0,3E0,4.5E1,4E1],"tree_param":{"num_deleted":"0","num_feature":"8","num_nodes":"25","size_leaf_vector":"1"}},{"base_weights":[-6.4798812E-3,-9.5410824E-2,2.9163346E-1,-1.9291116E-1,2.3551095E-2,5.11314E-1,-2.6227158E-1,3.892401E-1,-2.3297289E-1,1.6502686E-1,-1.9768879E-1,7.672815E-1,2.858262E-1,-7.443117E-1,-4.815719E-2,3.3893236E-3,3.793102E-2,-2.5992002E-4,-1.7183164E-2,3.5686505E-3,2.6324013E-2,-1.6273271E-2,1.1528185E-2,3.2494094E-2,7.1508534E-2,8.906141E-3,6.433715E-2,-5.3083684E-2,6.0125687E-3,-1.5751934E-2,1.5979184E-2],"categories":[],"categories_nodes":[],"categories_segments":[],"categories_sizes":[],"default_left":[0,0,0,0,0,0,0,0,0,0,0,0,0,0,0,0,0,0,0,0,0,0,0,0,0,0,0,0,0,0,0],"id":35,"left_children":[1,3,5,7,9,11,13,15,17,19,21,23,25,27,29,-1,-1,-1,-1,-1,-1,-1,-1,-1,-1,-1,-1,-1,-1,-1,-1],"loss_changes":[2.4922125E1,8.402095E0,2.6417444E1,9.372829E0,1.0267751E1,8.72691E0,6.363283E0,3.0357804E0,9.402458E0,6.7327237E0,7.079285E0,4.673809E0,8.826179E0,5.3408766E0,4.418983E0,0E0,0E0,0E0,0E0,0E0,0E0,0E0,0E0,0E0,0E0,0E0,0E0,0E0,0E0,0E0,0E0],"parents":[2147483647,0,0,1,1,2,2,3,3,4,4,5,5,6,6,7,7,8,8,9,9,10,10,11,11,12,12,13,13,14,14],"right_children":[2,4,6,8,10,12,14,16,18,20,22,24,26,28,30,-1,-1,-1,-1,-1,-1,-1,-1,-1,-1,-1,-1,-1,-1,-1,-1],"split_conditions":[8.89E1,1.6E0,9.07E1,7.04E1,8.45E1,1E-1,-1.45E0,-2.2E0,2E0,8.355E1,-5.051062E-2,2.2E0,4.9E0,-7.3430425E-1,9.24E1,3.3893236E-3,3.793102E-2,-2.5992002E-4,-1.7183164E-2,3.5686505E-3,2.6324013E-2,-1.6273271E-2,1.1528185E-2,3.2494094E-2,7.1508534E-2,8.906141E-3,6.433715E-2,-5.3083684E-2,6.0125687E-3,-1.5751934E-2,1.5979184E-2],"split_indices":[0,1,5,5,5,1,6,7,2,0,4,7,1,4,0,0,0,0,0,0,0,0,0,0,0,0,0,0,0,0,0],"split_type":[0,0,0,0,0,0,0,0,0,0,0,0,0,0,0,0,0,0,0,0,0,0,0,0,0,0,0,0,0,0,0],"sum_hessian":[9.38E2,7.23E2,2.15E2,3.97E2,3.26E2,1.54E2,6.1E1,2.5E1,3.72E2,1.99E2,1.27E2,7.1E1,8.3E1,1.8E1,4.3E1,1.4E1,1.1E1,1.22E2,2.5E2,1.59E2,4E1,9.8E1,2.9E1,6.2E1,9E0,7.6E1,7E0,1.3E1,5E0,2.5E1,1.8E1],"tree_param":{"num_deleted":"0","num_feature":"8","num_nodes":"31","size_leaf_vector":"1"}},{"base_weights":[-1.157628E-2,7.1422204E-2,-2.4861594E-1,-8.140199E-2,2.3047566E-1,3.6615968E-2,-3.887713E-1,-1.7526042E-2,-7.076371E-1,6.339204E-1,1.6005571E-1,-8.1782365E-1,1.7230031E-1,-4.7565484E-1,3.1824157E-1,-8.4229745E-3,1.7228907E-2,-5.091377E-2,1.757812E-2,4.8384696E-2,5.0782007E-3,4.5089023E-3,3.7434038E-2,-5.870325E-2,4.955741E-3,-5.843666E-3,1.9243652E-2,1.255064E-2,-2.7541537E-2,-2.2975635E-3,3.896133E-2],"categories":[],"categories_nodes":[],"categories_segments":[],"categories_sizes":[],"default_left":[0,0,0,0,0,0,0,0,0,0,0,0,0,0,0,0,0,0,0,0,0,0,0,0,0,0,0,0,0,0,0],"id":36,"left_children":[1,3,5,7,9,11,13,15,17,19,21,23,25,27,29,-1,-1,-1,-1,-1,-1,-1,-1,-1,-1,-1,-1,-1,-1,-1,-1],"loss_changes":[1.7980057E1,1.6474747E1,9.488732E0,1.3828068E1,9.330841E0,9.299704E0,9.918385E0,1.7273941E1,1.0886883E1,8.608355E0,1.1613901E1,3.7095318E0,4.2864404E0,7.8954277E0,3.0577803E0,0E0,0E0,0E0,0E0,0E0,0E0,0E0,0E0,0E0,0E0,0E0,0E0,0E0,0E0,0E0,0E0],"parents":[2147483647,0,0,1,1,2,2,3,3,4,4,5,5,6,6,7,7,8,8,9,9,10,10,11,11,12,12,13,13,14,14],"right_children":[2,4,6,8,10,12,14,16,18,20,22,24,26,28,30,-1,-1,-1,-1,-1,-1,-1,-1,-1,-1,-1,-1,-1,-1,-1,-1],"split_conditions":[5.7518995E-1,8.545E1,7.91E1,3.1E0,-1.9E0,-5.6E0,9.9410987E-1,1.6E0,9.2923725E-1,-6.700888E-1,2.5E0,7.7E1,1.3E0,-2.9E0,-1.182639E-2,-8.4229745E-3,1.7228907E-2,-5.091377E-2,1.757812E-2,4.8384696E-2,5.0782007E-3,4.5089023E-3,3.7434038E-2,-5.870325E-2,4.955741E-3,-5.843666E-3,1.9243652E-2,1.255064E-2,-2.7541537E-2,-2.2975635E-3,3.896133E-2],"split_indices":[3,0,0,1,7,7,3,1,4,4,7,0,1,7,4,0,0,0,0,0,0,0,0,0,0,0,0,0,0,0,0],"split_type":[0,0,0,0,0,0,0,0,0,0,0,0,0,0,0,0,0,0,0,0,0,0,0,0,0,0,0,0,0,0,0],"sum_hessian":[9.12E2,6.76E2,2.36E2,3.45E2,3.31E2,7.8E1,1.58E2,3.14E2,3.1E1,4.8E1,2.83E2,1E1,6.8E1,1.41E2,1.7E1,2.22E2,9.2E1,2.4E1,7E0,2.9E1,1.9E1,2.54E2,2.9E1,7E0,3E0,2.9E1,3.9E1,1.3E1,1.28E2,1E1,7E0],"tree_param":{"num_deleted":"0","num_feature":"8","num_nodes":"31","size_leaf_vector":"1"}},{"base_weights":[2.0931782E-2,-3.2899667E-2,4.5404103E-1,-1.388112E-2,-9.2259854E-1,6.317982E-1,-1.7625713E-1,-1.1972269E-1,1.2584549E-1,-1.3542644E-3,-1.1125596E0,7.2377014E-1,-2.7492362E-1,-6.0114086E-1,9.042358E-2,7.535915E-4,-1.5354772E-2,1.6489232E-2,-4.000551E-3,-1.8441334E-2,-6.865851E-2,2.9780338E-2,6.901742E-2,-2.578224E-2,4.735435E-3,-4.7555696E-2,-6.546984E-3,1.6612386E-2,-2.2983711E-2],"categories":[],"categories_nodes":[],"categories_segments":[],"categories_sizes":[],"default_left":[0,0,0,0,0,0,0,0,0,0,0,0,0,0,0,0,0,0,0,0,0,0,0,0,0,0,0,0,0],"id":37,"left_children":[1,3,5,7,9,11,13,15,17,-1,19,21,23,25,27,-1,-1,-1,-1,-1,-1,-1,-1,-1,-1,-1,-1,-1,-1],"loss_changes":[2.1301441E1,1.3743787E1,1.14274025E1,1.18018055E1,2.8617802E0,6.7870235E0,2.660448E0,1.1471227E1,1.4468262E1,0E0,2.2070827E0,5.2366066E0,7.606625E-1,1.3564811E0,2.1481295E0,0E0,0E0,0E0,0E0,0E0,0E0,0E0,0E0,0E0,0E0,0E0,0E0,0E0,0E0],"parents":[2147483647,0,0,1,1,2,2,3,3,4,4,5,5,6,6,7,7,8,8,10,10,11,11,12,12,13,13,14,14],"right_children":[2,4,6,8,10,12,14,16,18,-1,20,22,24,26,28,-1,-1,-1,-1,-1,-1,-1,-1,-1,-1,-1,-1,-1,-1],"split_conditions":[9.125E1,9.2E1,9.23E1,8.36E1,8.88E1,2.5518242E-1,6E-1,8.07E1,8.68E1,-1.3542644E-3,9E-1,9.44E1,3E-1,-8.556315E-1,6.6126347E-1,7.535915E-4,-1.5354772E-2,1.6489232E-2,-4.000551E-3,-1.8441334E-2,-6.865851E-2,2.9780338E-2,6.901742E-2,-2.578224E-2,4.735435E-3,-4.7555696E-2,-6.546984E-3,1.6612386E-2,-2.2983711E-2],"split_indices":[0,5,5,0,0,3,7,5,5,0,1,0,7,4,3,0,0,0,0,0,0,0,0,0,0,0,0,0,0],"split_type":[0,0,0,0,0,0,0,0,0,0,0,0,0,0,0,0,0,0,0,0,0,0,0,0,0,0,0,0,0],"sum_hessian":[9.12E2,8.12E2,1E2,7.96E2,1.6E1,7.8E1,2.2E1,4.53E2,3.43E2,3E0,1.3E1,7.1E1,7E0,8E0,1.4E1,2.64E2,1.89E2,1.72E2,1.71E2,4E0,9E0,6.1E1,1E1,4E0,3E0,4E0,4E0,1E1,4E0],"tree_param":{"num_deleted":"0","num_feature":"8","num_nodes":"29","size_leaf_vector":"1"}},{"base_weights":[2.465104E-2,-1.22017704E-1,2.0521685E-1,1.4016756E-1,-1.715493E-1,8.701509E-2,4.1967413E-1,-4.0400624E-2,9.9430335E-1,5.172334E-2,-1.8267973E-1,-2.0614244E-2,3.2483855E-1,3.7105247E-1,7.380648E-2,1.9023897E-3,-6.427376E-2,7.823112E-2,3.482617E-2,4.8977174E-3,-1.1453675E-2,3.8228802E-2,-2.819543E-3,-5.2206762E-2,1.950209E-2,5.3641945E-2,1.4506568E-2],"categories":[],"categories_nodes":[],"categories_segments":[],"categories_sizes":[],"default_left":[0,0,0,0,0,0,0,0,0,0,0,0,0,0,0,0,0,0,0,0,0,0,0,0,0,0,0],"id":38,"left_children":[1,3,5,7,9,11,13,15,17,-1,19,21,23,25,-1,-1,-1,-1,-1,-1,-1,-1,-1,-1,-1,-1,-1],"loss_changes":[2.3992483E1,6.5172725E0,1.0255266E1,1.2378551E1,5.8402557E0,6.7386494E0,6.849066E0,6.5930753E0,1.287818E0,0E0,5.4646616E0,5.155759E0,7.7267036E0,7.5824566E0,0E0,0E0,0E0,0E0,0E0,0E0,0E0,0E0,0E0,0E0,0E0,0E0,0E0],"parents":[2147483647,0,0,1,1,2,2,3,3,4,4,5,5,6,6,7,7,8,8,10,10,11,11,12,12,13,13],"right_children":[2,4,6,8,10,12,14,16,18,-1,20,22,24,26,-1,-1,-1,-1,-1,-1,-1,-1,-1,-1,-1,-1,-1],"split_conditions":[2.5E-1,1E-1,8.865E1,8.885E1,-4.55E0,2.3E0,9.6E1,8.93E1,-1.65E0,5.172334E-2,-7.607201E-1,6.745E1,-9.997203E-1,8.59E1,7.380648E-2,1.9023897E-3,-6.427376E-2,7.823112E-2,3.482617E-2,4.8977174E-3,-1.1453675E-2,3.8228802E-2,-2.819543E-3,-5.2206762E-2,1.950209E-2,5.3641945E-2,1.4506568E-2],"split_indices":[6,1,0,0,6,1,0,5,6,0,3,0,4,5,0,0,0,0,0,0,0,0,0,0,0,0,0],"split_type":[0,0,0,0,0,0,0,0,0,0,0,0,0,0,0,0,0,0,0,0,0,0,0,0,0,0,0],"sum_hessian":[9.04E2,4.99E2,4.05E2,7.9E1,4.2E2,2.62E2,1.43E2,6.6E1,1.3E1,3E0,4.17E2,1.81E2,8.1E1,1.38E2,5E0,6.3E1,3E0,3E0,1E1,5.9E1,3.58E2,7E0,1.74E2,3E0,7.8E1,1.3E1,1.25E2],"tree_param":{"num_deleted":"0","num_feature":"8","num_nodes":"27","size_leaf_vector":"1"}},{"base_weights":[2.0676237E-2,-4.09733E-2,3.1557903E-1,-2.3465575E-1,2.3895107E-2,4.613688E-1,-2.7775997E-1,-1.9743244E-1,-7.6760426E-2,-5.0958257E-2,2.4507652E-1,5.317259E-1,-6.252745E-1,-5.92536E-1,-4.7767945E-2,5.41498E-3,-1.6587323E-2,1.4678505E-3,-1.4083494E-2,9.736647E-3,4.7810927E-2,2.1684585E-2,6.76692E-2,-1.0000187E-2,-4.202181E-2,-7.0628463E-3,-3.56897E-2,3.6519654E-2,-1.8892676E-2],"categories":[],"categories_nodes":[],"categories_segments":[],"categories_sizes":[],"default_left":[0,0,0,0,0,0,0,0,0,0,0,0,0,0,0,0,0,0,0,0,0,0,0,0,0,0,0,0,0],"id":39,"left_children":[1,3,5,7,9,11,13,15,-1,17,19,21,23,25,27,-1,-1,-1,-1,-1,-1,-1,-1,-1,-1,-1,-1,-1,-1],"loss_changes":[1.6193682E1,9.265182E0,1.3449574E1,8.652911E0,9.168053E0,9.812651E0,2.2159708E0,7.468528E0,0E0,7.67955E0,4.8259954E0,8.837463E0,5.6392574E-1,6.1054754E-1,5.1563163E0,0E0,0E0,0E0,0E0,0E0,0E0,0E0,0E0,0E0,0E0,0E0,0E0,0E0,0E0],"parents":[2147483647,0,0,1,1,2,2,3,3,4,4,5,5,6,6,7,7,9,9,10,10,11,11,12,12,13,13,14,14],"right_children":[2,4,6,8,10,12,14,16,-1,18,20,22,24,26,28,-1,-1,-1,-1,-1,-1,-1,-1,-1,-1,-1,-1,-1,-1],"split_conditions":[9.01E1,-9.5E-1,9.21E1,6.6E0,1.7E0,3.953118E-1,6E-1,7.91E1,-7.6760426E-2,8.6E1,4E0,2.5E0,2.3E0,-2E0,1.4E0,5.41498E-3,-1.6587323E-2,1.4678505E-3,-1.4083494E-2,9.736647E-3,4.7810927E-2,2.1684585E-2,6.76692E-2,-1.0000187E-2,-4.202181E-2,-7.0628463E-3,-3.56897E-2,3.6519654E-2,-1.8892676E-2],"split_indices":[0,6,5,7,7,3,7,0,0,5,1,7,1,6,7,0,0,0,0,0,0,0,0,0,0,0,0,0,0],"split_type":[0,0,0,0,0,0,0,0,0,0,0,0,0,0,0,0,0,0,0,0,0,0,0,0,0,0,0,0,0],"sum_hessian":[8.89E2,7.36E2,1.53E2,1.84E2,5.52E2,1.23E2,3E1,1.8E2,4E0,4.13E2,1.39E2,1.16E2,7E0,1.2E1,1.8E1,5.5E1,1.25E2,3.07E2,1.06E2,1.31E2,8E0,1.05E2,1.1E1,3E0,4E0,3E0,9E0,5E0,1.3E1],"tree_param":{"num_deleted":"0","num_feature":"8","num_nodes":"29","size_leaf_vector":"1"}},{"base_weights":[-6.278521E-4,-1.0214309E-1,2.0174117E-1,2.5952634E-1,-1.3560402E-1,1.724664E-1,6.353341E-2,8.400028E-3,6.6090846E-1,-1.03385605E-1,-5.1035637E-1,1.5081267E-1,6.0237713E-2,9.973419E-3,-2.6163936E-2,8.6937405E-2,-2.66083E-3,-6.8066926E-3,3.8020235E-2,-5.0027378E-2,-3.0087137E-3,4.7636717E-3,2.4088986E-2],"categories":[],"categories_nodes":[],"categories_segments":[],"categories_sizes":[],"default_left":[0,0,0,0,0,0,0,0,0,0,0,0,0,0,0,0,0,0,0,0,0,0,0],"id":40,"left_children":[1,3,5,7,9,11,-1,13,15,17,19,21,-1,-1,-1,-1,-1,-1,-1,-1,-1,-1,-1],"loss_changes":[1.8817945E1,7.417291E0,9.356387E0,5.2359242E0,6.696563E0,6.5018167E0,0E0,3.4567475E0,1.5486775E1,1.4699928E1,9.649504E0,5.3583083E0,0E0,0E0,0E0,0E0,0E0,0E0,0E0,0E0,0E0,0E0,0E0],"parents":[2147483647,0,0,1,1,2,2,3,3,4,4,5,5,7,7,8,8,9,9,10,10,11,11],"right_children":[2,4,6,8,10,12,-1,14,16,18,20,22,-1,-1,-1,-1,-1,-1,-1,-1,-1,-1,-1],"split_conditions":[8E-1,-9.0623206E-1,9.47E1,-9.640935E-1,9.07E1,6.2E0,6.353341E-2,-9.7742647E-1,1.4E0,9.005E1,9.125E1,2.4E0,6.0237713E-2,9.973419E-3,-2.6163936E-2,8.6937405E-2,-2.66083E-3,-6.8066926E-3,3.8020235E-2,-5.0027378E-2,-3.0087137E-3,4.7636717E-3,2.4088986E-2],"split_indices":[6,4,0,4,5,6,0,4,1,0,0,7,0,0,0,0,0,0,0,0,0,0,0],"split_type":[0,0,0,0,0,0,0,0,0,0,0,0,0,0,0,0,0,0,0,0,0,0,0],"sum_hessian":[9.14E2,6.09E2,3.05E2,5.1E1,5.58E2,2.98E2,7E0,3.2E1,1.9E1,5.15E2,4.3E1,2.93E2,5E0,2.4E1,8E0,7E0,1.2E1,4.97E2,1.8E1,2E1,2.3E1,2.52E2,4.1E1],"tree_param":{"num_deleted":"0","num_feature":"8","num_nodes":"23","size_leaf_vector":"1"}},{"base_weights":[-1.5204077E-2,2.3049057E-1,-9.526796E-2,-8.807984E-1,2.7636433E-1,-3.416092E-1,-4.1140664E-2,-8.935891E-3,-7.033596E-2,2.1148725E-1,8.0311024E-1,-2.4459463E-1,-1.4037131E0,-1.1512222E-1,1.251269E-1,4.230065E-3,2.7907139E-2,5.1144656E-2,-2.4829064E-2,3.0247018E-2,-1.5754124E-2,-3.430468E-2,-8.838885E-2,3.761088E-2,-6.656322E-3,-1.914999E-4,1.4029281E-2],"categories":[],"categories_nodes":[],"categories_segments":[],"categories_sizes":[],"default_left":[0,0,0,0,0,0,0,0,0,0,0,0,0,0,0,0,0,0,0,0,0,0,0,0,0,0,0],"id":41,"left_children":[1,3,5,7,9,11,13,-1,-1,15,17,19,21,23,25,-1,-1,-1,-1,-1,-1,-1,-1,-1,-1,-1,-1],"loss_changes":[1.7686756E1,1.150978E1,9.026253E0,3.071744E0,7.1091576E0,1.2227486E1,6.8659134E0,0E0,0E0,8.354052E0,7.077895E0,6.9572554E0,1.3997345E0,6.127827E0,3.44924E0,0E0,0E0,0E0,0E0,0E0,0E0,0E0,0E0,0E0,0E0,0E0,0E0],"parents":[2147483647,0,0,1,1,2,2,3,3,4,4,5,5,6,6,9,9,10,10,11,11,12,12,13,13,14,14],"right_children":[2,4,6,8,10,12,14,-1,-1,16,18,20,22,24,26,-1,-1,-1,-1,-1,-1,-1,-1,-1,-1,-1,-1],"split_conditions":[2E0,-6.6E0,-1.4E0,-8.9E0,3.3122122E-1,4.3E0,1.3E0,-8.935891E-3,-7.033596E-2,9.11E1,4.8784715E-1,7.52E1,7.99E1,6.57E1,1.4782713E-1,4.230065E-3,2.7907139E-2,5.1144656E-2,-2.4829064E-2,3.0247018E-2,-1.5754124E-2,-3.430468E-2,-8.838885E-2,3.761088E-2,-6.656322E-3,-1.914999E-4,1.4029281E-2],"split_indices":[2,7,6,7,3,7,7,0,0,0,3,0,5,5,3,0,0,0,0,0,0,0,0,0,0,0,0],"split_type":[0,0,0,0,0,0,0,0,0,0,0,0,0,0,0,0,0,0,0,0,0,0,0,0,0,0,0],"sum_hessian":[8.97E2,2.2E2,6.77E2,8E0,2.12E2,1.21E2,5.56E2,4E0,4E0,1.9E2,2.2E1,1.12E2,9E0,3.85E2,1.71E2,1.4E2,5E1,1.9E1,3E0,8E0,1.04E2,4E0,5E0,7E0,3.78E2,9.4E1,7.7E1],"tree_param":{"num_deleted":"0","num_feature":"8","num_nodes":"27","size_leaf_vector":"1"}},{"base_weights":[-2.1570243E-2,-6.643188E-2,3.5036057E-1,-3.9288413E-2,-5.6312674E-1,5.116179E-1,-2.299655E-1,-1.09322995E-1,1.22891545E-1,-6.3549083E-1,1.4160252E-2,5.918749E-1,-2.5458312E-1,2.6491764E-1,-4.3210402E-1,-3.294094E-3,-2.6642976E-2,8.581029E-3,-2.531746E-2,-6.786464E-2,-2.571097E-2,2.4071747E-2,6.031856E-2,-5.407107E-4,-2.4782425E-2,-7.1754465E-3,3.035574E-2,-4.0567685E-2,-9.2979185E-3],"categories":[],"categories_nodes":[],"categories_segments":[],"categories_sizes":[],"default_left":[0,0,0,0,0,0,0,0,0,0,0,0,0,0,0,0,0,0,0,0,0,0,0,0,0,0,0,0,0],"id":42,"left_children":[1,3,5,7,9,11,13,15,17,19,-1,21,23,25,27,-1,-1,-1,-1,-1,-1,-1,-1,-1,-1,-1,-1,-1,-1],"loss_changes":[1.5190328E1,1.0925278E1,9.2886715E0,8.770611E0,2.752225E0,4.885643E0,2.3152406E0,9.881903E0,7.231214E0,2.7158756E0,0E0,4.169758E0,4.6475387E-1,1.0654632E0,1.3427329E0,0E0,0E0,0E0,0E0,0E0,0E0,0E0,0E0,0E0,0E0,0E0,0E0,0E0,0E0],"parents":[2147483647,0,0,1,1,2,2,3,3,4,4,5,5,6,6,7,7,8,8,9,9,11,11,12,12,13,13,14,14],"right_children":[2,4,6,8,10,12,14,16,18,20,-1,22,24,26,28,-1,-1,-1,-1,-1,-1,-1,-1,-1,-1,-1,-1,-1,-1],"split_conditions":[9.125E1,9.06E1,9.23E1,8.59E1,4.7E0,2.5518242E-1,-2.05E0,3.1E0,6.350683E-1,9.09E1,1.4160252E-2,9.44E1,1.8E0,5.8045495E-1,-1.45E0,-3.294094E-3,-2.6642976E-2,8.581029E-3,-2.531746E-2,-6.786464E-2,-2.571097E-2,2.4071747E-2,6.031856E-2,-5.407107E-4,-2.4782425E-2,-7.1754465E-3,3.035574E-2,-4.0567685E-2,-9.2979185E-3],"split_indices":[0,5,5,0,1,3,6,1,3,5,0,0,1,3,6,0,0,0,0,0,0,0,0,0,0,0,0,0,0],"split_type":[0,0,0,0,0,0,0,0,0,0,0,0,0,0,0,0,0,0,0,0,0,0,0,0,0,0,0,0,0],"sum_hessian":[9.08E2,8.11E2,9.7E1,7.7E2,4.1E1,7.6E1,2.1E1,5.38E2,2.32E2,3.8E1,3E0,6.9E1,7E0,6E0,1.5E1,4.89E2,4.9E1,2.16E2,1.6E1,4E0,3.4E1,6E1,9E0,4E0,3E0,3E0,3E0,5E0,1E1],"tree_param":{"num_deleted":"0","num_feature":"8","num_nodes":"29","size_leaf_vector":"1"}},{"base_weights":[8.822293E-3,-1.0855889E-1,1.4473112E-1,1.290876E-1,-1.8492723E-1,8.8629104E-2,5.35773E-1,2.6470315E-1,-4.2440388E-1,1.01617515E-1,-2.3926511E-1,4.041295E-2,4.6650806E-1,-3.61295E-2,6.532432E-1,6.8564448E-3,4.284931E-2,-5.734083E-2,-2.974E-3,-1.0493464E-2,3.0591486E-2,-3.7512176E-2,-1.0091274E-2,1.1847669E-3,5.6283116E-2,1.2654197E-2,4.3763947E-2,1.843306E-2,5.0756525E-2],"categories":[],"categories_nodes":[],"categories_segments":[],"categories_sizes":[],"default_left":[0,0,0,0,0,0,0,0,0,0,0,0,0,0,0,0,0,0,0,0,0,0,0,0,0,0,0,0,0],"id":43,"left_children":[1,3,5,7,9,11,13,15,17,19,21,23,25,-1,27,-1,-1,-1,-1,-1,-1,-1,-1,-1,-1,-1,-1,-1,-1],"loss_changes":[1.4596879E1,8.934868E0,9.254327E0,9.119786E0,5.8164406E0,6.758938E0,8.306496E0,7.2118087E0,6.2588034E0,9.663866E0,5.8365364E0,5.9785876E0,3.442628E0,0E0,4.6721096E0,0E0,0E0,0E0,0E0,0E0,0E0,0E0,0E0,0E0,0E0,0E0,0E0,0E0,0E0],"parents":[2147483647,0,0,1,1,2,2,3,3,4,4,5,5,6,6,7,7,8,8,9,9,10,10,11,11,12,12,14,14],"right_children":[2,4,6,8,10,12,14,16,18,20,22,24,26,-1,28,-1,-1,-1,-1,-1,-1,-1,-1,-1,-1,-1,-1,-1,-1],"split_conditions":[2.5E-1,-9E-1,2.6E0,-1E-1,-7.393923E-1,3.8E0,-9.753364E-1,-3.5E-1,7E-1,8.695E1,-6.267267E-1,6.2E0,-4.7748944E-1,-3.61295E-2,8.5E1,6.8564448E-3,4.284931E-2,-5.734083E-2,-2.974E-3,-1.0493464E-2,3.0591486E-2,-3.7512176E-2,-1.0091274E-2,1.1847669E-3,5.6283116E-2,1.2654197E-2,4.3763947E-2,1.843306E-2,5.0756525E-2],"split_indices":[6,7,7,6,3,1,3,6,1,0,3,6,4,0,5,0,0,0,0,0,0,0,0,0,0,0,0,0,0],"split_type":[0,0,0,0,0,0,0,0,0,0,0,0,0,0,0,0,0,0,0,0,0,0,0,0,0,0,0,0,0],"sum_hessian":[9.13E2,4.9E2,4.23E2,1.19E2,3.71E2,3.71E2,5.2E1,9.6E1,2.3E1,5.9E1,3.12E2,3.3E2,4.1E1,4E0,4.8E1,8E1,1.6E1,7E0,1.6E1,3.7E1,2.2E1,2E1,2.92E2,3.26E2,4E0,2.8E1,1.3E1,2.8E1,2E1],"tree_param":{"num_deleted":"0","num_feature":"8","num_nodes":"29","size_leaf_vector":"1"}},{"base_weights":[-1.026614E-2,-5.5639494E-2,3.610741E-1,-3.7169E-2,-1.0320978E0,1.1048124E0,2.555521E-1,-1.2572382E-1,1.0206768E-1,-1.7580925E-2,-1.1729162E0,1.3269059E-2,1.355136E0,1.7969589E-1,6.311523E-2,-4.834513E-3,-5.1643368E-2,1.9204393E-2,-3.090171E-4,-6.601813E-2,-2.7396653E-2,8.6814724E-2,3.5147518E-2,1.980806E-2,-2.0523937E-3],"categories":[],"categories_nodes":[],"categories_segments":[],"categories_sizes":[],"default_left":[0,0,0,0,0,0,0,0,0,0,0,0,0,0,0,0,0,0,0,0,0,0,0,0,0],"id":44,"left_children":[1,3,5,7,9,11,13,15,17,-1,19,-1,21,23,-1,-1,-1,-1,-1,-1,-1,-1,-1,-1,-1],"loss_changes":[1.5318939E1,1.457053E1,7.487257E0,9.827575E0,1.0249405E0,2.1619253E0,6.4935927E0,1.2726549E1,9.466093E0,0E0,3.823471E-1,0E0,1.0167446E0,3.9822807E0,0E0,0E0,0E0,0E0,0E0,0E0,0E0,0E0,0E0,0E0,0E0],"parents":[2147483647,0,0,1,1,2,2,3,3,4,4,5,5,6,6,7,7,8,8,10,10,12,12,13,13],"right_children":[2,4,6,8,10,12,14,16,18,-1,20,-1,22,24,-1,-1,-1,-1,-1,-1,-1,-1,-1,-1,-1],"split_conditions":[9.125E1,9.2E1,-1.9E0,8.43E1,-5E-1,-8.048257E-1,9.6E1,3.8E0,8.56E1,-1.7580925E-2,3E0,1.3269059E-2,9.33E1,9.03E1,6.311523E-2,-4.834513E-3,-5.1643368E-2,1.9204393E-2,-3.090171E-4,-6.601813E-2,-2.7396653E-2,8.6814724E-2,3.5147518E-2,1.980806E-2,-2.0523937E-3],"split_indices":[0,5,7,0,7,3,0,1,5,0,1,0,0,5,0,0,0,0,0,0,0,0,0,0,0],"split_type":[0,0,0,0,0,0,0,0,0,0,0,0,0,0,0,0,0,0,0,0,0,0,0,0,0],"sum_hessian":[9.07E2,8.09E2,9.8E1,7.95E2,1.4E1,1.1E1,8.7E1,4.86E2,3.09E2,3E0,1.1E1,3E0,8E0,8.2E1,5E0,4.72E2,1.4E1,8.5E1,2.24E2,8E0,3E0,4E0,4E0,4.1E1,4.1E1],"tree_param":{"num_deleted":"0","num_feature":"8","num_nodes":"25","size_leaf_vector":"1"}},{"base_weights":[-1.3689497E-3,1.8451105E-1,-6.260439E-2,-1.060475E0,2.3506318E-1,-2.8118417E-1,2.2918899E-2,-8.945651E-2,-5.9862346E-3,8.533039E-2,4.4706836E-1,3.2575628E-1,-3.3416095E-1,2.6822966E-1,-3.2393474E-2,8.092205E-3,-6.356574E-2,1.629515E-2,4.5681205E-2,3.6852684E-2,6.3618026E-3,-4.591998E-2,-1.3338341E-2,2.0233095E-2,-4.3866884E-2,1.0129442E-2,-5.314624E-3],"categories":[],"categories_nodes":[],"categories_segments":[],"categories_sizes":[],"default_left":[0,0,0,0,0,0,0,0,0,0,0,0,0,0,0,0,0,0,0,0,0,0,0,0,0,0,0],"id":45,"left_children":[1,3,5,7,9,11,13,-1,-1,15,17,19,21,23,25,-1,-1,-1,-1,-1,-1,-1,-1,-1,-1,-1,-1],"loss_changes":[1.0380958E1,1.447297E1,1.28302965E1,5.955141E0,6.8820724E0,6.3145275E0,6.711637E0,0E0,0E0,1.3596206E1,4.789982E0,1.2126337E0,6.7636185E0,1.4577625E1,7.036977E0,0E0,0E0,0E0,0E0,0E0,0E0,0E0,0E0,0E0,0E0,0E0,0E0],"parents":[2147483647,0,0,1,1,2,2,3,3,4,4,5,5,6,6,9,9,10,10,11,11,12,12,13,13,14,14],"right_children":[2,4,6,8,10,12,14,-1,-1,16,18,20,22,24,26,-1,-1,-1,-1,-1,-1,-1,-1,-1,-1,-1,-1],"split_conditions":[1E-1,-6.6E0,1.3E0,-2.3651127E-2,8.885E1,7.04E1,7.91E1,-8.945651E-2,-5.9862346E-3,8.88E1,5.1584367E-2,6.495E1,7.43E1,3.7E0,-8.048257E-1,8.092205E-3,-6.356574E-2,1.629515E-2,4.5681205E-2,3.6852684E-2,6.3618026E-3,-4.591998E-2,-1.3338341E-2,2.0233095E-2,-4.3866884E-2,1.0129442E-2,-5.314624E-3],"split_indices":[1,7,1,3,0,5,0,0,0,5,3,0,5,1,3,0,0,0,0,0,0,0,0,0,0,0,0],"split_type":[0,0,0,0,0,0,0,0,0,0,0,0,0,0,0,0,0,0,0,0,0,0,0,0,0,0,0],"sum_hessian":[9.1E2,2.25E2,6.85E2,8E0,2.17E2,1.92E2,4.93E2,4E0,4E0,1.28E2,8.9E1,1.5E1,1.77E2,9E1,4.03E2,1.22E2,6E0,7.2E1,1.7E1,4E0,1.1E1,1.7E1,1.6E2,8.1E1,9E0,9.6E1,3.07E2],"tree_param":{"num_deleted":"0","num_feature":"8","num_nodes":"27","size_leaf_vector":"1"}},{"base_weights":[7.205424E-3,-4.4593055E-2,2.547503E-1,-1.11862615E-1,7.581771E-2,4.8509246E-1,-1.6595131E-1,3.7872922E-1,-1.5531877E-1,2.1339631E-1,-1.3313906E-1,6.802409E-2,4.265473E-1,-4.7350866E-1,-5.480454E-2,-5.754074E-3,2.4348214E-2,1.7774545E-3,-1.23237325E-2,1.51234465E-2,-8.313194E-3,-9.0345316E-2,-3.4360997E-3,1.6658457E-2,5.339966E-2,-3.6310155E-2,2.0147586E-2,5.1210504E-3,-1.7756015E-2],"categories":[],"categories_nodes":[],"categories_segments":[],"categories_sizes":[],"default_left":[0,0,0,0,0,0,0,0,0,0,0,0,0,0,0,0,0,0,0,0,0,0,0,0,0,0,0,0,0],"id":46,"left_children":[1,3,5,7,9,11,13,15,17,19,21,-1,23,25,27,-1,-1,-1,-1,-1,-1,-1,-1,-1,-1,-1,-1,-1,-1],"loss_changes":[1.1782368E1,6.164466E0,1.5488446E1,1.0462609E1,7.87661E0,4.6984234E0,1.9225378E0,2.193946E0,7.8207912E0,5.630148E0,1.1628116E1,0E0,5.514086E0,3.6147745E0,2.0667162E0,0E0,0E0,0E0,0E0,0E0,0E0,0E0,0E0,0E0,0E0,0E0,0E0,0E0,0E0],"parents":[2147483647,0,0,1,1,2,2,3,3,4,4,5,5,6,6,7,7,8,8,9,9,10,10,12,12,13,13,14,14],"right_children":[2,4,6,8,10,12,14,16,18,20,22,-1,24,26,28,-1,-1,-1,-1,-1,-1,-1,-1,-1,-1,-1,-1,-1,-1],"split_conditions":[9.01E1,1.9E0,9.07E1,7.14E1,3.1E0,-1.15E0,9.125E1,-4.300593E-3,2E0,8.72E1,7.265E1,6.802409E-2,9.4E1,9.29E1,9.33E1,-5.754074E-3,2.4348214E-2,1.7774545E-3,-1.23237325E-2,1.51234465E-2,-8.313194E-3,-9.0345316E-2,-3.4360997E-3,1.6658457E-2,5.339966E-2,-3.6310155E-2,2.0147586E-2,5.1210504E-3,-1.7756015E-2],"split_indices":[0,1,5,5,1,6,0,3,2,5,0,0,0,5,0,0,0,0,0,0,0,0,0,0,0,0,0,0,0],"split_type":[0,0,0,0,0,0,0,0,0,0,0,0,0,0,0,0,0,0,0,0,0,0,0,0,0,0,0,0,0],"sum_hessian":[9.17E2,7.59E2,1.58E2,4.87E2,2.72E2,1.02E2,5.6E1,3.9E1,4.48E2,1.64E2,1.08E2,5E0,9.7E1,1.4E1,4.2E1,7E0,3.2E1,1.45E2,3.03E2,1.33E2,3.1E1,3E0,1.05E2,8.6E1,1.1E1,1.1E1,3E0,2.8E1,1.4E1],"tree_param":{"num_deleted":"0","num_feature":"8","num_nodes":"29","size_leaf_vector":"1"}},{"base_weights":[2.7471792E-3,7.023763E-2,-1.6702783E-1,1.4870752E-2,3.091396E-1,-2.8099477E-1,9.76432E-2,-1.6511116E-2,4.7500843E-1,9.082069E-1,2.3619352E-1,9.5531106E-2,-3.3336416E-1,4.220726E-1,-2.2922727E-1,-3.295078E-5,-5.652966E-2,6.4814314E-2,1.4435465E-2,7.36822E-2,2.956057E-2,9.040279E-3,5.8767416E-2,-1.4662787E-2,2.0857802E-2,-4.955E-2,-1.3908142E-2,2.9718027E-2,-2.3752531E-2,-3.8169384E-2,1.4520626E-2],"categories":[],"categories_nodes":[],"categories_segments":[],"categories_sizes":[],"default_left":[0,0,0,0,0,0,0,0,0,0,0,0,0,0,0,0,0,0,0,0,0,0,0,0,0,0,0,0,0,0,0],"id":47,"left_children":[1,3,5,7,9,11,13,15,17,19,21,23,25,27,29,-1,-1,-1,-1,-1,-1,-1,-1,-1,-1,-1,-1,-1,-1,-1,-1],"loss_changes":[1.0473061E1,8.6460285E0,7.870012E0,7.689912E0,5.1605387E0,3.6205997E0,8.474416E0,8.811866E0,4.8278637E0,1.4588976E0,5.5614724E0,2.998335E0,5.5327168E0,6.464892E0,1.1324536E1,0E0,0E0,0E0,0E0,0E0,0E0,0E0,0E0,0E0,0E0,0E0,0E0,0E0,0E0,0E0,0E0],"parents":[2147483647,0,0,1,1,2,2,3,3,4,4,5,5,6,6,7,7,8,8,9,9,10,10,11,11,12,12,13,13,14,14],"right_children":[2,4,6,8,10,12,14,16,18,20,22,24,26,28,30,-1,-1,-1,-1,-1,-1,-1,-1,-1,-1,-1,-1,-1,-1,-1,-1],"split_conditions":[4.9346814E-1,9.045E1,2.3E0,4.01229E-1,-1.9E0,7.425E1,8.22E1,3.7945285E-1,-2.6E0,3E-1,9.6E1,8E-1,-2.7E0,3.7E0,8E-1,-3.295078E-5,-5.652966E-2,6.4814314E-2,1.4435465E-2,7.36822E-2,2.956057E-2,9.040279E-3,5.8767416E-2,-1.4662787E-2,2.0857802E-2,-4.955E-2,-1.3908142E-2,2.9718027E-2,-2.3752531E-2,-3.8169384E-2,1.4520626E-2],"split_indices":[3,0,1,3,7,0,0,3,7,6,0,1,6,1,7,0,0,0,0,0,0,0,0,0,0,0,0,0,0,0,0],"split_type":[0,0,0,0,0,0,0,0,0,0,0,0,0,0,0,0,0,0,0,0,0,0,0,0,0,0,0,0,0,0,0],"sum_hessian":[9.12E2,6.53E2,2.59E2,5.31E2,1.22E2,1.81E2,7.8E1,4.98E2,3.3E1,1.2E1,1.1E2,2.2E1,1.59E2,3.9E1,3.9E1,4.92E2,6E0,5E0,2.8E1,3E0,9E0,1.05E2,5E0,1E1,1.2E1,1.1E1,1.48E2,3.3E1,6E0,1.9E1,2E1],"tree_param":{"num_deleted":"0","num_feature":"8","num_nodes":"31","size_leaf_vector":"1"}},{"base_weights":[8.932328E-3,-8.540688E-2,1.2130552E-1,-8.1228155E-1,-5.9593026E-2,5.0376016E-1,5.5799823E-2,-4.996323E-1,-5.937737E-2,-2.5303873E-1,2.194324E-2,8.17813E-1,1.290186E-1,-9.04825E-2,3.0395025E-1,-4.305672E-2,5.3198505E-3,-5.3156354E-3,-4.880628E-2,-3.8996362E-3,1.590049E-2,4.9329195E-2,1.2906844E-2,1.861859E-2,-3.4450084E-2,7.4195936E-3,-1.3401176E-2,7.7141407E-3,3.514676E-2],"categories":[],"categories_nodes":[],"categories_segments":[],"categories_sizes":[],"default_left":[0,0,0,0,0,0,0,0,0,0,0,0,0,0,0,0,0,0,0,0,0,0,0,0,0,0,0,0,0],"id":48,"left_children":[1,3,5,7,9,11,13,15,-1,17,19,21,23,25,27,-1,-1,-1,-1,-1,-1,-1,-1,-1,-1,-1,-1,-1,-1],"loss_changes":[9.710456E0,9.295784E0,1.0444024E1,1.4012156E0,7.608062E0,7.073496E0,1.3022909E1,2.5015116E0,0E0,1.5067904E1,1.008462E1,2.8624096E0,6.0295324E0,9.6244335E0,7.8336515E0,0E0,0E0,0E0,0E0,0E0,0E0,0E0,0E0,0E0,0E0,0E0,0E0,0E0,0E0],"parents":[2147483647,0,0,1,1,2,2,3,3,4,4,5,5,6,6,7,7,9,9,10,10,11,11,12,12,13,13,14,14],"right_children":[2,4,6,8,10,12,14,16,-1,18,20,22,24,26,28,-1,-1,-1,-1,-1,-1,-1,-1,-1,-1,-1,-1,-1,-1],"split_conditions":[8.43E1,-9.713953E-1,-1.8E0,8.41E1,-9.5E-1,-7.430009E-1,-5.476112E-1,1.5951325E-1,-5.937737E-2,8.235E1,1.8E0,8.86E1,2.55E0,-9.2023855E-1,8.91E1,-4.305672E-2,5.3198505E-3,-5.3156354E-3,-4.880628E-2,-3.8996362E-3,1.590049E-2,4.9329195E-2,1.2906844E-2,1.861859E-2,-3.4450084E-2,7.4195936E-3,-1.3401176E-2,7.7141407E-3,3.514676E-2],"split_indices":[0,3,7,5,6,4,4,4,0,0,7,5,6,4,0,0,0,0,0,0,0,0,0,0,0,0,0,0,0],"split_type":[0,0,0,0,0,0,0,0,0,0,0,0,0,0,0,0,0,0,0,0,0,0,0,0,0,0,0,0,0],"sum_hessian":[9.14E2,4.97E2,4.17E2,1.6E1,4.81E2,6E1,3.57E2,1E1,6E0,1.42E2,3.39E2,3.2E1,2.8E1,2.25E2,1.32E2,6E0,4E0,1.19E2,2.3E1,2.54E2,8.5E1,2.4E1,8E0,2.2E1,6E0,9.6E1,1.29E2,9.7E1,3.5E1],"tree_param":{"num_deleted":"0","num_feature":"8","num_nodes":"29","size_leaf_vector":"1"}},{"base_weights":[1.5756562E-3,-3.483365E-2,3.1407246E-1,-5.149268E-2,5.226128E-1,4.6361506E-1,-1.5387255E-1,3.9768398E-1,-7.009289E-2,-2.2107063E-2,7.9976606E-1,5.2869666E-1,-2.2553942E-1,-4.6346784E-1,1.4374405E-1,4.489708E-4,3.315836E-2,-2.2498437E-3,-1.7550586E-2,4.712558E-2,1.4421156E-3,5.664421E-2,2.0770546E-2,-2.4587495E-2,4.852794E-3,-1.7977447E-3,-3.36365E-2,2.4430666E-2,-1.7001947E-2],"categories":[],"categories_nodes":[],"categories_segments":[],"categories_sizes":[],"default_left":[0,0,0,0,0,0,0,0,0,0,0,0,0,0,0,0,0,0,0,0,0,0,0,0,0,0,0,0,0],"id":49,"left_children":[1,3,5,7,9,11,13,15,17,-1,19,21,23,25,27,-1,-1,-1,-1,-1,-1,-1,-1,-1,-1,-1,-1,-1,-1],"loss_changes":[1.0467133E1,7.6789994E0,6.789198E0,6.720053E0,6.7708435E0,3.393383E0,2.2779977E0,3.2962694E0,5.4126616E0,0E0,2.0636883E0,4.1152573E0,6.488749E-1,1.0493591E0,2.335092E0,0E0,0E0,0E0,0E0,0E0,0E0,0E0,0E0,0E0,0E0,0E0,0E0,0E0,0E0],"parents":[2147483647,0,0,1,1,2,2,3,3,4,4,5,5,6,6,7,7,8,8,10,10,11,11,12,12,13,13,14,14],"right_children":[2,4,6,8,10,12,14,16,18,-1,20,22,24,26,28,-1,-1,-1,-1,-1,-1,-1,-1,-1,-1,-1,-1,-1,-1],"split_conditions":[9.14E1,9.976336E-1,9.23E1,-9.9456674E-1,6.83E1,2.5518242E-1,1.4E0,8.65E1,8.97E1,-2.2107063E-2,7.93E1,-1.9E0,-4E-1,-9.252111E-1,3.3E0,4.489708E-4,3.315836E-2,-2.2498437E-3,-1.7550586E-2,4.712558E-2,1.4421156E-3,5.664421E-2,2.0770546E-2,-2.4587495E-2,4.852794E-3,-1.7977447E-3,-3.36365E-2,2.4430666E-2,-1.7001947E-2],"split_indices":[0,4,5,3,0,3,1,5,5,0,0,7,7,4,1,0,0,0,0,0,0,0,0,0,0,0,0,0,0],"split_type":[0,0,0,0,0,0,0,0,0,0,0,0,0,0,0,0,0,0,0,0,0,0,0,0,0,0,0,0,0],"sum_hessian":[9.18E2,8.23E2,9.5E1,8E2,2.3E1,7.2E1,2.3E1,3.1E1,7.69E2,5E0,1.8E1,6.6E1,6E0,1.1E1,1.2E1,1.3E1,1.8E1,7.07E2,6.2E1,1.5E1,3E0,9E0,5.7E1,3E0,3E0,4E0,7E0,7E0,5E0],"tree_param":{"num_deleted":"0","num_feature":"8","num_nodes":"29","size_leaf_vector":"1"}},{"base_weights":[1.5625982E-2,-1.8547658E-2,3.539217E-1,5.526971E-3,-4.9536347E-1,4.9249125E-1,-1.4605246E-1,-4.2618454E-2,1.8354687E-1,-6.2223025E-2,-2.987532E-1,3.3867615E-1,9.519961E-1,-5.010921E-1,2.235924E-1,-2.6815936E-3,5.5126887E-2,3.543299E-2,4.587216E-3,-4.8807513E-2,-5.603339E-3,3.8632523E-2,9.266703E-3,6.926428E-2,1.7277304E-2,-1.7258351E-3,-4.031948E-2,3.396991E-2,-1.840465E-2],"categories":[],"categories_nodes":[],"categories_segments":[],"categories_sizes":[],"default_left":[0,0,0,0,0,0,0,0,0,0,0,0,0,0,0,0,0,0,0,0,0,0,0,0,0,0,0,0,0],"id":50,"left_children":[1,3,5,7,9,11,13,15,17,-1,19,21,23,25,27,-1,-1,-1,-1,-1,-1,-1,-1,-1,-1,-1,-1,-1,-1],"loss_changes":[1.0584693E1,9.553403E0,5.89155E0,6.804501E0,5.5194206E0,4.3423805E0,2.6055732E0,7.9416842E0,8.081917E0,0E0,4.0638137E0,3.2506738E0,3.7256145E0,1.3966091E0,2.9470177E0,0E0,0E0,0E0,0E0,0E0,0E0,0E0,0E0,0E0,0E0,0E0,0E0,0E0,0E0],"parents":[2147483647,0,0,1,1,2,2,3,3,4,4,5,5,6,6,7,7,8,8,10,10,11,11,12,12,13,13,14,14],"right_children":[2,4,6,8,10,12,14,16,18,-1,20,22,24,26,28,-1,-1,-1,-1,-1,-1,-1,-1,-1,-1,-1,-1,-1,-1],"split_conditions":[9.155E1,9.07E1,9.23E1,8.745E1,-1.7E0,9.4E1,1.4E0,8.91E1,-1.9E0,-6.2223025E-2,-8E-1,9.19E1,9.03E1,-9.252111E-1,9.305E1,-2.6815936E-3,5.5126887E-2,3.543299E-2,4.587216E-3,-4.8807513E-2,-5.603339E-3,3.8632523E-2,9.266703E-3,6.926428E-2,1.7277304E-2,-1.7258351E-3,-4.031948E-2,3.396991E-2,-1.840465E-2],"split_indices":[0,5,5,0,6,0,1,5,7,0,7,0,5,4,0,0,0,0,0,0,0,0,0,0,0,0,0,0,0],"split_type":[0,0,0,0,0,0,0,0,0,0,0,0,0,0,0,0,0,0,0,0,0,0,0,0,0,0,0,0,0],"sum_hessian":[9.14E2,8.31E2,8.3E1,7.92E2,3.9E1,6.5E1,1.8E1,6.24E2,1.68E2,7E0,3.2E1,5E1,1.5E1,9E0,9E0,6.19E2,5E0,2.4E1,1.44E2,6E0,2.6E1,1.2E1,3.8E1,8E0,7E0,4E0,5E0,5E0,4E0],"tree_param":{"num_deleted":"0","num_feature":"8","num_nodes":"29","size_leaf_vector":"1"}},{"base_weights":[-1.892304E-2,-5.8042612E-2,2.8890002E-1,1.3200207E-1,-1.0686335E-1,4.7250658E-1,3.1961508E-2,-1.216024E-1,3.581697E-1,-1.6941471E-1,2.6310151E-2,5.2973616E-1,-1.3148311E-2,-2.4673298E-1,2.1657407E-1,7.741464E-3,-3.8077146E-2,2.0822052E-2,-3.4621112E-2,1.4809783E-2,-1.084174E-2,9.641474E-3,-8.601858E-3,2.033433E-2,4.735137E-2,4.379108E-3,-2.6147166E-2,1.18404E-3,2.4749666E-2],"categories":[],"categories_nodes":[],"categories_segments":[],"categories_sizes":[],"default_left":[0,0,0,0,0,0,0,0,0,0,0,0,0,0,0,0,0,0,0,0,0,0,0,0,0,0,0,0,0],"id":51,"left_children":[1,3,5,7,9,11,13,15,17,19,21,23,-1,25,27,-1,-1,-1,-1,-1,-1,-1,-1,-1,-1,-1,-1,-1,-1],"loss_changes":[1.0998985E1,7.529384E0,4.8439846E0,9.5648365E0,5.3774266E0,2.664751E0,2.3172584E0,1.4092996E1,5.6756554E0,9.757031E0,6.8701057E0,2.4903173E0,0E0,1.7079437E0,1.4383184E0,0E0,0E0,0E0,0E0,0E0,0E0,0E0,0E0,0E0,0E0,0E0,0E0,0E0,0E0],"parents":[2147483647,0,0,1,1,2,2,3,3,4,4,5,5,6,6,7,7,8,8,9,9,10,10,11,11,13,13,14,14],"right_children":[2,4,6,8,10,12,14,16,18,20,22,24,-1,26,28,-1,-1,-1,-1,-1,-1,-1,-1,-1,-1,-1,-1,-1,-1],"split_conditions":[9.11E1,-8.425721E-1,9.05E1,8.565E1,2.2E0,1.8809941E-1,6E-1,8.5E1,9.07E1,7.14E1,3.1E0,9.4E1,-1.3148311E-2,9.21E1,1.4E0,7.741464E-3,-3.8077146E-2,2.0822052E-2,-3.4621112E-2,1.4809783E-2,-1.084174E-2,9.641474E-3,-8.601858E-3,2.033433E-2,4.735137E-2,4.379108E-3,-2.6147166E-2,1.18404E-3,2.4749666E-2],"split_indices":[0,3,5,0,1,3,7,5,5,5,1,0,0,5,1,0,0,0,0,0,0,0,0,0,0,0,0,0,0],"split_type":[0,0,0,0,0,0,0,0,0,0,0,0,0,0,0,0,0,0,0,0,0,0,0,0,0,0,0,0,0],"sum_hessian":[9.11E2,8.09E2,1.02E2,1.65E2,6.44E2,5.9E1,4.3E1,7.8E1,8.7E1,4.38E2,2.06E2,5.5E1,4E0,1.7E1,2.6E1,5.5E1,2.3E1,8.3E1,4E0,4E1,3.98E2,1.12E2,9.4E1,4.4E1,1.1E1,8E0,9E0,1.6E1,1E1],"tree_param":{"num_deleted":"0","num_feature":"8","num_nodes":"29","size_leaf_vector":"1"}},{"base_weights":[4.9457764E-3,-8.639186E-2,1.1035663E-1,-4.4970956E-2,-4.8881778E-1,3.0305544E-1,2.043999E-3,-1.4565939E-1,1.0914265E-1,-6.0841334E-1,4.5951944E-2,1.56504E-1,5.959632E-1,5.3284544E-2,-5.360669E-1,2.6725417E-2,-9.2319725E-3,8.6448705E-3,-3.566761E-2,-7.928649E-2,-2.33758E-2,2.5713578E-2,5.655132E-4,5.0661992E-2,7.7882423E-3,-1.9333382E-4,2.7510464E-2,-4.1140266E-2,1.6626584E-3],"categories":[],"categories_nodes":[],"categories_segments":[],"categories_sizes":[],"default_left":[0,0,0,0,0,0,0,0,0,0,0,0,0,0,0,0,0,0,0,0,0,0,0,0,0,0,0,0,0],"id":52,"left_children":[1,3,5,7,9,11,13,15,17,19,-1,21,23,25,27,-1,-1,-1,-1,-1,-1,-1,-1,-1,-1,-1,-1,-1,-1],"loss_changes":[8.876902E0,8.212426E0,8.932475E0,6.983236E0,8.304332E0,6.5173416E0,7.6111655E0,7.3102236E0,9.457293E0,5.179801E0,0E0,5.3965263E0,9.210085E0,7.1588917E0,3.9452624E0,0E0,0E0,0E0,0E0,0E0,0E0,0E0,0E0,0E0,0E0,0E0,0E0,0E0,0E0],"parents":[2147483647,0,0,1,1,2,2,3,3,4,4,5,5,6,6,7,7,8,8,9,9,11,11,12,12,13,13,14,14],"right_children":[2,4,6,8,10,12,14,16,18,20,-1,22,24,26,28,-1,-1,-1,-1,-1,-1,-1,-1,-1,-1,-1,-1,-1,-1],"split_conditions":[8.43E1,8.48E1,8.68E1,1.6E0,