{"learner":{"attributes":{"best_iteration":"58","best_score":"0.8064221724800886","scikit_learn":"{\"_estimator_type\": \"regressor\"}"},"feature_names":[],"feature_types":[],"gradient_booster":{"model":{"cats":{"enc":[],"feature_segments":[],"sorted_idx":[]},"gbtree_model_param":{"num_parallel_tree":"1","num_trees":"84"},"iteration_indptr":[0,1,2,3,4,5,6,7,8,9,10,11,12,13,14,15,16,17,18,19,20,21,22,23,24,25,26,27,28,29,30,31,32,33,34,35,36,37,38,39,40,41,42,43,44,45,46,47,48,49,50,51,52,53,54,55,56,57,58,59,60,61,62,63,64,65,66,67,68,69,70,71,72,73,74,75,76,77,78,79,80,81,82,83,84],"tree_info":[0,0,0,0,0,0,0,0,0,0,0,0,0,0,0,0,0,0,0,0,0,0,0,0,0,0,0,0,0,0,0,0,0,0,0,0,0,0,0,0,0,0,0,0,0,0,0,0,0,0,0,0,0,0,0,0,0,0,0,0,0,0,0,0,0,0,0,0,0,0,0,0,0,0,0,0,0,0,0,0,0,0,0,0],"trees":[{"base_weights":[5.265466E-3,-1.5201269E-2,5.2821624E-1,1.4658326E-1,-6.730328E-2,8.397921E-1,2.3122814E-2,5.2291527E-2,4.0207323E-1,-1.24290615E-1,1.05111584E-1,4.1131973E-1,8.189884E-2,4.6537966E-2,-3.090289E-1,-2.1493048E-3,2.446908E-2,3.5193797E-2,8.860516E-3,-7.5106607E-3,1.2158883E-2,-2.2241963E-2,7.185562E-3,5.1324587E-2,-5.6424774E-3,3.0423298E-3,-2.2766903E-2],"categories":[],"categories_nodes":[],"categories_segments":[],"categories_sizes":[],"default_left":[0,0,0,0,0,0,0,0,0,0,0,0,0,0,0,0,0,0,0,0,0,0,0,0,0,0,0],"id":0,"left_children":[1,3,5,7,9,11,13,15,17,19,21,23,-1,-1,25,-1,-1,-1,-1,-1,-1,-1,-1,-1,-1,-1,-1],"loss_changes":[9.662222E0,7.334926E0,5.3313274E0,5.08618E0,6.47822E0,6.5082703E0,4.508254E0,6.5176406E0,3.7435274E0,4.7517657E0,3.5453062E0,4.952653E0,0E0,0E0,6.229836E-1,0E0,0E0,0E0,0E0,0E0,0E0,0E0,0E0,0E0,0E0,0E0,0E0],"parents":[2147483647,0,0,1,1,2,2,3,3,4,4,5,5,6,6,7,7,8,8,9,9,10,10,11,11,14,14],"right_children":[2,4,6,8,10,12,14,16,18,20,22,24,-1,-1,26,-1,-1,-1,-1,-1,-1,-1,-1,-1,-1,-1,-1],"split_conditions":[8.13E1,1E-1,3.5E0,7.44E1,7.536977E-1,1.6E0,-9.223291E-1,2.8829065E-1,7.66E1,1.41E1,-9E-1,2E0,8.189884E-2,4.6537966E-2,7.665E1,-2.1493048E-3,2.446908E-2,3.5193797E-2,8.860516E-3,-7.5106607E-3,1.2158883E-2,-2.2241963E-2,7.185562E-3,5.1324587E-2,-5.6424774E-3,3.0423298E-3,-2.2766903E-2],"split_indices":[5,1,7,5,3,7,3,3,5,1,6,6,0,0,0,0,0,0,0,0,0,0,0,0,0,0,0],"split_type":[0,0,0,0,0,0,0,0,0,0,0,0,0,0,0,0,0,0,0,0,0,0,0,0,0,0,0],"sum_hessian":[9.01E2,8.68E2,3.3E1,2.11E2,6.57E2,2E1,1.3E1,1.55E2,5.6E1,4.94E2,1.63E2,1.4E1,6E0,3E0,1E1,1.28E2,2.7E1,2.3E1,3.3E1,4.62E2,3.2E1,1E1,1.53E2,6E0,8E0,3E0,7E0],"tree_param":{"num_deleted":"0","num_feature":"8","num_nodes":"27","size_leaf_vector":"1"}},{"base_weights":[-5.944531E-4,-2.518905E-2,3.7404457E-1,1.3108405E-1,-7.970906E-2,6.1786115E-1,-2.642769E-3,3.704556E-2,4.604223E-1,-1.3840744E-1,9.614904E-2,-5.725553E-2,7.9501194E-1,-3.062655E-1,2.144194E-1,-1.58818E-3,1.7663028E-2,6.769984E-2,1.5212461E-2,-7.2311894E-3,2.3742726E-2,2.0390179E-3,3.574225E-2,1.3832E-2,-1.5646042E-2,5.5497147E-2,1.5442649E-2,-2.5739495E-2,6.760925E-3,-1.06654065E-2,2.0342061E-2],"categories":[],"categories_nodes":[],"categories_segments":[],"categories_sizes":[],"default_left":[0,0,0,0,0,0,0,0,0,0,0,0,0,0,0,0,0,0,0,0,0,0,0,0,0,0,0,0,0,0,0],"id":1,"left_children":[1,3,5,7,9,11,13,15,17,19,21,23,25,27,29,-1,-1,-1,-1,-1,-1,-1,-1,-1,-1,-1,-1,-1,-1,-1,-1],"loss_changes":[8.37582E0,7.2780185E0,5.144819E0,6.8274183E0,6.547504E0,4.1118345E0,1.5814843E0,3.7754393E0,6.4261103E0,1.8794947E0,5.417612E0,7.694905E-1,3.7910671E0,9.9021095E-1,1.23904E0,0E0,0E0,0E0,0E0,0E0,0E0,0E0,0E0,0E0,0E0,0E0,0E0,0E0,0E0,0E0,0E0],"parents":[2147483647,0,0,1,1,2,2,3,3,4,4,5,5,6,6,7,7,8,8,9,9,10,10,11,11,12,12,13,13,14,14],"right_children":[2,4,6,8,10,12,14,16,18,20,22,24,26,28,30,-1,-1,-1,-1,-1,-1,-1,-1,-1,-1,-1,-1,-1,-1,-1,-1],"split_conditions":[1.36E1,1E-1,5.35E0,7.55E1,7.6903087E-1,1.9E0,5E-1,2.8829065E-1,7.63E1,8.55E1,5.8133006E-1,8E-1,1.57E1,-5.4129845E-1,5.95E0,-1.58818E-3,1.7663028E-2,6.769984E-2,1.5212461E-2,-7.2311894E-3,2.3742726E-2,2.0390179E-3,3.574225E-2,1.3832E-2,-1.5646042E-2,5.5497147E-2,1.5442649E-2,-2.5739495E-2,6.760925E-3,-1.06654065E-2,2.0342061E-2],"split_indices":[1,1,6,5,3,6,7,3,5,5,4,6,1,3,6,0,0,0,0,0,0,0,0,0,0,0,0,0,0,0,0],"split_type":[0,0,0,0,0,0,0,0,0,0,0,0,0,0,0,0,0,0,0,0,0,0,0,0,0,0,0,0,0,0,0],"sum_hessian":[9.07E2,8.52E2,5.5E1,2.2E2,6.32E2,3.3E1,2.2E1,1.72E2,4.8E1,4.74E2,1.58E2,7E0,2.6E1,9E0,1.3E1,1.42E2,3E1,6E0,4.2E1,4.7E2,4E0,1.46E2,1.2E1,3E0,4E0,1.5E1,1.1E1,6E0,3E0,4E0,9E0],"tree_param":{"num_deleted":"0","num_feature":"8","num_nodes":"31","size_leaf_vector":"1"}},{"base_weights":[-1.4557401E-2,-3.8086023E-2,4.0484944E-1,-4.4701654E-2,7.697364E-1,6.874783E-1,1.5956488E-1,6.7813426E-2,-9.448388E-2,6.032416E-2,7.0277797E-3,1.1678247E0,-5.7199E-3,4.492064E-1,-2.399209E-1,-5.2703624E-3,7.7514774E-3,-5.2050324E-3,4.2864732E-2,3.26788E-2,9.299537E-2,-1.0552234E-2,1.7751422E-2,-1.3548821E-3,3.0511627E-2,-3.21901E-2,2.1247459E-3],"categories":[],"categories_nodes":[],"categories_segments":[],"categories_sizes":[],"default_left":[0,0,0,0,0,0,0,0,0,0,0,0,0,0,0,0,0,0,0,0,0,0,0,0,0,0,0],"id":2,"left_children":[1,3,5,7,9,11,13,15,17,-1,-1,19,21,23,25,-1,-1,-1,-1,-1,-1,-1,-1,-1,-1,-1,-1],"loss_changes":[8.916414E0,4.6037464E0,3.2178783E0,4.7618704E0,1.7539706E0,7.332135E0,3.231881E0,3.9594336E0,5.4803762E0,0E0,0E0,3.4111443E0,8.156325E-1,1.243695E0,1.3961072E0,0E0,0E0,0E0,0E0,0E0,0E0,0E0,0E0,0E0,0E0,0E0,0E0],"parents":[2147483647,0,0,1,1,2,2,3,3,4,4,5,5,6,6,7,7,8,8,11,11,12,12,13,13,14,14],"right_children":[2,4,6,8,10,12,14,16,18,-1,-1,20,22,24,26,-1,-1,-1,-1,-1,-1,-1,-1,-1,-1,-1,-1],"split_conditions":[1.41E1,9.9974513E-1,1.57E1,6E-1,2.1E0,4.95E0,-6.0384524E-1,-1.4E0,8.55E1,6.032416E-2,7.0277797E-3,1.52E1,2.1E0,-5.4310524E-1,7.22E1,-5.2703624E-3,7.7514774E-3,-5.2050324E-3,4.2864732E-2,3.26788E-2,9.299537E-2,-1.0552234E-2,1.7751422E-2,-1.3548821E-3,3.0511627E-2,-3.21901E-2,2.1247459E-3],"split_indices":[1,3,1,1,1,6,4,7,5,0,0,1,7,3,5,0,0,0,0,0,0,0,0,0,0,0,0],"split_type":[0,0,0,0,0,0,0,0,0,0,0,0,0,0,0,0,0,0,0,0,0,0,0,0,0,0,0],"sum_hessian":[9.01E2,8.54E2,4.7E1,8.48E2,6E0,2.1E1,2.6E1,2.6E2,5.88E2,3E0,3E0,1.2E1,9E0,1.5E1,1.1E1,8.7E1,1.73E2,5.83E2,5E0,8E0,4E0,6E0,3E0,4E0,1.1E1,4E0,7E0],"tree_param":{"num_deleted":"0","num_feature":"8","num_nodes":"27","size_leaf_vector":"1"}},{"base_weights":[-6.3452004E-3,-2.521817E-2,5.393492E-1,-3.9758563E-2,4.269539E-1,8.238817E-1,8.200561E-2,1.0156802E-1,-8.724053E-2,1.1260986E0,1.4028195E-1,3.7393466E-1,1.5418003E0,-2.5683124E-2,5.1850593E-1,6.3276844E-4,1.8007068E-2,4.0263932E-2,-4.8395763E-3,1.7706444E-2,7.5922735E-2,2.123568E-2,-1.0753211E-2,2.9788774E-3,5.331719E-2,3.6333628E-2,9.857389E-2,5.4442952E-3,4.5045227E-2],"categories":[],"categories_nodes":[],"categories_segments":[],"categories_sizes":[],"default_left":[0,0,0,0,0,0,0,0,0,0,0,0,0,0,0,0,0,0,0,0,0,0,0,0,0,0,0,0,0],"id":3,"left_children":[1,3,5,7,9,11,13,15,17,19,21,23,25,-1,27,-1,-1,-1,-1,-1,-1,-1,-1,-1,-1,-1,-1,-1,-1],"loss_changes":[9.550359E0,5.9079595E0,3.9664392E0,5.840255E0,5.453934E0,5.5609493E0,3.646458E0,5.0303493E0,5.627359E0,1.8853683E0,2.213846E0,2.766098E0,1.0190754E0,0E0,1.155009E0,0E0,0E0,0E0,0E0,0E0,0E0,0E0,0E0,0E0,0E0,0E0,0E0,0E0,0E0],"parents":[2147483647,0,0,1,1,2,2,3,3,4,4,5,5,6,6,7,7,8,8,9,9,10,10,11,11,12,12,14,14],"right_children":[2,4,6,8,10,12,14,16,18,20,22,24,26,-1,28,-1,-1,-1,-1,-1,-1,-1,-1,-1,-1,-1,-1,-1,-1],"split_conditions":[8.13E1,1.53E1,3.5E0,1E-1,1.57E1,1.6E0,-4.4313222E-1,7.44E1,5.625E1,-9.252111E-1,-6.0384524E-1,-7.1579534E-1,-5.1850516E-1,-2.5683124E-2,5.8E0,6.3276844E-4,1.8007068E-2,4.0263932E-2,-4.8395763E-3,1.7706444E-2,7.5922735E-2,2.123568E-2,-1.0753211E-2,2.9788774E-3,5.331719E-2,3.6333628E-2,9.857389E-2,5.4442952E-3,4.5045227E-2],"split_indices":[5,1,7,1,1,7,4,5,0,4,4,3,4,0,7,0,0,0,0,0,0,0,0,0,0,0,0,0,0],"split_type":[0,0,0,0,0,0,0,0,0,0,0,0,0,0,0,0,0,0,0,0,0,0,0,0,0,0,0,0,0],"sum_hessian":[9.25E2,8.95E2,3E1,8.68E2,2.7E1,1.8E1,1.2E1,2.18E2,6.5E2,7E0,2E1,1.2E1,6E0,5E0,7E0,1.63E2,5.5E1,6E0,6.44E2,3E0,4E0,1.1E1,9E0,9E0,3E0,3E0,3E0,4E0,3E0],"tree_param":{"num_deleted":"0","num_feature":"8","num_nodes":"29","size_leaf_vector":"1"}},{"base_weights":[-5.1056794E-3,-2.292854E-2,4.823977E-1,-4.3635286E-2,3.196055E-1,8.145242E-1,-2.8023678E-3,8.651921E-2,-9.161677E-2,6.092285E-2,2.363074E-1,3.913908E-1,1.4839827E0,4.3723274E-2,-3.215541E-1,4.70231E-2,3.130966E-3,-6.8579684E-3,2.2357441E-3,1.4026246E-3,2.4640549E-2,4.913285E-3,5.1317792E-2,3.4971114E-2,9.487738E-2,-2.6132215E-2,1.2141526E-3],"categories":[],"categories_nodes":[],"categories_segments":[],"categories_sizes":[],"default_left":[0,0,0,0,0,0,0,0,0,0,0,0,0,0,0,0,0,0,0,0,0,0,0,0,0,0,0],"id":4,"left_children":[1,3,5,7,9,11,13,15,17,-1,19,21,23,-1,25,-1,-1,-1,-1,-1,-1,-1,-1,-1,-1,-1,-1],"loss_changes":[7.8830266E0,6.220116E0,5.159012E0,5.1663017E0,3.4557014E0,4.801317E0,4.1960163E0,4.492347E0,3.7563071E0,0E0,2.4968271E0,2.3187594E0,9.440794E-1,0E0,7.776805E-1,0E0,0E0,0E0,0E0,0E0,0E0,0E0,0E0,0E0,0E0,0E0,0E0],"parents":[2147483647,0,0,1,1,2,2,3,3,4,4,5,5,6,6,7,7,8,8,10,10,11,11,12,12,14,14],"right_children":[2,4,6,8,10,12,14,16,18,-1,20,22,24,-1,26,-1,-1,-1,-1,-1,-1,-1,-1,-1,-1,-1,-1],"split_conditions":[8.13E1,1.36E1,3.5E0,1E-1,7.07E1,1.6E0,-9.0849173E-1,5.935E1,7.536977E-1,6.092285E-2,1E0,-7.1579534E-1,-5.1850516E-1,4.3723274E-2,-4.4313222E-1,4.70231E-2,3.130966E-3,-6.8579684E-3,2.2357441E-3,1.4026246E-3,2.4640549E-2,4.913285E-3,5.1317792E-2,3.4971114E-2,9.487738E-2,-2.6132215E-2,1.2141526E-3],"split_indices":[5,1,7,1,0,7,3,0,3,0,7,3,4,0,4,0,0,0,0,0,0,0,0,0,0,0,0],"split_type":[0,0,0,0,0,0,0,0,0,0,0,0,0,0,0,0,0,0,0,0,0,0,0,0,0,0,0],"sum_hessian":[9.05E2,8.74E2,3.1E1,8.25E2,4.9E1,1.8E1,1.3E1,2.22E2,6.03E2,3E0,4.6E1,1.2E1,6E0,3E0,1E1,5E0,2.17E2,4.52E2,1.51E2,2.6E1,2E1,9E0,3E0,3E0,3E0,6E0,4E0],"tree_param":{"num_deleted":"0","num_feature":"8","num_nodes":"27","size_leaf_vector":"1"}},{"base_weights":[-2.7112025E-3,1.62578E-1,-5.71695E-2,5.0388254E-2,5.082644E-1,-8.479671E-2,3.169889E-1,4.5063805E-2,1.988106E-2,6.400662E-2,3.5295033E-1,6.5089405E-1,-9.500987E-2,5.2625084E-1,-6.1017223E-2,-2.564964E-2,3.0113333E-3,2.977334E-3,3.2193646E-2,1.3463176E-2,5.3030815E-2,-6.7302287E-3,2.3680616E-3,4.7880035E-2,8.076022E-3,-1.9553807E-2,9.228632E-3],"categories":[],"categories_nodes":[],"categories_segments":[],"categories_sizes":[],"default_left":[0,0,0,0,0,0,0,0,0,0,0,0,0,0,0,0,0,0,0,0,0,0,0,0,0,0,0],"id":5,"left_children":[1,3,5,7,9,11,13,-1,15,-1,17,19,21,23,25,-1,-1,-1,-1,-1,-1,-1,-1,-1,-1,-1,-1],"loss_changes":[8.317558E0,8.855575E0,7.2110624E0,4.4988084E0,6.2615643E0,4.9307346E0,3.829021E0,0E0,3.6642468E0,0E0,4.058831E0,1.1216776E0,3.6141462E0,4.7224455E0,1.5312462E0,0E0,0E0,0E0,0E0,0E0,0E0,0E0,0E0,0E0,0E0,0E0,0E0],"parents":[2147483647,0,0,1,1,2,2,3,3,4,4,5,5,6,6,8,8,10,10,11,11,12,12,13,13,14,14],"right_children":[2,4,6,8,10,12,14,-1,16,-1,18,20,22,24,26,-1,-1,-1,-1,-1,-1,-1,-1,-1,-1,-1,-1],"split_conditions":[1E-1,7.55E1,1.41E1,5.935E1,7.63E1,5.625E1,5.35E0,4.5063805E-2,6.2E1,6.400662E-2,-1E0,-2E0,4.2E0,1.57E1,5E-1,-2.564964E-2,3.0113333E-3,2.977334E-3,3.2193646E-2,1.3463176E-2,5.3030815E-2,-6.7302287E-3,2.3680616E-3,4.7880035E-2,8.076022E-3,-1.9553807E-2,9.228632E-3],"split_indices":[1,5,1,0,5,0,6,0,0,0,6,7,6,1,7,0,0,0,0,0,0,0,0,0,0,0,0],"split_type":[0,0,0,0,0,0,0,0,0,0,0,0,0,0,0,0,0,0,0,0,0,0,0,0,0,0,0],"sum_hessian":[9.22E2,2.28E2,6.94E2,1.73E2,5.5E1,6.47E2,4.7E1,5E0,1.68E2,8E0,4.7E1,8E0,6.39E2,3E1,1.7E1,1.1E1,1.57E2,2.4E1,2.3E1,5E0,3E0,5E2,1.39E2,1.3E1,1.7E1,7E0,1E1],"tree_param":{"num_deleted":"0","num_feature":"8","num_nodes":"27","size_leaf_vector":"1"}},{"base_weights":[2.0557908E-2,3.656106E-3,5.0514007E-1,-9.713351E-3,3.8723764E-1,8.605586E-1,1.2091845E-2,1.0485016E-1,-4.943739E-2,1.0383862E0,1.4391476E-1,4.0773205E-3,1.153906E0,3.6046714E-2,-2.4676831E-1,8.404303E-3,-1.450934E-2,-5.292361E-3,6.093847E-3,8.402192E-2,-1.1887804E-3,2.4379376E-2,-1.7580928E-2,3.1578742E-2,9.3166046E-2,-2.0005789E-2,8.635903E-4],"categories":[],"categories_nodes":[],"categories_segments":[],"categories_sizes":[],"default_left":[0,0,0,0,0,0,0,0,0,0,0,0,0,0,0,0,0,0,0,0,0,0,0,0,0,0,0],"id":6,"left_children":[1,3,5,7,9,11,13,15,17,19,21,-1,23,-1,25,-1,-1,-1,-1,-1,-1,-1,-1,-1,-1,-1,-1],"loss_changes":[7.53324E0,4.5679274E0,5.421988E0,3.9235303E0,4.6037407E0,4.0192842E0,2.7467785E0,5.5944524E0,6.1977415E0,5.495659E0,4.0883746E0,0E0,3.640316E0,0E0,4.5229936E-1,0E0,0E0,0E0,0E0,0E0,0E0,0E0,0E0,0E0,0E0,0E0,0E0],"parents":[2147483647,0,0,1,1,2,2,3,3,4,4,5,5,6,6,7,7,8,8,9,9,10,10,12,12,14,14],"right_children":[2,4,6,8,10,12,14,16,18,20,22,-1,24,-1,26,-1,-1,-1,-1,-1,-1,-1,-1,-1,-1,-1,-1],"split_conditions":[8.13E1,1.53E1,3.5E0,1E-1,1.57E1,-5E-1,-9.0849173E-1,9.6118265E-1,7.536977E-1,4.95E0,-6.0384524E-1,4.0773205E-3,-5.1850516E-1,3.6046714E-2,-4.4313222E-1,8.404303E-3,-1.450934E-2,-5.292361E-3,6.093847E-3,8.402192E-2,-1.1887804E-3,2.4379376E-2,-1.7580928E-2,3.1578742E-2,9.3166046E-2,-2.0005789E-2,8.635903E-4],"split_indices":[5,1,7,1,1,7,3,4,3,6,4,0,4,0,4,0,0,0,0,0,0,0,0,0,0,0,0],"split_type":[0,0,0,0,0,0,0,0,0,0,0,0,0,0,0,0,0,0,0,0,0,0,0,0,0,0,0],"sum_hessian":[9.19E2,8.89E2,3E1,8.6E2,2.9E1,1.7E1,1.3E1,2.21E2,6.39E2,7E0,2.2E1,5E0,1.2E1,3E0,1E1,1.91E2,3E1,4.81E2,1.58E2,4E0,3E0,1.3E1,9E0,8E0,4E0,6E0,4E0],"tree_param":{"num_deleted":"0","num_feature":"8","num_nodes":"27","size_leaf_vector":"1"}},{"base_weights":[-1.6737297E-2,-3.0891195E-2,3.5342148E-1,6.1889434E-1,-3.6756568E-2,6.858576E-1,1.9819537E-2,8.746774E-3,5.0955962E-2,7.105692E-2,-7.0183404E-2,-5.4594845E-2,1.2096338E0,-2.9332036E-1,2.9966348E-1,4.3026917E-2,2.374428E-3,-5.445579E-3,2.0753907E-3,1.0209878E-2,-1.253549E-2,8.608123E-2,1.766591E-2,-2.4532191E-2,-1.8666392E-3,2.5320506E-2,-4.1826008E-4],"categories":[],"categories_nodes":[],"categories_segments":[],"categories_sizes":[],"default_left":[0,0,0,0,0,0,0,0,0,0,0,0,0,0,0,0,0,0,0,0,0,0,0,0,0,0,0],"id":7,"left_children":[1,3,5,7,9,11,13,-1,-1,15,17,19,21,23,25,-1,-1,-1,-1,-1,-1,-1,-1,-1,-1,-1,-1],"loss_changes":[4.8362117E0,3.4071245E0,3.757052E0,1.2431872E0,3.1799912E0,6.659172E0,1.6652428E0,0E0,0E0,3.847952E0,2.9156473E0,4.5721877E-1,3.7759752E0,4.3629426E-1,6.4107513E-1,0E0,0E0,0E0,0E0,0E0,0E0,0E0,0E0,0E0,0E0,0E0,0E0],"parents":[2147483647,0,0,1,1,2,2,3,3,4,4,5,5,6,6,9,9,10,10,11,11,12,12,13,13,14,14],"right_children":[2,4,6,8,10,12,14,-1,-1,16,18,20,22,24,26,-1,-1,-1,-1,-1,-1,-1,-1,-1,-1,-1,-1],"split_conditions":[8.13E1,5.625E1,3.35E0,-2E0,2E0,-8.5E-1,8.31E1,8.746774E-3,5.0955962E-2,5.935E1,7.536977E-1,8.22E1,8.28E1,1.4E0,6.1E0,4.3026917E-2,2.374428E-3,-5.445579E-3,2.0753907E-3,1.0209878E-2,-1.253549E-2,8.608123E-2,1.766591E-2,-2.4532191E-2,-1.8666392E-3,2.5320506E-2,-4.1826008E-4],"split_indices":[5,0,6,7,2,6,5,0,0,0,3,5,5,7,6,0,0,0,0,0,0,0,0,0,0,0,0],"split_type":[0,0,0,0,0,0,0,0,0,0,0,0,0,0,0,0,0,0,0,0,0,0,0,0,0,0,0],"sum_hessian":[9.2E2,8.87E2,3.3E1,7E0,8.8E2,1.6E1,1.7E1,4E0,3E0,2.08E2,6.72E2,7E0,9E0,8E0,9E0,5E0,2.03E2,4.99E2,1.73E2,3E0,4E0,5E0,4E0,4E0,4E0,5E0,4E0],"tree_param":{"num_deleted":"0","num_feature":"8","num_nodes":"27","size_leaf_vector":"1"}},{"base_weights":[-4.166632E-3,1.2984128E-1,-6.0083125E-2,-8.5137844E-2,2.2406164E-1,-9.82862E-2,2.0808014E-1,3.3344563E-2,-1.21675074E-1,9.618815E-1,1.815909E-1,-1.0555029E-1,4.752615E-2,1.4048728E-1,6.036971E-2,-3.0587358E-2,-1.7340869E-3,5.8137853E-2,2.642273E-2,1.1944608E-2,-8.239652E-3,-9.858269E-3,-2.9425255E-3,9.878521E-3,-2.2928415E-2],"categories":[],"categories_nodes":[],"categories_segments":[],"categories_sizes":[],"default_left":[0,0,0,0,0,0,0,0,0,0,0,0,0,0,0,0,0,0,0,0,0,0,0,0,0],"id":8,"left_children":[1,3,5,7,9,11,13,-1,15,17,19,21,-1,23,-1,-1,-1,-1,-1,-1,-1,-1,-1,-1,-1],"loss_changes":[6.87162E0,5.488037E0,6.6487474E0,2.36174E0,5.7164516E0,4.420103E0,5.301643E0,0E0,3.389424E0,2.5618362E-1,3.5922012E0,2.4014168E0,0E0,2.723689E0,0E0,0E0,0E0,0E0,0E0,0E0,0E0,0E0,0E0,0E0,0E0],"parents":[2147483647,0,0,1,1,2,2,3,3,4,4,5,5,6,6,8,8,9,9,10,10,11,11,13,13],"right_children":[2,4,6,8,10,12,14,-1,16,18,20,22,-1,24,-1,-1,-1,-1,-1,-1,-1,-1,-1,-1,-1],"split_conditions":[6E-1,-1.4E0,1.28E1,5.78E1,-1.1E0,9.9974513E-1,4.2180607E-1,3.3344563E-2,6.305E1,6.945E1,9.6118265E-1,-4.20831E-1,4.752615E-2,1.382503E-1,6.036971E-2,-3.0587358E-2,-1.7340869E-3,5.8137853E-2,2.642273E-2,1.1944608E-2,-8.239652E-3,-9.858269E-3,-2.9425255E-3,9.878521E-3,-2.2928415E-2],"split_indices":[1,7,1,0,7,3,4,0,0,0,4,3,0,4,0,0,0,0,0,0,0,0,0,0,0],"split_type":[0,0,0,0,0,0,0,0,0,0,0,0,0,0,0,0,0,0,0,0,0,0,0,0,0],"sum_hessian":[9.15E2,2.69E2,6.46E2,8.2E1,1.87E2,5.66E2,8E1,3E0,7.9E1,9E0,1.78E2,5.63E2,3E0,7.6E1,4E0,1.1E1,6.8E1,5E0,4E0,1.53E2,2.5E1,1.89E2,3.74E2,7E1,6E0],"tree_param":{"num_deleted":"0","num_feature":"8","num_nodes":"25","size_leaf_vector":"1"}},{"base_weights":[2.0403594E-3,-1.2725267E-2,3.0574182E-1,1.1489709E-1,-5.7842523E-2,6.060853E-1,-5.4940313E-2,3.4051305E-3,3.910017E-1,5.9082675E-1,-6.700287E-2,1.0627166E0,9.894692E-2,-3.9197248E-1,1.5669027E-1,-4.037796E-3,2.1360068E-2,3.17955E-2,7.449984E-3,8.341389E-3,4.4833023E-2,-2.4848659E-2,-2.7504284E-3,2.7707709E-2,9.706515E-2,-2.1381846E-2,1.6099503E-2,-3.7799657E-3,-2.8333826E-2,-1.06280465E-2,2.5177857E-2],"categories":[],"categories_nodes":[],"categories_segments":[],"categories_sizes":[],"default_left":[0,0,0,0,0,0,0,0,0,0,0,0,0,0,0,0,0,0,0,0,0,0,0,0,0,0,0,0,0,0,0],"id":9,"left_children":[1,3,5,7,9,11,13,15,17,19,21,23,25,27,29,-1,-1,-1,-1,-1,-1,-1,-1,-1,-1,-1,-1,-1,-1,-1,-1],"loss_changes":[4.06222E0,4.981532E0,4.5830965E0,6.955727E0,3.8365493E0,5.221079E0,1.4879446E0,5.8125753E0,3.7576904E0,1.0174704E0,3.2268522E0,4.2860107E0,1.5471059E0,3.99333E-1,1.7720896E0,0E0,0E0,0E0,0E0,0E0,0E0,0E0,0E0,0E0,0E0,0E0,0E0,0E0,0E0,0E0,0E0],"parents":[2147483647,0,0,1,1,2,2,3,3,4,4,5,5,6,6,7,7,8,8,9,9,10,10,11,11,12,12,13,13,14,14],"right_children":[2,4,6,8,10,12,14,16,18,20,22,24,26,28,30,-1,-1,-1,-1,-1,-1,-1,-1,-1,-1,-1,-1,-1,-1,-1,-1],"split_conditions":[1.41E1,1E-1,4.95E0,7.44E1,5.625E1,1.57E1,5.95E0,2.8829065E-1,-7.036774E-1,5.82E1,-9.5E-1,1.52E1,7.3E1,1.55E1,-3.7347654E-1,-4.037796E-3,2.1360068E-2,3.17955E-2,7.449984E-3,8.341389E-3,4.4833023E-2,-2.4848659E-2,-2.7504284E-3,2.7707709E-2,9.706515E-2,-2.1381846E-2,1.6099503E-2,-3.7799657E-3,-2.8333826E-2,-1.06280465E-2,2.5177857E-2],"split_indices":[1,1,6,5,0,1,6,3,3,5,6,1,5,1,3,0,0,0,0,0,0,0,0,0,0,0,0,0,0,0,0],"split_type":[0,0,0,0,0,0,0,0,0,0,0,0,0,0,0,0,0,0,0,0,0,0,0,0,0,0,0,0,0,0,0],"sum_hessian":[9.04E2,8.63E2,4.1E1,2.25E2,6.38E2,2.2E1,1.9E1,1.61E2,6.4E1,8E0,6.3E2,1.1E1,1.1E1,7E0,1.2E1,1.35E2,2.6E1,3.1E1,3.3E1,4E0,4E0,1.6E1,6.14E2,8E0,3E0,3E0,8E0,3E0,4E0,6E0,6E0],"tree_param":{"num_deleted":"0","num_feature":"8","num_nodes":"31","size_leaf_vector":"1"}},{"base_weights":[2.5085728E-3,-1.2451141E-2,3.7942168E-1,-2.4914699E-2,3.6857715E-1,6.83798E-1,-2.4762612E-2,5.671936E-1,-3.117687E-2,1.4432749E-1,1.020708E0,3.2013372E-1,1.3134413E0,-2.2150127E-2,3.4975764E-1,1.1130579E-2,4.711342E-2,-1.1498681E-2,-6.6251E-4,-1.3395809E-3,4.605307E-2,6.350579E-2,2.5806153E-2,4.8399013E-2,-7.3667206E-3,2.9826595E-2,8.509951E-2,-1.0621756E-3,4.0940996E-2],"categories":[],"categories_nodes":[],"categories_segments":[],"categories_sizes":[],"default_left":[0,0,0,0,0,0,0,0,0,0,0,0,0,0,0,0,0,0,0,0,0,0,0,0,0,0,0,0,0],"id":10,"left_children":[1,3,5,7,9,11,13,15,17,19,21,23,25,-1,27,-1,-1,-1,-1,-1,-1,-1,-1,-1,-1,-1,-1,-1,-1],"loss_changes":[5.169601E0,4.1977725E0,4.322778E0,3.1879249E0,3.947407E0,4.1590986E0,2.6611729E0,9.534364E-1,3.015461E0,2.948785E0,2.2539616E-1,4.382484E0,9.345894E-1,0E0,1.5835984E0,0E0,0E0,0E0,0E0,0E0,0E0,0E0,0E0,0E0,0E0,0E0,0E0,0E0,0E0],"parents":[2147483647,0,0,1,1,2,2,3,3,4,4,5,5,6,6,7,7,8,8,9,9,10,10,11,11,12,12,14,14],"right_children":[2,4,6,8,10,12,14,16,18,20,22,24,26,-1,28,-1,-1,-1,-1,-1,-1,-1,-1,-1,-1,-1,-1,-1,-1],"split_conditions":[8.13E1,1.53E1,3.5E0,5.625E1,8.285E1,1.6E0,-4.4313222E-1,-2E0,6.02E1,1.5526626E-1,5.15E0,2E0,-5.1850516E-1,-2.2150127E-2,5.9E0,1.1130579E-2,4.711342E-2,-1.1498681E-2,-6.6251E-4,-1.3395809E-3,4.605307E-2,6.350579E-2,2.5806153E-2,4.8399013E-2,-7.3667206E-3,2.9826595E-2,8.509951E-2,-1.0621756E-3,4.0940996E-2],"split_indices":[5,1,7,0,0,7,4,7,5,4,6,6,4,0,7,0,0,0,0,0,0,0,0,0,0,0,0,0,0],"split_type":[0,0,0,0,0,0,0,0,0,0,0,0,0,0,0,0,0,0,0,0,0,0,0,0,0,0,0,0,0],"sum_hessian":[9.15E2,8.81E2,3.4E1,8.54E2,2.7E1,1.9E1,1.5E1,8E0,8.46E2,2.1E1,6E0,1.3E1,6E0,7E0,8E0,5E0,3E0,6.9E1,7.77E2,1.8E1,3E0,3E0,3E0,5E0,8E0,3E0,3E0,5E0,3E0],"tree_param":{"num_deleted":"0","num_feature":"8","num_nodes":"29","size_leaf_vector":"1"}},{"base_weights":[9.906481E-3,-3.2529764E-2,1.3606009E-1,-7.4708916E-2,1.0416508E-1,4.1511148E-1,8.036285E-3,-9.7242095E-2,1.3039304E-1,4.009123E-1,1.5494575E-2,5.518608E-1,-3.9339498E-1,-2.7158562E-2,6.713345E-1,-2.5697348E-3,-1.3005114E-2,-1.4046113E-2,1.2379885E-2,9.010658E-3,6.605106E-2,2.3325316E-3,-3.051045E-2,5.70291E-2,1.698517E-2,-3.226778E-3,-2.8604764E-2,-5.955065E-3,8.630825E-3,4.1602366E-2,1.5130495E-2],"categories":[],"categories_nodes":[],"categories_segments":[],"categories_sizes":[],"default_left":[0,0,0,0,0,0,0,0,0,0,0,0,0,0,0,0,0,0,0,0,0,0,0,0,0,0,0,0,0,0,0],"id":11,"left_children":[1,3,5,7,9,11,13,15,17,19,21,23,25,27,29,-1,-1,-1,-1,-1,-1,-1,-1,-1,-1,-1,-1,-1,-1,-1,-1],"loss_changes":[4.870744E0,3.9342055E0,8.17774E0,2.4205325E0,4.230137E0,8.177617E0,3.706692E0,3.4959884E0,2.5763752E0,7.2754235E0,2.4652734E0,7.356436E0,6.095197E-1,2.7941065E0,2.2228408E-1,0E0,0E0,0E0,0E0,0E0,0E0,0E0,0E0,0E0,0E0,0E0,0E0,0E0,0E0,0E0,0E0],"parents":[2147483647,0,0,1,1,2,2,3,3,4,4,5,5,6,6,7,7,8,8,9,9,10,10,11,11,12,12,13,13,14,14],"right_children":[2,4,6,8,10,12,14,16,18,20,22,24,26,28,30,-1,-1,-1,-1,-1,-1,-1,-1,-1,-1,-1,-1,-1,-1,-1,-1],"split_conditions":[7.44E1,7.536977E-1,1.55E0,7.76E1,8.4602886E-1,-3.251276E-1,9.01E1,6.5E0,2.1E0,9E0,7.25E1,7.355E1,7.66E1,-3.7347654E-1,3.2E0,-2.5697348E-3,-1.3005114E-2,-1.4046113E-2,1.2379885E-2,9.010658E-3,6.605106E-2,2.3325316E-3,-3.051045E-2,5.70291E-2,1.698517E-2,-3.226778E-3,-2.8604764E-2,-5.955065E-3,8.630825E-3,4.1602366E-2,1.5130495E-2],"split_indices":[5,3,6,0,3,3,0,1,6,1,5,0,5,3,7,0,0,0,0,0,0,0,0,0,0,0,0,0,0,0,0],"split_type":[0,0,0,0,0,0,0,0,0,0,0,0,0,0,0,0,0,0,0,0,0,0,0,0,0,0,0,0,0,0,0],"sum_hessian":[9.08E2,6.8E2,2.28E2,5.2E2,1.6E2,7.1E1,1.57E2,4.69E2,5.1E1,3.6E1,1.24E2,6.1E1,1E1,1.5E2,7E0,3.67E2,1.02E2,1.1E1,4E1,3E1,6E0,1.19E2,5E0,1.5E1,4.6E1,4E0,6E0,1.03E2,4.7E1,4E0,3E0],"tree_param":{"num_deleted":"0","num_feature":"8","num_nodes":"31","size_leaf_vector":"1"}},{"base_weights":[-1.4289801E-3,1.2809432E-1,-4.3099623E-2,8.651794E-2,7.3962075E-1,-8.136478E-2,1.0780895E-1,4.0182628E-2,6.500164E-2,1.20139465E-1,5.946071E-2,-1.00675605E-1,2.697017E-1,5.6363445E-2,9.496143E-1,-2.568968E-2,4.408803E-3,2.7663155E-2,-1.7150952E-2,-7.3239575E-3,1.0446993E-3,3.580932E-2,1.6487142E-3,4.9393255E-2,1.3634147E-3,9.6564285E-2,-1.2822867E-3],"categories":[],"categories_nodes":[],"categories_segments":[],"categories_sizes":[],"default_left":[0,0,0,0,0,0,0,0,0,0,0,0,0,0,0,0,0,0,0,0,0,0,0,0,0,0,0],"id":12,"left_children":[1,3,5,7,9,11,13,-1,15,17,-1,19,21,23,25,-1,-1,-1,-1,-1,-1,-1,-1,-1,-1,-1,-1],"loss_changes":[4.922479E0,5.580372E0,3.9932044E0,3.172649E0,3.7563343E0,3.7625933E0,6.00947E0,0E0,2.781606E0,1.5940142E0,0E0,2.9152908E0,3.0415437E0,3.5776532E0,7.708609E0,0E0,0E0,0E0,0E0,0E0,0E0,0E0,0E0,0E0,0E0,0E0,0E0],"parents":[2147483647,0,0,1,1,2,2,3,3,4,4,5,5,6,6,8,8,9,9,11,11,12,12,13,13,14,14],"right_children":[2,4,6,8,10,12,14,-1,16,18,-1,20,22,24,26,-1,-1,-1,-1,-1,-1,-1,-1,-1,-1,-1,-1],"split_conditions":[1E-1,8.05E1,1.09E1,5.935E1,7.835E1,9.8994625E-1,4.2180607E-1,4.0182628E-2,6.155E1,8.22E1,5.946071E-2,7.905634E-1,-5.802557E-2,6.93E1,6.225287E-1,-2.568968E-2,4.408803E-3,2.7663155E-2,-1.7150952E-2,-7.3239575E-3,1.0446993E-3,3.580932E-2,1.6487142E-3,4.9393255E-2,1.3634147E-3,9.6564285E-2,-1.2822867E-3],"split_indices":[1,5,1,0,0,4,4,0,0,5,0,3,3,0,4,0,0,0,0,0,0,0,0,0,0,0,0],"split_type":[0,0,0,0,0,0,0,0,0,0,0,0,0,0,0,0,0,0,0,0,0,0,0,0,0,0,0],"sum_hessian":[9.1E2,2.21E2,6.89E2,2.08E2,1.3E1,5.5E2,1.39E2,5E0,2.03E2,6E0,7E0,5.22E2,2.8E1,1.32E2,7E0,7E0,1.96E2,3E0,3E0,3.79E2,1.43E2,9E0,1.9E1,3E0,1.29E2,3E0,4E0],"tree_param":{"num_deleted":"0","num_feature":"8","num_nodes":"27","size_leaf_vector":"1"}},{"base_weights":[-2.479096E-3,-1.503056E-2,4.1274077E-1,-2.8143877E-2,3.7662637E-1,9.658032E-1,8.255382E-2,-3.379059E-2,6.688088E-1,-1.2537284E-1,6.9036883E-1,1.3542577E0,2.2278489E-3,4.090691E-1,-2.8941357E-1,-1.0999197E-3,-1.5539204E-2,5.3082068E-2,5.4387017E-3,-1.3785175E-2,3.5454188E-3,4.6258055E-2,1.7639045E-2,8.628547E-2,3.221208E-2,-7.0283934E-3,3.9946087E-2,-2.0947002E-2,-1.1385247E-3],"categories":[],"categories_nodes":[],"categories_segments":[],"categories_sizes":[],"default_left":[0,0,0,0,0,0,0,0,0,0,0,0,0,0,0,0,0,0,0,0,0,0,0,0,0,0,0,0,0],"id":13,"left_children":[1,3,5,7,9,11,13,15,17,19,21,23,-1,25,27,-1,-1,-1,-1,-1,-1,-1,-1,-1,-1,-1,-1,-1,-1],"loss_changes":[4.7956796E0,4.5969777E0,4.850847E0,3.4267988E0,4.65401E0,3.518281E0,2.3045447E0,2.7989678E0,1.42452E0,3.736347E-1,1.1003551E0,7.343836E-1,0E0,2.255077E0,3.0129653E-1,0E0,0E0,0E0,0E0,0E0,0E0,0E0,0E0,0E0,0E0,0E0,0E0,0E0,0E0],"parents":[2147483647,0,0,1,1,2,2,3,3,4,4,5,5,6,6,7,7,8,8,9,9,10,10,11,11,13,13,14,14],"right_children":[2,4,6,8,10,12,14,16,18,20,22,24,-1,26,28,-1,-1,-1,-1,-1,-1,-1,-1,-1,-1,-1,-1,-1,-1],"split_conditions":[8.17E1,1.53E1,-9.011687E-1,9.9974513E-1,-5.4310524E-1,6.3E0,3.1E0,6.25E0,2.1E0,-9.789889E-1,4.95E0,1.24E1,2.2278489E-3,1.3E0,-4.4313222E-1,-1.0999197E-3,-1.5539204E-2,5.3082068E-2,5.4387017E-3,-1.3785175E-2,3.5454188E-3,4.6258055E-2,1.7639045E-2,8.628547E-2,3.221208E-2,-7.0283934E-3,3.9946087E-2,-2.0947002E-2,-1.1385247E-3],"split_indices":[5,1,3,3,3,6,7,6,1,3,6,1,0,7,4,0,0,0,0,0,0,0,0,0,0,0,0,0,0],"split_type":[0,0,0,0,0,0,0,0,0,0,0,0,0,0,0,0,0,0,0,0,0,0,0,0,0,0,0,0,0],"sum_hessian":[9.18E2,8.92E2,2.6E1,8.64E2,2.8E1,9E0,1.7E1,8.58E2,6E0,1.1E1,1.7E1,6E0,3E0,9E0,8E0,8.24E2,3.4E1,3E0,3E0,6E0,5E0,9E0,8E0,3E0,3E0,4E0,5E0,5E0,3E0],"tree_param":{"num_deleted":"0","num_feature":"8","num_nodes":"29","size_leaf_vector":"1"}},{"base_weights":[8.608901E-3,-2.991339E-3,3.6071932E-1,9.244262E-3,-2.9900745E-1,6.8597716E-1,-2.3388231E-1,-2.2101961E-4,7.2862583E-1,7.1305805E-3,-3.4486583E-1,6.888693E-2,9.6548903E-1,-2.1803565E-2,4.797938E-3,-8.366533E-4,1.1518093E-2,4.1524805E-3,5.4283112E-2,-8.1527075E-3,-2.1616802E-2,1.0579171E-2,-4.5515643E-3,2.5396219E-2,7.980039E-2],"categories":[],"categories_nodes":[],"categories_segments":[],"categories_sizes":[],"default_left":[0,0,0,0,0,0,0,0,0,0,0,0,0,0,0,0,0,0,0,0,0,0,0,0,0],"id":14,"left_children":[1,3,5,7,9,11,13,15,17,-1,19,21,23,-1,-1,-1,-1,-1,-1,-1,-1,-1,-1,-1,-1],"loss_changes":[3.713949E0,3.1936886E0,5.769004E0,5.767511E0,7.579999E-1,3.2106876E0,7.754374E-1,3.1906445E0,2.4452724E0,0E0,4.3840504E-1,1.7899905E-1,2.939888E0,0E0,0E0,0E0,0E0,0E0,0E0,0E0,0E0,0E0,0E0,0E0,0E0],"parents":[2147483647,0,0,1,1,2,2,3,3,4,4,5,5,6,6,7,7,8,8,10,10,11,11,12,12],"right_children":[2,4,6,8,10,12,14,16,18,-1,20,22,24,-1,-1,-1,-1,-1,-1,-1,-1,-1,-1,-1,-1],"split_conditions":[8.13E1,6.25E0,3.5E0,5.95E0,6.89E1,-5E-1,8.85E1,1.28E1,7.72E1,7.1305805E-3,-1E0,-3.322355E-1,-5.1850516E-1,-2.1803565E-2,4.797938E-3,-8.366533E-4,1.1518093E-2,4.1524805E-3,5.4283112E-2,-8.1527075E-3,-2.1616802E-2,1.0579171E-2,-4.5515643E-3,2.5396219E-2,7.980039E-2],"split_indices":[5,6,7,6,0,7,0,1,0,0,7,4,4,0,0,0,0,0,0,0,0,0,0,0,0],"split_type":[0,0,0,0,0,0,0,0,0,0,0,0,0,0,0,0,0,0,0,0,0,0,0,0,0],"sum_hessian":[9.08E2,8.8E2,2.8E1,8.46E2,3.4E1,1.8E1,1E1,8.36E2,1E1,3E0,3.1E1,6E0,1.2E1,6E0,4E0,7.81E2,5.5E1,4E0,6E0,1.1E1,2E1,3E0,3E0,8E0,4E0],"tree_param":{"num_deleted":"0","num_feature":"8","num_nodes":"25","size_leaf_vector":"1"}},{"base_weights":[-1.3110695E-2,-2.9579416E-2,2.274432E-1,-3.7141073E-2,5.5810684E-1,4.2561564E-1,-1.01244755E-1,1.9816672E-2,-1.1303499E-1,8.304784E-1,-6.3081593E-3,-2.1987607E-1,6.112642E-1,2.2975588E-2,-2.0833382E-1,6.360025E-3,-3.5311305E-3,4.5775296E-3,-7.1045468E-3,-3.0240507E-3,6.885751E-2,7.3280754E-3,-2.1376088E-2,4.2018436E-2,7.998443E-3,-2.3919275E-2,2.8053585E-3],"categories":[],"categories_nodes":[],"categories_segments":[],"categories_sizes":[],"default_left":[0,0,0,0,0,0,0,0,0,0,0,0,0,0,0,0,0,0,0,0,0,0,0,0,0,0,0],"id":15,"left_children":[1,3,5,7,9,11,13,15,17,19,-1,21,23,-1,25,-1,-1,-1,-1,-1,-1,-1,-1,-1,-1,-1,-1],"loss_changes":[3.6474519E0,3.84691E0,3.8861685E0,3.6808972E0,2.1549091E0,4.5682826E0,1.4769021E0,4.738589E0,2.1827245E0,3.979792E0,0E0,7.4746084E-1,2.863987E0,0E0,1.4550956E0,0E0,0E0,0E0,0E0,0E0,0E0,0E0,0E0,0E0,0E0,0E0,0E0],"parents":[2147483647,0,0,1,1,2,2,3,3,4,4,5,5,6,6,7,7,8,8,9,9,11,11,12,12,14,14],"right_children":[2,4,6,8,10,12,14,16,18,20,-1,22,24,-1,26,-1,-1,-1,-1,-1,-1,-1,-1,-1,-1,-1,-1],"split_conditions":[1.36E1,8.55E1,5.35E0,4.1E0,6.3E0,1.9E0,-9.957283E-1,4.6801534E-1,6.47E1,7.835E1,-6.3081593E-3,8E-1,1.57E1,2.2975588E-2,7E-1,6.360025E-3,-3.5311305E-3,4.5775296E-3,-7.1045468E-3,-3.0240507E-3,6.885751E-2,7.3280754E-3,-2.1376088E-2,4.2018436E-2,7.998443E-3,-2.3919275E-2,2.8053585E-3],"split_indices":[1,5,6,1,6,6,4,4,5,0,0,6,1,0,7,0,0,0,0,0,0,0,0,0,0,0,0],"split_type":[0,0,0,0,0,0,0,0,0,0,0,0,0,0,0,0,0,0,0,0,0,0,0,0,0,0,0],"sum_hessian":[9.18E2,8.6E2,5.8E1,8.5E2,1E1,3.6E1,2.2E1,4.86E2,3.64E2,7E0,3E0,8E0,2.8E1,3E0,1.9E1,2.22E2,2.64E2,4.5E1,3.19E2,3E0,4E0,3E0,5E0,1.8E1,1E1,9E0,1E1],"tree_param":{"num_deleted":"0","num_feature":"8","num_nodes":"27","size_leaf_vector":"1"}},{"base_weights":[-8.138094E-4,-1.5264256E-2,2.4370404E-1,2.4056083E-2,-9.7436845E-2,7.925109E-2,6.2214416E-1,-9.382422E-2,8.370659E-2,-1.1134551E-1,3.365591E-2,2.3989332E-1,-1.6164091E-1,8.4014255E-1,9.059435E-4,-5.8122156E-3,2.592579E-2,1.2010554E-2,-1.9773948E-3,-1.3886699E-2,-2.807625E-3,3.0473253E-2,-7.411885E-4,-2.0873351E-2,5.719517E-3,6.461825E-2,2.5450675E-2],"categories":[],"categories_nodes":[],"categories_segments":[],"categories_sizes":[],"default_left":[0,0,0,0,0,0,0,0,0,0,0,0,0,0,0,0,0,0,0,0,0,0,0,0,0,0,0],"id":16,"left_children":[1,3,5,7,9,11,13,15,17,19,-1,21,23,25,-1,-1,-1,-1,-1,-1,-1,-1,-1,-1,-1,-1,-1],"loss_changes":[3.166106E0,2.7358158E0,3.0624735E0,4.036972E0,3.0115128E0,1.4318839E0,1.9599261E0,2.7099166E0,7.358943E0,2.4639447E0,0E0,2.0800316E0,1.1069942E0,9.893522E-1,0E0,0E0,0E0,0E0,0E0,0E0,0E0,0E0,0E0,0E0,0E0,0E0,0E0],"parents":[2147483647,0,0,1,1,2,2,3,3,4,4,5,5,6,6,7,7,8,8,9,9,11,11,12,12,13,13],"right_children":[2,4,6,8,10,12,14,16,18,20,-1,22,24,26,-1,-1,-1,-1,-1,-1,-1,-1,-1,-1,-1,-1,-1],"split_conditions":[1.41E1,6.2E0,8.285E1,-1.4E0,9.01E1,4.95E0,6.2E0,7.74E1,7E-1,7.8E0,3.365591E-2,1.57E1,5.95E0,1.2E0,9.059435E-4,-5.8122156E-3,2.592579E-2,1.2010554E-2,-1.9773948E-3,-1.3886699E-2,-2.807625E-3,3.0473253E-2,-7.411885E-4,-2.0873351E-2,5.719517E-3,6.461825E-2,2.5450675E-2],"split_indices":[1,1,0,7,0,6,6,5,7,1,0,1,6,7,0,0,0,0,0,0,0,0,0,0,0,0,0],"split_type":[0,0,0,0,0,0,0,0,0,0,0,0,0,0,0,0,0,0,0,0,0,0,0,0,0,0,0],"sum_hessian":[8.94E2,8.45E2,4.9E1,5.72E2,2.73E2,3.5E1,1.4E1,1.92E2,3.8E2,2.69E2,4E0,2.1E1,1.4E1,1E1,4E0,1.86E2,6E0,1.67E2,2.13E2,6.6E1,2.03E2,8E0,1.3E1,7E0,7E0,3E0,7E0],"tree_param":{"num_deleted":"0","num_feature":"8","num_nodes":"27","size_leaf_vector":"1"}},{"base_weights":[1.4384694E-2,1.5887574E-3,3.4935743E-1,-1.1061939E-2,2.849898E-1,7.738694E-2,6.007775E-1,-1.6567271E-2,6.377881E-1,5.2256614E-1,-2.5250975E-2,4.2532627E-2,-1.4907372E-1,-1.8097634E-3,8.691991E-1,3.2113348E-3,-2.556227E-3,5.0831597E-2,4.97486E-3,-3.0427272E-3,3.317107E-2,1.3635635E-2,-1.602045E-2,-1.4826133E-2,8.7819435E-3,7.4781865E-2,1.8451264E-2],"categories":[],"categories_nodes":[],"categories_segments":[],"categories_sizes":[],"default_left":[0,0,0,0,0,0,0,0,0,0,0,0,0,0,0,0,0,0,0,0,0,0,0,0,0,0,0],"id":17,"left_children":[1,3,5,7,9,11,13,15,17,19,21,-1,23,-1,25,-1,-1,-1,-1,-1,-1,-1,-1,-1,-1,-1,-1],"loss_changes":[3.844247E0,3.1043684E0,2.210009E0,2.9718664E0,2.7403128E0,3.1037521E0,2.938074E0,2.3011146E0,1.3263457E0,1.7661066E0,1.5824679E0,0E0,7.2238016E-1,0E0,3.2080078E0,0E0,0E0,0E0,0E0,0E0,0E0,0E0,0E0,0E0,0E0,0E0,0E0],"parents":[2147483647,0,0,1,1,2,2,3,3,4,4,5,5,6,6,7,7,8,8,9,9,10,10,12,12,14,14],"right_children":[2,4,6,8,10,12,14,16,18,20,22,-1,24,-1,26,-1,-1,-1,-1,-1,-1,-1,-1,-1,-1,-1,-1],"split_conditions":[8.13E1,1.41E1,-4.4313222E-1,9.9974513E-1,1.65E1,5E-1,9E-1,6E-1,2.1E0,-1.7E0,-6.0384524E-1,4.2532627E-2,8.85E1,-1.8097634E-3,3.5E0,3.2113348E-3,-2.556227E-3,5.0831597E-2,4.97486E-3,-3.0427272E-3,3.317107E-2,1.3635635E-2,-1.602045E-2,-1.4826133E-2,8.7819435E-3,7.4781865E-2,1.8451264E-2],"split_indices":[5,1,4,3,1,7,7,1,1,7,4,0,0,0,7,0,0,0,0,0,0,0,0,0,0,0,0],"split_type":[0,0,0,0,0,0,0,0,0,0,0,0,0,0,0,0,0,0,0,0,0,0,0,0,0,0,0],"sum_hessian":[8.96E2,8.64E2,3.2E1,8.28E2,3.6E1,1.6E1,1.6E1,8.22E2,6E0,2E1,1.6E1,3E0,1.3E1,5E0,1.1E1,2.46E2,5.76E2,3E0,3E0,4E0,1.6E1,8E0,8E0,9E0,4E0,4E0,7E0],"tree_param":{"num_deleted":"0","num_feature":"8","num_nodes":"27","size_leaf_vector":"1"}},{"base_weights":[1.5351196E-2,1.0775581E-2,6.1387104E-1,-1.621254E-3,2.3091573E-1,4.8925415E-2,4.7883033E-3,1.02250054E-1,-3.709481E-2,7.691688E-2,5.74852E-1,3.6438087E-3,3.295348E-2,-3.883518E-3,3.989035E-3,-6.813818E-4,3.9102193E-2,3.908193E-2,2.4755238E-4],"categories":[],"categories_nodes":[],"categories_segments":[],"categories_sizes":[],"default_left":[0,0,0,0,0,0,0,0,0,0,0,0,0,0,0,0,0,0,0],"id":18,"left_children":[1,3,5,7,9,-1,-1,11,13,15,17,-1,-1,-1,-1,-1,-1,-1,-1],"loss_changes":[2.526587E0,2.508363E0,1.2287347E0,3.2131534E0,2.5511081E0,0E0,0E0,3.5829914E0,3.0886836E0,2.2452457E0,1.7638478E0,0E0,0E0,0E0,0E0,0E0,0E0,0E0,0E0],"parents":[2147483647,0,0,1,1,2,2,3,3,4,4,7,7,8,8,9,9,10,10],"right_children":[2,4,6,8,10,-1,-1,12,14,16,18,-1,-1,-1,-1,-1,-1,-1,-1],"split_conditions":[9.9974513E-1,1.41E1,2.1E0,1E-1,8.285E1,4.8925415E-2,4.7883033E-3,4.324994E-1,7.536977E-1,2.0601831E-1,6.2E0,3.6438087E-3,3.295348E-2,-3.883518E-3,3.989035E-3,-6.813818E-4,3.9102193E-2,3.908193E-2,2.4755238E-4],"split_indices":[3,1,1,1,0,0,0,3,3,4,6,0,0,0,0,0,0,0,0],"split_type":[0,0,0,0,0,0,0,0,0,0,0,0,0,0,0,0,0,0,0],"sum_hessian":[9.24E2,9.18E2,6E0,8.7E2,4.8E1,3E0,3E0,2.21E2,6.49E2,3.4E1,1.4E1,2.11E2,1E1,4.82E2,1.67E2,3.1E1,3E0,1E1,4E0],"tree_param":{"num_deleted":"0","num_feature":"8","num_nodes":"19","size_leaf_vector":"1"}},{"base_weights":[1.7280765E-2,6.3002306E-1,1.1790565E-2,1.1987294E-2,4.081201E-2,-1.2953822E-1,4.2223472E-2,-5.7011795E-1,-6.9250606E-2,3.306321E-1,2.69623E-2,-3.1044263E-2,-1.1225969E-2,-5.4154084E-3,1.6182376E-2,4.6944607E-2,1.1422617E-2,6.3662226E-3,-6.7784474E-4],"categories":[],"categories_nodes":[],"categories_segments":[],"categories_sizes":[],"default_left":[0,0,0,0,0,0,0,0,0,0,0,0,0,0,0,0,0,0,0],"id":19,"left_children":[1,3,5,-1,-1,7,9,11,13,15,17,-1,-1,-1,-1,-1,-1,-1,-1],"loss_changes":[3.030334E0,3.8572E-1,3.859207E0,0E0,0E0,4.1837974E0,3.239358E0,1.939559E-1,2.1987896E0,2.0851274E0,2.8564746E0,0E0,0E0,0E0,0E0,0E0,0E0,0E0,0E0],"parents":[2147483647,0,0,1,1,2,2,5,5,6,6,7,7,8,8,9,9,10,10],"right_children":[2,4,6,-1,-1,8,10,12,14,16,18,-1,-1,-1,-1,-1,-1,-1,-1],"split_conditions":[5.625E1,5.82E1,6.47E1,1.1987294E-2,4.081201E-2,-9E-1,6.2E1,6.31E1,9.738922E-1,8.5E-1,1.55E0,-3.1044263E-2,-1.1225969E-2,-5.4154084E-3,1.6182376E-2,4.6944607E-2,1.1422617E-2,6.3662226E-3,-6.7784474E-4],"split_indices":[0,5,0,0,0,6,5,0,3,6,6,0,0,0,0,0,0,0,0],"split_type":[0,0,0,0,0,0,0,0,0,0,0,0,0,0,0,0,0,0,0],"sum_hessian":[9.02E2,7E0,8.95E2,3E0,4E0,1.58E2,7.37E2,1.8E1,1.4E2,3.6E1,7.01E2,1.5E1,3E0,1.28E2,1.2E1,4E0,3.2E1,2.01E2,5E2],"tree_param":{"num_deleted":"0","num_feature":"8","num_nodes":"19","size_leaf_vector":"1"}},{"base_weights":[1.5423455E-2,5.106236E-1,1.0557053E-2,6.77659E-3,3.917953E-2,1.335206E-3,2.6613337E-1,4.226643E-1,-3.9449255E-3,5.866307E-1,-1.8783677E-1,3.3554055E-2,-4.8259794E-4,-8.501077E-3,7.855189E-4,3.294651E-3,4.4245165E-2,-1.9244676E-2,3.2102398E-3],"categories":[],"categories_nodes":[],"categories_segments":[],"categories_sizes":[],"default_left":[0,0,0,0,0,0,0,0,0,0,0,0,0,0,0,0,0,0,0],"id":20,"left_children":[1,3,5,-1,-1,7,9,11,13,15,17,-1,-1,-1,-1,-1,-1,-1,-1],"loss_changes":[2.2285342E0,8.152878E-1,2.1656225E0,0E0,0E0,1.977177E0,4.7660694E0,1.1878179E0,2.8687143E0,2.8928037E0,7.2004294E-1,0E0,0E0,0E0,0E0,0E0,0E0,0E0,0E0],"parents":[2147483647,0,0,1,1,2,2,5,5,6,6,7,7,8,8,9,9,10,10],"right_children":[2,4,6,-1,-1,8,10,12,14,16,18,-1,-1,-1,-1,-1,-1,-1,-1],"split_conditions":[5.625E1,5.82E1,8.13E1,6.77659E-3,3.917953E-2,-3.8E0,3.5E0,7.08E1,-2.5E-1,8.075E1,-4.4313222E-1,3.3554055E-2,-4.8259794E-4,-8.501077E-3,7.855189E-4,3.294651E-3,4.4245165E-2,-1.9244676E-2,3.2102398E-3],"split_indices":[0,5,5,0,0,6,7,0,6,0,4,0,0,0,0,0,0,0,0],"split_type":[0,0,0,0,0,0,0,0,0,0,0,0,0,0,0,0,0,0,0],"sum_hessian":[9.26E2,8E0,9.18E2,4E0,4E0,8.87E2,3.1E1,1E1,8.77E2,1.8E1,1.3E1,6E0,4E0,9.2E1,7.85E2,7E0,1.1E1,7E0,6E0],"tree_param":{"num_deleted":"0","num_feature":"8","num_nodes":"19","size_leaf_vector":"1"}},{"base_weights":[2.730212E-3,-8.018785E-3,2.7414116E-1,5.520693E-1,-1.311877E-2,5.017783E-1,-2.7539063E-2,6.5055266E-3,4.7075026E-2,-1.2993631E-1,8.310211E-3,1.9762662E-1,1.038399E0,3.3434846E-2,-2.396471E-1,-1.107965E-2,1.00651905E-2,-1.3728355E-3,9.253769E-3,3.86187E-2,-1.037484E-2,2.084016E-2,7.001976E-2,-1.8402724E-2,-1.4248063E-3],"categories":[],"categories_nodes":[],"categories_segments":[],"categories_sizes":[],"default_left":[0,0,0,0,0,0,0,0,0,0,0,0,0,0,0,0,0,0,0,0,0,0,0,0,0],"id":21,"left_children":[1,3,5,7,9,11,13,-1,-1,15,17,19,21,-1,23,-1,-1,-1,-1,-1,-1,-1,-1,-1,-1],"loss_changes":[2.6803675E0,2.5323358E0,2.4173956E0,1.1920922E0,2.196457E0,3.0590668E0,2.5230873E0,0E0,0E0,4.1736193E0,4.696262E0,3.4200757E0,9.914179E-1,0E0,3.4198534E-1,0E0,0E0,0E0,0E0,0E0,0E0,0E0,0E0,0E0,0E0],"parents":[2147483647,0,0,1,1,2,2,3,3,4,4,5,5,6,6,9,9,10,10,11,11,12,12,14,14],"right_children":[2,4,6,8,10,12,14,-1,-1,16,18,20,22,-1,24,-1,-1,-1,-1,-1,-1,-1,-1,-1,-1],"split_conditions":[8.13E1,5.625E1,3.5E0,5.82E1,6.405E1,1.6E0,-9.223291E-1,6.5055266E-3,4.7075026E-2,9.852403E-1,7.6903087E-1,2E0,-5.1850516E-1,3.3434846E-2,-4.4313222E-1,-1.107965E-2,1.00651905E-2,-1.3728355E-3,9.253769E-3,3.86187E-2,-1.037484E-2,2.084016E-2,7.001976E-2,-1.8402724E-2,-1.4248063E-3],"split_indices":[5,0,7,5,0,7,3,0,0,4,3,6,4,0,4,0,0,0,0,0,0,0,0,0,0],"split_type":[0,0,0,0,0,0,0,0,0,0,0,0,0,0,0,0,0,0,0,0,0,0,0,0,0],"sum_hessian":[9.17E2,8.83E2,3.4E1,7E0,8.76E2,1.9E1,1.5E1,4E0,3E0,1.35E2,7.41E2,1.3E1,6E0,3E0,1.2E1,1.06E2,2.9E1,6.17E2,1.24E2,5E0,8E0,3E0,3E0,7E0,5E0],"tree_param":{"num_deleted":"0","num_feature":"8","num_nodes":"25","size_leaf_vector":"1"}},{"base_weights":[5.7254946E-3,1.6622392E-3,3.7164014E-2,8.4542036E-2,-2.6047815E-2,6.270996E-2,4.409387E-2,-3.9620418E-2,2.3379532E-1,3.9050784E-2,2.132621E-3,-2.6249678E-3,1.0941053E-2,3.7442584E-2,2.325723E-3],"categories":[],"categories_nodes":[],"categories_segments":[],"categories_sizes":[],"default_left":[0,0,0,0,0,0,0,0,0,0,0,0,0,0,0],"id":22,"left_children":[1,3,-1,5,7,9,-1,11,13,-1,-1,-1,-1,-1,-1],"loss_changes":[2.7349095E0,2.0898151E0,0E0,3.9136052E0,2.414505E0,3.1795485E0,0E0,2.1716537E0,3.2448144E0,0E0,0E0,0E0,0E0,0E0,0E0],"parents":[2147483647,0,0,1,1,3,3,4,4,5,5,7,7,8,8],"right_children":[2,4,-1,6,8,10,-1,12,14,-1,-1,-1,-1,-1,-1],"split_conditions":[9.9974513E-1,1E-1,3.7164014E-2,6.8E0,1.53E1,5.935E1,4.409387E-2,9.8994625E-1,1.57E1,3.9050784E-2,2.132621E-3,-2.6249678E-3,1.0941053E-2,3.7442584E-2,2.325723E-3],"split_indices":[3,1,0,7,1,0,0,4,1,0,0,0,0,0,0],"split_type":[0,0,0,0,0,0,0,0,0,0,0,0,0,0,0],"sum_hessian":[9.12E2,9.08E2,4E0,2.27E2,6.81E2,2.22E2,5E0,6.48E2,3.3E1,5E0,2.17E2,6.18E2,3E1,8E0,2.5E1],"tree_param":{"num_deleted":"0","num_feature":"8","num_nodes":"15","size_leaf_vector":"1"}},{"base_weights":[-1.3953763E-3,-1.0786148E-2,2.4059613E-1,-2.6738615E-4,-2.6352933E-1,-2.805777E-2,4.0824175E-1,-7.759438E-3,6.2384725E-1,8.806122E-3,-3.2593995E-1,-2.3644276E-1,1.4459801E-2,5.8170613E-2,9.9537715E-2,3.5125126E-6,-1.7160174E-2,4.4662794E-3,4.826537E-2,-2.1815902E-2,-8.955772E-3,-1.047045E-3,-1.7035177E-2,-6.613241E-3,3.1797815E-2],"categories":[],"categories_nodes":[],"categories_segments":[],"categories_sizes":[],"default_left":[0,0,0,0,0,0,0,0,0,0,0,0,0,0,0,0,0,0,0,0,0,0,0,0,0],"id":23,"left_children":[1,3,5,7,9,11,13,15,17,-1,19,21,-1,-1,23,-1,-1,-1,-1,-1,-1,-1,-1,-1,-1],"loss_changes":[2.0682857E0,2.328815E0,1.5427688E0,3.941948E0,1.0177684E0,9.9393123E-1,4.779804E0,2.1878335E0,1.7389519E0,0E0,4.2424107E-1,1.9508094E-1,0E0,0E0,2.0736058E0,0E0,0E0,0E0,0E0,0E0,0E0,0E0,0E0,0E0,0E0],"parents":[2147483647,0,0,1,1,2,2,3,3,4,4,5,5,6,6,7,7,8,8,10,10,11,11,14,14],"right_children":[2,4,6,8,10,12,14,16,18,-1,20,22,-1,-1,24,-1,-1,-1,-1,-1,-1,-1,-1,-1,-1],"split_conditions":[8.13E1,6.25E0,8.075E1,5.95E0,6.97E1,1.0837701E-1,2E0,5.5E0,7.72E1,8.806122E-3,1.7201575E-2,7.735E1,1.4459801E-2,5.8170613E-2,8.86E1,3.5125126E-6,-1.7160174E-2,4.4662794E-3,4.826537E-2,-2.1815902E-2,-8.955772E-3,-1.047045E-3,-1.7035177E-2,-6.613241E-3,3.1797815E-2],"split_indices":[5,6,0,6,5,4,6,6,0,0,3,0,0,0,5,0,0,0,0,0,0,0,0,0,0],"split_type":[0,0,0,0,0,0,0,0,0,0,0,0,0,0,0,0,0,0,0,0,0,0,0,0,0],"sum_hessian":[9.08E2,8.75E2,3.3E1,8.41E2,3.4E1,1.3E1,2E1,8.32E2,9E0,4E0,3E1,8E0,5E0,5E0,1.5E1,8.14E2,1.8E1,4E0,5E0,1.6E1,1.4E1,3E0,5E0,1.1E1,4E0],"tree_param":{"num_deleted":"0","num_feature":"8","num_nodes":"25","size_leaf_vector":"1"}},{"base_weights":[-1.3404051E-2,6.987951E-2,-5.0295655E-2,1.2689571E-2,2.8031763E-1,-9.191859E-2,9.070802E-2,-2.9196367E-1,4.9367905E-2,5.3287234E-2,1.5647359E-1,2.793696E-2,-1.0113901E-1,4.4814806E-2,8.710274E-1,-2.2017495E-3,-2.9048357E-2,-1.7771473E-3,1.482364E-2,-4.5868773E-3,1.8252654E-2,-5.5497405E-3,2.1568038E-2,4.661834E-2,9.0925064E-4,8.9994974E-2,-2.3137857E-3],"categories":[],"categories_nodes":[],"categories_segments":[],"categories_sizes":[],"default_left":[0,0,0,0,0,0,0,0,0,0,0,0,0,0,0,0,0,0,0,0,0,0,0,0,0,0,0],"id":24,"left_children":[1,3,5,7,9,11,13,15,17,-1,19,-1,21,23,25,-1,-1,-1,-1,-1,-1,-1,-1,-1,-1,-1,-1],"loss_changes":[2.811747E0,3.3782618E0,3.7292752E0,2.49508E0,5.6694665E0,2.9961877E0,5.1536126E0,1.6940708E0,4.185933E0,0E0,2.777392E0,0E0,2.5880117E0,3.2447197E0,6.8997493E0,0E0,0E0,0E0,0E0,0E0,0E0,0E0,0E0,0E0,0E0,0E0,0E0],"parents":[2147483647,0,0,1,1,2,2,3,3,4,4,5,5,6,6,7,7,8,8,10,10,12,12,13,13,14,14],"right_children":[2,4,6,8,10,12,14,16,18,-1,20,-1,22,24,26,-1,-1,-1,-1,-1,-1,-1,-1,-1,-1,-1,-1],"split_conditions":[7E-1,7.55E1,1.09E1,-9.527693E-1,7.63E1,5.67E1,4.2180607E-1,-9.8542374E-1,7.175E1,5.3287234E-2,-9.5E-1,2.793696E-2,9.9920887E-1,6.93E1,6.225287E-1,-2.2017495E-3,-2.9048357E-2,-1.7771473E-3,1.482364E-2,-4.5868773E-3,1.8252654E-2,-5.5497405E-3,2.1568038E-2,4.661834E-2,9.0925064E-4,8.9994974E-2,-2.3137857E-3],"split_indices":[1,5,1,3,5,5,4,3,0,0,6,0,3,0,4,0,0,0,0,0,0,0,0,0,0,0,0],"split_type":[0,0,0,0,0,0,0,0,0,0,0,0,0,0,0,0,0,0,0,0,0,0,0,0,0,0,0],"sum_hessian":[9.13E2,2.8E2,6.33E2,2.21E2,5.9E1,4.89E2,1.44E2,2.3E1,1.98E2,7E0,5.2E1,6E0,4.83E2,1.37E2,7E0,1.3E1,1E1,1.48E2,5E1,2.4E1,2.8E1,4.75E2,8E0,3E0,1.34E2,3E0,4E0],"tree_param":{"num_deleted":"0","num_feature":"8","num_nodes":"27","size_leaf_vector":"1"}},{"base_weights":[8.04264E-3,-2.0437236E-3,2.857967E-1,5.2434945E-1,-6.8541253E-3,5.9892285E-1,4.0030245E-2,6.1995666E-3,4.4685483E-2,-2.6005818E-2,1.0511713E-1,-5.054699E-3,8.89039E-1,-3.0014563E-1,4.5135295E-1,4.31951E-4,-6.6123367E-3,3.5788666E-2,2.3650362E-3,5.8791984E-2,8.243898E-3,-1.9929733E-2,-1.4105581E-3,4.4151396E-2,-3.529631E-3],"categories":[],"categories_nodes":[],"categories_segments":[],"categories_sizes":[],"default_left":[0,0,0,0,0,0,0,0,0,0,0,0,0,0,0,0,0,0,0,0,0,0,0,0,0],"id":25,"left_children":[1,3,5,7,9,11,13,-1,-1,15,17,-1,19,21,23,-1,-1,-1,-1,-1,-1,-1,-1,-1,-1],"loss_changes":[2.5583797E0,2.2369611E0,2.4386141E0,1.0721989E0,1.8791177E0,2.9330826E0,2.7939906E0,0E0,0E0,2.7543054E0,4.4853044E0,0E0,1.883029E0,2.8324378E-1,2.090133E0,0E0,0E0,0E0,0E0,0E0,0E0,0E0,0E0,0E0,0E0],"parents":[2147483647,0,0,1,1,2,2,3,3,4,4,5,5,6,6,9,9,10,10,12,12,13,13,14,14],"right_children":[2,4,6,8,10,12,14,-1,-1,16,18,-1,20,22,24,-1,-1,-1,-1,-1,-1,-1,-1,-1,-1],"split_conditions":[8.13E1,5.625E1,3.35E0,5.82E1,1.09E1,7.735E1,8.55E1,6.1995666E-3,4.4685483E-2,6.2E0,7.08E1,-5.054699E-3,8.405E1,1.06E1,6.3E0,4.31951E-4,-6.6123367E-3,3.5788666E-2,2.3650362E-3,5.8791984E-2,8.243898E-3,-1.9929733E-2,-1.4105581E-3,4.4151396E-2,-3.529631E-3],"split_indices":[5,0,6,5,1,0,5,0,0,1,0,0,0,1,6,0,0,0,0,0,0,0,0,0,0],"split_type":[0,0,0,0,0,0,0,0,0,0,0,0,0,0,0,0,0,0,0,0,0,0,0,0,0],"sum_hessian":[9.12E2,8.81E2,3.1E1,7E0,8.74E2,1.3E1,1.8E1,4E0,3E0,7.47E2,1.27E2,4E0,9E0,1E1,8E0,5.64E2,1.83E2,1E1,1.17E2,6E0,3E0,7E0,3E0,4E0,4E0],"tree_param":{"num_deleted":"0","num_feature":"8","num_nodes":"25","size_leaf_vector":"1"}},{"base_weights":[1.7828381E-3,-8.052204E-3,2.548381E-1,-1.1775022E-2,3.210366E-2,5.210799E-1,4.2414825E-2,-5.3794622E-2,3.6930293E-2,-1.4440843E-1,9.8078424E-1,-2.5428274E-1,4.3329883E-1,1.4446198E-2,-3.4072709E-3,5.0986564E-4,2.298888E-2,4.3159435E-3,-1.6951682E-2,6.8268985E-2,7.934751E-3,-1.9057807E-2,-2.1440388E-5,4.238534E-2,-3.3884444E-3],"categories":[],"categories_nodes":[],"categories_segments":[],"categories_sizes":[],"default_left":[0,0,0,0,0,0,0,0,0,0,0,0,0,0,0,0,0,0,0,0,0,0,0,0,0],"id":26,"left_children":[1,3,5,7,-1,9,11,13,15,17,19,21,23,-1,-1,-1,-1,-1,-1,-1,-1,-1,-1,-1,-1],"loss_changes":[2.2618906E0,2.1253223E0,1.9008007E0,1.7845559E0,0E0,4.730552E0,2.4296672E0,2.321446E0,4.562115E0,3.4360242E-1,2.6288671E0,3.8632423E-1,1.9262661E0,0E0,0E0,0E0,0E0,0E0,0E0,0E0,0E0,0E0,0E0,0E0,0E0],"parents":[2147483647,0,0,1,1,2,2,3,3,5,5,6,6,7,7,8,8,9,9,10,10,11,11,12,12],"right_children":[2,4,6,8,-1,10,12,14,16,18,20,22,24,-1,-1,-1,-1,-1,-1,-1,-1,-1,-1,-1,-1],"split_conditions":[8.13E1,9.9974513E-1,3.35E0,2.228204E-1,3.210366E-2,-2.3E0,8.55E1,6.18E1,8.5E0,7.7E1,8.405E1,1.06E1,6.3E0,1.4446198E-2,-3.4072709E-3,5.0986564E-4,2.298888E-2,4.3159435E-3,-1.6951682E-2,6.8268985E-2,7.934751E-3,-1.9057807E-2,-2.1440388E-5,4.238534E-2,-3.3884444E-3],"split_indices":[5,3,6,4,0,6,5,5,1,0,0,1,6,0,0,0,0,0,0,0,0,0,0,0,0],"split_type":[0,0,0,0,0,0,0,0,0,0,0,0,0,0,0,0,0,0,0,0,0,0,0,0,0],"sum_hessian":[9.07E2,8.74E2,3.3E1,8.7E2,4E0,1.4E1,1.9E1,4.67E2,4.03E2,6E0,8E0,1.1E1,8E0,1.8E1,4.49E2,3.8E2,2.3E1,3E0,3E0,5E0,3E0,7E0,4E0,4E0,4E0],"tree_param":{"num_deleted":"0","num_feature":"8","num_nodes":"25","size_leaf_vector":"1"}},{"base_weights":[-4.3443427E-3,-1.672855E-1,9.871965E-3,-2.0391941E-1,1.858597E-2,2.38243E-1,-2.4925964E-3,1.4549427E-2,-2.3082414E-1,6.068372E-2,6.918808E-1,-2.9028273E-1,7.6151094E-3,-7.413786E-3,-1.8455287E-2,1.2836436E-2,-2.3442276E-2,4.545597E-2,1.5061907E-3,4.6904846E-3,-2.2847159E-2,2.6676485E-3,-2.9237433E-3],"categories":[],"categories_nodes":[],"categories_segments":[],"categories_sizes":[],"default_left":[0,0,0,0,0,0,0,0,0,0,0,0,0,0,0,0,0,0,0,0,0,0,0],"id":27,"left_children":[1,3,5,7,-1,9,11,-1,13,15,17,19,21,-1,-1,-1,-1,-1,-1,-1,-1,-1,-1],"loss_changes":[2.1072788E0,1.5172482E0,2.364037E0,9.8592734E-1,0E0,3.4215608E0,2.3147843E0,0E0,6.9865537E-1,3.4423354E0,1.6977234E0,1.7712173E0,2.3276637E0,0E0,0E0,0E0,0E0,0E0,0E0,0E0,0E0,0E0,0E0],"parents":[2147483647,0,0,1,1,2,2,3,3,5,5,6,6,8,8,9,9,10,10,11,11,12,12],"right_children":[2,4,6,8,-1,10,12,-1,14,16,18,20,22,-1,-1,-1,-1,-1,-1,-1,-1,-1,-1],"split_conditions":[-4.2E0,9.4532007E-1,-3.4E0,-2.6E0,1.858597E-2,7.59E1,-2.8E0,1.4549427E-2,-5.1E0,7.045E1,8.135E1,1E-1,1.4782713E-1,-7.413786E-3,-1.8455287E-2,1.2836436E-2,-2.3442276E-2,4.545597E-2,1.5061907E-3,4.6904846E-3,-2.2847159E-2,2.6676485E-3,-2.9237433E-3],"split_indices":[7,3,7,6,0,0,7,0,7,0,0,1,3,0,0,0,0,0,0,0,0,0,0],"split_type":[0,0,0,0,0,0,0,0,0,0,0,0,0,0,0,0,0,0,0,0,0,0,0],"sum_hessian":[9.08E2,7.2E1,8.36E2,6.8E1,4E0,4.2E1,7.94E2,3E0,6.5E1,3.1E1,1.1E1,2.6E1,7.68E2,4.2E1,2.3E1,2.3E1,8E0,8E0,3E0,8E0,1.8E1,4.54E2,3.14E2],"tree_param":{"num_deleted":"0","num_feature":"8","num_nodes":"23","size_leaf_vector":"1"}},{"base_weights":[4.8952585E-4,4.1039115E-1,-6.888332E-3,9.7106256E-2,3.2163378E-2,-3.6580764E-2,9.173551E-2,2.971054E-2,-1.5999932E-2,4.3544436E-1,-4.2811006E-2,2.652379E-1,2.8351517E-2,7.5179893E-3,3.7710506E-2,-1.4023286E-2,-1.5477006E-3,2.3564002E-2,-2.095991E-3,2.4989715E-3,-3.0875249E-2],"categories":[],"categories_nodes":[],"categories_segments":[],"categories_sizes":[],"default_left":[0,0,0,0,0,0,0,0,0,0,0,0,0,0,0,0,0,0,0,0,0],"id":28,"left_children":[1,3,5,7,-1,9,11,-1,-1,13,15,17,19,-1,-1,-1,-1,-1,-1,-1,-1],"loss_changes":[2.7366998E0,1.1048417E0,2.606687E0,1.8489046E0,0E0,2.030171E0,2.2579184E0,0E0,0E0,7.04474E-1,1.8961991E0,3.5005643E0,2.1540787E0,0E0,0E0,0E0,0E0,0E0,0E0,0E0,0E0],"parents":[2147483647,0,0,1,1,2,2,3,3,5,5,6,6,9,9,10,10,11,11,12,12],"right_children":[2,4,6,8,-1,10,12,-1,-1,14,16,18,20,-1,-1,-1,-1,-1,-1,-1,-1],"split_conditions":[-9.983151E-1,-9.996093E-1,7.76E1,4E-1,3.2163378E-2,5.625E1,4.1E0,2.971054E-2,-1.5999932E-2,-2E0,-9.7742647E-1,8.14E1,8.638671E-1,7.5179893E-3,3.7710506E-2,-1.4023286E-2,-1.5477006E-3,2.3564002E-2,-2.095991E-3,2.4989715E-3,-3.0875249E-2],"split_indices":[4,4,0,7,0,0,1,0,0,7,4,0,3,0,0,0,0,0,0,0,0],"split_type":[0,0,0,0,0,0,0,0,0,0,0,0,0,0,0,0,0,0,0,0,0],"sum_hessian":[9.03E2,1.5E1,8.88E2,7E0,8E0,6.83E2,2.05E2,3E0,4E0,8E0,6.75E2,5.4E1,1.51E2,5E0,3E0,3.1E1,6.44E2,3.2E1,2.2E1,1.47E2,4E0],"tree_param":{"num_deleted":"0","num_feature":"8","num_nodes":"21","size_leaf_vector":"1"}},{"base_weights":[1.0933607E-2,-1.3414354E-2,1.2690248E-1,-7.231145E-2,8.3009616E-2,7.341381E-2,6.319335E-1,-3.7633806E-2,-1.8617971E-1,2.135584E-1,2.1974161E-2,1.9397987E-1,-1.19511075E-1,1.9756408E-1,7.305797E-2,-7.359277E-3,8.19609E-4,-2.1160947E-2,-3.884306E-3,1.6754402E-2,-1.6234791E-3,-1.5335418E-3,1.6309718E-2,3.1568732E-2,7.1492824E-3,1.3387236E-2,-1.0475883E-2,-2.9678685E-3,3.31008E-2],"categories":[],"categories_nodes":[],"categories_segments":[],"categories_sizes":[],"default_left":[0,0,0,0,0,0,0,0,0,0,0,0,0,0,0,0,0,0,0,0,0,0,0,0,0,0,0,0,0],"id":29,"left_children":[1,3,5,7,9,11,13,15,17,19,21,23,25,27,-1,-1,-1,-1,-1,-1,-1,-1,-1,-1,-1,-1,-1,-1,-1],"loss_changes":[2.5711832E0,4.2823586E0,4.22173E0,1.840977E0,2.2741847E0,3.3726506E0,5.1141844E0,2.133123E0,2.7703006E0,2.7317524E0,3.1490765E0,1.8948331E0,2.008009E0,1.3518996E0,0E0,0E0,0E0,0E0,0E0,0E0,0E0,0E0,0E0,0E0,0E0,0E0,0E0,0E0,0E0],"parents":[2147483647,0,0,1,1,2,2,3,3,4,4,5,5,6,6,7,7,8,8,9,9,10,10,11,11,12,12,13,13],"right_children":[2,4,6,8,10,12,14,16,18,20,22,24,26,28,-1,-1,-1,-1,-1,-1,-1,-1,-1,-1,-1,-1,-1,-1,-1],"split_conditions":[7.905634E-1,7.31E1,5.5299747E-1,6.5E0,1.55E0,1E0,7.7E0,-1.4E0,2.8E0,1.2E0,1.41E1,-5.037198E-1,1.2E0,2E0,7.305797E-2,-7.359277E-3,8.19609E-4,-2.1160947E-2,-3.884306E-3,1.6754402E-2,-1.6234791E-3,-1.5335418E-3,1.6309718E-2,3.1568732E-2,7.1492824E-3,1.3387236E-2,-1.0475883E-2,-2.9678685E-3,3.31008E-2],"split_indices":[3,5,4,1,6,7,1,7,6,7,1,4,1,7,0,0,0,0,0,0,0,0,0,0,0,0,0,0,0],"split_type":[0,0,0,0,0,0,0,0,0,0,0,0,0,0,0,0,0,0,0,0,0,0,0,0,0,0,0,0,0],"sum_hessian":[9.09E2,7.52E2,1.57E2,4.67E2,2.85E2,1.43E2,1.4E1,3.59E2,1.08E2,9E1,1.95E2,8.8E1,5.5E1,1E1,4E0,1.18E2,2.41E2,3.3E1,7.5E1,6E1,3E1,1.67E2,2.8E1,8E0,8E1,1E1,4.5E1,7E0,3E0],"tree_param":{"num_deleted":"0","num_feature":"8","num_nodes":"29","size_leaf_vector":"1"}},{"base_weights":[2.9804332E-3,1.5146715E-2,-2.928106E-1,5.7594357E-3,6.897686E-1,8.981555E-3,-3.5747927E-1,-7.5233434E-3,2.946831E-1,4.75458E-3,9.752206E-1,-4.6171132E-1,-1.9048727E-1,-1.2856362E-5,-1.5825761E-2,2.7527813E-2,4.91664E-4,5.952049E-2,2.312145E-2,-1.2839428E-2,-2.5827799E-2,-1.7535407E-3,-1.2457338E-2],"categories":[],"categories_nodes":[],"categories_segments":[],"categories_sizes":[],"default_left":[0,0,0,0,0,0,0,0,0,0,0,0,0,0,0,0,0,0,0,0,0,0,0],"id":30,"left_children":[1,3,5,7,9,-1,11,13,15,-1,17,19,21,-1,-1,-1,-1,-1,-1,-1,-1,-1,-1],"loss_changes":[3.279231E0,5.537283E0,1.1640928E0,3.3179975E0,1.9442863E0,0E0,4.6903944E-1,1.8567004E0,2.7642322E0,0E0,3.322978E-1,8.089352E-2,1.1889535E-1,0E0,0E0,0E0,0E0,0E0,0E0,0E0,0E0,0E0,0E0],"parents":[2147483647,0,0,1,1,2,2,3,3,4,4,6,6,7,7,8,8,10,10,11,11,12,12],"right_children":[2,4,6,8,10,-1,12,14,16,-1,18,20,22,-1,-1,-1,-1,-1,-1,-1,-1,-1,-1],"split_conditions":[6.3E0,5.95E0,6.97E1,1.36E1,7.72E1,8.981555E-3,7.58E1,8.445E1,1.57E1,4.75458E-3,1.24E1,4.5E0,7.71E1,-1.2856362E-5,-1.5825761E-2,2.7527813E-2,4.91664E-4,5.952049E-2,2.312145E-2,-1.2839428E-2,-2.5827799E-2,-1.7535407E-3,-1.2457338E-2],"split_indices":[6,6,5,1,0,0,5,0,1,0,1,1,5,0,0,0,0,0,0,0,0,0,0],"split_type":[0,0,0,0,0,0,0,0,0,0,0,0,0,0,0,0,0,0,0,0,0,0,0],"sum_hessian":[9.09E2,8.74E2,3.5E1,8.63E2,1.1E1,4E0,3.1E1,8.26E2,3.7E1,4E0,7E0,1.8E1,1.3E1,8.08E2,1.8E1,1.9E1,1.8E1,4E0,3E0,5E0,1.3E1,4E0,9E0],"tree_param":{"num_deleted":"0","num_feature":"8","num_nodes":"23","size_leaf_vector":"1"}},{"base_weights":[1.2617E-2,8.434023E-3,3.2699775E-2,-3.2532811E-3,2.3132575E-1,8.525878E-2,-3.461618E-2,9.62995E-2,5.0396E-1,5.097898E-4,1.28342835E-2,-3.1996295E-3,3.2195922E-3,-3.7108988E-3,1.7561322E-2,4.900932E-2,1.2083948E-2],"categories":[],"categories_nodes":[],"categories_segments":[],"categories_sizes":[],"default_left":[0,0,0,0,0,0,0,0,0,0,0,0,0,0,0,0,0],"id":31,"left_children":[1,3,-1,5,7,9,11,13,15,-1,-1,-1,-1,-1,-1,-1,-1],"loss_changes":[2.484189E0,2.4051707E0,0E0,2.440275E0,1.6448569E0,2.9569798E0,1.8917372E0,1.4170911E0,1.636687E0,0E0,0E0,0E0,0E0,0E0,0E0,0E0,0E0],"parents":[2147483647,0,0,1,1,3,3,4,4,5,5,6,6,7,7,8,8],"right_children":[2,4,-1,6,8,10,12,14,16,-1,-1,-1,-1,-1,-1,-1,-1],"split_conditions":[9.9974513E-1,1.41E1,3.2699775E-2,1E-1,8.285E1,7.43E1,4.1E0,-1.4144407E-1,7.62E1,5.097898E-4,1.28342835E-2,-3.1996295E-3,3.2195922E-3,-3.7108988E-3,1.7561322E-2,4.900932E-2,1.2083948E-2],"split_indices":[3,1,0,1,0,5,6,3,5,0,0,0,0,0,0,0,0],"split_type":[0,0,0,0,0,0,0,0,0,0,0,0,0,0,0,0,0],"sum_hessian":[9.27E2,9.22E2,5E0,8.77E2,4.5E1,2.29E2,6.48E2,3.1E1,1.4E1,1.6E2,6.9E1,5E2,1.48E2,1.9E1,1.2E1,4E0,1E1],"tree_param":{"num_deleted":"0","num_feature":"8","num_nodes":"17","size_leaf_vector":"1"}},{"base_weights":[2.0862022E-2,1.6517162E-2,5.103098E-1,2.1023918E-2,-4.9199417E-1,3.822267E-2,3.2526404E-3,3.114124E-1,1.3723724E-2,-2.9855734E-2,-1.18797505E-2,-1.9130541E-2,2.2056622E-2,1.2050893E-3,-1.1846395E-2],"categories":[],"categories_nodes":[],"categories_segments":[],"categories_sizes":[],"default_left":[0,0,0,0,0,0,0,0,0,0,0,0,0,0,0],"id":32,"left_children":[1,3,5,7,9,-1,-1,11,13,-1,-1,-1,-1,-1,-1],"loss_changes":[1.9331411E0,2.0866568E0,8.5554385E-1,1.9015094E0,7.206929E-2,0E0,0E0,2.1494138E0,2.289632E0,0E0,0E0,0E0,0E0,0E0,0E0],"parents":[2147483647,0,0,1,1,2,2,3,3,4,4,7,7,8,8],"right_children":[2,4,6,8,10,-1,-1,12,14,-1,-1,-1,-1,-1,-1],"split_conditions":[9.01E1,8.78E1,-3.9629912E-1,-9.9716926E-1,8.85E1,3.822267E-2,3.2526404E-3,6.92E1,6.25E0,-2.9855734E-2,-1.18797505E-2,-1.9130541E-2,2.2056622E-2,1.2050893E-3,-1.1846395E-2],"split_indices":[0,0,4,4,0,0,0,5,6,0,0,0,0,0,0],"split_type":[0,0,0,0,0,0,0,0,0,0,0,0,0,0,0],"sum_hessian":[9.12E2,9.05E2,7E0,8.98E2,7E0,4E0,3E0,2.1E1,8.77E2,4E0,3E0,3E0,1.8E1,8.43E2,3.4E1],"tree_param":{"num_deleted":"0","num_feature":"8","num_nodes":"15","size_leaf_vector":"1"}},{"base_weights":[-2.382581E-3,-6.5535237E-3,3.128707E-2,6.6859365E-2,-4.1569877E-2,5.0083622E-2,4.2907782E-2,-7.843739E-2,6.954532E-2,-3.5840215E-3,5.983728E-3,-5.712478E-3,6.4844685E-3,2.1583429E-2,4.3322943E-4],"categories":[],"categories_nodes":[],"categories_segments":[],"categories_sizes":[],"default_left":[0,0,0,0,0,0,0,0,0,0,0,0,0,0,0],"id":33,"left_children":[1,3,-1,5,7,9,-1,11,13,-1,-1,-1,-1,-1,-1],"loss_changes":[2.382942E0,2.3240776E0,0E0,3.833198E0,2.5125382E0,2.4405227E0,0E0,3.4434137E0,3.3693483E0,0E0,0E0,0E0,0E0,0E0,0E0],"parents":[2147483647,0,0,1,1,3,3,4,4,5,5,7,7,8,8],"right_children":[2,4,-1,6,8,10,-1,12,14,-1,-1,-1,-1,-1,-1],"split_conditions":[9.9974513E-1,1.55E0,3.128707E-2,8.255E1,4.45E0,-2.5E-1,4.2907782E-2,1.09E1,4.6E0,-3.5840215E-3,5.983728E-3,-5.712478E-3,6.4844685E-3,2.1583429E-2,4.3322943E-4],"split_indices":[3,6,0,0,6,6,0,1,6,0,0,0,0,0,0],"split_type":[0,0,0,0,0,0,0,0,0,0,0,0,0,0,0],"sum_hessian":[9.07E2,9.02E2,5E0,2.91E2,6.11E2,2.86E2,5E0,4.59E2,1.52E2,1.04E2,1.82E2,3.92E2,6.7E1,2.1E1,1.31E2],"tree_param":{"num_deleted":"0","num_feature":"8","num_nodes":"15","size_leaf_vector":"1"}},{"base_weights":[5.2411645E-3,-1.2445757E-2,1.0573197E-1,3.6500633E-2,-1.0121594E-1,8.1282836E-1,4.922255E-2,-7.3598474E-2,9.013085E-2,2.9502177E-1,-1.1884336E-1,6.3998304E-2,1.4403777E-2,3.5685673E-1,-3.7407245E-2,2.1751948E-2,-4.7833617E-3,1.1527218E-2,-1.0816873E-3,-9.644223E-5,2.9614693E-2,-1.1489235E-2,-2.9083344E-3,-3.3075816E-3,2.803554E-2,1.7752972E-3,-2.8753141E-2],"categories":[],"categories_nodes":[],"categories_segments":[],"categories_sizes":[],"default_left":[0,0,0,0,0,0,0,0,0,0,0,0,0,0,0,0,0,0,0,0,0,0,0,0,0,0,0],"id":34,"left_children":[1,3,5,7,9,11,13,15,17,19,21,-1,-1,23,25,-1,-1,-1,-1,-1,-1,-1,-1,-1,-1,-1,-1],"loss_changes":[1.6151705E0,3.362364E0,5.394225E0,2.9530485E0,1.9558392E0,2.082591E0,3.3979352E0,1.8825184E0,5.277923E0,1.060444E0,1.7637632E0,0E0,0E0,2.4515872E0,3.9406362E0,0E0,0E0,0E0,0E0,0E0,0E0,0E0,0E0,0E0,0E0,0E0,0E0],"parents":[2147483647,0,0,1,1,2,2,3,3,4,4,5,5,6,6,7,7,8,8,9,9,10,10,13,13,14,14],"right_children":[2,4,6,8,10,12,14,16,18,20,22,-1,-1,24,26,-1,-1,-1,-1,-1,-1,-1,-1,-1,-1,-1,-1],"split_conditions":[1.09E1,4.3E0,7.08E1,-1.4E0,-6E0,9.335419E-1,2.9E0,-9.906923E-1,7E-1,-7.7E0,-3.7347654E-1,6.3998304E-2,1.4403777E-2,1.9E0,3.5472557E-2,2.1751948E-2,-4.7833617E-3,1.1527218E-2,-1.0816873E-3,-9.644223E-5,2.9614693E-2,-1.1489235E-2,-2.9083344E-3,-3.3075816E-3,2.803554E-2,1.7752972E-3,-2.8753141E-2],"split_indices":[1,1,0,7,7,3,6,3,7,7,3,0,0,6,4,0,0,0,0,0,0,0,0,0,0,0,0],"split_type":[0,0,0,0,0,0,0,0,0,0,0,0,0,0,0,0,0,0,0,0,0,0,0,0,0,0,0],"sum_hessian":[9.07E2,7.72E2,1.35E2,4.98E2,2.74E2,9E0,1.26E2,1.63E2,3.35E2,1.1E1,2.63E2,4E0,5E0,2.7E1,9.9E1,6E0,1.57E2,1.48E2,1.87E2,6E0,5E0,9.2E1,1.71E2,9E0,1.8E1,8.8E1,1.1E1],"tree_param":{"num_deleted":"0","num_feature":"8","num_nodes":"27","size_leaf_vector":"1"}},{"base_weights":[-1.2799969E-3,-9.993861E-3,2.460159E-1,-9.0985023E-4,-2.238118E-1,4.7706866E-1,3.9804384E-2,-7.4570295E-3,5.642027E-1,1.0372518E-2,-2.9767933E-1,-4.8739924E-3,7.740909E-1,-2.883019E-1,3.999442E-1,-4.211657E-6,-1.6748E-2,4.295223E-3,4.343754E-2,-1.8781131E-2,-6.8236007E-3,5.2066427E-2,5.645115E-3,-2.1247786E-2,-6.3186698E-3,3.912477E-2,-3.1297922E-3],"categories":[],"categories_nodes":[],"categories_segments":[],"categories_sizes":[],"default_left":[0,0,0,0,0,0,0,0,0,0,0,0,0,0,0,0,0,0,0,0,0,0,0,0,0,0,0],"id":35,"left_children":[1,3,5,7,9,11,13,15,17,-1,19,-1,21,23,25,-1,-1,-1,-1,-1,-1,-1,-1,-1,-1,-1,-1],"loss_changes":[2.0259125E0,1.763427E0,1.5056742E0,3.2305143E0,1.2404358E0,2.6352637E0,2.2422593E0,2.0837824E0,1.3820186E0,0E0,3.5081863E-1,0E0,1.6493764E0,1.6757834E-1,1.6414881E0,0E0,0E0,0E0,0E0,0E0,0E0,0E0,0E0,0E0,0E0,0E0,0E0],"parents":[2147483647,0,0,1,1,2,2,3,3,4,4,5,5,6,6,7,7,8,8,10,10,12,12,13,13,14,14],"right_children":[2,4,6,8,10,12,14,16,18,-1,20,-1,22,24,26,-1,-1,-1,-1,-1,-1,-1,-1,-1,-1,-1,-1],"split_conditions":[8.13E1,6.25E0,3.35E0,5.95E0,6.97E1,7.735E1,8.55E1,5.5E0,7.72E1,1.0372518E-2,7.2E0,-4.8739924E-3,8.405E1,-5.221777E-1,6.3E0,-4.211657E-6,-1.6748E-2,4.295223E-3,4.343754E-2,-1.8781131E-2,-6.8236007E-3,5.2066427E-2,5.645115E-3,-2.1247786E-2,-6.3186698E-3,3.912477E-2,-3.1297922E-3],"split_indices":[5,6,6,6,5,0,5,6,0,0,6,0,0,4,6,0,0,0,0,0,0,0,0,0,0,0,0],"split_type":[0,0,0,0,0,0,0,0,0,0,0,0,0,0,0,0,0,0,0,0,0,0,0,0,0,0,0],"sum_hessian":[9.38E2,9.07E2,3.1E1,8.71E2,3.6E1,1.4E1,1.7E1,8.62E2,9E0,5E0,3.1E1,5E0,9E0,9E0,8E0,8.44E2,1.8E1,4E0,5E0,2E1,1.1E1,6E0,3E0,4E0,5E0,4E0,4E0],"tree_param":{"num_deleted":"0","num_feature":"8","num_nodes":"27","size_leaf_vector":"1"}},{"base_weights":[-4.372522E-3,-2.5961347E-2,8.9457124E-2,1.3791052E-2,-1.1195288E-1,-5.0507993E-2,2.2517642E-1,-3.9297823E-2,1.5968405E-1,-1.527018E-1,2.0762035E-1,-2.4730174E-2,2.05522E-3,-1.0277903E-2,6.107768E-1,-2.6235739E-3,2.849779E-2,1.2920751E-2,-7.815352E-3,-3.800944E-3,-1.5529409E-2,-2.1262214E-2,2.0434428E-2,-4.9556373E-3,1.4766978E-2,4.923386E-3,-2.0407768E-2,2.2820516E-2,6.919734E-2],"categories":[],"categories_nodes":[],"categories_segments":[],"categories_sizes":[],"default_left":[0,0,0,0,0,0,0,0,0,0,0,0,0,0,0,0,0,0,0,0,0,0,0,0,0,0,0,0,0],"id":36,"left_children":[1,3,5,7,9,11,13,15,17,19,21,-1,23,25,27,-1,-1,-1,-1,-1,-1,-1,-1,-1,-1,-1,-1,-1,-1],"loss_changes":[1.8517609E0,2.5413923E0,3.2596836E0,3.9486306E0,3.0919363E0,1.9851788E0,7.905118E0,3.031667E0,4.2833347E0,2.506792E0,3.6095145E0,0E0,2.3139372E0,2.4198987E0,3.3069515E0,0E0,0E0,0E0,0E0,0E0,0E0,0E0,0E0,0E0,0E0,0E0,0E0,0E0,0E0],"parents":[2147483647,0,0,1,1,2,2,3,3,4,4,5,5,6,6,7,7,8,8,9,9,10,10,12,12,13,13,14,14],"right_children":[2,4,6,8,10,12,14,16,18,20,22,-1,24,26,28,-1,-1,-1,-1,-1,-1,-1,-1,-1,-1,-1,-1,-1,-1],"split_conditions":[7.536977E-1,5.1584367E-2,6.7E1,-3.7347654E-1,7.82E1,-9E-1,2.4372971E-1,7.9E0,1.9E0,7.03E1,3.8E0,-2.4730174E-2,9.776531E-1,1.382503E-1,9.3E0,-2.6235739E-3,2.849779E-2,1.2920751E-2,-7.815352E-3,-3.800944E-3,-1.5529409E-2,-2.1262214E-2,2.0434428E-2,-4.9556373E-3,1.4766978E-2,4.923386E-3,-2.0407768E-2,2.2820516E-2,6.919734E-2],"split_indices":[3,3,0,3,0,6,4,7,7,0,6,0,3,4,1,0,0,0,0,0,0,0,0,0,0,0,0,0,0],"split_type":[0,0,0,0,0,0,0,0,0,0,0,0,0,0,0,0,0,0,0,0,0,0,0,0,0,0,0,0,0],"sum_hessian":[9.12E2,7.42E2,1.7E2,5.08E2,2.34E2,8.4E1,8.6E1,3.73E2,1.35E2,2.08E2,2.6E1,8E0,7.6E1,5.4E1,3.2E1,3.66E2,7E0,1.03E2,3.2E1,1.41E2,6.7E1,6E0,2E1,5.7E1,1.9E1,4.3E1,1.1E1,2.8E1,4E0],"tree_param":{"num_deleted":"0","num_feature":"8","num_nodes":"29","size_leaf_vector":"1"}},{"base_weights":[6.5339906E-3,2.6884705E-3,2.937002E-2,7.128382E-2,-1.9879717E-2,3.7566807E-2,5.2412916E-2,-9.248652E-2,2.2422347E-2,-2.5274137E-2,3.9302534E-3,-1.6521066E-2,-2.2647379E-4,1.4127406E-2,-1.2563827E-3],"categories":[],"categories_nodes":[],"categories_segments":[],"categories_sizes":[],"default_left":[0,0,0,0,0,0,0,0,0,0,0,0,0,0,0],"id":37,"left_children":[1,3,-1,5,7,-1,9,11,13,-1,-1,-1,-1,-1,-1],"loss_changes":[2.0378194E0,1.407067E0,0E0,2.8480902E0,2.1029234E0,0E0,3.2544804E0,5.2723703E0,5.362869E0,0E0,0E0,0E0,0E0,0E0,0E0],"parents":[2147483647,0,0,1,1,3,3,4,4,6,6,7,7,8,8],"right_children":[2,4,-1,6,8,-1,10,12,14,-1,-1,-1,-1,-1,-1],"split_conditions":[9.9974513E-1,1E-1,2.937002E-2,5.935E1,-3.7347654E-1,3.7566807E-2,6.2E1,7.29E1,-5.802557E-2,-2.5274137E-2,3.9302534E-3,-1.6521066E-2,-2.2647379E-4,1.4127406E-2,-1.2563827E-3],"split_indices":[3,1,0,0,3,0,0,0,3,0,0,0,0,0,0],"split_type":[0,0,0,0,0,0,0,0,0,0,0,0,0,0,0],"sum_hessian":[9.12E2,9.07E2,5E0,2.24E2,6.83E2,5E0,2.19E2,2.51E2,4.32E2,9E0,2.1E2,6.7E1,1.84E2,6.6E1,3.66E2],"tree_param":{"num_deleted":"0","num_feature":"8","num_nodes":"15","size_leaf_vector":"1"}},{"base_weights":[1.3388111E-2,-1.8015184E-2,1.0403631E-1,-2.5260553E-1,-1.2034511E-3,4.1320428E-1,6.320746E-2,-1.4185907E-1,-3.399146E-2,-3.6912527E-2,1.11100115E-1,6.846139E-1,-3.169702E-1,-2.9885095E-1,9.927043E-2,-1.2872129E-2,9.79803E-3,8.745542E-3,-3.4745156E-3,2.4628595E-3,2.584003E-2,2.2016073E-2,6.647134E-2,-2.4198644E-2,-5.998702E-3,-8.23228E-3,-2.8109416E-2,1.7585887E-2,1.6705698E-3],"categories":[],"categories_nodes":[],"categories_segments":[],"categories_sizes":[],"default_left":[0,0,0,0,0,0,0,0,0,0,0,0,0,0,0,0,0,0,0,0,0,0,0,0,0,0,0,0,0],"id":38,"left_children":[1,3,5,7,9,11,13,15,-1,17,19,21,23,25,27,-1,-1,-1,-1,-1,-1,-1,-1,-1,-1,-1,-1,-1,-1],"loss_changes":[2.5780945E0,2.6539204E0,2.915035E0,2.0326676E0,2.5265524E0,5.567763E0,2.7324464E0,1.4951646E0,0E0,3.3107066E0,3.7881784E0,2.5650826E0,2.0512688E-1,5.789225E-1,3.1305509E0,0E0,0E0,0E0,0E0,0E0,0E0,0E0,0E0,0E0,0E0,0E0,0E0,0E0,0E0],"parents":[2147483647,0,0,1,1,2,2,3,3,4,4,5,5,6,6,7,7,9,9,10,10,11,11,12,12,13,13,14,14],"right_children":[2,4,6,8,10,12,14,16,-1,18,20,22,24,26,28,-1,-1,-1,-1,-1,-1,-1,-1,-1,-1,-1,-1,-1,-1],"split_conditions":[7.44E1,-9.5E-1,7.355E1,-1.1E0,7.536977E-1,1.55E0,-9.5E-1,-1.7E0,-3.399146E-2,6.3E1,5.5299747E-1,-5E-1,4.2180607E-1,-4.2278066E-1,3.3E0,-1.2872129E-2,9.79803E-3,8.745542E-3,-3.4745156E-3,2.4628595E-3,2.584003E-2,2.2016073E-2,6.647134E-2,-2.4198644E-2,-5.998702E-3,-8.23228E-3,-2.8109416E-2,1.7585887E-2,1.6705698E-3],"split_indices":[5,6,0,6,3,6,6,6,0,0,4,6,4,3,1,0,0,0,0,0,0,0,0,0,0,0,0,0,0],"split_type":[0,0,0,0,0,0,0,0,0,0,0,0,0,0,0,0,0,0,0,0,0,0,0,0,0,0,0,0,0],"sum_hessian":[9.04E2,6.72E2,2.32E2,4.4E1,6.28E2,2.6E1,2.06E2,3.6E1,8E0,4.77E2,1.51E2,1.9E1,7E0,1.8E1,1.88E2,2.7E1,9E0,6.3E1,4.14E2,1.32E2,1.9E1,1.5E1,4E0,3E0,4E0,1.3E1,5E0,3.8E1,1.5E2],"tree_param":{"num_deleted":"0","num_feature":"8","num_nodes":"29","size_leaf_vector":"1"}},{"base_weights":[-1.126105E-2,-1.3876082E-1,2.3544261E-2,-1.9093923E-1,1.3670646E-1,4.4045186E-1,8.729894E-3,-2.1407677E-1,2.2123E-2,6.6508853E-1,-2.8185216E-1,5.7867087E-2,2.829275E-1,1.13193974E-1,-3.624775E-2,2.2615625E-2,-1.1504976E-2,7.37552E-2,9.678598E-3,-1.9542819E-2,9.86884E-3,5.6852203E-2,3.8702816E-3,4.175644E-3,2.9056609E-2,-3.5217833E-3,7.6258257E-3],"categories":[],"categories_nodes":[],"categories_segments":[],"categories_sizes":[],"default_left":[0,0,0,0,0,0,0,0,0,0,0,0,0,0,0,0,0,0,0,0,0,0,0,0,0,0,0],"id":39,"left_children":[1,3,5,7,9,11,13,15,-1,17,19,-1,21,23,25,-1,-1,-1,-1,-1,-1,-1,-1,-1,-1,-1,-1],"loss_changes":[3.9527922E0,2.771431E0,4.3195105E0,2.4542236E0,7.0433807E0,2.3828187E0,3.1850195E0,1.7697482E0,0E0,5.06156E0,1.0174298E0,0E0,3.598319E0,2.7848086E0,3.0696812E0,0E0,0E0,0E0,0E0,0E0,0E0,0E0,0E0,0E0,0E0,0E0,0E0],"parents":[2147483647,0,0,1,1,2,2,3,3,4,4,5,5,6,6,7,7,9,9,10,10,12,12,13,13,14,14],"right_children":[2,4,6,8,10,12,14,16,-1,18,20,-1,22,24,26,-1,-1,-1,-1,-1,-1,-1,-1,-1,-1,-1,-1],"split_conditions":[6.58E1,3.5E0,6.17E1,9.9974513E-1,1.8E0,2E-1,1E0,5.49E1,2.2123E-2,4.3E0,9.9275863E-1,5.7867087E-2,-2.541427E-1,6.482618E-1,1.28E1,2.2615625E-2,-1.1504976E-2,7.37552E-2,9.678598E-3,-1.9542819E-2,9.86884E-3,5.6852203E-2,3.8702816E-3,4.175644E-3,2.9056609E-2,-3.5217833E-3,7.6258257E-3],"split_indices":[0,1,5,3,6,1,1,5,0,1,4,0,4,3,1,0,0,0,0,0,0,0,0,0,0,0,0],"split_type":[0,0,0,0,0,0,0,0,0,0,0,0,0,0,0,0,0,0,0,0,0,0,0,0,0,0,0],"sum_hessian":[8.89E2,1.9E2,6.99E2,1.6E2,3E1,2.3E1,6.76E2,1.55E2,5E0,1.3E1,1.7E1,3E0,2E1,2.03E2,4.73E2,3E0,1.52E2,4E0,9E0,1.4E1,3E0,3E0,1.7E1,1.92E2,1.1E1,4.01E2,7.2E1],"tree_param":{"num_deleted":"0","num_feature":"8","num_nodes":"27","size_leaf_vector":"1"}},{"base_weights":[-3.294602E-3,-1.7623149E-2,1.5068766E-1,-9.326258E-2,9.28848E-3,1.0241671E-1,5.090481E-2,-2.3459563E-1,-7.5821104E-3,-9.95426E-3,1.9210015E-1,-5.3391706E-2,2.7269226E-1,2.2203622E-2,-1.4662302E-2,8.528742E-3,-8.905226E-3,1.0277613E-3,-1.2791897E-2,3.3660892E-2,3.3909318E-3,1.838936E-2,-1.0302212E-2,1.9887816E-2,-1.5112625E-2],"categories":[],"categories_nodes":[],"categories_segments":[],"categories_sizes":[],"default_left":[0,0,0,0,0,0,0,0,0,0,0,0,0,0,0,0,0,0,0,0,0,0,0,0,0],"id":40,"left_children":[1,3,5,7,9,11,-1,13,15,17,19,21,23,-1,-1,-1,-1,-1,-1,-1,-1,-1,-1,-1,-1],"loss_changes":[2.0214586E0,1.7066827E0,3.1616406E0,2.6623075E0,2.1794288E0,2.0043368E0,0E0,3.4339666E0,4.222786E0,4.2137594E0,3.4821916E0,2.6475415E0,2.7087994E0,0E0,0E0,0E0,0E0,0E0,0E0,0E0,0E0,0E0,0E0,0E0,0E0],"parents":[2147483647,0,0,1,1,2,2,3,3,4,4,5,5,7,7,8,8,9,9,10,10,11,11,12,12],"right_children":[2,4,6,8,10,12,-1,14,16,18,20,22,24,-1,-1,-1,-1,-1,-1,-1,-1,-1,-1,-1,-1],"split_conditions":[1.28E1,-5.9351116E-1,4.2180607E-1,7.05E1,8.4E0,1E0,5.090481E-2,6.635E1,-9.252111E-1,6.2E0,6.985E1,-9.4355315E-1,1.65E1,2.2203622E-2,-1.4662302E-2,8.528742E-3,-8.905226E-3,1.0277613E-3,-1.2791897E-2,3.3660892E-2,3.3909318E-3,1.838936E-2,-1.0302212E-2,1.9887816E-2,-1.5112625E-2],"split_indices":[1,4,4,5,1,7,0,0,4,1,0,4,1,0,0,0,0,0,0,0,0,0,0,0,0],"split_type":[0,0,0,0,0,0,0,0,0,0,0,0,0,0,0,0,0,0,0,0,0,0,0,0,0],"sum_hessian":[9.14E2,8.37E2,7.7E1,2.19E2,6.18E2,7.4E1,3E0,8.2E1,1.37E2,5.6E2,5.8E1,3.9E1,3.5E1,6E0,7.6E1,6.7E1,7E1,4.99E2,6.1E1,1.1E1,4.7E1,1E1,2.9E1,2.9E1,6E0],"tree_param":{"num_deleted":"0","num_feature":"8","num_nodes":"25","size_leaf_vector":"1"}},{"base_weights":[-1.2765242E-2,-1.8270887E-2,3.9525747E-1,-8.196572E-3,-2.707766E-1,-7.6821484E-3,5.952957E-1,-1.5844768E-2,5.297723E-1,-3.5648894E-1,9.431455E-3,4.654047E-2,-2.8399334E-3,1.9293645E-4,-6.968231E-3,3.979848E-3,3.724552E-2,-2.2186464E-2,-7.3179686E-3],"categories":[],"categories_nodes":[],"categories_segments":[],"categories_sizes":[],"default_left":[0,0,0,0,0,0,0,0,0,0,0,0,0,0,0,0,0,0,0],"id":41,"left_children":[1,3,5,7,9,-1,11,13,15,17,-1,-1,-1,-1,-1,-1,-1,-1,-1],"loss_changes":[2.0245144E0,2.2541509E0,1.4090761E0,3.5221703E0,1.4060531E0,0E0,2.0219479E0,2.0522082E0,1.1029055E0,4.6667767E-1,0E0,0E0,0E0,0E0,0E0,0E0,0E0,0E0,0E0],"parents":[2147483647,0,0,1,1,2,2,3,3,4,4,6,6,7,7,8,8,9,9],"right_children":[2,4,6,8,10,-1,12,14,16,18,-1,-1,-1,-1,-1,-1,-1,-1,-1],"split_conditions":[8.55E1,6.25E0,1.5E-1,5.95E0,4.3E0,-7.6821484E-3,6.3E0,3.1E0,7.72E1,7.2E0,9.431455E-3,4.654047E-2,-2.8399334E-3,1.9293645E-4,-6.968231E-3,3.979848E-3,3.724552E-2,-2.2186464E-2,-7.3179686E-3],"split_indices":[5,6,6,6,7,0,6,7,0,6,0,0,0,0,0,0,0,0,0],"split_type":[0,0,0,0,0,0,0,0,0,0,0,0,0,0,0,0,0,0,0],"sum_hessian":[8.97E2,8.86E2,1.1E1,8.53E2,3.3E1,3E0,8E0,8.42E2,1.1E1,2.8E1,5E0,5E0,3E0,7.27E2,1.15E2,4E0,7E0,1.9E1,9E0],"tree_param":{"num_deleted":"0","num_feature":"8","num_nodes":"19","size_leaf_vector":"1"}},{"base_weights":[5.474179E-3,1.8569493E-3,2.7477888E-2,-2.1901794E-3,4.5540914E-1,2.1493116E-3,-4.3059212E-1,3.411193E-2,9.14319E-3,1.7750623E-3,-1.9449089E-3,-2.769777E-2,-1.1055521E-2],"categories":[],"categories_nodes":[],"categories_segments":[],"categories_sizes":[],"default_left":[0,0,0,0,0,0,0,0,0,0,0,0,0],"id":42,"left_children":[1,3,-1,5,7,9,11,-1,-1,-1,-1,-1,-1],"loss_changes":[1.7879598E0,1.6603656E0,0E0,1.66849E0,3.6981344E-1,1.2184336E0,1.1009598E-1,0E0,0E0,0E0,0E0,0E0,0E0],"parents":[2147483647,0,0,1,1,3,3,4,4,5,5,6,6],"right_children":[2,4,-1,6,8,10,12,-1,-1,-1,-1,-1,-1],"split_conditions":[9.9974513E-1,9.01E1,2.7477888E-2,8.78E1,1.24E1,4.3E0,8.85E1,3.411193E-2,9.14319E-3,1.7750623E-3,-1.9449089E-3,-2.769777E-2,-1.1055521E-2],"split_indices":[3,0,0,0,1,1,0,0,0,0,0,0,0],"split_type":[0,0,0,0,0,0,0,0,0,0,0,0,0],"sum_hessian":[9.08E2,9.03E2,5E0,8.96E2,7E0,8.88E2,8E0,3E0,4E0,4.9E2,3.98E2,4E0,4E0],"tree_param":{"num_deleted":"0","num_feature":"8","num_nodes":"13","size_leaf_vector":"1"}},{"base_weights":[1.1293869E-2,1.7264761E-2,-3.4771252E-1,1.2313623E-2,4.5668468E-1,-4.4980064E-1,2.2739954E-3,4.8359933E-1,8.034664E-3,4.1315988E-2,-3.910716E-3,-3.0968258E-2,-2.8759772E-1,9.032096E-3,3.146227E-2,-1.0517612E-3,3.428869E-3,-1.9974554E-2,-3.7915797E-3],"categories":[],"categories_nodes":[],"categories_segments":[],"categories_sizes":[],"default_left":[0,0,0,0,0,0,0,0,0,0,0,0,0,0,0,0,0,0,0],"id":43,"left_children":[1,3,5,7,9,11,-1,13,15,-1,-1,-1,17,-1,-1,-1,-1,-1,-1],"loss_changes":[1.9652427E0,1.9524424E0,6.2256074E-1,1.7929158E0,2.0418043E0,1.5191865E-1,0E0,2.393285E-1,1.557256E0,0E0,0E0,0E0,1.5926772E-1,0E0,0E0,0E0,0E0,0E0,0E0],"parents":[2147483647,0,0,1,1,2,2,3,3,4,4,5,5,7,7,8,8,12,12],"right_children":[2,4,6,8,10,12,-1,14,16,-1,-1,-1,18,-1,-1,-1,-1,-1,-1],"split_conditions":[8.4E0,7.4E0,4E0,5.625E1,9E-1,2.228204E-1,2.2739954E-3,-5.6E0,7.31E1,4.1315988E-2,-3.910716E-3,-3.0968258E-2,3.1E0,9.032096E-3,3.146227E-2,-1.0517612E-3,3.428869E-3,-1.9974554E-2,-3.7915797E-3],"split_indices":[7,7,6,0,1,4,0,7,5,0,0,0,1,0,0,0,0,0,0],"split_type":[0,0,0,0,0,0,0,0,0,0,0,0,0,0,0,0,0,0,0],"sum_hessian":[9.13E2,8.99E2,1.4E1,8.9E2,9E0,1.1E1,3E0,7E0,8.83E2,5E0,4E0,4E0,7E0,3E0,4E0,5.97E2,2.86E2,4E0,3E0],"tree_param":{"num_deleted":"0","num_feature":"8","num_nodes":"19","size_leaf_vector":"1"}},{"base_weights":[-5.315198E-3,-3.145321E-2,7.4639514E-2,-1.0716377E-1,2.0145827E-3,3.191494E-1,1.8114623E-2,-3.201916E-1,-4.5459673E-2,2.4150784E-1,-2.9203767E-2,4.1928014E-1,-2.4140145E-1,-3.9564434E-1,4.1789766E-2,-1.7605169E-2,5.544276E-3,3.607404E-3,-1.1059126E-2,3.598715E-2,4.5654336E-3,-6.1561745E-3,1.5786982E-3,-1.3069555E-2,2.6874889E-2,-2.5835264E-2,4.712636E-3,-5.7047117E-3,-2.8216435E-2,2.5364146E-2,3.631977E-4],"categories":[],"categories_nodes":[],"categories_segments":[],"categories_sizes":[],"default_left":[0,0,0,0,0,0,0,0,0,0,0,0,0,0,0,0,0,0,0,0,0,0,0,0,0,0,0,0,0,0,0],"id":44,"left_children":[1,3,5,7,9,11,13,15,17,19,21,23,25,27,29,-1,-1,-1,-1,-1,-1,-1,-1,-1,-1,-1,-1,-1,-1,-1,-1],"loss_changes":[1.8999381E0,1.7359138E0,3.0900989E0,2.7458296E0,3.565907E0,2.4586062E0,1.8091657E0,6.8559504E-1,3.4052422E0,3.8849602E0,2.4127595E0,3.037323E0,6.955489E-1,4.1054416E-1,2.7927608E0,0E0,0E0,0E0,0E0,0E0,0E0,0E0,0E0,0E0,0E0,0E0,0E0,0E0,0E0,0E0,0E0],"parents":[2147483647,0,0,1,1,2,2,3,3,4,4,5,5,6,6,7,7,8,8,9,9,10,10,11,11,12,12,13,13,14,14],"right_children":[2,4,6,8,10,12,14,16,18,20,22,24,26,28,30,-1,-1,-1,-1,-1,-1,-1,-1,-1,-1,-1,-1,-1,-1,-1,-1],"split_conditions":[7.745E1,-4.20831E-1,9E-1,6.78E1,-2.091735E-1,8.31E1,6.96E1,7.29E1,7.445E1,6.53E1,4.266741E-1,-8.811917E-1,8.56E1,6.87E1,-9.8542374E-1,-1.7605169E-2,5.544276E-3,3.607404E-3,-1.1059126E-2,3.598715E-2,4.5654336E-3,-6.1561745E-3,1.5786982E-3,-1.3069555E-2,2.6874889E-2,-2.5835264E-2,4.712636E-3,-5.7047117E-3,-2.8216435E-2,2.5364146E-2,3.631977E-4],"split_indices":[0,3,1,5,3,0,5,0,0,5,3,4,0,5,3,0,0,0,0,0,0,0,0,0,0,0,0,0,0,0,0],"split_type":[0,0,0,0,0,0,0,0,0,0,0,0,0,0,0,0,0,0,0,0,0,0,0,0,0,0,0,0,0,0,0],"sum_hessian":[9.07E2,6.84E2,2.23E2,2.09E2,4.75E2,4.1E1,1.82E2,4.6E1,1.63E2,5.4E1,4.21E2,3.5E1,6E0,9E0,1.73E2,4.3E1,3E0,9.8E1,6.5E1,1.2E1,4.2E1,1.65E2,2.56E2,5E0,3E1,3E0,3E0,4E0,5E0,1.1E1,1.62E2],"tree_param":{"num_deleted":"0","num_feature":"8","num_nodes":"31","size_leaf_vector":"1"}},{"base_weights":[-3.4894762E-3,-3.2572478E-1,2.26862E-3,-1.289896E-1,-2.8012145E-2,1.2861027E-2,-1.22905515E-1,3.0941565E-3,-1.3327599E-2,1.9866943E-3,2.3859425E-1,3.050364E-1,-2.0786141E-1,6.920018E-4,-1.3961092E-2,-1.4792551E-2,1.9548735E-2,2.9177598E-3,2.7099585E-2,-1.2467081E-2,2.1241343E-2],"categories":[],"categories_nodes":[],"categories_segments":[],"categories_sizes":[],"default_left":[0,0,0,0,0,0,0,0,0,0,0,0,0,0,0,0,0,0,0,0,0],"id":45,"left_children":[1,3,5,7,-1,9,11,-1,-1,13,15,17,19,-1,-1,-1,-1,-1,-1,-1,-1],"loss_changes":[1.6910646E0,6.6594195E-1,1.1895831E0,2.790641E-1,0E0,2.0295613E0,2.6083384E0,0E0,0E0,2.6371405E0,3.2103527E0,6.69801E-1,1.6543252E0,0E0,0E0,0E0,0E0,0E0,0E0,0E0,0E0],"parents":[2147483647,0,0,1,1,2,2,3,3,5,5,6,6,9,9,10,10,11,11,12,12],"right_children":[2,4,6,8,-1,10,12,-1,-1,14,16,18,20,-1,-1,-1,-1,-1,-1,-1,-1],"split_conditions":[-8.2E0,7.2696364E-1,5.5E0,7.03E1,-2.8012145E-2,1.36E1,-9.896398E-1,3.0941565E-3,-1.3327599E-2,8.31E1,1.9E0,1.7201575E-2,5.9E0,6.920018E-4,-1.3961092E-2,-1.4792551E-2,1.9548735E-2,2.9177598E-3,2.7099585E-2,-1.2467081E-2,2.1241343E-2],"split_indices":[7,4,6,0,0,1,4,0,0,0,6,3,7,0,0,0,0,0,0,0,0],"split_type":[0,0,0,0,0,0,0,0,0,0,0,0,0,0,0,0,0,0,0,0,0],"sum_hessian":[9.1E2,1.5E1,8.95E2,9E0,6E0,8.26E2,6.9E1,4E0,5E0,7.89E2,3.7E1,1.1E1,5.8E1,7.58E2,3.1E1,8E0,2.9E1,6E0,5E0,5.5E1,3E0],"tree_param":{"num_deleted":"0","num_feature":"8","num_nodes":"21","size_leaf_vector":"1"}},{"base_weights":[1.3715306E-3,5.5797108E-2,-2.7428312E-2,-4.9509765E-3,2.710896E-1,-2.321228E-1,-9.64354E-3,1.00769125E-1,-1.7165431E-1,8.911993E-1,1.2742557E-1,-3.8505128E-1,2.1560201E-2,3.2268923E-2,-1.6784683E-2,-2.4867894E-3,1.2897869E-2,-4.4848374E-3,-2.3199571E-2,6.538101E-2,1.7373202E-2,1.0735086E-2,-1.1251242E-2,-3.5227374E-3,-3.1074036E-2,-1.4339297E-2,1.9801605E-2,-5.968228E-3,8.4767974E-4],"categories":[],"categories_nodes":[],"categories_segments":[],"categories_sizes":[],"default_left":[0,0,0,0,0,0,0,0,0,0,0,0,0,0,0,0,0,0,0,0,0,0,0,0,0,0,0,0,0],"id":46,"left_children":[1,3,5,7,9,11,13,15,17,19,21,23,25,-1,27,-1,-1,-1,-1,-1,-1,-1,-1,-1,-1,-1,-1,-1,-1],"loss_changes":[1.4404477E0,4.1603394E0,2.185669E0,4.405647E0,6.1225605E0,1.8704789E0,2.6022263E0,3.632443E0,2.2824278E0,2.4891443E0,1.8324232E0,2.1876101E0,2.3074489E0,0E0,1.9020405E0,0E0,0E0,0E0,0E0,0E0,0E0,0E0,0E0,0E0,0E0,0E0,0E0,0E0,0E0],"parents":[2147483647,0,0,1,1,2,2,3,3,4,4,5,5,6,6,7,7,8,8,9,9,10,10,11,11,12,12,14,14],"right_children":[2,4,6,8,10,12,14,16,18,20,22,24,26,-1,28,-1,-1,-1,-1,-1,-1,-1,-1,-1,-1,-1,-1,-1,-1],"split_conditions":[1.6E0,3.6E0,1.85E0,2E0,4.3E0,7.265E1,5.91E1,-2.5E-1,6.76E1,6.615E1,9.8E0,6.6E1,-6.515304E-1,3.2268923E-2,6.79E1,-2.4867894E-3,1.2897869E-2,-4.4848374E-3,-2.3199571E-2,6.538101E-2,1.7373202E-2,1.0735086E-2,-1.1251242E-2,-3.5227374E-3,-3.1074036E-2,-1.4339297E-2,1.9801605E-2,-5.968228E-3,8.4767974E-4],"split_indices":[6,1,6,2,1,0,0,6,5,0,1,0,3,0,0,0,0,0,0,0,0,0,0,0,0,0,0,0,0],"split_type":[0,0,0,0,0,0,0,0,0,0,0,0,0,0,0,0,0,0,0,0,0,0,0,0,0,0,0,0,0],"sum_hessian":[9.17E2,3.17E2,6E2,2.48E2,6.9E1,4.7E1,5.53E2,1.52E2,9.6E1,1.2E1,5.7E1,2.9E1,1.8E1,5E0,5.48E2,7.8E1,7.4E1,7.6E1,2E1,6E0,6E0,4.6E1,1.1E1,1.3E1,1.6E1,1E1,8E0,1.35E2,4.13E2],"tree_param":{"num_deleted":"0","num_feature":"8","num_nodes":"29","size_leaf_vector":"1"}},{"base_weights":[1.8682756E-4,-1.4144474E-1,1.3401033E-2,-2.8255768E-2,-5.7828605E-1,8.673155E-2,-1.4741251E-2,3.2314327E-1,-2.1164918E-1,-3.302217E-2,-8.335167E-3,1.6212981E-2,2.4970007E-1,-3.0499602E-2,2.147389E-1,3.799604E-3,3.0606275E-2,-1.4035239E-2,3.637205E-3,7.819594E-3,-7.724698E-3,2.4511889E-2,-9.7028323E-4,2.9183018E-3,-4.1866535E-3,2.2903893E-3,2.955083E-2],"categories":[],"categories_nodes":[],"categories_segments":[],"categories_sizes":[],"default_left":[0,0,0,0,0,0,0,0,0,0,0,0,0,0,0,0,0,0,0,0,0,0,0,0,0,0,0],"id":47,"left_children":[1,3,5,7,9,11,13,15,17,-1,-1,19,21,23,25,-1,-1,-1,-1,-1,-1,-1,-1,-1,-1,-1,-1],"loss_changes":[1.7106196E0,3.8404186E0,1.7265221E0,4.1283817E0,4.3093395E-1,2.662167E0,2.194368E0,1.5247741E0,8.452554E-1,0E0,0E0,3.9246714E0,4.5406194E0,2.6871521E0,2.4519625E0,0E0,0E0,0E0,0E0,0E0,0E0,0E0,0E0,0E0,0E0,0E0,0E0],"parents":[2147483647,0,0,1,1,2,2,3,3,4,4,5,5,6,6,7,7,8,8,11,11,12,12,13,13,14,14],"right_children":[2,4,6,8,10,12,14,16,18,-1,-1,20,22,24,26,-1,-1,-1,-1,-1,-1,-1,-1,-1,-1,-1,-1],"split_conditions":[-9E-1,-1.1E0,1.6E0,-7.142921E-1,-9.5E-1,3.4E0,1.41E1,2.228204E-1,-1.7E0,-3.302217E-2,-8.335167E-3,2E0,6.2E0,3.3E0,8.285E1,3.799604E-3,3.0606275E-2,-1.4035239E-2,3.637205E-3,7.819594E-3,-7.724698E-3,2.4511889E-2,-9.7028323E-4,2.9183018E-3,-4.1866535E-3,2.2903893E-3,2.955083E-2],"split_indices":[6,6,6,3,6,1,1,4,6,0,0,2,1,1,0,0,0,0,0,0,0,0,0,0,0,0,0],"split_type":[0,0,0,0,0,0,0,0,0,0,0,0,0,0,0,0,0,0,0,0,0,0,0,0,0,0,0],"sum_hessian":[9.12E2,7.7E1,8.35E2,6.2E1,1.5E1,2.31E2,6.04E2,2.1E1,4.1E1,1.2E1,3E0,1.62E2,6.9E1,5.66E2,3.8E1,1.2E1,9E0,3.3E1,8E0,8.9E1,7.3E1,3.6E1,3.3E1,2.12E2,3.54E2,2.7E1,1.1E1],"tree_param":{"num_deleted":"0","num_feature":"8","num_nodes":"27","size_leaf_vector":"1"}},{"base_weights":[8.022852E-3,-1.1983367E-1,2.024833E-2,-3.8603467E-1,-1.2205116E-2,2.1408704E-1,4.4446E-3,-5.433344E-1,2.4848646E-2,3.241138E-1,-1.3706319E-1,8.149367E-3,4.7121805E-1,-2.1203957E-1,1.195347E-2,-3.126328E-2,-2.9646733E-3,-1.1010066E-3,4.523368E-2,-1.2212215E-2,5.1200413E-3,2.674678E-2,-4.703607E-3,3.2981537E-2,8.283058E-6,-2.1355262E-2,1.2082585E-2,1.1999006E-2,1.874079E-4],"categories":[],"categories_nodes":[],"categories_segments":[],"categories_sizes":[],"default_left":[0,0,0,0,0,0,0,0,0,0,0,0,0,0,0,0,0,0,0,0,0,0,0,0,0,0,0,0,0],"id":48,"left_children":[1,3,5,7,9,11,13,15,-1,17,19,21,23,25,27,-1,-1,-1,-1,-1,-1,-1,-1,-1,-1,-1,-1,-1,-1],"loss_changes":[1.4326694E0,2.2873547E0,2.5600295E0,3.4646513E0,2.4799676E0,3.3321965E0,1.2607117E0,7.5608635E-1,0E0,3.2351444E0,1.1286495E0,1.9888822E0,2.4849534E0,2.6401193E0,1.4005021E0,0E0,0E0,0E0,0E0,0E0,0E0,0E0,0E0,0E0,0E0,0E0,0E0,0E0,0E0],"parents":[2147483647,0,0,1,1,2,2,3,3,4,4,5,5,6,6,7,7,9,9,10,10,11,11,12,12,13,13,14,14],"right_children":[2,4,6,8,10,12,14,16,-1,18,20,22,24,26,28,-1,-1,-1,-1,-1,-1,-1,-1,-1,-1,-1,-1,-1,-1],"split_conditions":[6.02E1,3.634816E-1,6.2E1,3.55E0,6.300721E-1,6.465E1,6.25E1,6.465E1,2.4848646E-2,5.7518995E-1,9.4532007E-1,5.935E1,3.15E0,2E-1,6.265E1,-3.126328E-2,-2.9646733E-3,-1.1010066E-3,4.523368E-2,-1.2212215E-2,5.1200413E-3,2.674678E-2,-4.703607E-3,3.2981537E-2,8.283058E-6,-2.1355262E-2,1.2082585E-2,1.1999006E-2,1.874079E-4],"split_indices":[5,3,5,6,3,0,5,0,0,3,3,0,6,7,0,0,0,0,0,0,0,0,0,0,0,0,0,0,0],"split_type":[0,0,0,0,0,0,0,0,0,0,0,0,0,0,0,0,0,0,0,0,0,0,0,0,0,0,0,0,0],"sum_hessian":[9.14E2,7.9E1,8.35E2,2.2E1,5.7E1,6.2E1,7.73E2,1.9E1,3E0,1.5E1,4.2E1,3.5E1,2.7E1,2.5E1,7.48E2,1.6E1,3E0,1E1,5E0,2.9E1,1.3E1,5E0,3E1,1.9E1,8E0,1.7E1,8E0,2.5E1,7.23E2],"tree_param":{"num_deleted":"0","num_feature":"8","num_nodes":"29","size_leaf_vector":"1"}},{"base_weights":[-9.558354E-4,-4.0320795E-2,4.8882946E-2,-4.65356E-2,3.818502E-2,3.4180668E-1,1.5935527E-2,3.4172613E-2,-5.2191928E-2,5.2312595E-1,-2.0025744E-1,-9.008154E-3,1.8137509E-1,-1.3451767E-4,-6.207974E-3,6.9856115E-2,1.8979315E-2,6.6050217E-3,-1.707021E-2,7.961895E-4,-1.0923242E-2,4.784686E-2,5.420284E-3],"categories":[],"categories_nodes":[],"categories_segments":[],"categories_sizes":[],"default_left":[0,0,0,0,0,0,0,0,0,0,0,0,0,0,0,0,0,0,0,0,0,0,0],"id":49,"left_children":[1,3,5,7,-1,9,11,-1,13,15,17,19,21,-1,-1,-1,-1,-1,-1,-1,-1,-1,-1],"loss_changes":[1.8049587E0,2.603911E0,3.9128919E0,2.1456165E0,0E0,4.134514E0,1.5119958E0,0E0,1.8094194E0,3.3587189E0,5.6112313E-1,1.6693484E0,2.6126938E0,0E0,0E0,0E0,0E0,0E0,0E0,0E0,0E0,0E0,0E0],"parents":[2147483647,0,0,1,1,2,2,3,3,5,5,6,6,8,8,9,9,10,10,11,11,12,12],"right_children":[2,4,6,8,-1,10,12,-1,14,16,18,20,22,-1,-1,-1,-1,-1,-1,-1,-1,-1,-1],"split_conditions":[7.29E1,1.35E1,7.39E1,-9.9916553E-1,3.818502E-2,1.8809941E-1,3.6948368E-1,3.4172613E-2,6.64E1,-9.4355315E-1,7.03E1,7.94773E-2,-1.8E0,-1.3451767E-4,-6.207974E-3,6.9856115E-2,1.8979315E-2,6.6050217E-3,-1.707021E-2,7.961895E-4,-1.0923242E-2,4.784686E-2,5.420284E-3],"split_indices":[0,1,0,4,0,3,3,0,5,4,5,3,7,0,0,0,0,0,0,0,0,0,0],"split_type":[0,0,0,0,0,0,0,0,0,0,0,0,0,0,0,0,0,0,0,0,0,0,0],"sum_hessian":[9.18E2,5.13E2,4.05E2,5.1E2,3E0,4E1,3.65E2,3E0,5.07E2,3E1,1E1,3.18E2,4.7E1,3.01E2,2.06E2,3E0,2.7E1,3E0,7E0,2.85E2,3.3E1,3E0,4.4E1],"tree_param":{"num_deleted":"0","num_feature":"8","num_nodes":"23","size_leaf_vector":"1"}},{"base_weights":[-2.0244818E-3,-1.3614774E-1,1.6661871E-2,4.1828945E-2,-1.7059506E-1,4.5398572E-1,6.0692322E-3,-3.1491718E-1,-4.7483377E-2,7.3812865E-2,8.296278E-2,-5.5503315E-5,4.8135424E-1,1.4763221E-2,-1.8719763E-2,-1.9552821E-2,6.7039775E-3,1.1517129E-2,-1.8995866E-2,-5.4065906E-4,8.758818E-3,4.3001723E-2,-3.4666432E-3],"categories":[],"categories_nodes":[],"categories_segments":[],"categories_sizes":[],"default_left":[0,0,0,0,0,0,0,0,0,0,0,0,0,0,0,0,0,0,0,0,0,0,0],"id":50,"left_children":[1,3,5,-1,7,9,11,13,15,-1,17,19,21,-1,-1,-1,-1,-1,-1,-1,-1,-1,-1],"loss_changes":[2.2955096E0,3.8955934E0,3.7217054E0,0E0,1.9217303E0,7.0839634E0,2.2880685E0,1.9251666E0,3.7952404E0,0E0,1.1107987E0,1.4666076E0,2.1449718E0,0E0,0E0,0E0,0E0,0E0,0E0,0E0,0E0,0E0,0E0],"parents":[2147483647,0,0,1,1,2,2,4,4,5,5,6,6,7,7,8,8,10,10,11,11,12,12],"right_children":[2,4,6,-1,8,10,12,14,16,-1,18,20,22,-1,-1,-1,-1,-1,-1,-1,-1,-1,-1],"split_conditions":[-1.5E-1,5.78E1,1.5E-1,4.1828945E-2,-3.3323526E-2,-8.911529E-1,8.55E1,-9.980563E-1,6.395E1,7.3812865E-2,7.1504414E-1,9.88039E-1,6.3E0,1.4763221E-2,-1.8719763E-2,-1.9552821E-2,6.7039775E-3,1.1517129E-2,-1.8995866E-2,-5.4065906E-4,8.758818E-3,4.3001723E-2,-3.4666432E-3],"split_indices":[6,0,6,0,4,4,5,4,0,0,4,4,6,0,0,0,0,0,0,0,0,0,0],"split_type":[0,0,0,0,0,0,0,0,0,0,0,0,0,0,0,0,0,0,0,0,0,0,0],"sum_hessian":[9.14E2,1.11E2,8.03E2,3E0,1.08E2,1.8E1,7.85E2,4.9E1,5.9E1,4E0,1.4E1,7.76E2,9E0,4E0,4.5E1,2E1,3.9E1,1.1E1,3E0,7.32E2,4.4E1,5E0,4E0],"tree_param":{"num_deleted":"0","num_feature":"8","num_nodes":"23","size_leaf_vector":"1"}},{"base_weights":[1.2147779E-2,-1.1570992E-1,2.4076825E-2,-2.6964815E-2,-2.8234085E-1,2.1362887E-1,1.2754869E-2,-8.1073016E-2,2.0068847E-2,-3.4926617E-1,-1.0968291E-1,3.2237557E-1,-2.813434E-1,8.53527E-3,4.236263E-1,-6.5627615E-3,1.8335426E-2,-9.405832E-3,-1.9669134E-2,3.123108E-3,-1.702399E-2,2.9889574E-2,1.5420442E-3,-2.7934745E-2,2.6138406E-3,6.635026E-4,-1.998022E-2,3.281632E-2,1.3422295E-3],"categories":[],"categories_nodes":[],"categories_segments":[],"categories_sizes":[],"default_left":[0,0,0,0,0,0,0,0,0,0,0,0,0,0,0,0,0,0,0,0,0,0,0,0,0,0,0,0,0],"id":51,"left_children":[1,3,5,7,9,11,13,15,-1,17,19,21,23,25,27,-1,-1,-1,-1,-1,-1,-1,-1,-1,-1,-1,-1,-1,-1],"loss_changes":[1.3937869E0,1.1458259E0,1.7892685E0,1.2377346E0,2.736814E-1,2.6205492E0,1.3642836E0,1.1042535E0,0E0,6.1075926E-2,3.7884203E-1,3.1130018E0,8.619775E-1,1.5164806E0,7.2103035E-1,0E0,0E0,0E0,0E0,0E0,0E0,0E0,0E0,0E0,0E0,0E0,0E0,0E0,0E0],"parents":[2147483647,0,0,1,1,2,2,3,3,4,4,5,5,6,6,7,7,9,9,10,10,11,11,12,12,13,13,14,14],"right_children":[2,4,6,8,10,12,14,16,-1,18,20,22,24,26,28,-1,-1,-1,-1,-1,-1,-1,-1,-1,-1,-1,-1,-1,-1],"split_conditions":[-4.2E0,-5.1E0,-3.3E0,7.58E1,5.521013E-1,8.589526E-1,9.01E1,-5.3E0,2.0068847E-2,6.73E1,8.5840154E-1,7.045E1,6.415E1,8.78E1,-3.9629912E-1,-6.5627615E-3,1.8335426E-2,-9.405832E-3,-1.9669134E-2,3.123108E-3,-1.702399E-2,2.9889574E-2,1.5420442E-3,-2.7934745E-2,2.6138406E-3,6.635026E-4,-1.998022E-2,3.281632E-2,1.3422295E-3],"split_indices":[7,7,7,5,3,4,0,7,0,0,3,0,0,0,4,0,0,0,0,0,0,0,0,0,0,0,0,0,0],"split_type":[0,0,0,0,0,0,0,0,0,0,0,0,0,0,0,0,0,0,0,0,0,0,0,0,0,0,0,0,0],"sum_hessian":[9.11E2,7.7E1,8.34E2,5.1E1,2.6E1,4.6E1,7.88E2,4.6E1,5E0,1.8E1,8E0,3.8E1,8E0,7.81E2,7E0,4.2E1,4E0,5E0,1.3E1,5E0,3E0,1.9E1,1.9E1,4E0,4E0,7.73E2,8E0,4E0,3E0],"tree_param":{"num_deleted":"0","num_feature":"8","num_nodes":"29","size_leaf_vector":"1"}},{"base_weights":[8.732627E-3,-9.866231E-3,1.1615887E-1,4.3276963E-1,-1.4399248E-2,7.648972E-1,6.963697E-2,5.273953E-3,3.6684524E-2,-4.7960225E-2,4.940766E-2,5.8411807E-2,1.042894E-2,-3.0713862E-2,1.0243249E-1,2.0934509E-3,-5.018718E-3,8.309832E-3,-1.2606014E-3,2.0797973E-2,2.4112859E-3],"categories":[],"categories_nodes":[],"categories_segments":[],"categories_sizes":[],"default_left":[0,0,0,0,0,0,0,0,0,0,0,0,0,0,0,0,0,0,0,0,0],"id":52,"left_children":[1,3,5,7,9,11,13,-1,-1,15,17,-1,-1,-1,19,-1,-1,-1,-1,-1,-1],"loss_changes":[1.8413093E0,1.5833217E0,4.0512886E0,7.1051943E-1,1.6705376E0,1.775794E0,2.9338748E0,0E0,0E0,2.4101553E0,2.3484597E0,0E0,0E0,0E0,2.07036E0,0E0,0E0,0E0,0E0,0E0,0E0],"parents":[2147483647,0,0,1,1,2,2,3,3,4,4,5,5,6,6,9,9,10,10,14,14],"right_children":[2,4,6,8,10,12,14,-1,-1,16,18,-1,-1,-1,20,-1,-1,-1,-1,-1,-1],"split_conditions":[1.09E1,5.625E1,7.08E1,5.82E1,2.9E0,9.335419E-1,7.255E1,5.273953E-3,3.6684524E-2,2E0,3.3E0,5.8411807E-2,1.042894E-2,-3.0713862E-2,1.17E1,2.0934509E-3,-5.018718E-3,8.309832E-3,-1.2606014E-3,2.0797973E-2,2.4112859E-3],"split_indices":[1,0,0,5,6,3,0,0,0,2,1,0,0,0,1,0,0,0,0,0,0],"split_type":[0,0,0,0,0,0,0,0,0,0,0,0,0,0,0,0,0,0,0,0,0],"sum_hessian":[9.2E2,7.85E2,1.35E2,7E0,7.78E2,8E0,1.27E2,4E0,3E0,5.1E2,2.68E2,4E0,4E0,5E0,1.22E2,1.88E2,3.22E2,1.04E2,1.64E2,1.7E1,1.05E2],"tree_param":{"num_deleted":"0","num_feature":"8","num_nodes":"21","size_leaf_vector":"1"}},{"base_weights":[-1.9086818E-3,-2.4002582E-2,6.718088E-2,-6.173931E-2,4.365512E-2,2.4634828E-1,1.059477E-2,-9.422987E-2,1.3624693E-1,2.006902E-2,3.8439927E-1,5.6155827E-2,1.7127985E-1,-2.5694037E-2,2.9718297E-2,-8.077053E-3,-5.988981E-4,2.800079E-2,-3.693924E-3,5.5643353E-3,-2.6529755E-3,5.8423847E-2,1.2833487E-3,-1.1991724E-2,1.4002715E-2,-7.3615974E-4,1.143572E-2],"categories":[],"categories_nodes":[],"categories_segments":[],"categories_sizes":[],"default_left":[0,0,0,0,0,0,0,0,0,0,0,0,0,0,0,0,0,0,0,0,0,0,0,0,0,0,0],"id":53,"left_children":[1,3,5,7,9,11,13,15,17,19,21,-1,23,-1,25,-1,-1,-1,-1,-1,-1,-1,-1,-1,-1,-1,-1],"loss_changes":[1.3922157E0,1.7669427E0,2.2379732E0,2.8689501E0,1.9854182E0,3.2959664E0,1.7103115E0,2.1129985E0,5.651183E0,1.5601581E0,4.470392E0,0E0,2.3031034E0,0E0,1.4537317E0,0E0,0E0,0E0,0E0,0E0,0E0,0E0,0E0,0E0,0E0,0E0,0E0],"parents":[2147483647,0,0,1,1,2,2,3,3,4,4,5,5,6,6,7,7,8,8,9,9,10,10,12,12,14,14],"right_children":[2,4,6,8,10,12,14,16,18,20,22,-1,24,-1,26,-1,-1,-1,-1,-1,-1,-1,-1,-1,-1,-1,-1],"split_conditions":[7.745E1,4.4216815E-1,3.3E0,7.49E1,1.07E1,7.77E1,6.96E1,2.4E0,7.355E1,-8E-1,9.335419E-1,5.6155827E-2,-9.5E-1,-2.5694037E-2,1.41E1,-8.077053E-3,-5.988981E-4,2.800079E-2,-3.693924E-3,5.5643353E-3,-2.6529755E-3,5.8423847E-2,1.2833487E-3,-1.1991724E-2,1.4002715E-2,-7.3615974E-4,1.143572E-2],"split_indices":[0,3,1,5,1,0,5,1,0,7,3,0,6,0,1,0,0,0,0,0,0,0,0,0,0,0,0],"split_type":[0,0,0,0,0,0,0,0,0,0,0,0,0,0,0,0,0,0,0,0,0,0,0,0,0,0,0],"sum_hessian":[9.1E2,6.9E2,2.2E2,4.43E2,2.47E2,5.2E1,1.68E2,3.81E2,6.2E1,2.32E2,1.5E1,3E0,4.9E1,5E0,1.63E2,2.09E2,1.72E2,2E1,4.2E1,1.03E2,1.29E2,4E0,1.1E1,1E1,3.9E1,1.34E2,2.9E1],"tree_param":{"num_deleted":"0","num_feature":"8","num_nodes":"27","size_leaf_vector":"1"}},{"base_weights":[3.401165E-3,-1.7961593E-2,9.725163E-2,-2.9985618E-3,-2.0993164E-1,-2.756128E-1,1.247807E-1,2.5576672E-1,-9.482355E-3,-2.813508E-1,1.7842533E-1,-3.4727257E-1,-2.273755E-3,4.427658E-1,7.8462966E-2,-5.9875227E-3,2.1110572E-2,-1.2492228E-3,4.736805E-3,-9.10763E-3,-2.9021105E-2,2.330152E-2,-1.4879431E-2,-8.132212E-3,-2.0623969E-2,9.817959E-3,5.7135697E-2,2.2496157E-3,3.5398897E-2],"categories":[],"categories_nodes":[],"categories_segments":[],"categories_sizes":[],"default_left":[0,0,0,0,0,0,0,0,0,0,0,0,0,0,0,0,0,0,0,0,0,0,0,0,0,0,0,0,0],"id":54,"left_children":[1,3,5,7,9,11,13,15,17,19,21,23,-1,25,27,-1,-1,-1,-1,-1,-1,-1,-1,-1,-1,-1,-1,-1,-1],"loss_changes":[1.8382396E0,2.1450934E0,1.7793748E0,1.1668049E0,1.547951E0,1.8210703E-1,2.3070672E0,1.1131084E0,1.0977471E0,1.2589719E0,1.3708216E0,4.126382E-2,0E0,3.2250547E0,2.9179847E0,0E0,0E0,0E0,0E0,0E0,0E0,0E0,0E0,0E0,0E0,0E0,0E0,0E0,0E0],"parents":[2147483647,0,0,1,1,2,2,3,3,4,4,5,5,6,6,7,7,8,8,9,9,10,10,11,11,13,13,14,14],"right_children":[2,4,6,8,10,12,14,16,18,20,22,24,-1,26,28,-1,-1,-1,-1,-1,-1,-1,-1,-1,-1,-1,-1,-1,-1],"split_conditions":[7.536977E-1,6.081215E-1,-9E-1,-9.983151E-1,4.2E0,1.3E0,1.3E0,7.03E1,7.83E1,3.35E0,6.71E1,-4.5E0,-2.273755E-3,9E-1,6.0897464E-1,-5.9875227E-3,2.1110572E-2,-1.2492228E-3,4.736805E-3,-9.10763E-3,-2.9021105E-2,2.330152E-2,-1.4879431E-2,-8.132212E-3,-2.0623969E-2,9.817959E-3,5.7135697E-2,2.2496157E-3,3.5398897E-2],"split_indices":[3,3,6,4,7,7,6,5,5,6,5,7,0,6,4,0,0,0,0,0,0,0,0,0,0,0,0,0,0],"split_type":[0,0,0,0,0,0,0,0,0,0,0,0,0,0,0,0,0,0,0,0,0,0,0,0,0,0,0,0,0],"sum_hessian":[9.15E2,7.46E2,1.69E2,6.93E2,5.3E1,1.1E1,1.58E2,1.6E1,6.77E2,4.5E1,8E0,8E0,3E0,1.9E1,1.39E2,5E0,1.1E1,5.9E2,8.7E1,3.5E1,1E1,5E0,3E0,3E0,5E0,1.5E1,4E0,1.33E2,6E0],"tree_param":{"num_deleted":"0","num_feature":"8","num_nodes":"29","size_leaf_vector":"1"}},{"base_weights":[2.5833033E-3,4.3687934E-1,-1.1634119E-3,1.0757181E-2,3.024146E-2,-2.2530645E-2,6.811467E-2,-7.816723E-4,-1.3163751E-1,3.5088E-1,2.9867174E-2,-1.3828457E-3,1.00204935E-2,-1.0604688E-3,-1.6925482E-2,4.720728E-5,3.7952993E-2,9.134675E-3,-2.2512032E-3],"categories":[],"categories_nodes":[],"categories_segments":[],"categories_sizes":[],"default_left":[0,0,0,0,0,0,0,0,0,0,0,0,0,0,0,0,0,0,0],"id":55,"left_children":[1,3,5,-1,-1,7,9,11,13,15,17,-1,-1,-1,-1,-1,-1,-1,-1],"loss_changes":[1.5219249E0,1.6779876E-1,1.3752353E0,0E0,0E0,1.6847004E0,2.3580194E0,3.211936E0,2.6884716E0,3.7130392E0,2.2286239E0,0E0,0E0,0E0,0E0,0E0,0E0,0E0,0E0],"parents":[2147483647,0,0,1,1,2,2,5,5,6,6,7,7,8,8,9,9,10,10],"right_children":[2,4,6,-1,-1,8,10,12,14,16,18,-1,-1,-1,-1,-1,-1,-1,-1],"split_conditions":[5.625E1,-2.2E0,7.76E1,1.0757181E-2,3.024146E-2,7.52E1,-2E0,7.33E1,1E0,-6.2504965E-1,-8.3318293E-1,-1.3828457E-3,1.00204935E-2,-1.0604688E-3,-1.6925482E-2,4.720728E-5,3.7952993E-2,9.134675E-3,-2.2512032E-3],"split_indices":[0,7,0,0,0,0,7,0,7,3,3,0,0,0,0,0,0,0,0],"split_type":[0,0,0,0,0,0,0,0,0,0,0,0,0,0,0,0,0,0,0],"sum_hessian":[9.34E2,7E0,9.27E2,4E0,3E0,7.09E2,2.18E2,5.92E2,1.17E2,2.5E1,1.93E2,5.23E2,6.9E1,7.7E1,4E1,1.4E1,1.1E1,6.3E1,1.3E2],"tree_param":{"num_deleted":"0","num_feature":"8","num_nodes":"19","size_leaf_vector":"1"}},{"base_weights":[5.3429618E-3,1.5533728E-3,4.3431973E-1,1.0159223E-2,-2.1971329E-1,3.5883993E-2,-1.4230192E-3,3.8313097E-3,6.1791635E-1,1.4171413E-2,-2.9624644E-1,5.457282E-4,-1.4085255E-2,4.948299E-3,5.0664168E-2,-1.7772112E-2,8.869337E-3],"categories":[],"categories_nodes":[],"categories_segments":[],"categories_sizes":[],"default_left":[0,0,0,0,0,0,0,0,0,0,0,0,0,0,0,0,0],"id":56,"left_children":[1,3,5,7,9,-1,-1,11,13,-1,15,-1,-1,-1,-1,-1,-1],"loss_changes":[1.4851655E0,1.7293305E0,1.0694929E0,3.3588917E0,1.3932027E0,0E0,0E0,1.7545829E0,1.7463021E0,0E0,9.0416336E-1,0E0,0E0,0E0,0E0,0E0,0E0],"parents":[2147483647,0,0,1,1,2,2,3,3,4,4,7,7,8,8,10,10],"right_children":[2,4,6,8,10,-1,-1,12,14,-1,16,-1,-1,-1,-1,-1,-1],"split_conditions":[8.59E1,6.2E0,6.3E0,5.95E0,6.97E1,3.5883993E-2,-1.4230192E-3,5.5E0,7.72E1,1.4171413E-2,1.53E1,5.457282E-4,-1.4085255E-2,4.948299E-3,5.0664168E-2,-1.7772112E-2,8.869337E-3],"split_indices":[5,6,6,6,5,0,0,6,0,0,1,0,0,0,0,0,0],"split_type":[0,0,0,0,0,0,0,0,0,0,0,0,0,0,0,0,0],"sum_hessian":[9.13E2,9.06E2,7E0,8.73E2,3.3E1,4E0,3E0,8.65E2,8E0,4E0,2.9E1,8.45E2,2E1,4E0,4E0,2.6E1,3E0],"tree_param":{"num_deleted":"0","num_feature":"8","num_nodes":"17","size_leaf_vector":"1"}},{"base_weights":[-4.286215E-3,-1.5900536E-2,1.2413899E-1,-5.6029234E-2,2.5134554E-2,7.6865464E-2,3.9002493E-2,-8.143995E-2,1.1639632E-1,4.2987224E-2,1.6990308E-2,-2.2356836E-2,1.2264379E-1,3.516081E-2,-4.487376E-3,2.3878075E-2,7.625681E-4,-8.3853476E-5,1.9194406E-2,1.3637853E-2,-5.492417E-3],"categories":[],"categories_nodes":[],"categories_segments":[],"categories_sizes":[],"default_left":[0,0,0,0,0,0,0,0,0,0,0,0,0,0,0,0,0,0,0,0,0],"id":57,"left_children":[1,3,5,7,9,11,-1,13,15,-1,17,-1,19,-1,-1,-1,-1,-1,-1,-1,-1],"loss_changes":[1.3667617E0,1.3846235E0,2.2965894E0,1.8715986E0,2.813057E0,1.7819703E0,0E0,2.4815063E0,2.0018687E0,0E0,2.8292887E0,0E0,2.3682718E0,0E0,0E0,0E0,0E0,0E0,0E0,0E0,0E0],"parents":[2147483647,0,0,1,1,2,2,3,3,4,4,5,5,7,7,8,8,10,10,12,12],"right_children":[2,4,6,8,10,12,-1,14,16,-1,18,-1,20,-1,-1,-1,-1,-1,-1,-1,-1],"split_conditions":[1.28E1,2.228204E-1,3.9036822E-1,7.83E1,-9.713953E-1,1.9E0,3.9002493E-2,-7E0,-9.155459E-1,4.2987224E-2,8.4E0,-2.2356836E-2,5.15E0,3.516081E-2,-4.487376E-3,2.3878075E-2,7.625681E-4,-8.3853476E-5,1.9194406E-2,1.3637853E-2,-5.492417E-3],"split_indices":[1,4,4,5,3,6,0,7,3,0,1,0,6,0,0,0,0,0,0,0,0],"split_type":[0,0,0,0,0,0,0,0,0,0,0,0,0,0,0,0,0,0,0,0,0],"sum_hessian":[9.14E2,8.39E2,7.5E1,4.24E2,4.15E2,7.1E1,4E0,3.7E2,5.4E1,3E0,4.12E2,5E0,6.6E1,3E0,3.67E2,1.1E1,4.3E1,3.93E2,1.9E1,4E1,2.6E1],"tree_param":{"num_deleted":"0","num_feature":"8","num_nodes":"21","size_leaf_vector":"1"}},{"base_weights":[1.3509603E-2,-9.109058E-3,7.713334E-2,-1.9000097E-1,4.8434474E-3,2.7449965E-1,3.3557728E-2,3.4001645E-1,-2.7585757E-1,-9.858961E-3,3.8050312E-1,3.9408574E-1,-2.8300193E-1,5.8533844E-2,-2.881767E-1,2.7916336E-2,1.8351034E-3,-2.6035188E-2,-5.728655E-3,8.498863E-4,-6.023474E-3,8.028968E-3,4.8842862E-2,-1.2141061E-2,2.9589614E-2,-2.6322994E-2,4.6035494E-3,-1.9816462E-2,3.9674975E-3,-2.313756E-2,5.930384E-3],"categories":[],"categories_nodes":[],"categories_segments":[],"categories_sizes":[],"default_left":[0,0,0,0,0,0,0,0,0,0,0,0,0,0,0,0,0,0,0,0,0,0,0,0,0,0,0,0,0,0,0],"id":58,"left_children":[1,3,5,7,9,11,13,15,17,19,21,23,25,27,29,-1,-1,-1,-1,-1,-1,-1,-1,-1,-1,-1,-1,-1,-1,-1,-1],"loss_changes":[1.278609E0,1.6565956E0,1.9946722E0,2.2325544E0,3.3728435E0,2.9116433E0,1.5597178E0,4.4302487E-1,1.5594268E0,1.7487792E0,2.8596435E0,4.5509233E0,7.789876E-1,1.7263064E0,1.0490844E0,0E0,0E0,0E0,0E0,0E0,0E0,0E0,0E0,0E0,0E0,0E0,0E0,0E0,0E0,0E0,0E0],"parents":[2147483647,0,0,1,1,2,2,3,3,4,4,5,5,6,6,7,7,8,8,9,9,10,10,11,11,12,12,13,13,14,14],"right_children":[2,4,6,8,10,12,14,16,18,20,22,24,26,28,30,-1,-1,-1,-1,-1,-1,-1,-1,-1,-1,-1,-1,-1,-1,-1,-1],"split_conditions":[7.71E1,-9.753364E-1,9E-1,-3.5E0,1.09E1,8.31E1,6.3921165E-1,6.955E1,7.285E1,6.2E0,4.2180607E-1,-9.5E-1,8.56E1,-4.2E0,3.6E0,2.7916336E-2,1.8351034E-3,-2.6035188E-2,-5.728655E-3,8.498863E-4,-6.023474E-3,8.028968E-3,4.8842862E-2,-1.2141061E-2,2.9589614E-2,-2.6322994E-2,4.6035494E-3,-1.9816462E-2,3.9674975E-3,-2.313756E-2,5.930384E-3],"split_indices":[0,3,1,7,1,0,4,0,0,1,4,6,0,7,6,0,0,0,0,0,0,0,0,0,0,0,0,0,0,0,0],"split_type":[0,0,0,0,0,0,0,0,0,0,0,0,0,0,0,0,0,0,0,0,0,0,0,0,0,0,0,0,0,0,0],"sum_hessian":[8.87E2,6.55E2,2.32E2,4.6E1,6.09E2,4.1E1,1.91E2,6E0,4E1,5.87E2,2.2E1,3.4E1,7E0,1.78E2,1.3E1,3E0,3E0,1.5E1,2.5E1,4.73E2,1.14E2,1.7E1,5E0,8E0,2.6E1,4E0,3E0,7E0,1.71E2,9E0,4E0],"tree_param":{"num_deleted":"0","num_feature":"8","num_nodes":"31","size_leaf_vector":"1"}},{"base_weights":[4.7421493E-3,1.3514483E-2,-1.9286942E-1,8.699806E-3,3.6024868E-1,9.085122E-3,-2.5329772E-1,1.503644E-2,-2.6040846E-1,-4.999246E-3,7.032705E-1,-3.204131E-1,5.665488E-3,1.4098723E-2,4.6181475E-4,-2.0357104E-2,2.1415574E-2,6.4043435E-3,5.513183E-2,2.4187758E-3,-1.8241314E-2],"categories":[],"categories_nodes":[],"categories_segments":[],"categories_sizes":[],"default_left":[0,0,0,0,0,0,0,0,0,0,0,0,0,0,0,0,0,0,0,0,0],"id":59,"left_children":[1,3,5,7,9,-1,11,13,15,-1,17,19,-1,-1,-1,-1,-1,-1,-1,-1,-1],"loss_changes":[1.590506E0,1.4626106E0,9.287795E-1,1.4823593E0,1.9647585E0,0E0,8.728764E-1,1.3103366E0,2.195551E0,0E0,1.4667284E0,4.9264145E-1,0E0,0E0,0E0,0E0,0E0,0E0,0E0,0E0,0E0],"parents":[2147483647,0,0,1,1,2,2,3,3,4,4,6,6,7,7,8,8,10,10,11,11],"right_children":[2,4,6,8,10,-1,12,14,16,-1,18,20,-1,-1,-1,-1,-1,-1,-1,-1,-1],"split_conditions":[6.3E0,5.95E0,6.97E1,5.5E0,-5.476112E-1,9.085122E-3,4.4E0,-9.9716926E-1,7.67E1,-4.999246E-3,7.7E1,-9.980563E-1,5.665488E-3,1.4098723E-2,4.6181475E-4,-2.0357104E-2,2.1415574E-2,6.4043435E-3,5.513183E-2,2.4187758E-3,-1.8241314E-2],"split_indices":[6,6,5,6,4,0,7,4,5,0,0,4,0,0,0,0,0,0,0,0,0],"split_type":[0,0,0,0,0,0,0,0,0,0,0,0,0,0,0,0,0,0,0,0,0],"sum_hessian":[9.15E2,8.77E2,3.8E1,8.66E2,1.1E1,5E0,3.3E1,8.47E2,1.9E1,5E0,6E0,2.8E1,5E0,1.7E1,8.3E2,1.6E1,3E0,3E0,3E0,3E0,2.5E1],"tree_param":{"num_deleted":"0","num_feature":"8","num_nodes":"21","size_leaf_vector":"1"}},{"base_weights":[5.6198854E-3,1.9346474E-2,-7.730646E-2,1.167987E-2,3.3023795E-1,-1.3144785E-2,-3.2396087E-1,-4.1251615E-2,4.7209054E-2,4.4858776E-2,6.423416E-1,-3.9686527E-2,3.3347793E-2,-5.400012E-1,-2.0457539E-1,-9.686645E-3,-4.2294603E-4,1.9755507E-2,3.9419858E-4,-4.031434E-3,1.4230951E-2,4.2339243E-2,8.754569E-3,-5.497306E-3,1.2693755E-2,-1.3884666E-2,-3.124365E-2,8.851874E-3,-1.5907066E-2],"categories":[],"categories_nodes":[],"categories_segments":[],"categories_sizes":[],"default_left":[0,0,0,0,0,0,0,0,0,0,0,0,0,0,0,0,0,0,0,0,0,0,0,0,0,0,0,0,0],"id":60,"left_children":[1,3,5,7,9,11,13,15,17,19,21,23,-1,25,27,-1,-1,-1,-1,-1,-1,-1,-1,-1,-1,-1,-1,-1,-1],"loss_changes":[1.049866E0,1.8814768E0,2.0689158E0,1.4556608E0,1.6634753E0,1.92183E0,5.859151E-1,1.5534459E0,6.331298E0,3.539044E-1,7.114706E-1,2.1317158E0,0E0,2.6839733E-2,8.7974906E-1,0E0,0E0,0E0,0E0,0E0,0E0,0E0,0E0,0E0,0E0,0E0,0E0,0E0,0E0],"parents":[2147483647,0,0,1,1,2,2,3,3,4,4,5,5,6,6,7,7,8,8,9,9,10,10,11,11,13,13,14,14],"right_children":[2,4,6,8,10,12,14,16,18,20,22,24,-1,26,28,-1,-1,-1,-1,-1,-1,-1,-1,-1,-1,-1,-1,-1,-1],"split_conditions":[3.3E0,8.13E1,9.016342E-1,-3.7347654E-1,8.255E1,8.9212644E-1,3.9E0,6.78E1,-2.091735E-1,1.0837701E-1,1.24E1,7.4E0,3.3347793E-2,3.6E0,6.615E1,-9.686645E-3,-4.2294603E-4,1.9755507E-2,3.9419858E-4,-4.031434E-3,1.4230951E-2,4.2339243E-2,8.754569E-3,-5.497306E-3,1.2693755E-2,-1.3884666E-2,-3.124365E-2,8.851874E-3,-1.5907066E-2],"split_indices":[7,5,4,3,0,4,7,5,3,4,1,7,0,7,0,0,0,0,0,0,0,0,0,0,0,0,0,0,0],"split_type":[0,0,0,0,0,0,0,0,0,0,0,0,0,0,0,0,0,0,0,0,0,0,0,0,0,0,0,0,0],"sum_hessian":[9.2E2,7.9E2,1.3E2,7.72E2,1.8E1,1.04E2,2.6E1,3.1E2,4.62E2,1E1,8E0,1.01E2,3E0,8E0,1.8E1,5.4E1,2.56E2,4.6E1,4.16E2,7E0,3E0,5E0,3E0,8.2E1,1.9E1,3E0,5E0,4E0,1.4E1],"tree_param":{"num_deleted":"0","num_feature":"8","num_nodes":"29","size_leaf_vector":"1"}},{"base_weights":[-8.347376E-3,-2.9180676E-2,8.403421E-2,-1.4807322E-2,-1.8820788E-1,-1.24933794E-1,1.6320057E-1,3.3079982E-1,-2.4056386E-2,1.1098141E-2,-2.7653143E-1,-1.8133873E-1,2.6337696E-2,6.593819E-2,4.158598E-1,-9.057969E-4,5.1582534E-2,-3.917569E-3,1.0029556E-3,-1.1025636E-2,3.7501663E-2,-9.067748E-3,-2.411095E-2,2.5901688E-2,-1.2257365E-2,1.2274676E-2,-3.499817E-3,1.2086946E-2,8.306658E-2],"categories":[],"categories_nodes":[],"categories_segments":[],"categories_sizes":[],"default_left":[0,0,0,0,0,0,0,0,0,0,0,0,0,0,0,0,0,0,0,0,0,0,0,0,0,0,0,0,0],"id":61,"left_children":[1,3,5,7,9,11,13,15,17,19,